{"v":1,"inputs":13,"outputs":17,"arch":{"hiddens":[16,16],"bias":true,"activation":"TANH"},"weights":[0.09182228828871367,0.6565782051397183,0.3498867760752986,0.6099230614554481,-0.5008183300745235,-0.5359532105471241,0.20386320272052935,-0.6357054431158998,0.06138007589116275,0.5562600068543493,-0.40442568601292134,-0.23399444159702282,-0.1610040810045641,0.9823189493849127,0.5190218280698796,-0.355195777538406,-0.43092817683036133,-1.0782289180318447,-0.15475527905643965,0.31343063433801194,0.08890378654717886,1.4231546259609025,-0.5825786769708531,-0.11401799788124203,0.7027819933308398,-0.9167043885769804,0.37123874169022003,0.42033435924617035,0.7287446771305827,0.7569071242041172,0.46416300444718106,0.8914862261228509,-0.3586500214603084,0.2903501232928059,-0.10914420081366541,-1.7827773664566167,-0.0008452319312273748,0.15135253423583964,1.42339004842262,-0.22369341396819195,0.43299677227788336,0.5282682733528733,0.15798500626196108,0.7911022536671873,0.022279309987799138,0.7145818037913892,0.3842338737749148,-1.446696306940252,-0.04568447788195842,-0.23142635731163982,-0.5128182785387048,-0.37092602238828465,-0.35286667174484726,0.13804290877902928,-0.1538453130778385,0.5682917206004523,0.3536341886429327,-0.09076688370975551,-0.515385270627984,-0.5414286936481688,0.641705122372588,-0.5484628004189048,-0.8866612803299123,0.13855584996767795,-0.6988567749536895,0.46816101206170113,-0.15468990252192602,-0.7872550700786537,-0.9822443859611832,0.9362772419593038,0.43691246744000317,-0.07648050184939538,0.23952970649779262,0.46962819090505636,-0.9992542048059145,1.0672537030177507,-0.0029035122472614305,0.5247933059193264,-0.5329251287634379,0.4401598878904452,0.5011640371652673,0.26613267152827613,0.19053017353252513,0.13769390720132546,1.4113245188290753,0.5820412292512125,-0.3351637132934771,0.7049497075510548,-0.9443938161500872,0.3572182664317568,-0.2199281889216575,0.5011947343793435,-0.3245926307423749,0.59351845077958,0.3242917560155668,-0.7111800711845196,0.40607071686161045,-0.28898043523951655,-0.194233867668493,0.2631960594792621,-0.8036835550810665,0.3408901385406817,-0.5555263598410161,0.002101598707151411,-0.24318517084393151,-0.2333823011923088,-0.5404910619308216,-0.05456800236815876,0.660513773093811,0.10573704673548755,1.0371129791102758,-1.2158608317640884,0.4672543504093746,1.2557322541074345,0.7000798080036458,-1.0623957733396914,0.33322393050892285,0.266607407048093,1.2993844154651049,-0.5420304103928508,-0.20200913264165032,-0.12751413244219195,-0.2539119648408607,1.2953393988318547,1.3087461395860291,-0.6286810046773258,-1.0011385036455889,-0.20789630340118784,-0.6567491693903715,0.6618967175566002,-0.1346942523016142,0.1944027774475333,-0.4295878341844863,-0.844242714987885,-0.3734538052936138,-0.2515667463700214,-0.7880819195259066,0.24069690038409866,0.08410689322148561,0.5586712176737488,0.4196840352852035,0.5749805173274836,-0.12918313820423277,-1.5431831181230007,0.28375214969175844,-0.21110531041374944,-0.061491560377892225,-0.5084858750785748,-0.0835070203946407,-0.34386001509003317,1.0734672075754603,0.206243258204574,0.25281705356842354,0.10786834529677683,0.04550747218081939,-0.24256906079279644,-0.07044299826840895,0.4842646224100453,1.0285217452646107,-0.14496187607459923,0.39455089965104767,-0.6338861890960623,-0.4350900125302128,0.9221263115882619,0.02731028061955365,-0.6291725193865668,-0.7461290702611768,0.47255108886473596,0.1679459043750025,0.07739429652315966,-0.4323885435152545,0.22000683632142007,0.14328326324986523,-1.0962917580292835,0.606660530786863,-0.5293678060688076,-1.0422584359615474,-0.6279071925722092,0.17777313919004234,1.7039272533705503,-0.37144109100058553,0.5804917397108859,0.43378867555536876,-0.41334093871771166,-0.012022510656949419,0.22275561561850996,0.01773446521219335,0.9442183148484502,0.8375319785583127,-0.285900687578541,-1.3349270791390977,0.2760009175473467,0.45048346174845094,-0.12788242864820767,-0.11956161539734239,-0.45902729457338604,0.3377546026495925,-0.655569904074436,0.4201542377049414,-0.2350942206242827,-0.0892508919469597,-0.7282212388242113,-0.9396351376529475,-0.5411785136677729,-0.44647940073934467,0.12124821591591756,-0.02741393720470873,0.07458795558315469,-0.16628874130269844,-0.038729850998263954,1.0717737518072394,1.193447625990081,0.8488681461187751,-0.3722045101822664,-0.3612131147453826,0.27895484931939196,-0.4514112382094506,-0.2135688728261339,-0.8008142058384143,-0.070526294414848,-0.29671236997759215,-0.034904582008085036,0.46142776065949853,0.4843668497987551,-0.1538760425688596,0.5481973721442809,-0.12725181844294176,1.7109443837454024,0.28097764259215346,0.4219588038504261,0.5105734721096776,-1.0158281268613167,0.09762912575795708,0.10279014229216613,0.4331962434045177,-0.052319916691855615,-0.6750176661520007,0.1940414780614908,0.2946049806506066,1.3078206122914715,-0.8131420491108904,-0.9611163004849221,1.2221553512043515,-0.16692156099073274,0.09289952455000225,0.6855206255014622,0.78795924968345,-0.9746570495944588,0.27511753802414307,0.228118450516905,-0.06106279353966214,0.39391201300177475,-0.17093701735743924,-0.6139297436326248,0.7680123783908286,0.37941775366371205,0.4914118922730286,-1.1191364073153451,0.4998151939914193,-0.19649999196651066,-0.7878781550000483,0.3089009721023272,-0.009407556326789272,-0.4822700529878773,-0.4226007950009658,0.5480086563287503,0.2852489252327713,-0.46074149567630174,-0.6533382873885485,-0.7192648288143751,0.027367200008457136,0.7687546355964875,-0.4309696766377404,0.00038223710224381254,0.12198165963669833,-0.7199039024318555,0.10116394456459304,0.49296363161926304,0.44378290069687737,-0.06810178875018101,-0.282901539063002,0.18006509513044586,-0.5263603927400504,0.7997646066254114,0.8428393847090978,1.4638119668828158,0.9079724843742571,0.3712732614625791,-1.1067294025651238,-0.5398191035869859,-0.3791242000296347,0.2809935671030145,0.07375262663394912,-0.5151952979832541,-0.17751442291200187,-0.5990450900890073,0.8658684495957936,0.20972905531599598,0.5969478394095762,0.21989425214039685,0.2348540575594137,-0.6980371778398861,-0.8133761330243546,0.5787518343665627,0.8953488318950936,-0.6212690264976325,0.18876601252627928,0.18584068557390662,-0.48590997641704015,0.3441105197957466,0.8193037931931266,0.05009615921173964,-0.2671778749551432,-0.29539986242090843,0.7605614974839487,-0.192328034975866,-0.833061821464648,0.24306998495162185,-0.7371399944003245,0.008884195038850101,-0.09891973108967737,1.0798086209931161,0.49820584908056187,-0.34415605424721235,0.18150185476192404,0.2965221460855917,0.3259587910231003,0.04463555611179438,-0.8962319376030158,-0.3129273773473133,-0.29779267385396074,-0.06196489979807349,1.1571196805413184,-0.17687638602868824,-0.3447299334786372,0.45590399639261,0.14782746727490584,0.5007289120068509,0.5985292175576751,-0.7882960475853414,0.38237033199727505,-0.5760051034704939,-0.11659548034607203,-0.47429297246285723,-0.7147591093576441,-0.11755311556525953,-0.29149709762701564,-0.6616927806904297,0.4351068134459088,-1.1362836010695645,0.33145020093060584,0.5383387703217218,0.017102081453432144,0.9653779168259475,0.09958661487799733,0.44401625975168774,-0.7845183891859403,0.622149065193708,0.8221153269228871,0.46973302325427635,-0.11531072074935077,-0.26012246856235516,-0.49199451290302054,0.0417913325420365,0.11770761176413905,-0.9933991229945038,0.1147287462289296,-0.08134272322847598,0.3343170657127952,0.4533077489680928,0.7524136977453167,-0.14800854165074492,-0.8137245799451859,0.22752188000896062,-0.7334493888399989,-0.8365861382132063,-0.031184688588839358,-0.42165873676731386,-0.0788225072165974,0.664852143311427,0.9272572530318727,0.03653395046440855,-0.6603368124873579,1.5926489626701001,0.8502707226405724,-0.05902666050347515,0.6063861123643377,-0.12480839209603242,-0.8159925146775747,0.5104791327877024,0.12386349550584116,-0.4195558580302991,0.39753097674635385,-0.6541226119538319,-0.17284395614996848,0.6200833934101143,-0.18245931173675728,0.5951097766991669,-0.04017131626028674,0.12933990369182258,0.6577206751807522,0.1882298848668721,0.33019304944774636,0.421622889228618,-0.8522235300309057,0.024447913354452358,0.32330501301349085,-1.37627451384891,-0.5398346614924816,-0.6601096827023746,-0.6162016075634411,-0.450005611886629,-0.38161565567552685,0.41994020482555944,0.4770630395122782,-0.11950114805376992,-0.43654942576606526,0.4973177916369248,0.053595486365936806,-1.5166982975024685,-1.06625719116,0.9535175866366226,-0.029571805510221094,0.39776425770596907,0.4459020909299311,-0.5403491899655926,-0.4787046253248831,-0.9443401345557452,0.2677607134676185,-0.6807277629661775,-0.22759464796573076,-0.9768547114573786,-0.2778713704554661,-0.23561709328485933,1.0194529501692362,0.02027187576292201,-0.6694875643921719,-0.5431144988395251,-0.2337029138319409,0.5347556609766781,1.1879962140418536,-0.1520332661663573,-0.22360794098558537,-0.43093878247802725,0.12947569865639771,0.31277990318997534,0.3002633030082269,0.2580399488090562,1.0531098625962996,0.8309893830312572,-1.722835221071584,1.685246224771204,-0.08515727902845828,-0.7818565761647117,0.3386579817021317,0.8966440190392309,1.23302280785889,-1.7356980163940445,0.009595599447568938,-0.24359377108675861,-0.2346846787261893,-0.862103925530033,-0.4260735620703479,-0.18506410412987284,-0.6278287115667548,-0.23245007607437954,0.48884911530004566,-0.6077678061647119,-0.3803710207064386,-0.9690287349921346,0.6216872750379743,-0.7143495175467528,0.7984528549554024,-0.276385348484036,-0.5038558539545545,0.7272045805477831,0.5206139576529678,0.09065626247988037,-0.1549906856681853,-0.5190223450060238,-0.23905490270145696,-0.6472288662923877,0.13999258801913583,-0.9942045103565148,0.05437564726049704,1.1217596112261137,0.20572828865901713,-0.2930771774958893,-0.5990160783859675,0.03717906191717996,1.256636077604378,-1.0404129966379518,-0.7940378790067685,0.08658205686002313,1.0877311761141413,-0.17697752090618749,-0.2804391460022548,-0.7403261791307968,0.7106384521878255,-0.46069592885202093,-0.8837015378647848,-0.6709668769101744,-0.1871108134773513,-0.9574264734070558,0.06881786730211548,-0.2845070924460585,-0.40759761462542726,-0.1598483533233569,0.5422461605983645,-1.1948253654148986,-1.1391578360610985,-0.04427157701440215,-1.3491500611639342,-0.647139749594243,0.6701081620134799,-0.6553969986923674,-1.5761930889271367,0.24526309121139914,-0.5040865462057591,0.6273345886435255,1.001297294994177,0.5054599094039031,0.27936520003283866,-0.02932790193220699,0.47204325480388704,-0.18390098682060552,-0.34966127533893643,0.6718340658932619,-0.43811238807464614,0.7802805652418388,-0.14126024877919505,-0.040257684925210035,-0.014883837819159064,0.5878662200114416,0.24698656511442,-0.5894034496069123,-0.12137314701957105,0.7992003971156841,0.992664498135612,-0.5758535143698978,0.17944023335545886,0.2858138247536667,0.7576573254701988,0.28396743906482674,-0.43631933958681196,0.8296375678526752,0.29136163662143666,-0.6995473624731372,-0.9164515438711699,0.18436253413745998,-0.5685412475901364,-0.07385065266704417,-0.9545104864002805,-0.4349326483732397,0.3469825257351567,-0.7974410656650025,-0.13609290261817364,-0.4028921378096883,0.06832566743101426,-0.01104798822396374,0.43795978788778717,0.4518578939516927,-0.7231132645615753,-0.6768132230856805,-0.87410892927887,1.4800659565342738,-0.7993779867535523,0.4109585474797212,0.9569296551077107,0.3197941867114709,-0.7946766699868586,-0.23179136736379968,0.2992898164177399,0.2925977170872615,-0.029617992533998563,0.07973035387842943,0.30670892292945146,0.5940658235920339,0.16957275999346375,-0.9066661706627127,-0.617706583858304,1.4498518603750363,0.9697477560424236,0.1344354721624546,-0.5147555207848054,0.3503852638449083,0.03626055044811133,0.5728781329170605,-0.3096574371117173,0.605656420284579,1.1631234377695667,0.2794462411501856,0.18938896659961788,0.20498066385417354,1.0128185570455486,0.37589736383427996,-0.3542577966111997,0.2668704518419754,-0.6190455600372592,-0.36287321518414173,0.043952656470183184,0.008971838647619329,-1.1895178852125656,0.20198951998322603,0.17291190281552618,-0.20018184533779923,-0.26352038350306134,-0.40085089057259765,-1.0013418866615529,0.161558913459935,-0.18870839099586334,0.3660965196740326,-0.2299757740968387,-0.14744402104820348,0.4524958533673357,-0.6506249323606689,-0.2535679967315687,0.8851946673064827,-0.9701945987071336,-0.47743624511077826,1.476923032250931,0.44118390543952646,0.17211559547758618,0.40988135173041335,-0.5806622416555935,1.100630569981851,0.1899574704377485,0.8193634649712582,-0.7820466195719475,-0.19516767009668806,-0.4778007613204718,0.09934882313020395,-0.5192328086149941,-0.26691047669659557,0.2550350950140584,-0.7005074187307331,0.24294036869937274,0.21729893039880338,1.5708508273349902,0.25438044893819994,-1.155717786283703,-0.3900011630059102,-0.124543125517012,0.7337249812046457,-0.6045077791647929,0.16373857727775526,0.9119296019258757,0.20565643312428095,0.7853092547295895,0.39186650380112115,-1.3303930453528927,0.6029586439585537,0.5768209341610593,-0.14906943676421927,1.1490502507896583,-0.5218288277089533,0.2045621346904241,0.8434654468905906,-0.3812879181889696,1.1754241080483137,-0.5447953931772793,-0.5387538246817709,-0.03978930697623608,0.298488213632558,0.32018445660739375,0.09938895840264077,-0.6038491297029116,-0.09219843102881473,0.6269321653105646,-0.22451306501276347,0.4810607877199512,-1.398654859382812,-1.248423819967616,0.17001977554238895,-0.3317584179067956,0.6843825944311726,-0.6576044954039381,0.09647305782011231,0.17254250436511287,0.07278493944612312,0.6712884801452842,0.6648022259456609,-0.9742773490217193,0.7508415289287071,0.13929803327029838,0.0867740373588481,-0.3178190840147154,0.05972451748288551,0.14559361974352536,-0.21292406852328358,1.3502044098894757,0.6626786780683154,0.08012340657209607,0.3612143581751412,-0.1510130412370925,-0.7037015953032147,-0.30282077497559495,0.4722910441166339,0.5557898450879885,0.23731933206875921,-0.34405586053404097,-0.30056042725178955,-0.35639067125790924,-0.252115378643525,-1.297339134638037,-0.09403266702523219,-0.3244106800047343,0.11941973098411267,0.4728520200523643,-1.4030018893953333,-0.8751800629059691,-0.5926536500535972,-0.8229885612362405,-1.152700438921314,0.4347890527047115,-0.5868122283818797,0.2662837161180993,0.7609050931552845,0.8451077042733824,-0.09649378710289191,-0.07289976220587115,0.8330318001976876,-0.02404934195203673,0.7920807798779324,-1.2426232408633573,-0.2805803830846094,-0.4295115738058975,-0.6626637480334798,-0.31935106186141604,-0.61422067142343,-0.3763478722227208,0.11003530054172947,0.009810811920847626,-0.1169923533952449,0.1771614695661587,0.36952612337681334,0.2626199737926575,0.5324694475314229,-0.37587456568124394,0.4771815776379025,1.2667859538264494,-0.07940058894644772,0.08071871911539272,-0.24282324545901646,1.161175129729068,-0.5813977442391853,-0.2152343251117068,0.0908191558269246,-0.5565095389308802,-0.43850002867091525,-0.6335427163350938,-1.0852920718296641,0.11512453905328254,0.20640319635711726,-0.6759886900994814,1.2548041659049525,-0.2568942493700518,1.046017286270524,0.7119251581883433,0.9520004737183176,1.0202906963471592,-0.872140726474533,-0.2264572980056318,-0.19345613612679943,-0.1736010598037037,-0.1347527271932479,0.26332919988948833,0.18827842632556988,-0.6657052456079454,0.9416597115565176,-1.0449964749862501,-0.0865616078484455,-1.229322961462,0.5833161556545752,-0.1260987801305127,0.14834133476282393,0.3547724718671323,-0.4143572157683965,0.07835364415294994,-1.0839931449600149,-0.3677389969469965,-0.09361336493203805,0.7281752829639438,-0.35283411124809533,-0.606412314095302],"fitness":14.837948833333334}