{"v":1,"inputs":13,"outputs":17,"arch":{"hiddens":[16,32],"bias":true,"activation":"TANH"},"weights":[0.8887503772494254,-0.454452118900539,0.22825792022997374,0.3834866283445599,-0.33528126630724664,1.3147262117266192,-0.6671593690270777,-0.18477468292773033,-0.26729817068546363,0.7168642093221504,-1.1417812337387276,-0.37050877277769817,-0.6984219090660844,-0.797869917469983,0.08601332252955093,-1.0558959116873623,0.6155614836452366,0.7436795192574004,0.47363837553140165,0.24449780092984766,0.6327729994523124,1.384814026654251,0.6616061887253617,-0.7233831753482097,-0.5008926652757137,1.4531827227633256,-1.1672193909532016,-0.32398513774815113,-0.17592364381434336,-0.2029667954134941,0.3142535931247335,0.10561485188795712,-0.6997582065634427,-0.3411124911645153,0.8114909118879772,-0.8641147671237774,-0.650821472323362,-0.03197891883936307,-0.044893777087291274,-0.10559443647766927,-0.2864538167603369,0.1023156375409119,0.0834433632964478,0.2064743935395234,-0.3188425825246989,0.5286285218530311,-0.289622277740709,-0.21231625174915236,-0.48234960479724215,-0.443549404204306,-0.0902701156107292,-0.4887917235687987,-0.014942046453516655,-0.22613628482364614,-0.06414489413812124,-0.14433728131097046,0.15618305367066854,0.25112551874000166,-0.596230627418685,0.1517105928769266,0.2890270447745427,0.3249532195372491,-0.06058422448466537,-0.7993076890648447,-0.11250700410811351,0.8872820314430088,-0.19415307399079937,-0.058675607825728684,0.5974966197502133,-0.4921436868563024,0.15042683876515248,1.2756777416342844,-1.1617335076754367,-1.0244528805015176,-0.9991841855917576,-0.6655673440728829,-0.2432375960278949,0.6200198902284871,0.09062968840049455,0.6054662591899975,1.1407863314435347,0.34415433630320846,-0.0788363255913057,-0.3053273725623694,0.05597782389599035,0.1880189656575017,-0.05637583931077916,0.7669808198898237,-0.3451868184769452,0.7481606626558085,1.2494102332028019,0.45258364496755943,0.284720428662734,-0.0008528614145332064,0.16375937903069163,-0.9718453415019437,-0.3196323857463853,0.004072879694334903,1.1616591696196883,0.7382197447135233,1.1611158334146587,1.2179890047354553,-0.15657908445661006,-0.2155178097697896,0.8542050266482554,-0.7683041086162276,0.29447836722374987,0.1273355497297122,-0.18472537310557013,-0.1736760763481494,0.5538930816716837,0.43159407561768165,0.8281932287529935,1.0272782029224439,0.9777593311962347,0.2003026175622083,-0.9927510413110173,-0.2571240617708139,-0.5728434220705954,-0.7417798043980607,-0.07362107416056701,-0.6055854004278728,-0.0674409148558637,0.7563958569733681,-0.17517639028247434,0.052743806280978446,-0.00542671521059495,-0.3391519468691152,-1.5770923736609543,-0.05083411914171757,0.04729086567950957,-0.5965557973707096,0.33052873812198935,0.8238908125342264,0.5657995808735078,-0.6584781189682841,-1.29148725636755,-0.423847514128898,0.2840179960703367,1.0732829949767453,-1.6857981486311993,0.5056989588538,0.48059308972257425,0.6183211878866212,0.24386214906811748,1.317700522365016,0.93520893026141,0.6475206649141025,0.443783774976231,0.0714121239569529,0.1390934058347354,0.3908931235468947,0.48115453937053376,0.9168442914530996,-0.7540070573043222,0.6109741832183198,0.5000850703868741,-0.186031943132429,0.7638615471385304,-0.46423772288113574,-0.8995181797574346,0.2901033010406419,0.5660669087659456,0.15047642370620734,-0.26049986364372835,0.12395407385300428,0.33482218561242055,0.9138442372876353,0.6352111257567697,-0.5059059109176712,-0.6734417812332043,-0.2850769402539474,-0.8105311574188596,-0.8269768758550936,-0.06957703629599316,-0.43198141052643385,-0.409216168226949,0.6442689617505754,-0.13929883996776402,-0.8711556052846051,0.27713669095941407,-0.049469247844502774,-0.2661391105091905,-0.27993663583195594,-0.05152699634906088,0.04277466420763014,-0.681279601118461,-0.3800313705738104,-0.31246568864915697,-0.7335960270930939,-0.6143201273026043,0.4483440745476013,-1.0607878472428365,-0.4786762813037079,0.7655400972425339,1.6201708346594679,0.7878793687625963,0.6837972760207851,-1.398595732966733,0.07079448087933506,0.15277337732714813,-0.8023104497626736,0.12940861516538818,-0.5624221467647931,0.8785130203564026,-1.1599024689376776,-0.781706601153906,-0.20211017391777247,-0.1310547832088319,0.32646440929388654,0.26175862334019584,2.08803470787617,-0.30997049955014194,0.6413939772521859,0.1532982974240043,1.1223141167890445,0.40737594460798193,-0.11244547182113311,0.11328383890129012,-0.07872391989127664,1.2452851329780446,-0.06748585732459524,0.3667500686058142,-0.8828038840815959,-0.202154446894623,-0.7760485107425179,-0.20060372357064885,0.04906660776169264,1.2498989498079234,0.22122180023587734,-0.27244133256427666,0.7223105364317741,0.6085323439625542,-1.4702764849353964,0.23884207831851012,-0.8178598912443205,0.7996019700016224,0.5284891759425899,-0.28043837791963216,0.04483396335357909,-0.7383257288682487,0.4384437939744855,-1.4862473282805242,0.7815450796031452,0.5925615947186305,0.0457076921373718,1.0499345430873652,-0.11167643846549939,-0.2393489753475111,-0.5437375288589696,1.1474612361236913,0.25304566431388237,-0.5206126638353799,-0.021752481530315195,-0.5549710335700782,0.08593458557345024,-0.1443869600182373,-0.5692405959695281,0.6522785097364635,0.01551954446333137,-0.5755624030869422,-0.9554127429881758,-0.682184205904686,1.24063840438007,0.4313835600979376,0.7572375910222763,-0.15590577260058897,0.3153129011946276,-0.24722128513259856,-0.31104250152185514,1.324948564512891,-0.7253395841571961,1.48593058364354,-0.5720544653690115,1.3387511164058636,0.37961559471570955,-0.4300779024158216,-0.007710877588004176,1.703570947011468,0.3745941866939895,-0.0196523096331232,-0.11107792231625985,0.5358965957436996,-0.9734408768525857,0.28905307145976583,0.1565573749992342,0.4247886647746717,0.721788900052006,0.8677822803758711,-0.6042161378195334,0.1287593832247904,-0.0962185074925788,0.27363842290059615,0.6025978133620513,0.04983076385148895,0.45594396567209694,0.42771373785543426,0.14512398776634225,0.2889623523540558,0.6047344104994082,0.7351450920095507,-0.26656578694532274,0.7576287229985335,0.15051364413082644,-0.1729905958818135,-0.6361412566475639,0.9509681746005741,-0.5924337641212584,-0.030033240386902083,-1.5226443913186616,0.32097689251392536,0.36015522867203337,0.022948835845934917,1.1937465810516004,0.1297291851780885,-0.6322481490141049,-0.44531051287903267,0.3252446661118433,0.9495830491268602,-1.2273938948210783,0.060094758966769135,1.2977087133872725,0.44507683105784496,1.072117147063935,0.3396563849187364,0.7079961404880234,-1.8524576444593788,-0.5389384667274396,-0.2781435325416555,-0.6450683076627871,0.3220339907948397,0.5300736345072166,-0.6682602815129266,0.6788813176759502,0.49592290515967835,0.7811420616032081,-0.08197905975170239,-0.4715887355103867,0.008049157836137563,1.2939806879983229,-0.7191916982054252,0.00022462706295095503,-0.4833883672888521,-0.11514278995095226,-0.11367512329798415,-0.30593106909006507,-1.0283623880942636,-1.9485915795994133,-0.8467257893746488,-0.24530034200716166,-0.1785541952241854,1.0754231762159079,1.1459971496729795,-0.421496039457335,0.14625042749984296,0.38257457364498565,0.5283011377229415,-0.8708275055940222,-0.23382863765449813,0.9091298859371932,0.6557469190148173,-0.012542007755485527,0.3203800756597554,-0.09037280767300958,-0.025402332822117093,1.0782007485228864,-1.1699182606479643,0.11914287860942444,0.8703506022232053,-1.008213257166715,-0.5565737288852687,0.16668249014886816,-0.4808267498374339,1.0829657331337685,0.0738988263571782,-0.689151162047618,-0.6315619503528175,-0.874503816182935,-0.29697617201830073,0.2910326163332191,-0.5688039076603056,-0.5344847100784811,-0.37715084859733455,0.5263436141200701,-0.29936412096008647,0.36900754964676324,0.06195790573939569,0.3266751770867196,-0.07778911756959972,0.136290146635835,-0.34565819619707383,0.761638600954525,-0.30642423064876667,0.3199244392406655,0.013034545559888646,-0.23122024933238794,0.01704891632829119,-0.2746076053273537,-0.2666553520729755,1.5200314565517656,0.2873537473515898,0.9687191910062389,2.0820515518974076,-0.1296508533358036,-0.43093225020641085,1.1113479028854774,-0.17908655160867099,1.0213246521277626,-0.307685576536649,1.574160687403638,-0.3739845317075866,-0.27107079086702013,-0.05247198802553368,0.11020125874860542,0.5505012371470992,-0.01742532015675241,-1.269017933919843,0.016059115417347128,-0.30630299322207044,-1.171962119846153,0.9311522037923514,0.6738877592982581,0.30446579823193975,1.4797583057879504,-0.34438842696652244,-0.2781102975062089,-0.7144551353905005,0.8197277099381729,-0.24431165572600277,-0.3128577551554372,0.23289378090972684,-0.17792322857302212,-0.37051445194999066,-0.5654126150025086,-0.6589728196244612,0.26439699280090495,0.3535807706072495,0.7632268444009203,-0.5484669910374175,-0.26153871957781594,-0.11404233213767015,-0.5941003155187383,-0.06600399427017178,0.6912085566190205,0.411936935321366,-0.6123063170680151,0.05192672805544179,0.4384444155711051,-0.8047289464346046,0.7359668463020665,-0.18996520523987775,-0.7519717203599234,0.6121736674658621,-0.7172193927421759,-0.2377821866588347,-0.7076836984062045,0.49259036481438434,0.10706424494480637,-0.5900209901000713,-0.8686423537352801,-0.45511382379022647,-0.1177558522280941,0.47873689097110567,-1.5492112932818083,-1.3927377775414227,0.45372254156756586,-0.3211941600836189,1.12492934526249,0.4078646126830923,0.1981739145389172,0.9595213976440966,1.5822152064286634,-0.4832518676350448,1.340366269568556,0.3421792043546465,-0.19377564336771785,0.14925413981045854,-0.8211943921497787,0.3493845404265321,-0.4483837729642205,0.6392119658970338,-0.2867288386276735,-0.0595883888445708,-0.6320163595901717,1.2421509450632144,-0.4084541160419284,-0.6637774749040944,0.359991567611089,0.31226849450952077,-0.08680171463185725,-0.6416525329838361,0.026374717985987704,-0.36191685295073156,-0.33835265864426695,-1.0880001628854516,-0.05054376872638251,0.3521727181109407,0.9438360434850127,-0.12528268261273834,-1.342417944020126,-0.39234830646057267,-0.5003474588957376,0.4434011811598216,-0.21117917330529817,1.0307495641435789,0.05202470803897818,0.519232961528122,0.17428929455014183,-0.3763834416051166,0.004378592177466524,-0.4524240132062654,-1.0431158790585893,0.1131318925152536,1.4987788996651719,-0.21604095834259618,-0.11680687439723098,-0.3321228714413193,-1.283325982340782,0.12542710379071365,1.2707276999093626,-0.46654512964955097,-0.7361508515037377,-1.0127452281129423,0.38586982558564764,-0.6298250653507345,-0.8007064496251061,0.6189359316587024,0.7629607905810345,0.949199696326015,-0.7602576193061281,-1.6317202200481453,-0.6002810303372754,0.8466555243492097,0.02984098735751048,1.3772148089852332,-0.5561133458169649,0.7009711759581103,-0.26908832277010003,0.7938365459004029,0.5257255637123682,0.5370129553033397,-0.1981406147718285,0.6527390733970848,-0.34515038777383367,-0.6643046243092275,0.6908495490090518,0.1537946273602595,-0.051216713008524005,-0.5998759580771239,-0.03382007461973546,0.7773645971171937,-0.19667516265217416,-1.3614150532445528,-1.503183656630293,0.37158747847789037,0.5330341741049398,0.8639851154137227,0.40183001616096875,0.33038784186461373,-0.5522872569952505,-0.5230289404004476,-0.6673624756055916,-0.7232933544788293,-0.5856701866241782,-0.09703742775333209,0.45926604071128474,0.1973463493849732,0.3069954278066519,-0.10283059583542187,-0.0842267510402759,0.9645465610412766,0.4122734337346298,-0.9870570570153268,-0.0486876447282004,0.010173894875170897,-0.8784455084964732,0.10629407807216942,1.3609200239176789,-0.3701126603716703,0.10301139610349094,0.5680671329848689,1.957445041049782,0.015814750257733493,-0.06545300499415013,-0.21015079070073003,-0.1324283346021854,0.055645691668446615,0.44926568983835835,0.6234790275753362,0.5187083333804972,0.6939709459102988,1.0717886702171044,-1.1353272690203018,0.13648237690176468,-0.08366388433051838,-0.2234908171317244,0.3127480821625911,0.33589320271615125,-0.5037200358595862,0.34651827311592703,0.40983469850585785,0.9315864769336283,0.5723463475893737,-0.07424076946257872,-0.08832812727588146,-0.41601621232001934,0.8966831027844356,-0.2135449867020336,-0.0454147463137667,-0.5030302781569426,0.7093161369885087,0.14369944059626824,-0.6349700726320533,-0.1254002778958887,-0.0567442722453054,0.36575136382875884,-0.2022774547416993,-0.5095998495763665,-0.21134026500846564,0.020437637091413333,0.42437577191479814,-0.009504014459108147,-0.8508197799863568,0.488272184110309,0.2874096003877251,0.446114373694067,-0.00016231811047547583,1.160121904815035,0.19237322897076933,0.4444613792623622,-1.7850616385213987,0.3082980147269422,-0.09181228765787526,-0.7152918741305239,-0.4342662651805984,0.7500347780730025,0.8262280072822877,-1.2828883317469182,-0.21097729944800528,-1.1435810258466044,0.5540913524517737,-1.3116514804022508,0.3521625747188481,0.7394134731775298,-0.07091615020388316,-0.19353633758387084,1.862305513099277,-0.25973153530142773,-1.1646945639415545,-0.22663337414733836,0.07956141911212429,0.01947697407868049,-0.8384841206610384,0.1029229743840128,0.5754568941669053,0.3804669619113612,0.6759115202099873,0.2308755228823815,1.0371281372334307,-0.06945269027509145,0.8386044977662686,0.6160316521058741,-1.0089492107239282,-0.9738175561291208,0.770355503073492,-0.7234118041836808,-0.04134011085423556,0.584395914232294,0.42037969537970904,-0.4879414676974661,-0.38561916155678483,0.16404551706661713,0.5563430991567154,-0.11671427120191674,0.09643299131213202,1.7302033073807463,0.2709464487010745,0.8656293875921239,-0.14352843747153718,-1.3033302371972177,0.5909932066144699,-0.18256377785590838,-0.47128784563633963,-0.9584336417760491,0.20984860509187764,-0.22343118085021577,0.8470115108759639,-0.1570327546346246,1.047137718131149,-0.9275157937666096,-1.323067446731695,1.3288550988538324,0.9650849574670038,-0.19791875656906158,-0.09495878108765286,1.0873677788440346,-0.27613276930130265,0.2627344496331892,0.31076619608635797,0.4248626844735839,0.8848733989803483,0.09192005842141784,-0.4986542813727074,0.9187730687310731,-0.11236483951193338,-0.2987229688913831,-0.7952869241886726,-0.16365023833019668,0.37043312670733164,0.3490997694096174,0.47770670483513433,0.3885186522124785,-1.3142451326109592,0.8445437954814582,0.06497047213764104,0.11815487124113097,0.6031512951964898,-0.7578775515299291,-0.628793957274035,0.07338821818413768,0.32647089882454927,0.016836340741577194,-0.6087829456580717,-0.883794878010554,0.18781024372280655,-0.04253658866122073,-0.8345968864644907,0.9185645434742347,-0.46880719034108975,-0.7816216332941772,0.15259938671348525,0.10089515944003875,-0.1478270877148273,0.10260484475298971,-0.16284294027583263,0.7484418649273343,0.4558025992140282,0.4126434690394763,1.0729614542370745,0.20845995018542565,0.6856136690812902,0.2880368116274967,-0.02877216756602785,0.5130409370926038,0.0519583640563017,-0.8308534256333722,0.08123201246294257,0.31108021140200576,-0.7339901697352761,-1.254759427979801,0.009605858605501108,1.1959751337214661,0.8421246937549084,0.6596357675733012,-0.11630686669644542,-0.7941420053601788,-0.553435743001169,0.6253369972463002,0.08927966807626934,0.021715288361833868,0.5116777004242457,-0.6183123625030863,-0.6526473590049195,-0.533966847772118,0.6329746194626764,-0.3145506541239253,-0.778634089267835,-0.9217874469322498,-0.7743440992221142,-0.46626538189385036,0.14259676307452804,0.6951025128485802,0.18787867551170911,-0.3933079932031491,0.9674893195016157,0.08676016996340814,1.1413397905529834,-0.6759172723592282,-0.6064530265602336,-0.23499507981384235,-0.13764942268252675,1.4807441181425394,0.6262078553873357,1.1468674284198819,-0.1490514110565733,1.379826413116955,0.447521726646939,1.7343570364459635,1.2550401724768516,-1.1018413853002373,0.5781285195009697,-0.7459342335244237,0.8505638352778987,0.1252389576271976,0.21837348986224428,0.4815604550992012,-0.19326068468213486,-0.802876978147616,-0.9936029281771681,0.27021428136668446,0.1052479299164335,1.4860610676753765,-0.4402609471897494,0.9014123806300629,0.19071324806119747,-0.27906991283347976,-0.21593196381632984,-0.21380796172054103,-0.8845534661060868,-0.05477498155313999,-0.8658034128987336,-0.10611970813362834,-0.530896254537766,0.06008648174579273,-0.11613448293637926,0.1329839256472336,0.14366809319337717,-0.9792120726152126,0.22960196087118231,0.3219535551985192,0.39742277936285,0.9048247260381296,-0.2203766464496823,0.6426831421431624,-0.8979231141140408,0.5714745707415092,0.6405247250220691,-0.3047373799876216,0.5813278518422345,0.6216214277393101,0.08015867018520521,0.8380147879168957,0.6177818828774083,-0.16047078750280305,0.8318637798699732,0.13247358141382246,0.04912949238521247,0.40026038579100676,-0.0047844923890554905,0.5006546947907485,0.23525894278214662,0.2280982527994873,0.2446905422034167,0.2814194600531726,-1.0050156367270158,-0.5623779457649604,-0.2623841347141902,-0.31375550616564196,0.6217245374939868,0.4142861909020575,-1.103236698606117,0.1882962115913238,0.2777387561017915,1.2915047707179772,-0.04593010186354962,-0.353990899574574,0.41759049809457166,0.6951893916141362,0.5998484261032321,-0.346418858554296,1.3785040987750947,-0.6873952126926991,0.794221078940828,0.2626275503112702,0.19515405081524717,0.43002237745183675,-0.05932839814113613,-0.490265706876854,-0.5003953488068544,-0.6136657895573361,-1.3060426512441152,1.0478940518918327,0.5575149320945634,0.9175769943920044,-0.12908124781093555,-0.9713078629964872,-0.9834411239482266,-1.2597312860360714,-0.025253050900467505,0.3514952585891643,0.6052941192685218,-0.23611330563326793,0.16731044815946133,0.6144332292114134,0.04132705489376445,0.38802263888428734,-0.4291654888747459,0.3599852877625294,1.5816093360341008,-0.22552727478402645,-0.034906217598736355,1.3096201404999157,-0.0697073224755069,0.3274979327777256,0.185432054899102,-0.4062706653889126,-1.071522147357667,-0.19736857495723897,-0.0836147506938045,0.6266848875388592,-0.6677552137339466,-0.4530290729094185,0.36407640757275356,-0.1906950300982108,0.6851201632441022,0.7583302091727716,0.5039597421751149,-1.394133829476633,0.8137732914176106,0.1828453214968625,-0.576243032489701,0.32145987720208563,0.25012476580255716,-0.39830113043838744,0.9635410510836958,-0.30862574945951626,-0.4772911094788716,0.8994439472861098,-1.2292371382150133,-0.2165495792639508,-0.5338126705648799,-0.5330400674682322,-0.7396873242543107,0.1047063777491421,0.029851116786615825,0.29150267112159606,-0.8682775470041778,-0.7165288301533104,0.1400037458514795,-1.2438354662819266,-0.5994240471822498,-1.160789603039675,-0.33702911518390716,-0.6574893753456669,-0.3371474610199364,0.7865392232321534,0.4309022567878414,-0.9394735669032659,-0.7626782309905522,0.040985717349596655,-0.1501985794081555,0.3046024652715794,0.5936833258471634,-0.4928716937142845,1.0239151124913581,0.7040748467142375,-0.5262413925333671,-0.7761193218403027,-0.1360962211628939,-0.0042359037853723774,0.6629720247978703,1.308658973463828,0.7721495650801004,0.3167109153665438,1.0677276475868427,-0.6221888910277241,-0.31315153293235926,0.7333806514428781,0.16217715593911303,0.27810328269216644,0.7996737090994867,0.5775116769827123,1.4736764465994625,-1.0087631639092363,1.0997988948627895,0.3033884472292057,-0.2154975775652443,0.42766324665110445,0.6063877684304653,0.43913279958705626,-1.5068123876402588,-0.3542175778748819,0.48810598866071553,0.06615418997244565,-0.0505814647940846,-0.5290794577334411,0.5742791512734909,0.1700634356126388,-0.5928464387335588,0.5187764217128155,-0.03321815484317241,0.6319457421647332,-0.6815170960112358,0.19451014058461608,-0.2928020927870285,-1.0533326425982383,0.21613252849147713,-0.6476910536344607,1.2811996121440163,-0.7170719066687052,0.687793880801714,-0.4579726624257179,0.7540953588415003,-1.0318160474222464,1.0036201111347267,0.37251874389450695,-0.009174121193292112,0.8464242482610255,-0.23045728075642646,-0.6873041370421873,-0.45822494068034486,-0.5625127533552751,0.3224000359578615,0.14305017677913232,-0.7749985647091944,0.38295451930326313,0.4388691936156975,0.12064975117598753,0.36801849570185285,0.011493172065822909,0.0348772467007436,-0.7694176009628932,0.6896457724293098,0.4140533057332228,0.22546829918653455,-1.0268837223812413,-1.283078553305796,0.9249286299213837,-0.2841398917480581,-0.03801103289571562,-0.3129542902325591,1.49025400809609,-0.8887002990796738,0.6782368400068333,-0.7262102373680309,0.16061017469792507,0.9155153030020993,-0.490766995642119,-0.435903981089233,-0.43279702820346083,0.28970763894516327,0.9418114490226053,0.42389638146103586,-0.26218707537233754,0.6077929312140911,-0.037772617026960144,-0.050651291833405096,1.0226528907416013,0.11187304495974937,-1.0975459587047083,0.4692374604801608,0.5897761180373926,-0.2944349498913622,0.09609884464680912,0.7274869570554195,0.31298213494407784,1.1422851635026938,0.5527710233523935,-0.489371548698352,0.5105315992394286,0.5751080350221588,0.47886165920518664,0.027780208924937783,0.11083423775467674,0.4330182417294432,0.9453428676023243,0.1995604074617469,0.7503537609671145,1.3577558845331357,-1.2427620272708888,-1.330654798410587,0.8650024654238405,0.5194741865713395,1.14681404281758,-0.9287983591225238,0.8961767440662305,0.7652071012051016,-0.27920119423064593,-0.18589776057880225,-0.2938489233679844,1.5153767532578988,0.8788723355497818,0.9352409793098146,-1.0019231174765333,-1.6745454263165584,0.006102643980169913,-0.6025964635234635,-0.35514915097181426,0.717038134872392,-0.014113192070079772,0.7269463514769379,0.5030263714952682,-0.3671113655107497,0.5810623796524921,-1.0933113310645752,1.0479420208874923,1.05986138202658,0.012779906338490382,-0.0029272034543196823,0.347840515029624,0.5996696303954937,-0.014604976621309954,0.40056064972378946,0.26683686275114404,0.4036511444040243,-0.4542734699666395,-0.6172776035094579,0.9297828727282145,-1.0954378975233539,-0.5849413926622846,-1.2716199832054251,-0.0995822641900403,1.0309632159077273,0.20623163024935964,-0.23349091194124444,-0.9325758376025232,-0.22640873491962493,-0.42390990601055084,0.3542647812517547,0.23542837501765573,-0.49254256674886315,0.0555001532924784,0.018632075259908572,-0.9861524979765182,0.7839282421355859,-0.077615046151165,-0.3455643304322561,0.33062949806686015,-1.5494069347735988,0.4541712123708736,-1.394350500075209,-0.32702047329499623,-0.6057288566368636,0.382883106218927,0.736708123803564,-0.1293141449179671,0.536358359577076,0.36520393236011667,-0.7684704445100131,-0.23481801405398867,-0.4836779816758086,0.4674051780853668,-0.5150415141420096,-0.10886937257168049,0.10662844843990582,-0.10018058084961608,0.19201287652113866,0.5991586475863929,0.43332650651606164,-0.6631132101453332,-0.2291999782754533,-0.14851709524948925,-0.20468290106925632,-0.006454274368823254,-0.9989408862156168,1.940480456126458,0.4205515412422052,-0.31555666026559653,0.47502461266502194,-0.6179575507959457,-0.39890273999574777,0.10452310616287308,-0.2069558978992958,0.8284490104309274,1.455885417679771,-0.8041586059848767,-0.491528044651906,0.4049134443590322,-0.7130105369814227,0.6393577797323561,-1.010917130460322,0.1484002935598202,0.0750395850374927,-1.4273752674395364,-1.2748427208774546,0.7500813905563232,-0.01387716274849758,-0.8481846222543152,-0.016957665273385467,0.16953108744497705,0.689080666037846,-0.12721857920111995,1.4925038874247982,0.7207346183346698,-0.8488877831359036,-0.04082501412680774,-0.4246961921399409,0.2815598515539231,-0.7411465365943486,-0.6458125985257006,0.833164857332731,-0.4043741987460545,0.8909770450796479,-0.2697345427710156,0.28705238744815864,-0.20470969144152204,0.862181645100086,-1.3157335351171309,0.08979004463638174,0.10556599676471091,0.04704683968264098,-0.3488478648658037,0.5163889344973974,-0.09399469809015137,-0.3541539160811965,0.6099152411058177,0.0402851478842815,-1.1679464231630632,-1.0248898382074176,0.033477655217355004,1.0425005161484906,-0.4247744785532171,0.7614447294498998,0.0571486261652441,0.9558393227995818,-0.35027431131865694,0.3944209686860946,-0.019750627547837813,-0.5053525890108365,0.7865306914347372,-1.6986025929152972,-0.051592572869106845,0.2169528856862677,-0.8339260587375376,0.2568845609723557,0.4425996717283937,-0.6144503236941723,-0.19783102824422422,0.14055866907616293,0.5004870736896211,0.5184299925025067,-0.8162128880190099,-0.429955803196047,-0.9513123205902362,-1.0904623185146443,0.39543617450082286,0.5477184959041601,0.10645569482025413,-0.5324132092101486,-0.7936873967983319,0.7169895491087612,0.24113773954514323,0.0840809691452269,0.23004937282311003,1.377130898287374,-0.3159173165517807,-0.3927137133389024,0.11679701130597814,1.4533057922925332,-1.452262552782162,0.6866149886201077,0.4260647866348739,-0.9001133772482923,-0.0815201786370429,1.515010409133826,0.11570385918263026,-0.15027379287266088,0.8478623398680631,0.2720858309624771,1.3125696057369196,-0.3267764391795604,-0.3131860366716653,0.45013100951298984,-0.27865555335630665,-0.0024767452451295593,-0.4618666653728464,0.3785713160603186,-0.7085289732720826,-0.11908090727961507,0.23839956371269716,0.5768713858413174,0.09230829545824996,-0.8535252156365073,0.28841555894408716,0.923342014068342,-0.613693313263204,1.3668440488045606,0.19092225225534779,-0.1500521259704825,0.09730122667155129,0.0271887070658937,0.49473868910081753,0.21623008204395236,1.2036002266295849,-0.18368231045954464,0.5185586029907335,0.9461404987792987,0.06655651855075836,-0.005339946455802935,0.13724543038054615,-0.2713277358085188,0.23219809497766408,0.7652790335623771,-0.16588407533945007,0.5224664626591063,0.2158027922881812,0.573815200296681,-0.18677357235094155,0.7325559589370443,0.9905349294603008,-0.46621960440245624,0.7875478902595209,-0.4699545596828404,-0.3232386436745881,0.35846823073135686,-0.5468535142482943,-0.6837267853720497,0.11483485648884315,-0.5536532999110941,-0.06273286408495798,0.9359083820168874,-0.19518773114517607,0.5586267244778415,-0.8317711551655129,-0.22750702907187098,-0.004635803800753626,0.5584342011889454,0.4148594372565237,0.26760316489607266,-0.5295874641435668,-0.4289354954590745,-0.0388935753555581,-0.8017894138024761,-0.7416159832081445,-0.26695773411840795,-0.301346345000626,0.17949392841666303,-0.2721318158733395,0.4712455646977445,-0.41140843109500286,0.4469774404937636,0.14158349639159723,0.4026258465303321,0.19111500755176936,-0.060903815243049005,-0.9460827240947527,0.4006670667623515,-0.4723814701296012,-0.5294520150282793],"fitness":14.837382500000002}