{"v":1,"inputs":13,"outputs":17,"arch":{"hiddens":[24,24],"bias":true,"activation":"TANH"},"weights":[0.32030944967359964,-0.8280263348647876,0.264776936337088,-0.7641922458846214,-0.22436153596677452,-0.5667949363045319,-0.10133011811058779,0.6085185213924467,1.0711677897801062,-1.1822407305624276,-0.06825659197278902,0.738655812256388,0.12054224715406708,0.07368032102684484,0.10215151752500234,0.36851389516918237,-1.0740905610531342,-0.7836036637806155,1.5959459699750371,-0.8410164888588257,0.8988600122657712,0.7368728277441156,-0.3418945746333852,-0.7567310046586,0.2098574180998655,0.7437565233759026,0.008234734072651365,-0.7080412760598116,-0.21853025005337218,-0.04159335353194199,0.7993646291104899,-0.015673290041711273,-1.4594049561009006,0.6792523343814103,-0.3761228971756595,0.9242170015850908,0.5742749023059831,0.09426344542534579,0.1340980903780894,-0.7606716568889507,-0.40353442222732316,-0.07154049413143837,-0.20660939197985706,0.34954974788945264,0.1325875359368561,-0.30227821938737115,-0.7626303952262993,-0.3414220176417013,0.2638387948536633,-1.5485187887137573,-0.0854718493050565,-0.3968805912185267,0.34655832861385416,1.0406047574278152,-0.37653341000323165,0.638487349893346,-0.5325995509352921,0.21811033498525179,-0.10715156746749684,-0.295848965307994,-0.4370993249817582,0.26695539234301646,0.042244559880349766,-0.6574125601456271,-0.5174480344859154,-0.3925321040761899,-0.22370266926374738,-0.07097669430998625,0.7481954197513712,0.8731019427286193,-0.12406147220406752,-0.1116680596901314,0.5825782531690372,-0.9499083070450907,-0.5169243742585679,-0.84762381154558,-0.06837381646754925,0.004150882239154108,-0.28804450112055263,-0.42246722065092673,0.01002294959481542,-0.5545870261607695,0.30176167494585054,-0.5268597770518547,-0.15187731131332471,-0.6607517392946133,-0.4147248232052997,-0.6579865231804168,1.1205684504343143,0.9691029118533832,0.2963961396126526,-0.088413607611482,0.7721028687660838,0.6496241937700978,-0.6707567201476795,0.1347228762276256,-0.3960592179548287,-0.16338758492795644,0.8822646373019811,-0.7081907679547884,-0.7413219084976415,1.2271783464634272,-2.026465986270126,0.9381150198367979,0.8070246207108981,-0.9991779625399086,0.07038473675346758,0.20535272409174551,-0.07548266153412912,0.15741619816110936,-1.2590234608990647,1.2177858013794447,0.3440189352430542,-0.9087298167156599,0.8338653929289342,-0.6411521759334893,0.08979142905897512,0.5552168394443511,0.9364692956867222,-1.3100299898399024,-0.10023940155566448,0.2020026687883463,0.19550475290407723,-0.3720116477535555,-0.056530265628857296,-1.2311827968397218,-0.1606779958650103,0.12036855705664527,-0.4286324827867965,0.21192609531259934,-0.0032268874949441776,-0.4258780380023807,0.5329146665880136,0.4387363432540587,0.605703315906526,0.20664439963735937,0.6542162797874447,-0.07858529079244692,0.6209504303294061,0.1743411172244269,-0.6852106848607242,-0.5268128262394018,-0.16596805981354076,0.9353233715574277,0.23890185590208293,-0.04901630300270315,1.2872388425157646,0.42943538321464725,-0.1490665536474924,-0.1544339129031076,-0.8529354019102708,-0.5451528402897798,-0.4463368680284356,-0.2645001295186009,0.3728992726856172,-0.372962640523244,0.14216120770213544,0.6256855782124366,0.2197896039740354,0.3789970716178002,-0.8074128616240338,0.3169344074341985,1.3335478712443536,-0.6836161026804112,0.2758889851945368,0.8314683349620122,0.8857919185243177,-0.05461628878425903,0.08862346586849175,1.3517855340007372,-0.39939676303369037,-0.4154214959148103,-0.3681499065860858,0.8969174543249093,0.3849168572097423,0.5565941775609579,-1.011783847358287,0.6394235363685453,1.1731136308622385,-1.2445489753917958,0.5065890091089965,-0.07270887624925244,-0.5101275526418494,-0.5517507501238299,0.19147555452469753,0.2793485535830626,-0.9374689762254307,0.29195136047835885,0.002561667748091459,-0.1159113874447188,0.029169861849158277,-0.21133058338709737,-0.12046678202584224,-0.6361788477712086,-1.128601881983733,0.5076765866292985,-0.013381313990502958,0.33843919897758235,-1.4867903604277874,1.0299288347318445,-0.12203816454850179,0.345071750515683,1.133011318925055,0.37569009569999645,0.03458629147177919,-0.7147674859715342,-0.46993756908026646,-0.5228036726283759,0.019481027512711052,-0.08903223386926727,0.6872414103452681,0.251778773511019,-0.3110088339436603,-0.5581799658619438,-0.0694678289249047,0.015201264508929882,0.418534329369223,-0.2691782980817456,0.5693612815329236,0.15939894701830717,0.29044456212807873,-0.38546316371854294,0.009287188775507388,-0.4182690493503182,1.2680362342549858,-0.20495840288007092,0.06856709441156417,0.15002761533623435,0.8110029463996434,0.10272777579034975,-0.645662552102331,0.07980818855491334,-0.9215920209720577,-0.20610891198109701,0.28157692297365555,-0.5331874343943517,-0.10749364103868288,0.31466667050693264,0.08707348888907485,-0.3941442327000356,-0.503491394063433,0.22147374884188123,-0.06359645933498165,-0.0861716553671977,-0.6238373844598347,0.005538166340194342,0.2756155262859757,-0.5427404120222222,-0.8514604153192189,0.41674485556760316,-1.1000864898934926,-0.5844794515344605,0.8217713680319175,0.44381833406957705,-0.8506275525401343,0.2127954804157675,0.16708888467021077,-0.16942624151737343,-1.152021260897591,-1.695184483326017,-0.07163987447273276,0.49871692910376536,0.2114756966489651,0.26814948400831334,-0.39759028035418864,1.304076007146282,-0.04737876445154626,0.07858482314604995,0.2918499200351709,-0.2087026416799164,-0.762805766458872,-0.37687081030744046,0.6327369946896859,1.0829251024184514,0.22230422474639022,1.4598950918151683,-0.3278040556705027,1.3542962708190627,0.4386413693800786,-0.250123232615214,0.7395300035147008,0.6910428731307623,0.4893062333596284,-1.4187822340836949,1.3352312755965992,0.3082256755430024,-0.36014111647553354,0.6575086629066902,0.16706707692394346,-0.15455783571938014,0.3285466681062392,0.05616710230870443,1.0716133513215054,0.5821665754824371,0.20323546327336806,-0.29290808144822805,0.34358931106219903,0.4218477084199613,0.6173575241744171,-0.31628055668584915,0.10685401075547642,1.024578885580977,-0.5053074593095294,0.36235461002981706,0.07820585926506057,0.7702375805051446,-0.5287407629876671,0.5418626757408515,0.0500160945645266,-0.7933221077477316,0.25809354184067285,0.3221739522518685,-0.6587977400091414,0.8776905654773991,-0.15093301695563277,-0.19315449121502337,0.26155141598693965,0.1581932945167918,1.1183962602411583,0.476311885935806,-1.4549040053001605,-0.20670609871346793,-0.3674384871763571,-0.5267970748145183,-0.18032778802301055,-0.6508687552217571,-0.5695408949357127,-0.2855386083830006,-0.112723166838026,0.5376732952203621,0.03840718680225482,-0.18491248853239783,0.8618394684793658,-1.129879743302331,-0.0712710265279291,0.27195215239608583,-0.5270836844857357,-0.3868402990687725,0.025742384595356858,0.13706998108823545,0.13593822205986097,0.208593658370114,0.020516387588487773,-0.1418868771140127,0.038885105172313306,0.40744902747496375,-0.03237204791621276,-0.560935290136189,1.3936635241736022,0.15714801804695502,-0.0009777681096620678,-0.403122522933058,-0.15202426356689758,0.5470588619393262,-0.4138097578378721,0.7117998040298094,0.38566306542427303,-0.1751269311098951,-0.5383792914813464,-0.2781915300255531,-0.6697290057235821,0.3236675628481163,-0.16610031991378246,0.6800754304867391,0.3308388285131097,-0.07392345658052507,-0.12535802807415164,0.7466597420430165,-0.32107901305839065,0.7130369062523685,0.4651620277684447,-0.47482695131754343,1.0845797714994683,-0.9135801714430574,-0.14890477442276506,0.9670361165562442,-0.7758111075548361,0.9006837975041321,0.8044156874343434,-0.5663625569399452,0.370920134376069,0.12388512930322182,-0.5004610478586954,-0.2285824680977459,0.5381005181172887,-1.350603298978212,0.3090198267628763,0.21312765796108696,0.4417574182337357,-0.8285068102792671,0.4687312937674501,-0.44220088233571136,0.2871030788345237,0.4473104331475401,-0.25904369771020286,-0.5629686418668066,-0.33681879472250237,-1.0989793758421738,0.23600276592703642,-0.44751712723655945,0.33240223265174584,-0.3421027647117158,0.025488429342465143,0.37069375214116773,-0.21051333194651375,-1.0606126128136593,-0.7530891024305516,1.129244741074867,0.027769516161010678,-0.7308512951158496,1.1221091806615393,0.6564525796417957,-0.11299267953244993,1.4633980888940208,1.3042110448863522,0.3812198346615716,0.5546813679950536,1.5497024844974954,0.32676831418453955,-0.1406722855477876,0.32921987390665225,-1.3650893004437303,-0.8156243193240942,0.14042903955888653,-0.446611997544739,-0.6001221083948675,0.5047403096970442,0.07732356014524105,0.6943354249828272,-0.2952946942930567,0.2613416928503255,1.5010277959286906,-1.0770395419782182,-0.08240668900814437,1.0074979049366215,0.0013536780266394724,0.038211634798222975,0.15499764573202543,0.6411415980205128,1.080264724244102,1.468634472648367,0.5061993075392239,-0.22817442406790053,0.8447286725363395,1.4777990248036346,-0.896401356876601,0.1009636286291699,-0.45086923999016393,0.3244023024580825,-0.6438162810844409,-0.3260117874591561,-1.0634073386043537,-0.3791272387176096,0.2694758489714959,0.744974022852436,-0.39363446579307904,-0.14964619833906048,0.9726169182660175,0.435254476526311,0.47659562152461504,0.4598143549015558,1.471242474153018,0.7434091099540194,1.3557710707986066,0.337398651018412,-0.4376902811753167,-0.2058885053771756,-1.052385693497153,0.779532764672111,0.6487315116131209,-0.5369945162385297,-0.4087478752561961,0.4940433410184625,0.35306706126364634,-1.1433124148853018,0.4096997141687452,0.842620202895547,-0.9730548422861713,0.3549571510634217,0.23422819614734197,0.14839565171464103,0.10906613398092363,-0.5598135378238303,-0.267506888885623,0.26905510260915366,-0.5045022300752513,-0.4347129384866875,0.4062384415794987,0.08960755763290779,0.668581349186039,0.2655435314176523,-0.56265727690487,-0.15925030993288816,-1.3119771330375614,0.5758662393963118,-0.354178749024789,0.4911154304815013,-0.002661763571535136,-0.21038589682792985,0.414620440421227,0.281977412100755,-0.4799909882099257,-0.5823860177462001,0.12882101996671952,0.47102188736593326,-0.20149292102898608,-0.7357612814842515,-0.8865671873503402,-0.4075172890311206,-0.049271097756713775,0.1425987135058038,-0.6724226482125067,-0.8012063686981286,0.4431615296352783,-0.008333059891934225,-0.29010380657993345,-0.9993099303984315,0.15031545878506486,0.14195609567663658,-0.9608725217842445,0.5195845225897093,0.6404488304586077,0.0576515449891008,0.40452886459602505,0.3504509568526706,-1.0275844308660227,0.19971402948302389,0.3043502839837449,-0.6372273883137766,-0.2544177168030286,0.6463647820039035,0.22409277988852572,-0.3478050673532631,0.7415494695518815,-1.444940546196208,-0.8267376220445807,-0.28913208357447573,0.635207930164003,-1.0694489583816733,-0.4556506404596907,0.23670166517160526,0.3267632494829559,-0.12105644539471055,-0.059763511111785884,0.7442776954480121,0.23125602045162738,0.7942297003517454,-0.5716211541452878,-0.10157267294961995,-0.19108558654436128,-0.04546720982732725,-0.39829190780247303,0.4128971471377641,-1.4222531400847402,-1.0929933543225132,0.320061712853597,-0.008070224758819765,-0.0905633821353292,0.6520155175380928,-0.2720696998654232,-0.36780594195338456,0.7145484196669121,1.1982244931081898,-0.3330768398441065,0.17026278501761566,-0.4933675221677162,0.39509258048016305,0.8049517539750025,0.24075942380621268,-1.0388476828297595,-0.09357000916449133,-0.05732152570783112,0.5249035387526697,0.5806054350076726,0.20230098681970468,-1.0717279881431965,0.25647231298071577,0.4300490147198622,0.33997968678294427,0.18213830875008027,0.06570186188593322,-0.08361973635786839,0.0017713680875648674,-0.6170653088281244,0.7343214444831693,-0.31616291179544714,0.302755987209651,-0.20114844488555533,-0.1413467770902997,0.8845228212612589,-1.165004181937686,-0.5235640373540267,-0.3901202991614477,-0.04323444400786095,-0.15477492598782017,-0.3133308499216372,0.4767032310399213,0.35405238898444236,-0.13027861306334496,-0.6341162510016619,-0.6147311747388162,-0.127651241664675,0.359910499378841,0.710046556571872,-0.6993083474004477,0.6280999853870786,-1.1296366484945308,0.653563481562057,0.6484427317937598,0.14675828005341957,0.9310848830321503,0.16076582609444143,-0.6961488014591691,-0.5816748134844031,0.2430067871120324,-0.6046757996067086,0.44366584301707446,0.2137136578064135,0.2219903767186138,-0.7481756510808095,1.2035979370689054,1.5984778173179306,-1.541841698441021,0.09275880712530604,-0.1647144453517434,-0.5358846458057246,-0.07887321590813103,-0.5394821443264894,0.12188395184823483,0.7215243549237672,1.173884395376655,-0.18129448038005497,-0.703151789020765,0.46665454773268233,0.009515236302375754,0.09439776704612564,0.4075845543894783,-0.8998432519784831,-0.0017598388591948955,-0.28609631010343906,0.00024317410347585167,-0.3362232793927095,0.037335162898646475,0.37501429410018045,0.35478075206682985,-0.2541267714840068,0.4022930150545146,0.3006525020575577,0.8363264383459781,-0.30574156531292174,-0.12835742159460725,-0.3600184162485248,-0.1850763042172921,-0.36810942237317706,-0.4891340181106023,-0.5490748759538724,0.6590449851306027,0.46083251358687277,-0.5046454519312639,-0.9244701910236582,-0.07475566189760047,0.17136745778975884,-0.6231503300430864,1.0530113337809826,-0.9264530656209964,-1.2060021773771128,-0.5438293138173445,0.6210141758629038,0.3768739784631072,-0.3866857078514056,0.030392825301769122,-0.23214252322096926,-0.08004769128891112,0.8645067767765245,0.32884663610946707,0.5899634342994924,-0.10725922305875639,-0.08690996490224653,0.5738054650019959,-0.3414396313081896,-0.6214144188312185,0.34080444242731023,0.3205291528206099,0.018654448931288897,0.1240875628705285,0.11678269419418237,-0.6621328340865668,0.6703699563951628,0.19955550874504496,-0.10951270096720572,0.8094194881207264,-0.5771988052080309,1.6703198038117963,-0.18060522713860472,0.2881626272780351,0.6087663503777626,0.4328737269837395,0.11269547798550057,1.4034293981694654,-0.41157355122722633,-1.2543506152134427,-0.6244014898633512,-0.19887926856664528,0.21464134690933656,-0.3198871437981274,0.14879662653263737,0.3261524525478306,0.41212289746213643,-1.6610234193752282,0.5495557840517344,0.22923982867937268,0.04327582748552248,-0.026042076891895805,1.1048664170058715,0.15866024152781852,0.2754441297813922,-0.9065026279143213,0.09754196764874197,-1.0258280986283417,-1.0026181720671192,-1.0179916693911668,0.04448657753924816,0.30542687682268393,0.1238059771483644,-0.2444937278502487,-0.11282746065303215,-1.2682361643454692,0.056908455516199954,-0.5061612987527996,-0.9267933412886313,0.07681722903974982,0.5730776418204643,-0.33663051424672497,0.43696091947514043,0.349856678343471,0.6642857790136065,0.08492647067849601,-0.09500536363835564,0.12492154982736418,-0.5577218236087008,0.07617844161209866,0.6901804699132702,0.43563111116672076,0.30123022006381145,0.34406550347260945,0.05701629634411819,0.8892015875942899,-0.04362614902012674,-0.7468117809965036,0.574796063273235,-0.9620205799903618,-0.4203129296439945,-1.1266263344930616,-0.21368168537316917,-0.3338069130581033,-1.235120184328002,-0.5774947887658626,0.007075056037082167,0.03138576280906062,0.8934097058572311,0.09098297920856196,0.3693151545763361,0.20842194616793805,0.45502117484574905,-0.657816443902771,0.1452802469545475,0.6716066116846301,-0.13373957881847737,-0.18920256314972958,-0.44327174789721346,-0.21684714378728584,-1.0353357258446858,0.3122633452505945,0.932572469705358,-0.5491454645909074,-0.8797391841146001,-0.8409241981620146,-0.6230484027570925,-0.22676732845285874,1.2246302233801534,0.9292622456759387,0.7071865214155374,0.9901976430430727,0.21222105853986353,1.246387425148802,-1.0179998698810764,0.5958623651452403,-0.030790784947253038,0.6588271592506474,-1.1189495876116886,-0.18124840656187613,-0.3060894708083247,-0.3184211908415001,-0.08749180607489791,-1.0694353712511386,0.2972979848181756,0.6809719545212232,0.21219332251212303,1.8750789514326653,-0.7491161001321857,0.3752789793579934,0.28803391693678015,-1.099612877453465,0.75080009129128,0.09404981762891773,0.1656965518002199,-1.3369529044608848,0.5241533461201172,0.33434180509681344,0.5601110122359957,-1.490862844291281,-1.936244522150269,-0.11482147476135594,-0.36172291172427823,-0.8235351509013334,0.08379215574394641,0.29707280533742636,0.17816092554644264,0.4497132938003113,-0.7902070070885512,-0.6961348201367848,-0.6749130673145396,0.9012910235417296,-0.5132028405485208,1.369244981677741,-1.2226498923726399,0.30420989441725227,0.1119741763121811,-0.16888319910426697,0.6403123802115788,0.4849319079008362,-0.07506057890900193,-1.4543300197740154,-0.3553204287167102,-0.3532235154579934,0.05265929471754417,-0.11561806960771263,-0.9883413595682012,0.5345195147453227,-0.44832438087733606,0.07803568135903241,-0.8390392732049545,0.3913003090081706,-0.03961844259558717,0.19477325845389956,0.38024732572372766,-1.0956785501423822,-0.3834375440504038,0.3085495945485138,0.021590955938810164,-0.8511026878816615,0.3843786917282022,0.7838149880490172,0.23399759746057133,0.8152039972292716,0.5153801428633027,0.6048892973417419,-0.28649461633923046,0.05442766243515723,0.5529547210829177,1.339258018316285,-0.18432063806005158,-0.16192603809167727,-0.7239214823393086,0.14666202939682796,-0.13222422349215002,0.06535634439929325,0.5854034413218834,0.39046638555177454,0.8120728742077391,-0.37362590558757774,0.053386325057096666,-0.24720183082475922,-0.4171147819947874,0.07011258637474,0.6656779848741032,-0.04965437960606256,-0.3701911319828506,-0.487330331669733,0.214131501123106,-0.2203477792683397,1.1540651847641337,-0.30702943478591055,-0.05340330517768753,-0.06070776672271524,0.5894607868214644,0.36281466432392634,-0.5177364288412684,-0.6692677053006924,0.6762095060442359,-0.32596948548274307,-0.19142710926538722,1.0766533452600842,0.6261939116802205,0.6980298485091381,-0.2246778857529375,-1.4746866812263033,-0.28501465256170344,-0.8461354726808681,0.26708436480718223,0.04489430491186118,-0.06398635885692844,0.41183212570591266,0.14376464003547623,0.36826053708078105,0.48935007824944443,0.021601928816722547,0.33422667019200275,-0.8865559572466811,-0.9132455924960126,-0.6386924585391741,0.8877603973787117,-0.5228410175963043,-0.6541406077602325,0.38145654966640985,0.2936361506068265,0.16861970215696137,-0.48287406390501486,0.022436121933039566,0.09029282729027266,0.5807654339504181,0.4263172247795266,0.7871066417671552,-0.9428889572517458,-0.19734459519913453,-0.30147460241862856,-0.0871370514465428,0.08843390330299905,0.48852223284778085,0.2220085421159913,-0.2690901288682689,0.39131618724881045,0.6118487849937798,0.3534971386846298,-0.7459293485578623,-0.39749617486700056,0.823903025229304,0.7544889476762773,0.2705397397712514,0.042213243521061594,-0.47489257536936846,0.6450838028337663,-0.7314275520265284,-0.6044579471886404,-0.3095277362081632,-0.12190516070913801,0.8420342642386248,0.36355017573378634,-1.5146863226753138,0.4629932221656943,0.342378614341506,-0.7375567634932277,-0.562700896089697,0.9684102673978642,-0.7312113048742847,0.02411198980467044,0.2654817782777633,0.3703075504036608,0.9276980178403569,0.43831106073848164,0.10385026287856426,-1.2768285453396395,0.7091804042882658,-0.2919013426727471,-0.33049600175370136,0.45858006530579876,0.46740232539243765,0.8965401019503703,0.5207262416320871,-0.25665881947365543,0.15223238281682397,-0.061128209725945015,0.8376037074529489,-0.07502777050418166,-0.1347519595975402,-0.5292290459093807,-0.6568484174599682,1.0136481121417913,0.2613272178747221,-0.9257748708560999,-0.8877478051910168,0.4109571703262319,-0.25781475947070265,0.05620554905131042,-0.6516110646330884,0.328411467242455,0.2921431636538532,0.49656046072643395,0.03757689177577309,0.31307760747703606,0.690220617308055,-0.7830495542148206,-0.4366777867215685,-0.10338211119746439,-0.03244852587904118,-0.6427236010867766,0.12914653170087145,-0.4529951986670663,0.5331002940378685,-0.6890582733598261,0.17129601834199779,0.6693472376309593,-0.3377741739069841,0.5757748370648594,-0.6431380395184506,-0.42219232802879453,-0.8628440728483328,-0.6821445907262279,0.22694823035210832,-0.46351526052154374,-0.4555266172738893,0.002057323547055144,0.47387231946769254,-0.7889089970209646,-0.37873179309402166,0.09893266892914257,-0.2839839374094579,0.24354705655633332,0.4548971100205149,-0.4448917179226805,-0.3985251977097336,-0.39367887761400266,-0.7432308892961601,1.8494379545393016,0.3477721931328324,-0.12821306754267942,-0.8446085515326518,-0.06604450870550076,-0.4728665242888206,0.33518632562719225,-0.1026202408541706,1.0164684431923634,1.0128936642173747,-0.1724476184269659,-0.3407862066151808,1.0495994047964332,0.35098616205748234,0.29462738009854417,0.3188422981086968,-1.0472360603011248,-0.2420967195050167,0.4387927599824913,-0.6510375638521994,-0.5577383376509042,0.29237111474397964,0.7889003088610979,-0.6153569143099431,-0.21098122793141288,-0.22945205576855296,0.05307496517220564,0.3061313364681782,-0.04785881385306312,-0.9733433111590573,0.882036853900287,-0.8513059758132527,-0.12172299611788176,-0.5288312846047841,0.10714291068325024,0.06768661683712562,0.6190024935303623,0.28757368443266806,0.11631587253300175,0.10015997012028141,-1.0883636507024919,0.40614198239498794,0.14805668635138605,0.12350726980992678,0.1297780669187832,0.34851773283945375,-0.3236525843405154,-0.047584338032456354,1.012760645670367,0.5203066248494381,-0.5965976700749579,-0.36695711578568435,0.46174179243898805,0.03133588353975113,-0.16722967267090863,-0.10877035993734811,0.7370897341780781,0.28083322497631,0.6788825386804721,0.6797151230680808,1.3326342461170708,-0.3347929371945478,-0.9081491458239005,1.0159721624175266,0.41666560733563407,-1.1108156495098533,0.009197812263270448,-0.13432909296396384,0.5495721117440733,-0.4229940550147297,-1.1248087691360125,-0.38813671574131897,0.8152269093377396,-0.6703290785660647,0.43607638450885866,0.22868855477833572,0.9128550005308069,-0.5172802407099238,-0.6463557285550587,-0.12976526074578149,0.06717979886530472,-0.30402338003389606,0.25508039970191193,-0.4361978660318905,-0.45578022120064265,0.22058066876326515,1.1517987607730595,-0.10935857928874669,-0.2212370211997195,-0.5506895799048948,0.04661807576772052,-0.5403357472931577,0.531306930235047,0.04935081129179203,-0.8326660416277857,0.25789085110486126,0.6328669895602501,0.0843907118652324,-1.1742313359197678,-0.5279309118478381,0.26126393769755574,0.11047346814886651,-0.13624660493193885,-0.5865027054596562,0.4841345426002559,-0.676553024223819,-0.06954452224438729,0.01902344596484797,1.1223866425561588,0.3110462411227951,-1.5604416496402214,0.07602285394964062,0.5896227316806761,-0.4448367082056594,0.19657667020002279,-0.39993995619275974,0.6139937689367782,-0.01259390295268435,0.6910775758809005,0.19779347018853416,1.282512491844715,0.3811901382409738,-0.6660265943569589,-0.6655742151800714,-0.04028388235515175,1.0301815623022832,-0.12894685028352684,-0.7671754845548209,0.7513584946843365,-0.4550781641916912,-0.08626047108477196,0.1510584904549874,0.4182921562809501,-0.19163837255924893,0.15105451459336744,0.052523343052902086,0.3203296475555914,0.4764692606991305,-0.7524473508984879,-0.9068734891542737,-1.3469824306243923,0.05438785689797506,0.7053663848637105,0.5607499907802921,0.5532653774300562,-0.7771417612932687,0.6140367737670573,1.09401663119483,-0.014113868572523738,-0.5883319964769674,0.4348602130846958,-0.6153771645925209,-0.5121196930063793,-0.2783218719985937,0.3708233718813875,-0.233467147975085,-1.3763028572867058,-1.0638873024263655,-0.5414402597285765,1.0348243280664684,0.9124523084319166,-0.8882710229087736,-0.287647071962417,0.8186210673707776,0.7802731291654809,-0.6387012207764826,-0.3299258843205025,0.910806846622454,-0.8306032104341693,0.43218060094267463,0.25609456570661226,-0.5553960748336801,-0.4591696681583635,-1.1852860128970863,0.7094679611602552,-0.2601013029659099,-0.2636798301864729,0.45416532810299387,0.15933335894330375,-1.2050513467464568,-0.7872164897544585,-0.25553911840579724,0.11893924724422607,0.24786695592816893,-0.18185997696416834,-0.35452625416444045,0.062390393714915025,0.07960048158821673,-0.4834186976032286,-0.303012682645193,-0.2187894985060417,-0.6861315139852067,0.623504003866621,0.09709479238228393,0.5532531035211058,0.4608549935480718,-0.4132600716698194,0.2914170136497372,0.7798864704462821,-0.8830010853816944,0.5339079645853686,-0.46898714038376915,-0.7612051290331785,-0.14653448139940267,-0.31037636381652645,0.6560296374523344,-0.0834281970253356,0.4589810430906066,-0.9302771987313786,1.146482455240489,0.3504874308301644,0.009360629207234246,-0.0720275471354573,-0.5803162522001408,1.5862555203118447,0.48849566903535124,0.11470452867790366,-0.3032723404389594,1.171835442778458,0.5328080568599501,1.4684544361045628,0.7281714538573111,-0.06914436764481235,0.5237842830668631,0.45862823558490445,0.9308489525163987,0.6669398679563037,-0.5510025673173102,0.2563685498269477,-1.0432224788396407,1.5108479776140609,1.1103157247651296,-0.024006838591782334,1.584479555281054,0.20526932539449005,-0.15973808170357903,-0.5207717322741702,-0.2709674404370169,-0.616799405289276,-0.4520295673294444,-1.1557861373959355,-0.8480882322047733,0.048173836704183105,0.041614107094373576,-1.328512338750812,0.9105184592790884,-0.8542230568230663,-0.7164401787032065,-2.1516699757031974,-0.7176020403959067,-0.06125064887874422,0.266474911338847,0.24826536093196475,0.3304517959793586,-0.9730891810552735,1.635307364537737,-0.7143370680225607,0.47721370823522336,0.2860163328619292,0.6844027403291058,-0.5614868156285033,0.9474856252448658,-0.48093262817607557,0.607524395663007,-0.009946818980337233,0.6607363952172579,0.5621001184974154,-0.3339342560538628,-0.7891168702326791,0.5873371493285595,-0.6778184319056452,-0.022652350762838922,0.5615295480061415,0.27905037692640383,0.09276064686172969,0.37795903296480826,-1.0693575373157487,1.3815160440531362,-0.0997722165561504,0.7701947007879634,0.0440464423514914,0.7952986866032945,-0.2628406302255632,-0.029617484858888543,-0.5608932798950965,-0.03540432640969793,-0.05735445317097022,-0.6828436987333454,-0.17490057763858796,-0.33810750638957304,-0.6203203536695019,0.20213803861715418,0.3126647225932893,-0.41061759601489145,0.22415490030264804,-0.1476571582129467,0.1468383422564274,-0.6963345327260705,0.7090889715545329,-0.8921610410394644,0.39045714993718383,1.4084969869054371,0.28301864452892106,0.9156011114626253,1.4261108662652058,0.3493088606432139,-0.30278593757366423,-0.19499436629524947,0.12307439363293701,0.9795893577188144,-0.4179580213671548,-0.8814374289446454,0.15387180229489303,-0.4951686450609849,0.273237519882024,-0.11897868104571466,0.33705758483131804,0.9062905350763217,-0.036533338519829775,0.026945591553191657,-0.2595713426106861,-0.8883361379990107,-1.035855989239853,0.16001162732294202,-0.030220159120324865,0.022251230947911513,-0.07167909476587606,-0.39500974280718754,0.005642307685150144,-0.8959210867442736,-0.6979172885561755,0.7971803831273907,0.6864500304536238,0.3466105980150089,0.6410429829288788,0.4171268799242438,-0.2114769149966655,0.09841831554414457],"fitness":13.004334333333333}