{"v":1,"inputs":13,"outputs":17,"arch":{"hiddens":[24,32],"bias":true,"activation":"TANH"},"weights":[-0.6761223975875842,-0.5323081845770041,0.09658902303246764,-0.030220159120324865,0.022251230947911513,-0.07167909476587606,-0.39500974280718754,0.14778109528838618,-0.325412440998303,0.7263082525547779,0.7971803831273907,1.156793911543834,0.2958480020981201,0.4422304627794216,0.4171268799242438,-0.23778888136852466,0.2853379361395725,-0.6564744138804208,-0.4097100039399266,-0.28840010334940336,0.3019579972068804,-0.45705527328642515,1.2154066282758014,0.2565870828102829,-1.3868598204692073,-1.0271266811042183,0.226341227020621,0.11056350752384245,0.02647723144470238,1.0773431699355613,-0.5143410730277033,0.27688975752667994,0.6903474305102747,-0.5013648302567263,1.3960164468401381,-0.3736851935339679,-0.16349163528429558,-0.678957285893093,0.04765029234537099,-0.007723473461434677,0.7789680362082804,0.6422105209741277,-0.16749302316584685,-0.10792510343214705,0.05505296364053588,0.550395763430321,-0.8415014012072423,-0.26964457900240396,-0.4005994225952192,-0.2876062269720649,0.42424344906058975,-0.3782763624622222,0.07507469334511584,0.21955838679668646,1.0918957534992038,-0.5714758530668109,-0.9289855605793901,-0.610699730063487,-0.6430222965038233,-1.3058832237371545,-0.7396494957092459,0.16768107872220706,0.16893209331627745,-0.08551781182637293,0.08132607556124917,-0.216249893165188,0.501548863560827,0.1771209846503052,0.010085694254095369,-0.44025055659358736,1.0187318472878806,0.9133734203930985,-0.3587393407310133,-0.7362450112799862,0.650568491211511,0.7544891487781271,0.6709954390647549,-1.0964163741472515,-0.5318657134677751,0.2910307112101662,0.9140238915165034,0.02027758733763637,0.14047061995798643,-0.3037392088644474,0.803952343644772,-0.7414918842448545,-1.1469501118997378,0.33721937618381437,0.20465984417261343,0.36624676481351953,-0.15529330264341873,0.053944349384932665,0.40497798284877895,0.2154639712426034,0.08733516423296044,-0.40726469040019003,1.158659702620878,0.1278800655489692,-0.8674138711156425,-0.11112834473043087,1.0858006250366032,-0.6818829576931574,-0.5586830088032005,-0.6054200802981949,-0.14936616360266816,0.19792654360550707,0.2975882517262278,-0.5331077353792832,-0.6273224820868287,-0.5350599932274934,0.1613074801886068,-0.880881117535517,-0.6049753023260681,-0.30253659598332105,-0.20485620848913544,0.47108612534095146,-1.3678365022115453,-0.7468223659338014,-0.07688416637616896,0.6434091768048015,-0.03634519642495658,-0.8020376763468092,0.5974041883067391,-0.8487390892634029,-0.9127449071268412,0.7673013355637993,0.15098487433482496,0.11514219217515398,-0.37830735865364185,-0.8307853376562607,-0.9857856103357922,-1.3908255938516472,1.4744760410934028,-0.9213729414816033,0.07546050258711716,0.08117796675300183,0.07720627919147721,0.9520054849897621,-0.6127663100282597,0.10984342009400576,-0.4723674790392907,0.24697022196280208,-0.8326127535243023,1.6595066174213184,0.1341149261266426,-0.477965867317395,0.41874175434305205,0.27034108586291145,0.07839310334030457,-0.11417365050312671,-0.9023300746826448,-0.5174356057235935,-0.29770171699096726,-0.4373403440190596,0.5016620085332613,-1.2896417679405012,0.9193362909299735,-0.28489049693332363,0.9107307690804758,1.3475520653252822,0.28967533693856584,-0.17977839635848722,1.0496928439204718,-0.5724356881749885,-0.28719054024884405,0.7763062118465399,-0.29029886854922937,0.6868130549500002,1.0930921672969678,0.09075694470305214,0.33262469742559575,1.2737245351586541,0.17966840739087836,0.20714685122249504,0.8605609018944084,2.003463477566979,0.024069533787932862,-0.5877902829680525,0.2680333913759453,-0.01975953094406561,1.1136456931674021,-0.8932865535508859,-0.6161071293788389,-1.121839931505265,0.17414121852113662,0.29587302292778106,-0.5168136314693975,-0.13851585277409725,0.5304123469258141,-0.7716505781660393,-0.27817798917877573,-0.293768811736967,0.04080723887206813,0.10367374311431007,0.37196934335625603,-1.4422394809065355,0.6714000851136648,-0.6107158990496563,0.16074923861252938,0.24838361029308434,-0.05938109443984903,-0.6868114131832629,-0.18169260694228473,-0.3059819994665923,-0.8545941469643212,0.2234511409918595,-0.28649608479592414,0.013854890089798963,0.034636948040226746,0.3952217732913669,0.11851689832559335,0.6251690868687311,-0.07992158746709428,-0.36050745119484373,-0.8299953373845989,0.36183893414510804,-0.19261946550189163,-0.042972414506686124,-0.38352707319985335,-0.21175270402585006,-0.4922732029142032,-0.9776983204962151,0.4152365037856226,0.1953546159730728,-0.34064648534282316,-0.6663889938413449,0.02192325656756868,-0.6463925384802803,-0.05892684159002401,0.6187890336662096,-0.7911854172918167,0.23328153475773525,0.12038030545741707,-0.12617123889454473,-0.15371976228455653,0.3750380764915131,1.1700211584262232,-0.27681800744711876,1.1461983247338365,-1.0518998551166585,0.5709900472872496,0.8668234809181211,-0.19334209642047698,0.5953651074553384,-0.9283307608743523,-0.3445694707482096,-0.8862669145195389,0.09051769107956414,0.4378488899124498,-0.4601383898906192,0.1286670342745677,-0.7098046189750703,-0.20828195345305847,-0.6308733662868655,-0.13485803712843997,-1.0996666259285206,-0.7513658986085359,-1.111081719271466,0.8944381106537177,1.022054271602404,0.35757742140437976,-0.34551655302334805,-0.19598728289047723,-0.05279322973265061,0.6511382091651935,-0.20462017067939137,0.467234457643511,-0.5969000975760291,0.09361236221967716,-0.23571903939265315,0.4945040994261225,-0.4894104001271048,0.5826490361152044,0.4591356539952623,-0.4727361758590508,0.3678242655823922,1.631730585961776,0.2042063274445205,1.6413534918476476,-1.2358518549064361,0.4363024561602885,-1.3495196335172623,-0.1876543225661302,-0.10732364619142144,-0.10137583828296812,-1.0365500323209047,1.1734248665425664,0.5920560298805229,-0.11597029406405984,-0.6344960723761726,0.30031976593718357,-0.04622296288580252,0.9538313415243495,0.412704589472791,-0.48258432575023125,-0.3089325724251039,0.5334287460055588,-0.007530796633878308,-0.30348278751216773,1.0370504284803739,-0.1216556038345778,0.49750091823184095,-0.038863445446303914,-0.33686286363743184,-0.6624033584109686,0.296438919798316,0.8068852841592107,0.2366043460658832,0.19418997122319842,-0.1885087324347546,-0.38508080192097605,1.298128340235997,0.18125414858140332,0.430311592949594,0.6391637668020581,-0.3715773125208754,-0.9648443317899994,0.03389866720333335,-0.1875653328204255,0.42762541766971013,2.1605463001375953,0.08406528671763978,0.13250043860363817,0.2561135525717181,-0.6851157974372112,0.2000356217753314,0.04532466313995939,-0.5048513795050058,-0.22634103562994579,-0.4587615603227772,0.7757769287196391,0.15739590534164077,0.5112563669162336,0.17097668160583038,-0.0624231069850401,-0.9641140822654192,-0.04254335813129367,-0.42501392340913496,-0.20406438669707103,-0.046186402244426064,-0.4894313992083501,0.1596231437040022,0.4499207583833757,-0.727746486988735,-0.9012567965357761,-0.19679393304429757,0.09085597880200962,-0.6923878439554504,0.11839191611810368,-0.5702864083277625,-0.3742826063100196,-0.6576560216156906,-0.35467536543099454,1.059852310272177,-0.5459391982390683,0.32370417480704583,0.30833518878910277,-0.6513563570783998,0.5405225665558142,0.7620445985750024,0.06464921300804732,-0.03226227335582621,-0.08743921448468657,-0.14777894389277813,-0.8283010495917941,0.40549637843725433,0.6344335868768841,0.842694837799974,0.6188443230108776,0.8071968033845655,0.7510063573116522,-0.26712017514734154,0.7113729901835785,0.570444926191989,-0.26650062982602424,-0.9029938419655734,1.15186490979671,-0.7166676879913524,0.38878643133756724,-0.1924179984835663,-0.5712521424204987,-0.455039204242489,-0.46027370986787486,-0.11146293833526166,0.30080379722682776,0.3455618256873677,-0.7157627915732637,-0.6321641721076917,0.7091802021990875,0.6459090976535994,-0.28136225250314073,0.756665669030058,0.642008520733822,-0.6190996033719542,0.16317624010728102,0.028954939472513506,0.13216846152768497,0.8161201258243683,0.3162884460740626,0.8919568620682731,-1.1499872794233796,-0.1190261985433366,0.09789429096531223,0.4725769068255226,-0.21631645413904335,-0.8450600900622599,-0.659773325416611,0.3084283186959504,-0.06695603900170054,-0.3414168433394156,-0.0358847917855382,0.04316852087450326,-0.42705401798626386,-0.5256076856574043,-0.18854956220360475,-0.5529440777106283,-0.7782849639663486,0.16553331397178433,0.8124050153697938,0.28873813481020494,-0.343082620016278,0.7721707269683792,0.4014026485847841,-0.6514479504656822,0.23469749389729644,-0.09350036150918412,-0.482548806372687,-1.5345365441087675,0.869900523546308,0.5193509410778119,0.5070371858383464,-0.23774704413886613,-0.1946890133532197,0.48100167973772145,-0.2810979407406229,-0.3691379426978937,-0.29573836984544843,-0.9522052815151032,-0.7666303696410868,-0.8230075886646772,-0.762508778392029,-0.5105247408921744,0.6344814258544514,-1.5789370903342383,0.012761924039525604,1.0705890628674013,-0.3662854238088257,0.356771978028872,0.06325422850960938,-0.2573858418158777,-0.6471820300873785,-0.24051400776880924,0.012110919567933448,0.8322342855394519,-0.083820460140222,-0.5055908090683331,-1.4639015798131587,-0.0013666686045021859,0.199071109232736,-0.6179566652125773,-0.09852670798061536,-0.17225165069928264,0.27718463283852207,0.8006924990955351,-0.8458110397193896,-0.8212264087208221,0.18028461368253426,-0.17803068326964452,-0.24451962907475117,-1.100553303155847,-0.6640293017823437,-0.4532263993760619,-0.5054066406592491,0.7210573161116782,0.04068593512528088,-0.6579065254104174,0.07606397104980854,1.223374056782789,-0.4256192666084294,0.006379366986176215,0.5331065582264913,0.9517665027683881,-0.2536719411988106,-0.33927141953868045,0.2481845239352746,0.6593137437397086,0.2609055787079038,1.7553814266810583,-0.5668600605229906,0.6316197345689049,0.12203109866945253,-1.1544204737646282,-0.6699714577486023,0.6040832124005014,-0.5140596902058224,-0.1716343862513902,-0.1571815005198857,0.5332219260329384,0.25142480696788566,-0.0482590777773388,-0.2968124515346713,-0.19975087049575038,0.2799100698823258,0.12739010199826856,0.06265156214204062,0.1266408565974223,0.39333483779096073,-1.2126368547578104,-0.0035466660182509324,0.14586823337944443,-0.3577067799899154,-0.0747197711457235,-0.2554315146131083,0.7844226154196977,-0.32904857332135523,-0.24435794644115405,-1.2604918213798464,0.40009734181875173,-0.050266777934173494,-0.20037317871619434,0.19688490849311385,-0.6887008190128271,0.3662781483301545,0.1564790342113096,0.7404591314794472,1.0380168895347934,2.2334429187443208,0.12596309857285987,0.27080274294631373,-0.32624359616061377,-0.0018074226331926003,0.509099279881615,-0.2080734961898307,0.5745438492351043,0.4883066448924773,0.49149378091461265,0.5264234924921529,0.1864300550505414,0.5731013432872709,1.3071093623221295,0.0777209097634394,-0.08837591370726187,-0.5962457858823313,0.9631607828221895,1.321704633252877,-0.7911578928298764,0.04462864551463567,-0.28390599364786206,-0.829928876531672,-0.37666920413928934,-0.04911574004579816,0.795611428128103,-0.5817110267270064,0.28574351232412026,0.3299434430899048,0.6683975486614329,0.29581114337267994,0.10222304114978295,-0.4952321861204926,-0.42206614979463414,0.6550032482294406,-0.24178737363703118,-0.7046145157692052,0.40551600635039486,1.1557450922054486,-0.7559091045494469,-0.018123369703501035,-0.965563628719537,0.10563998496538156,-0.9098309198629053,0.4360231513137251,0.9502877437953967,-0.32185969707695306,0.05261225766406619,-0.6063838829610251,-0.3983192502309086,-0.41916387645194847,1.2973795669837465,-1.520269829291503,-0.650153873448918,-1.7989143706606645,-0.8458567102351248,-0.178462740031001,1.0993700684975456,-0.107689368040166,-1.626757434568259,-0.3733866543416675,-0.3532254212834395,0.23468597701718788,-0.2707142457425034,-1.024874981953759,-0.20209326315804452,-0.9433612644821138,-0.3938039991601738,-0.7271908068137672,-0.31578812921451177,1.4767114377529507,-0.00608419802935628,0.6800906057848323,0.022633976870099166,-0.17302957751906464,0.2338653063819107,-0.5067859756371069,-0.7732285701163302,-0.4596866290517436,-0.2724566292471809,-0.02798339657882907,-0.02719217911111734,1.1552881261263237,-0.8565413830388532,-0.05271507668387164,-0.38083632383918103,-0.5693872681069567,0.32388443343944656,0.23211714283634408,0.38421164869881197,0.1418353727263189,1.3360136448503166,-0.1768123091806281,-1.190309414870936,-0.35009657157950824,0.7225565590054198,0.5694066053684991,-1.68488399933655,-0.14107754954703092,-0.023831822779901278,0.4356281993583307,0.18569104975208006,-0.2959141945609507,0.3316615993695679,1.0364865543758368,0.4552297125356545,0.529731562973046,-0.3781884846890881,-0.4099358257064946,0.11033944839949053,0.5790573140666031,0.1760578338794991,-0.909828691542935,0.8009617025006728,0.1429631839352056,0.7502614519206856,0.6616532850167426,-0.17032813929961782,0.27531075952439266,-0.9811317453419339,0.28213217512614913,-0.908633295376614,-0.11591945200757817,0.33978658268195755,-0.7897585007733425,0.32169910523780826,-0.19003902876472564,0.19987647392300661,1.0417484142608961,-0.2939045265051933,0.11140406705900693,0.32988224911430497,-1.5312125676116173,-0.7488332075064847,0.8328828729790227,-0.2867363689864363,-0.6540058537886411,-0.15652918545561453,-0.47544151502281556,-0.5595449422919565,1.0886231510324749,-0.5907996577119041,-0.6826500681060913,-0.11562067245592753,-0.9179904031797866,1.1001204717923008,-0.46259768279984076,0.3290346478505318,-0.5089095267849241,-0.7130911556962806,-0.04502293519046928,0.22043952454591778,0.5067555390143224,-0.5656234552850938,0.542985585162948,-0.930085785284018,0.167668881183373,-0.2664939395873928,0.36112081520732636,-0.5300721427187377,0.18116956910209434,0.006622561234663676,0.3809575781777244,0.2610380814588312,-0.16916581322929267,-0.5837261021437656,-0.2850815507877591,0.19028198829090195,-0.25441916648138796,-0.4761400204694639,-0.49860567873895295,-0.37787122234871784,0.028815485365864323,-0.2670472304550099,0.030715722659503203,-0.2986247942079983,-0.9617016520090313,-0.5105900719432599,0.17954409412633432,0.3143155467166336,-0.014940944453427783,0.1682015637033683,0.04945882317098247,0.1591600756423949,0.7822444886302817,-0.20365647215301796,-0.5012303966368317,0.3557391956113706,0.602621272997971,1.0852381876899646,0.5270333628094358,0.08163550256682948,-1.328059594333702,-0.30391313071912635,-0.2591653893654558,0.8223133232917433,-0.24473948708445314,-0.3270949554433215,0.26152990702946566,1.5983407607304834,0.6474460058955871,0.2793382588364766,-0.06624165071573619,-0.7097431666119358,0.19608176884770473,0.18137125325049316,0.7268428435182847,1.01928609952943,-0.10285252248300389,-0.12944814186756168,-0.9168143742818622,0.13730505986401215,0.27075274196081595,0.6227657159009173,0.517826398627016,-0.2697808393411177,-0.9768775623186198,-0.42636110043646297,-0.023426578527521155,0.9286010023256515,-0.057486944688901545,-0.1426885644876538,0.736626886697386,0.024452555727114356,-0.5120869982692203,0.629237122103954,-0.5145116558900094,0.6406349870831106,0.49272166012628205,0.4900840589215464,-0.535017167165594,0.02791162586513828,-0.05764926737308087,-0.12851125580987563,0.09233021297153217,1.1688785399657347,-0.4074776756333298,-0.36519446118378207,0.9935890798775776,-0.4786680444794784,-1.341217383218442,-0.11199784834986926,0.9680395289061173,1.162639156157669,1.1440636319607238,-0.29072459054676447,0.5587555925159947,-0.2190006660179793,0.12682824815863258,-0.5941674096597894,-0.9244324882547901,0.2921489777246224,-0.04380732295141532,-0.49822147673006156,0.08752946997296991,1.3710523886888193,0.20345253361506102,0.6115595945531951,0.9587257914366376,-0.055242897764595095,-0.7547201971426895,-0.20585085542452286,-0.12576913921957245,-0.7161165779260475,1.439111494873542,-1.749774321731165,-0.08876096789018971,0.02154866222385533,0.43752010498200133,0.5116698303682915,0.35862892989275114,0.15778076136293656,-0.4145614469210686,-0.30426593265894275,-0.1295121418894158,-0.4235629021601321,0.3818955180349724,1.1286607068666754,-0.4053478906801876,-0.3553478478639294,0.43528570871009653,-0.052202614656714275,0.4718159433302051,0.984036442876678,-0.3666520673638555,-0.09493208477998562,-0.5876990129271744,-0.4768565414469722,-0.020117622083187226,0.8979005324929153,0.40289330625757164,-0.7710039948707785,-0.7638394663967022,-0.1413806118324696,1.3551700916592295,-0.6097475497090239,0.14723240449282465,-0.4669965480232785,0.35794300198512274,0.3042773401762602,0.45805307723944366,1.1390495733869956,0.2702112198890727,-0.5988522095826565,0.2976861747476938,0.23223214187354005,-0.5121767534414874,0.06034762371565216,-0.2802047492765699,0.5732052596873182,-1.1142514964571786,-0.40888660332725557,0.960173277867741,0.8149476049554558,-0.34938835848070043,0.9056030343577316,-0.2340474002687358,0.801777703814703,0.8057483519623005,0.8051834485485918,-0.4635753944303085,0.576747400340425,-0.11760046804109237,0.6202553540645562,0.4471354949286204,0.22418519161219136,-0.2820878125721853,-0.30563229502247025,0.03734669517656738,0.2718980859743462,-1.2681743828006793,-0.1250539087132425,-0.20842927997801675,-0.3819410372455273,-1.1009691789813956,-0.6204369852638228,0.22793836450355942,-0.4049521892168703,-0.5148753589399698,0.406114923911676,0.0442230559940765,0.2509503957990039,-0.29217958624738904,0.4282241099740632,0.4840944830886829,-0.14500548615612488,-1.0969422597271923,0.10087948170549664,0.561348161913311,0.054147484143507736,0.24728948534733197,-0.11305737979121717,0.43370018434028623,-0.022269736770219307,-0.3614538012570754,-0.32588781497462593,0.10802439592725926,-0.33091177976460767,-1.3447548131337368,-0.44672787703103634,0.3047067368174863,-0.6575175908141329,-0.013334448474174442,0.8266791611049755,-0.7987049136138797,0.6960190484646517,-0.02926644549708574,-0.12951565551450955,0.06956127703375534,0.530164585886061,0.21955498357047723,0.7835066186285652,-0.10736059029533397,-0.603517281865807,0.3504235293837109,0.46552347050078413,0.4250036858843543,0.4424594139370248,0.7335413909671754,0.5964896641327119,0.6715677797649773,0.2973206119105863,1.4172212539065367,0.6785501017517619,-0.05981500185130914,-0.6511900622026088,-0.03079635442965082,0.4055560353720091,-0.6346024428085296,0.669177278553469,0.003894009382090156,0.3898694173586624,-0.19043394298559624,-0.4066518507958347,-0.36149218966988966,-0.4882391948246223,0.5937357963616708,0.036439324023889136,-0.14268731093251197,0.22810867560292677,-0.5901279873564331,0.31217934403030156,0.05273441743383107,-0.41505897879538384,0.8518867813532732,-0.734183805135423,0.008662405537145576,-0.09896752021380507,0.6439556343213498,0.5955693520777849,1.13980166077874,-0.17043872310722422,0.14448808684318634,0.02067294544825449,-0.08762511002842291,-0.243532743271376,-0.827911776842778,-0.2944881981301701,0.26002429473492455,-0.03969796998578223,-0.2682139342943378,0.5049269734210755,-0.47742222714785904,-0.1465722942332627,-0.432998424183171,0.49990081606561376,-0.32096142191278254,-0.05063360917145308,-0.3060634497505322,-0.06613898252106809,-0.14627326712834363,-0.8608216251933015,0.16968636926888003,-0.30962853345974956,1.3286039969845402,0.5924365670016645,0.2112942152452812,-0.7545794830754077,0.23053654461505158,-0.3148527637032868,-0.24878300602060857,0.12477080321988361,-0.35976000702660954,-0.7770324461865357,-0.5310809367690278,-0.6518209791162665,0.07074559531827294,0.18796922703220673,0.48726796740000883,0.5148934645648305,-0.17789523538742238,-0.21012329388149878,0.6230215876488424,-0.03761736580593178,0.1871197152048308,-0.6458969867692748,0.891658639981599,0.6605917009202656,0.9953629873594096,-0.3671539526650748,-0.06948739715890015,-1.0360698040191054,-1.2253348157836899,0.4318913008747523,-0.7145371311172581,0.5358871745272994,0.11900259271449161,-0.0030941401200179582,-0.7532023997661244,0.16483807688447977,-0.2216922209014403,0.2628243411313719,-0.482125564562281,-0.4186514136635541,-0.07746196050979275,-0.7078742818102768,-0.5963691927527822,0.3776570838486789,-0.786411023274609,0.00018242663510922857,-0.5944298786664404,-0.23624620205338534,-0.959023686378041,-0.5602755389549617,0.061372771972015544,0.28132257662693044,-0.4358456426629554,-0.06329604156634239,0.18736109201006193,-0.27557001518614693,-0.7645302123319313,1.0173643561668566,-0.2041869592409575,0.07693295371005876,-0.16553905629142082,-1.2437606504968792,0.042881804574735886,1.7695538188723692,-0.18407574628733678,0.9707601464265724,0.09319052594139178,0.2585058921117153,0.42848780162013245,0.42197479259598014,0.5551796492529325,-1.1364220388832988,-0.673819429984024,0.7066758445420858,-0.25717792255767985,0.20573626371003742,-0.24035872923100657,-0.6380603291166912,-0.18679089095079238,-1.381843636019635,-1.1315875177806771,-0.2985446800017394,-0.5673748532718713,-0.237529392205602,0.8506595938018539,0.2439048841968039,1.267328892739702,0.31935316679777986,0.00028760872516870266,-0.2969850068898738,0.44612718442800814,0.23639218098506562,0.052473364110748676,-0.3954019262834502,0.9971587471809503,-0.5212630032548184,-1.8660210346388306,-1.3037548168682656,0.6025351187801823,-0.6564472203593256,0.1709651595339295,0.34216881497158846,0.12267463256949887,0.4681688211145745,0.37352619226282346,0.6031523372493005,-0.5008183300745235,-0.5359532105471241,0.20386320272052935,-0.6357054431158998,0.06138007589116275,0.36898936568510593,-0.40442568601292134,-0.4970299276045013,-0.09195034285256905,0.9823189493849127,0.5190218280698796,-0.355195777538406,0.11381288743639961,-1.0782289180318447,0.26281093848092163,0.31343063433801194,0.08890378654717886,1.4231546259609025,-0.5825786769708531,-0.5994204107494371,0.22965028720985708,-0.9167043885769804,0.37123874169022003,0.42033435924617035,0.6023700923269519,0.7569071242041172,0.24577507015168643,0.8914862261228509,-0.3586500214603084,0.2903501232928059,-0.10914420081366541,-2.0775636629973513,-0.32238293936104323,0.15135253423583964,1.42339004842262,-0.22369341396819195,0.7467668516967688,0.3964295569623976,0.15798500626196108,0.7911022536671873,0.022279309987799138,0.7145818037913892,0.4769501515148745,-1.5181057147599317,-0.04568447788195842,-0.07600768709222491,-0.5128182785387048,-0.37092602238828465,-0.35286667174484726,0.13804290877902928,-0.1538453130778385,0.5682917206004523,0.3536341886429327,-0.09076688370975551,-0.42738381611243387,-0.7328595341254163,0.641705122372588,-0.5484628004189048,-0.8866612803299123,0.13855584996767795,-0.6988567749536895,0.3998999675348722,-0.5341310589520999,-0.3056014377418762,-0.9822443859611832,0.9362772419593038,0.43691246744000317,-0.20129482600839707,-0.20947577748459065,0.46962819090505636,-1.0652459673464478,1.0672537030177507,0.37047024461054473,0.3278293839985303,-0.6117671630461851,0.2666777601093918,0.4191917713344235,0.3417439949761356,0.19053017353252513,0.13769390720132546,1.4113245188290753,0.5820412292512125,-0.252850142481955,0.7049497075510548,-1.6830513395513789,0.3572182664317568,-0.2199281889216575,0.7746647452751014,-0.41457755940390845,0.59351845077958,0.5073340650707532,-0.7111800711845196,0.40607071686161045,-0.28898043523951655,-0.194233867668493,0.2631960594792621,-0.8036835550810665,0.3408901385406817,-0.5555263598410161,0.002101598707151411,-0.24318517084393151,0.12114196078301842,-0.5809974317727746,-0.29730928984436295,0.660513773093811,0.10573704673548755,1.0371129791102758,-0.2580579402940361,0.4489780858531713,1.2557322541074345,0.7000798080036458,-1.0623957733396914,0.33322393050892285,0.266607407048093,1.2993844154651049,-0.5420304103928508,0.010170966496784839,-0.12751413244219195,-0.2897175108193512,1.2953393988318547,1.0240117831036066,-0.6286810046773258,-0.65208986436909,-0.14101624852018407,-0.9041536818730633,0.6618967175566002,-0.1346942523016142,0.1944027774475333,-0.4295878341844863,-0.844242714987885,-0.3734538052936138,-0.2515667463700214,-0.8319908445412141,0.223518125342912,0.08410689322148561,0.5586712176737488,0.7391161146577168,0.5749805173274836,-0.15235777852538537,-1.9872200064034842,0.28375214969175844,-0.48569277064581173,-0.061491560377892225,-0.5084858750785748,-0.0835070203946407,-0.34386001509003317,1.0734672075754603,-0.24660107348257337,0.25281705356842354,0.3236019781651366,0.04550747218081939,-0.24256906079279644,-0.07044299826840895,0.4842646224100453,1.0285217452646107,-0.14496187607459923,0.39455089965104767,-0.5598719638543411,-0.518135288425006,0.7512318789394754,0.3669408904879462,-0.6291725193865668,-0.7461290702611768,0.47255108886473596,0.1679459043750025,0.07739429652315966,-0.8829497691720403,0.22000683632142007,0.577939725711123,-1.0962917580292835,0.606660530786863,-0.5293678060688076,-1.0422584359615474,-0.6279071925722092,0.17777313919004234,1.7039272533705503,-0.4084279615924475,0.5804917397108859,0.43378867555536876,0.1588941031128142,-0.012022510656949419,0.22275561561850996,0.618401320217549,0.6249740004410754,0.8375319785583127,-0.3177145329775107,-1.3349270791390977,0.2760009175473467,0.45048346174845094,-0.12788242864820767,-0.26264300585094247,-0.6998383747841024,0.3377546026495925,-0.13977817421855207,0.12250206476491199,-0.2399104003678858,-0.0892508919469597,-0.671336039626671,-0.619032349717925,-0.7191986927785253,-0.44647940073934467,0.12124821591591756,-0.02741393720470873,-0.4771108655291194,-0.16628874130269844,0.32868701730707583,0.2805598739272255,1.193447625990081,1.272043054362727,-0.49847414869936957,-0.3612131147453826,0.5185248837064554,-0.5239383142435314,-0.12070133290807974,-0.8008142058384143,-0.070526294414848,-0.29671236997759215,-0.034904582008085036,0.46142776065949853,0.5768448639637872,-0.1538760425688596,0.5481973721442809,0.2555085315732725,1.7109443837454024,0.28097764259215346,0.4219588038504261,0.5105734721096776,-1.0158281268613167,0.39291957954778967,0.04505433194601245,0.4331962434045177,-0.052319916691855615,-0.8862577814737336,0.1940414780614908,0.2946049806506066,1.3078206122914715,-0.3124232283198707,-0.730867259163891,1.2221553512043515,0.20006930065211825,0.09289952455000225,0.6855206255014622,0.6599466352807105,-0.9746570495944588,0.15199570743864385,0.228118450516905,-0.06106279353966214,0.008226543093444949,-0.5401917780781147,-0.6139297436326248,0.7680123783908286,0.00731072878077508,0.4914118922730286,-1.0997976017298774,0.4998151939914193,-0.20405604074892383,-0.7878781550000483,0.3089009721023272,-0.009407556326789272,-0.4822700529878773,-0.7199044039510478,0.6417833046778896,0.2852489252327713,-0.46074149567630174,-0.6533382873885485,-0.7251497166657123,0.12137863731461937,0.7687546355964875,-0.4309696766377404,0.00038223710224381254,0.12198165963669833,-0.7199039024318555,0.022583365080107387,0.49296363161926304,0.44378290069687737,-0.06810178875018101,-0.282901539063002,0.18006509513044586,-0.5263603927400504,0.7997646066254114,0.6405894275408408,2.019148716101575,1.0478596610301323,-0.018780053375832714,-1.4520882926738636,-0.5398191035869859,-0.3791242000296347,0.2809935671030145,0.07375262663394912,-0.4067725879736553,-0.49396487991705845,-0.5990450900890073,0.8194518604620525,0.40399845164353465,0.4300374423412505,0.21989425214039685,0.2348540575594137,-0.6980371778398861,-0.8133761330243546,0.5787518343665627,0.8953488318950936,-0.6101764038694761,0.4244320092875461,0.3244192711637972,-0.48590997641704015,0.4174967756647284,0.8193037931931266,0.05009615921173964,-0.2671778749551432,0.07037434242467978,1.0863320581018967,-0.192328034975866,-0.833061821464648,0.24306998495162185,-0.8278380203667051,0.24643650314533286,-0.09891973108967737,1.0798086209931161,0.49820584908056187,-0.12864005995679836,0.18150185476192404,0.2965221460855917,0.3259587910231003,0.04463555611179438,-0.8962319376030158,-0.3129273773473133,-0.29779267385396074,0.23737787106524497,0.8833502573400721,0.15031125493336497,-0.3156633413155364,0.45590399639261,0.14782746727490584,0.8836459842672093,0.661879321214663,-0.7882960475853414,0.38237033199727505,-0.5760051034704939,-0.11659548034607203,-0.47429297246285723,-0.7147591093576441,-0.11755311556525953,0.12010102804504147,-0.6616927806904297,0.4351068134459088,-0.5275722778803651,0.6423938619551753,0.5383387703217218,0.017102081453432144,0.9653779168259475,0.09958661487799733,0.5161098610361531,-0.7845183891859403,1.1245415281347224,0.8221153269228871,0.46973302325427635,-0.11531072074935077,-0.26012246856235516,-0.49199451290302054,-0.4038470633520463,0.11770761176413905,-0.9933991229945038,0.1035984231345798,-0.08134272322847598,0.3343170657127952,0.4533077489680928,0.7714817405400288,-0.12138186293426009,-0.8137245799451859,0.1799940365415273,-0.7632230660951161,-0.8365861382132063,0.4991450154243242,-0.42165873676731386,-0.0788225072165974,0.4730314685122028,0.9272572530318727,0.35371961896686205,-0.3864279445372647,1.5926489626701001,0.7123861982243589,-0.38600861422893595,0.6063861123643377,-0.12480839209603242,-1.0850602352343282,0.5104791327877024,0.12386349550584116,-0.4195558580302991,0.39753097674635385,-0.6541226119538319,-0.17284395614996848,0.6200833934101143,-0.18245931173675728,0.3409463871681584,-0.04017131626028674,0.12933990369182258,0.6577206751807522,0.06095920324903883,0.524794251311993,0.421622889228618,-0.8522235300309057,0.024447913354452358,0.20326920624515715,-1.2386822347100388,-0.5398346614924816,-0.34052133362713577,-0.96555317073641,-0.450005611886629,0.10884453316049714,0.41994020482555944,0.4770630395122782,-0.11950114805376992,-0.692418864146283,0.4973177916369248,0.053595486365936806,-1.5166982975024685,-1.0863087864350924,0.9884800206747005,-0.029571805510221094,0.5722634292283854,0.5695315180817103,-0.5403491899655926,-0.4787046253248831,-0.27544306928588563,0.2677607134676185,-0.8345489802866358,-0.22759464796573076,-1.2476367307268479,-0.2778713704554661,-0.23561709328485933,0.3915998339140264,0.02027187576292201,-0.646394239093162,-0.5431144988395251,-0.19128855268826572,0.5347556609766781,1.1162787692493485,-0.1520332661663573,-0.22360794098558537,-0.43093878247802725,0.33988296335848717,0.3098843576082888,0.49216190542227745,-0.08150689608192385,0.7283977911354697,0.7884884301942985,-1.722835221071584,1.4630249964914794,-0.08515727902845828,-1.2317460158348785,0.3386579817021317,0.8966440190392309,1.23302280785889,-1.869811564568989,0.009595599447568938,-0.7678513970606802,-0.2346846787261893,-1.530937631178362,-0.22216168640443235,-0.5217925199185641,-0.6278287115667548,-0.48189205391419454,0.48884911530004566,-0.11866681217216368,-0.3803710207064386,-0.9690287349921346,0.6216872750379743,-0.508030640962398,0.5704479913769079,-0.276385348484036,-0.43354757577630926,0.7272045805477831,0.5597761418121561,0.09065626247988037,-0.1549906856681853,-0.5190223450060238,-0.27864693248855826,-0.6472288662923877,0.11955427974971869,-0.9942045103565148,0.19064463669424198,1.4877987153811318,0.20572828865901713,-0.009598402003961892,-0.5990160783859675,0.03717906191717996,1.41251224828136,-0.9673741757045728,-0.7940378790067685,0.08658205686002313,1.0877311761141413,-0.17697752090618749,-0.2804391460022548,-0.7403261791307968,0.5780087753502443,-0.46069592885202093,-1.1202125645879073,-0.6709668769101744,0.06234773938009071,-0.9574264734070558,0.06881786730211548,-0.12400385541295686,-0.3008936947572493,-0.1598483533233569,0.7434021260121131,-0.603593080433041,-0.875228827514432,0.6716724694222215,-1.3491500611639342,-0.647139749594243,0.6701081620134799,-0.6553969986923674,-1.5761930889271367,0.24526309121139914,-0.6854821078551282,0.6273345886435255,1.001297294994177,0.7711957084278078,0.27936520003283866,-0.02932790193220699,1.071196952537092,-0.015875131302682532,-0.10675481748604757,0.8043557254431702,-0.43811238807464614,0.7802805652418388,0.16468328794584375,0.40276100760291583,-0.014883837819159064,0.6008725510950297,-0.23215247382119356,-0.5894034496069123,-0.12137314701957105,0.5733232164297218,0.992664498135612,-0.5758535143698978,0.17944023335545886,0.2858138247536667,0.7576573254701988,0.28396743906482674,-0.43631933958681196,0.6415901179944964,0.29136163662143666,-0.8592403565318114,-0.9164515438711699,0.18436253413745998,-0.7204526736068436,-0.17579782378632564,-1.2004824005527268,-0.4349326483732397,0.1001199711921334,-0.652473057785288,-0.08780886285186013,-0.25631415067617785,0.15624102976546783,-0.01104798822396374,0.44013443313716216,0.6573368476979442,-0.9052174433777911,-0.6768132230856805,-0.87410892927887,1.4800659565342738,-0.7993779867535523,0.4109585474797212,0.9569296551077107,0.3197941867114709,-0.7946766699868586,-0.23179136736379968,0.2992898164177399,0.21861646350296873,-0.029617992533998563,-0.0736126972942925,0.30670892292945146,0.5940658235920339,0.16957275999346375,-0.9802590529390443,-0.617706583858304,1.1285798801526774,0.8547742220808977,0.1344354721624546,-0.2877099151741034,0.7644902193129067,0.03626055044811133,0.11338128336800324,-0.3096574371117173,0.605656420284579,1.1631234377695667,-0.0074190489845483605,0.11780434692047441,0.20498066385417354,1.0128185570455486,0.37589736383427996,-0.6988229459747977,0.28528534845616915,-0.6190455600372592,-0.36287321518414173,0.043952656470183184,-0.2166963619344119,-1.1895178852125656,0.20198951998322603,0.17291190281552618,-0.20018184533779923,-0.26352038350306134,-0.40085089057259765,-1.1672794759540481,0.161558913459935,-0.18870839099586334,0.3660965196740326,-0.2299757740968387,-0.5708351974308944,0.3794128141045716,-1.130105163522604,-0.2535679967315687,0.8851946673064827,-0.9701945987071336,-0.16665299175167336,1.476923032250931,1.0858166929175896,0.17211559547758618,0.40988135173041335,0.3074499690381687,1.0481142037214906,0.1899574704377485,1.0613407019759955,0.003432037303359741,-0.19516767009668806,-0.4778007613204718,0.09934882313020395,-0.22533388224067613,-0.26691047669659557,-0.008950796303914418],"fitness":1.0002601666666668}