{"v":1,"inputs":13,"outputs":17,"arch":{"hiddens":[32,24],"bias":true,"activation":"TANH"},"weights":[0.4186915356409982,0.6097994882723592,-0.6084433206695935,-0.6193053327520506,0.11129285503123779,-0.1385869688919449,-0.4121384831292846,0.86691141337552,-0.2788738230415339,1.3661933154613448,-0.79599096646536,0.4367102226448433,0.4140475094222807,-0.8570487081233945,-0.9287655495446326,0.2308935369002118,0.2026191779517524,0.4028539796444639,0.1233271799760289,-0.9708671758009839,0.41225576702982736,-0.6288799945607997,-0.04267195357495721,-1.603721496549156,0.47310040264799536,0.570148248833989,-0.2294956257476477,-0.02406031447586965,0.709742981482435,1.1635794727490734,-0.1361082949684048,0.44081330931463986,-0.6573075208009278,-0.4075717837930496,0.9078679179847444,-0.42115793791203865,-0.12729085791096661,-2.032750702801028,0.35827496049655816,-0.4573704202607921,-0.09893903776187739,0.5225697245888526,-0.8430234363105107,-1.2744505210630557,-0.1048542299028779,0.32226409975030496,0.2322495596074511,0.6635383828792856,-1.2251484180562702,-0.5572826099195948,1.1696475881699773,-0.11125181787623596,-0.5276826227667528,-0.5577275460134903,-0.08779480901675085,-1.2119477802421377,-1.5326458053516483,-0.36666947767157754,-0.3930205251503723,-0.5374648555335452,0.2045934536841416,0.45936588672636514,0.7956776570846167,-0.7398751191842876,0.668553932121918,-0.25420162114312617,-0.010422062350994157,0.24775860936077654,-0.4504299054453331,1.1981811677136067,0.4683592973253681,-0.20937159567619681,-0.8119642403071461,0.9917769666712488,0.252368579489351,0.6092354187238617,1.208823929534226,1.2534549192544608,-0.18575153114227483,0.56804956389486,-0.3587373733068779,-0.8040877463930373,0.7288613442303654,1.0130516642477558,0.04299424920430414,-0.677916400521892,-0.8571504410810794,-0.8574389772145428,0.7340378490015662,-0.6338534159926055,-0.7557713346796386,-0.546660787636741,-0.04340528946101191,-0.23026981504797625,0.8669022075978404,0.7207975481021304,0.06688006981901637,-0.6233452186236931,1.2645291472055897,0.7569746389975439,-0.48284220045866305,-0.73108862771411,-0.30386203281372737,1.2218312849618436,0.5557711389849409,-0.6250969321961282,0.4555461522302406,-0.4187006102716075,-0.39728472773953766,0.019286011496405946,-0.8985919765479428,0.5159477555815669,-0.0711358339763389,0.21479058793699296,0.2218699849791065,-0.4384248249696611,-0.062497583708818,0.6080556513290446,0.4775483904415634,-0.8924695602528799,0.2120319364846817,-0.15209730319286932,-0.0015347287315798902,0.9927244303235543,-0.06616215339288795,-0.21058776768169385,0.6662986221376913,0.8514980970931512,-0.35288729410830116,0.0012126741182260647,0.0336489758650682,0.4155666042015521,1.4472452956710964,0.1858660014654944,-0.6879895172323692,0.12010663275173296,0.3506486467700337,-0.05187768906851533,0.3347023858859529,-0.6546982537058118,0.4418201240818395,1.7456255508262681,0.05415246748373629,-0.23618491878495085,0.1273162078598911,-0.16830252024942652,-0.22297493018096218,-0.1053272784470167,-0.13230774386034366,-1.2967046741913024,-0.11703276515117263,-0.5126648725834773,1.2634714370664044,-0.14400613251849326,0.01565194343270207,0.9146953275170403,-1.161463520663246,0.06130327735529724,0.35749602436603506,-0.2960286546733521,-0.7541706973025816,1.3168331043230956,-0.5262484530716173,0.835159325995228,0.46362991089458994,-0.4566825891177995,0.13140775526984394,0.6869188925216058,0.7755815160960164,-0.6872665161103291,1.4184714042522657,-0.9024333583180957,-0.05133850022864618,-0.3304012200060382,0.7103493650513468,-0.19941667804774385,0.48440162183498925,0.18107508120341761,-0.3278717554763607,0.3698999316960888,-0.6702542986860458,-0.03892755659317647,-0.28337420937737534,0.5624966175156297,1.064907110915885,-0.051623239910956686,-0.12310600420100196,0.7945779283597424,0.006517458049451745,-0.11841845993010058,0.07851702439411758,0.020118476163193566,-0.30903829204719463,-0.01532121115856222,0.4497212453239153,0.061881165797945746,-0.7026715549001232,-0.17107998993941007,-0.40158076262136055,0.3802509364615721,-0.10102004862040173,-0.22695682567312905,0.489694242410218,-1.0756510708106535,-0.7110961818157197,-0.6026976971931782,0.3871875823704607,-0.7892033680284206,0.2044358726443005,-1.3458842254709722,0.2079058918743177,-0.12102760473670603,-0.3700894252521915,0.576076653562023,-0.7546346462468271,0.595868113909203,0.8107072163149612,0.2829288440928921,0.2970147065606368,-0.6632145096830959,-0.02001592267571997,-0.33109742590033875,-0.10261117274026899,0.7281962675496355,0.2234007855643164,-0.00978543130646787,0.4892526392164269,-1.4195347305027703,-0.7766588561243046,0.6581061938578,-0.40993046529652505,-1.0304090351946245,0.0610821800629979,0.2838107668652087,0.011584690716777299,-0.5964287300157016,-0.1917156104355851,0.6933164866282158,-0.6953674862591385,-0.20636547110663672,1.0958145657885965,0.9090672161530001,-0.4455745162843199,-0.1722023621070538,-0.48027646844624183,0.18187064900020022,-0.45722068982741104,-0.6272993721215211,-0.5408357948276277,0.5160181427856314,-0.4477528437764703,0.3159924871967886,-0.07054503183345148,-0.13719046022771617,-0.027387194937650017,-0.27664353012171533,-0.2770007556420581,-0.08846094660036596,-1.7425296673606347,-0.6620538714483829,-0.06581520331567334,0.37782773308368156,0.3053611473070607,-0.28460122994209314,-0.3686829022549481,0.5174903049529508,0.30423480469347064,0.8358852697227354,0.38538932250764985,1.326932468595601,-0.10632694773854555,-0.15082584775617316,-0.566598516303012,-0.5504357520400476,-0.4692303346425857,-0.8243199876975122,0.17760584081219005,-0.4604598991794631,-0.06666439122013114,-0.49327434352157085,0.5082716894522988,1.2669546916476992,0.05681467749972774,-0.4775431335563577,0.0010005638185262744,-1.2049075847548518,-0.7050004312150823,-0.3600156317075634,-0.11496882615452725,0.5056115433370856,0.4470671065213569,0.08667056252898964,0.19651213408711674,0.9695882706706165,-0.7134425325370146,0.7571314107821145,-0.7112073788439084,0.2404157492321227,0.030904229501378527,-1.4897667851400864,-0.18355717289240614,-0.49622214160578726,0.4209513622019037,0.773145997381981,-0.6196817025690221,0.8127023999248354,-0.5275672703788815,0.7230897566524205,-0.172345612646513,0.20038097061985444,0.008590262444381304,-0.44603526700776563,-0.6116291435134563,-0.5373682973014019,0.12068872601529218,-0.1807094938131787,-0.6270488197327367,-0.028285817276632957,-0.7061657118976369,-0.18501532580519817,0.435424556846232,-0.34156942376528376,0.24268700901803575,-0.16245152136917096,-0.15494457418642035,0.10286783427008377,0.053034869066921564,0.636656823546332,0.7099121506144862,0.6989365430482695,1.0496948475828494,-0.2584349029280477,0.4484599198313869,-0.7011893143917698,0.30598079405746165,0.05505964378134412,1.3847813633723987,0.8365992028608489,0.22882659320559023,0.7634709150956289,-0.06491005744324417,0.5568582800012172,0.28638840937858345,0.3695836735957391,0.06076585990473199,0.3261131766443846,-0.8127195992957787,-0.466401431410743,-0.7591075944812969,-1.1014264421001791,-0.8496658450800441,0.05234991866086842,-0.4099625286985361,-0.9661683401097867,0.26154859472125114,-0.00919693491017792,-0.4067349760241578,-0.23141716261514544,-0.11725824039094773,0.4513836123581776,-0.22226841319889298,-0.4219595424277395,-0.8207116942407225,0.07267124731562237,-0.29999418649817194,-0.16193325276459708,-0.16093817384512338,0.039301058911593995,-0.7396591149091091,0.3329301906499712,-0.543439569124774,0.5986184329717079,-0.38389437609515453,-0.5671651572436951,0.6735464061773,-0.8717625145369989,-0.25634109537938515,0.22462834225286746,0.3818254661994658,-0.10721833831586947,0.04230962243443594,0.07284287138577812,-0.027542777821087477,0.275194744747456,0.6827038909482367,-0.08648214946473205,-0.6161423315613003,-0.09381982340904185,0.7052576987523194,0.608827781577205,0.24818818278815008,-0.32192008334786854,-0.08281465692241723,0.04371238457161053,0.010084477928950836,0.961049305912874,-0.5045635678809683,0.33884779762154016,-0.7601524513923351,0.1339473984237695,0.2563411405447774,-0.33030187219572,-0.20296955382484988,0.6684109397701847,1.0643724687899063,1.1512852262046083,-0.1493041218807299,0.8478866393918496,-0.003924544466247562,-0.1646867007653285,0.3761072196604714,0.13893506463312644,-1.0030177597980732,0.7823585382541027,0.15129362719391656,0.822409908457667,0.41976221155134097,0.10333431993044603,0.0010899672371135402,0.5650981072179471,-0.42320901579895176,-0.4522091818816858,-1.0151078685334993,0.5389916448726269,-0.014290637803242912,0.22764478087884726,-0.474445639609828,0.08812143863187678,-0.3776391780867426,0.3234338588703436,0.16273183642362185,-0.8111888743466793,1.0263089044723783,-0.3394636631956514,-0.2589889730777179,0.34448948086630615,0.5678334336329702,-0.18861795891487226,-0.0043718467865101135,0.4092257554593651,-1.4353229389157764,0.3133248562394648,0.10963084796865938,0.8185270472170755,0.4369913880113783,-0.43833878226791806,-0.07032845828320748,0.8931065555209247,0.520628439616724,-0.7650082668579082,0.27572117982324007,-0.15514961886519266,0.30492149950119407,0.4584696441741114,0.5949389052137084,-0.2464552430318855,-1.1837373258057078,0.058471132511667384,1.1387807318167114,-0.31602914914048036,0.48874299520362624,0.5198908611804699,-0.36133635075050324,-0.34322945704873725,0.22401119943211054,-0.00921800510809832,-0.05389448494521642,0.053628829569298396,-0.9110209123381245,-1.0762508350448707,1.3803508115915073,-0.12096131141939633,0.6137589257777902,0.2092582096907323,-0.24496067237535002,-0.9185977986062934,-0.1800112985364305,-0.5877548991323286,0.3128660449318763,-0.022474420620800017,-0.3223976876439219,0.18542090173716685,0.8481776511207839,-1.7584904095317566,-0.8879810236827707,0.14813841715039539,-0.38408080710323184,-1.1894612714558972,-0.7570674367004413,-0.21227078635492064,-0.5005157029849358,-0.06656605285736628,-0.062349281960311365,0.7592172554352093,0.15352782613756502,0.259760527206455,0.21776512819111568,0.617681019036297,0.15567646799652415,-0.016139748329430603,0.36616150753843363,0.28758747435858467,-0.5615119845914553,0.44254092519910704,-0.7849192428346404,0.2990828661178985,-0.37447315345724197,-0.19983165185688062,-0.37292074240606665,0.19141313791821954,0.45213959171450463,0.20262000521207965,0.15494771721435882,-0.37049161345253384,-0.21269976897011722,0.009635959830304927,-0.7658915633836553,0.7824331568988964,0.9979735548755971,0.47102255704858786,0.9220019867657249,-0.01597806397849752,-1.5089614165929939,0.4286861232181652,-0.27065640002426433,-0.22489467580073272,-0.41964565624931977,-0.29968873852505235,0.32742765353325193,0.19172341558403094,-0.10708215633736916,-0.22527563722473432,0.752546317654747,0.5250723819320384,0.03947464421278187,-0.816857506117217,-0.4653319434792791,0.44594638213797766,-0.3212179719412085,-0.18902164069293617,-0.19395682448748658,0.7799347768274218,-1.2166384817386786,-0.22956993131448317,-0.22105755131202498,-0.18863747256925745,0.9811455701452056,0.6736042694610328,-0.1915624755399092,0.5150906506670355,-0.5919328143491781,0.7492051532120798,0.19749313454102504,0.24692622757906063,0.811662061629155,-1.3055928568035484,-0.01840870205768385,-0.28468684263534966,0.16276982459263728,1.0231353706315662,0.31352430727642006,-0.8890932493369217,0.9507247082505808,-0.4853695251216037,-0.5402244089402385,0.6690379817428123,0.5711908947483215,-0.0024011543372206836,1.2645588608647798,0.6669691521117231,0.2913557476583443,-0.5089361104481047,0.49980651668229104,0.8593438724308254,0.6606353841870644,-0.19145912315419134,-0.014964477247814393,0.05865352618174788,-0.09857878563937747,0.25810413820668887,-0.6366693266842154,0.08080015640125848,-0.874041735719721,1.1335860113666372,-0.3429687304976921,0.4268428015433124,0.3188468365419631,-0.12305792385887836,0.6147760351646632,-0.15013994588237367,-1.1750183374156251,1.4534851553851484,0.0840181191079154,-0.7104517324028176,0.7927656187803687,-0.11018395062899602,-0.032822878137834716,0.635319928857142,0.3713890892531478,-0.06033327679120146,0.11853587427292316,0.06151641357056825,-0.15297695722786078,0.6290512505047314,0.9397422824895284,-1.041343031014911,-0.9348292622305547,-0.09039538394769477,-0.027657882670437735,0.22666625482578373,0.14794226709070168,-0.3967000580183638,1.0734663365003916,-1.3191261519671156,0.1306886286825938,-0.2497917311917861,-0.48368691672668274,-1.4971294311300323,-0.5125961913030526,0.14978442248408913,0.46485295278857086,0.34264882160364474,-0.682929078502495,-0.4540726535572995,-1.450868445931604,0.25953180743310555,0.21803285662855976,0.38082455414059097,0.5804240411760728,-0.3032098447744632,-0.8330257641509713,-0.42382692098354086,0.36198673811238974,-0.33149610510382527,-0.8289830014113101,0.35464019758321735,0.07726616789102843,-0.9569052650576675,-0.1361986548543721,-0.4927198964050855,-0.17786795160592117,0.12037632476603644,0.22669971773097797,1.0557223128664568,0.2969488198546448,-0.6631603825193987,-0.11186758037871751,0.009342071840314702,0.1636151708735028,-0.16514324088773574,0.2466800592290734,1.3751941517250952,0.9263115688039475,-1.2245750348555002,0.060665851487897084,0.057310625082305736,-0.7789284958359259,-0.1983247917749158,0.11036955807954187,-0.41944696230456474,0.8271492729857136,-0.41590257604476494,-1.1034944339824784,-0.8724540651588282,0.3086118782847159,-0.5348086214843434,-0.8187200412993794,0.13491847199801846,0.5657591981991493,0.25228622664746503,-0.5547487139509458,-0.2118584229849874,-1.2909546682323316,1.2673566347519005,-0.000836449356502067,-1.0488897488793234,-0.5886698219357285,1.441166613022433,-1.4300408029388751,1.0623902574860251,-1.2584194712684782,0.5627599060502336,1.0888785501594351,0.5008883819108021,0.3587994090634684,-0.05324541852411972,-0.7701244651701684,-1.0955250476018428,0.5530511292362963,-0.2231060088412953,-0.3300344993449864,0.258092134184665,-0.28535388268013845,0.18687160953886106,0.038396729839442485,0.0551336216277572,0.22714515670797863,0.6204383454273265,0.11987701701653919,-0.10820643547610068,0.6178158027642914,0.6246709189550146,-0.5030940521269774,-0.3171236648663672,0.6724891802587726,0.1851316030636483,-0.21389750450576792,-0.2787044625160669,-1.4888071225282242,-0.11114898769645035,0.3656369180146574,0.5555585019833145,-1.6093427074501683,0.2618468886277789,0.7412683468794364,-0.1247446440533549,-0.5362508160479589,-1.4979217711652792,-0.1687829929619414,0.03137201582448107,-0.41234799023286944,0.11602921352257117,0.48958404163608515,-0.2863192514058917,-0.7666962559901835,0.8447591148130554,-0.25702762801120305,-0.23613990085499914,-0.24800144838283825,-0.5785348961595158,0.22631127358671724,-0.3686632979774818,-1.8386535669404536,0.8050780353705149,0.33324183573326843,-0.41211846116720563,-0.2887993487457902,0.1500541472477729,0.029841366256966095,0.13336979921382663,0.43575820999151077,-0.14038916461131562,0.39583995375200287,1.396140849847816,1.315821999448222,-0.3308752459543107,-0.12933545316607312,0.780754827632389,0.17669969696992233,0.04512015522594626,-1.619318648054814,-1.4772085101296717,0.19396134111256566,0.24651189007455693,0.548387202145018,0.0645433716307046,0.006418031848525954,-0.15225703983639235,-0.18458135461983252,0.28911437340887264,-0.005865334841506811,0.3083714692137412,0.39070621962061386,-0.27085973220869847,-1.2967459217248059,0.24269827264314248,-0.7735128946575301,0.5479187676034087,1.1466913386536868,-0.7897518885450392,0.6771787994875842,-1.155287344910304,0.05628391420175127,0.4360410293771918,-0.4997675319283897,-0.9917703571987149,0.2602404371434241,0.3049017323779219,-0.33169851657282184,-0.023242450066386318,0.7207953133465751,0.27565701155110994,0.8977899067147201,0.6632448700398296,-0.311474188450064,-0.4859658551779502,-0.25699697065788535,-0.6590191963566306,0.44517980614358366,-1.2897229859923172,-0.33172628748332633,0.4574539805741741,-0.7463274953028358,-0.32080160760564963,-0.7731118455307169,1.2154975198483813,0.3383765968248518,-0.00831980130059448,0.5114841906783015,1.2440070086446766,0.3064409209665652,0.27463739970175616,-0.9230146237749179,0.37114648732609434,-1.24266727100027,0.25585768244841467,0.22274777700514944,-0.16557821812210935,1.463359492650253,0.49523799303210236,-0.276072941880855,0.9862409875963403,-0.47878165564400016,-0.44107129549107776,-0.26992215241622725,-0.8517089618830926,-0.3245462437042316,0.7350464022854921,0.34793056969019287,-1.6464522185248283,0.5524689086968247,-0.712271255160237,0.4447049506422924,-0.4713165829509114,-0.33876836775943814,0.40938455182881955,-0.32702886400253117,0.5218695670471102,-0.8244592247000766,-0.3322768314787971,-0.04382104963758386,-0.1094090994452207,0.4957704678470198,-0.6359327823495514,0.5210838383329515,-1.5332260066059535,0.4101344473074371,0.012220164168623898,-0.3326255410248795,-0.221743571484235,-0.07212646586355762,0.9929867897087646,-0.49065909618996767,1.6328821173873218,0.10257833285961486,-0.9282514763499099,1.0016006191893818,-0.7014258061915584,0.46222003540746065,0.29077751012287695,1.1222921589139103,-0.1801721812053177,1.4788341528080264,0.12234540966374084,-0.5631559905708441,0.04731947612582591,-0.09871913667829152,0.2638364568059747,-0.7380497126001425,0.08474036250538435,0.7006643289802947,-1.0086721767586126,-0.5877393114579991,0.4697017438839815,0.008876983961521895,1.1399109513884815,0.8769852886198815,1.1304234872556924,1.0412485721848221,0.24766185550662265,-0.17609377968549703,1.4081133957044292,0.7715815575776913,1.2388835966484768,-0.26050146224813153,-1.4980841304416188,0.008405462070216814,0.4352229908873058,-1.1384181668551179,-0.3550426120547122,-1.5760638897473884,0.5599235800516768,0.4948927249145955,0.43844693129245504,0.0003467076932043636,-0.08778796549875054,0.11411752089523924,0.12073866659159839,0.7303458703566915,-0.2341630776237249,0.2008755270615667,-0.04272783060142038,-0.6549515677143731,0.9732228952405068,0.2917950456991222,-0.08328182304769582,0.5226184550330398,-0.44606238683689453,-0.16603984712334666,-0.36930618934575693,-0.6483418025804871,0.9034095544995762,-0.19438576568831753,0.2644084530312487,0.6410797158035191,-0.10920662170514914,0.3752841962052264,-0.0328908715151833,0.02222558099383526,0.9045719462664463,-0.3207984488796293,0.20083976606558798,0.17301027921420495,0.7625830239692741,0.8189548473178585,-0.10469583583025727,0.2807289260370578,-1.0255753480359018,0.9902503647745174,0.25906634248091487,-0.4196625662790724,0.6966031250546625,0.3622098319765599,-0.8740232598541432,-0.4664632677741418,0.7286197352432082,-0.1155264052535219,0.5895766168749388,-1.3162396446131006,-0.6496243044683787,0.5140728291931551,-0.15915668892729737,0.16271342305358047,0.6686865734193369,-0.4779108788076416,0.009409986762133664,0.5098666073515868,0.1427106729511424,-0.11905100325110371,0.8365839468090942,0.09846470612053279,0.9224956781189478,-0.8573769690907043,0.6716691884761473,-0.4812119183287932,0.5681030428675801,-0.6359924833226807,-0.5497950118501416,-0.5905069017720321,0.019943101577656327,0.05859076273953843,0.48043569507967687,0.15348619170304473,-0.30685060802396136,0.2141783067242194,0.07411171703068631,-0.2510845285737987,-1.9025248178719347,0.09183767346565574,0.6834609054349566,0.7352710739809929,0.9077479818182702,-0.6130780379306386,0.8616810640468838,0.5439603096775613,-0.634208220767251,0.3636424525089073,0.08098662893527583,-1.032731056120714,0.7575387841557922,0.18626461892693744,1.1564995594304082,0.05216499521187292,-0.209574882927389,0.5816093182565484,0.10886780303068239,-0.3409613664846502,0.5248381995935009,0.7715727594828149,-0.17275459170679625,0.5197661860162358,0.3910146888827847,-0.8529305840026171,-1.746615078346369,0.252226067707163,0.492688444767395,-0.41378518573630996,0.02281617522336654,-0.5909321384118114,0.8987719841889151,-0.3737936038752279,0.3223147189763254,0.9103852839533813,0.37352640982494006,-0.4624675741110593,0.02378173622980175,0.4434482013814918,-0.7247581282853216,0.6667531331333137,0.3059718602303112,-0.28835431536612216,-0.9745492777586184,-0.4225430787897535,-0.27521394062017845,0.3695350290468262,0.0018674482535061014,0.398989868386357,-0.6931807783832893,0.1668852180722414,0.6137740585775234,-0.13102762486723984,0.10015579035636846,-0.17929915785768408,0.05176545537385448,-0.0033662081264394512,-0.01791201987955672,-0.11260962290808771,-0.6190527061331799,0.8926326092166059,-0.0005588001642887256,0.20798900594406508,0.7476931242860627,-0.954424014826077,0.4006818803743642,0.2535164736154505,-0.6338568994672074,-0.020525855026246397,0.4689201309681919,1.558551768450028,-0.5550331483188938,0.6804292351507277,0.29960574788736477,0.5728568422757827,-1.3288196020583134,-0.19557409938506423,-0.40050187834657147,-0.9993123858565385,-0.2009160618282753,0.5559805191171948,-0.888185131964862,-0.20222987735793047,-0.5387815036962726,-0.07402330930859981,1.3687525542498955,-0.8206054849695353,-0.525591740380892,1.0719007864842023,0.43239848681873055,-0.4123332336682531,0.3408235737192728,0.007197424126681423,-0.31335324243211793,0.16608224341462163,0.24383173250566367,0.45691777800917716,-0.5891228565395532,0.04041460032961476,0.9831838324583722,-0.10234951366660486,0.7621679477374128,0.508401001846492,0.7362998098039669,0.17166195759077119,-0.6115034279655568,-0.7694943292554091,0.7422145711250582,0.43095701346541854,-0.41160854345987147,0.6659090783105629,0.3525713713076744,-0.3160454263714992,0.9294286257629116,-0.5080205351023104,-0.8206149582770366,0.21773467152604806,0.25792078786931705,-0.16317071670974173,1.1705256936453237,-0.4094765183426017,-0.22453516429625442,-0.08129084216559194,-0.5241449599468511,-0.39848955971862593,-0.9545956717888688,1.155070499981777,-0.06907578464035441,-0.8968445099297144,-0.5249585215180477,-1.2790508349182312,-0.6823613994926664,0.5386330894838695,-0.5420491315217437,-0.09514101874725919,0.03779305723019011,0.4712503571446401,-0.4146487138654356,0.4185956241799196,-0.5750268535855515,-0.864502743629252,0.17631489810466305,-0.19285291275353683,-0.017698028514538,-1.5930331309726804,-0.6238916537354424,-0.25071070785715627,-0.07858766295662435,0.12039245437703905,-1.7662292793191003,-0.31810183851496,-0.5141783082983837,0.09916657229640864,0.815744600940964,0.5552388289972887,-0.6454882655477762,-0.06119971597686146,0.35752400258404565,-0.4392921081982433,-1.0037239340009676,0.8093589750834105,0.2032135179532904,-0.47736476722219534,-0.5288700276074585,-0.24695787773226469,-0.277678306196417,-0.45170344537729545,-0.9170944799367367,0.47178171303390964,-0.6033935181039417,0.5581312202030559,-0.1805766640763833,-0.8541164012211983,0.7286211506156318,0.12348958967995219,-1.1684273222032433,-0.07928715159781877,-0.00797155484841185,0.7709279895867582,-0.6866337094082557,0.022064179787341504,-0.042922970141424155,-1.1457719062702192,0.4763207182523903,-0.6742847457721312,0.24721821771788033,-1.223881139369676,-0.5695424465626421,-0.22721708098747986,-0.42201384777111495,-0.9928477509278645,0.150321793062122,-0.7885713321954629,-0.21552903695311432,0.8441715959992132,-0.26447893004692286,-0.2840405321467332,0.5024704012074492,0.3745912656051713,-0.5852384501249658,-0.5718662822896626,0.23649687388529772,0.05345303317701138,0.8462455318990074,0.7016012406467513,-0.2646540562854259,0.27985209841415515,0.598868847772076,-1.1105983324686597,-1.8413831095473234,0.7339544080091261,1.0729123793463813,-0.5930349177478988,-0.4987572603756885,0.4321655685195564,-0.19642652414160347,0.9724530237540208,-0.02069912493156896,0.36808706481126574,0.11273947827930837,-0.38683373258027165,-0.03989900954977244,-1.8021363592379185,-0.15050479481687168,-0.8157628527316003,-0.3620828617055826,0.3772360514627864,0.008545265566880955,1.0296679974927203,-1.264916500087963,-1.711447516076428,0.09734775327862606,-0.6520340757294868,-0.3754986792821381,-1.031968444891785,-1.1758443533287897,-0.12059157286078664,-0.8113087879352621,-0.4641532376300101,-0.9755519297148298,-0.4457164939775741,0.14111586560748368,-1.0046952007458296,0.06370757023517716,0.24557891453668346,0.09944739825865961,0.4361712763614169,-0.5218909162274219,-0.04295006625585084,0.3580880582463755,-0.876949038733523,-0.5072934350524962,0.03589783767801401,-0.04664545485443649,0.8632413435536036,-0.5658509375641056,0.8609594021261666,0.6286964689883292,1.1940632109744491,-0.7421805626811084,-0.09648478653334777,-0.3490894990094128,-0.605120647475855,-0.21354807505460793,0.32888681978573486,0.07861490847822046,0.5799086301795313,0.8302299116935614,-0.5256551743057909,-0.02333254075091382,0.06747412303643902,-0.21140410705235793,-1.0567347162880791,0.2298053366629501,1.0553868293188562,0.05647987977511165,0.7796084546611117,0.6256207551196886,-0.09742549726783413,-0.1887085050530113,0.34150579073642184,0.4573555232133318,-0.15734339811055462,0.9695833432587997,-0.664667721351437,-0.6787391191250687,-0.5497435139024771,0.3183199442819851,-0.30931434670636165,0.5486296958014061,-1.0080515189419763,0.6368889018126042,0.22112032859556616,-0.3853047519655021,-0.563785221798744,-0.46094973879427414,-0.476673052409452,-0.7645536386773831,-0.4086532982954494,-0.1269690148270728,0.14664714063959372,-0.1343773346925667,0.1407952614492526,-0.6653159358138738,-0.4303432302067066,0.03671771436776203,0.5497650713726087,0.15488819490043076,-0.7877220504307332,-0.03904520687142593,0.4825805655268812,0.3946954495535672,-0.20350302037669102,0.04320495321609278,0.6823765324302068,-0.7397254160847951,-0.5794937719357626,0.36643981857551955,-0.12354567683263831,-0.27555433786348554,0.05765895596516076,-1.0312970651596896,-0.6513524038910325,-0.4907080801396811,-0.1606807344330102,-0.8693084112196352,-0.5588245935611406,0.5463175242573154,-0.17749759011991809,-0.18428916687043226,-0.5483701282208292,-0.4707409704716646,0.283674829107859,-0.354584687927203,0.3097184410357141,0.09356841721512282,-0.030682665123394903,-1.0665962722480034,-0.3218708009507497,-0.3904623644051033,0.3985128437145336,0.33167022206946534,-0.34403718499106356,-0.8168188778368395,0.18576748267029178,-0.528171773071352,-0.8734549486045753,-0.4140787942286653,-0.2897135838401647,-0.061518310358758835,0.4770597645980849,0.5572742586723984,-0.6861280804089004,-0.632275266563518,-1.2466280358687272,-0.6227105105580706,0.6382510080834006,0.8401894237143304,-0.5186574025879109,0.021011257648250438,-0.8977234795453846,-0.7636212300714044,0.7174537058767922,0.27428016334269445,0.9779438237222746,-0.31463421008195425,-1.088254097176271,-0.789607042410624,0.16111917197804584,0.6147655982281497,-0.5773578527451011,-0.4317181871493685,-0.7314917529262921,-0.7032777783538071,0.5709514020790142,0.0026437243136287233,-1.5801153180686893,-1.5048039344361592,0.8639650379366792,-0.5632745390116601,0.5309923454300731,0.09450650619878898,1.0922079230111459,0.2472341508385187,-0.3484171763122984,0.432941953771765,-0.5906987302796198,-0.1381636406104869,-0.7002304361707172,0.34910432739026404,0.27627585133809685,0.15868128858295874,0.16154001130410045,0.9173327380806129,0.6848432945022646,0.5931421255310214,0.1951047487511615,0.3621991275940502,-1.0588657635310263,-0.2480118263312191,-0.3272637479205007,-0.3006528536175953,0.13227911013248084,-0.002693653812785083,-0.4605988475072107,-0.44245897083699054,-0.4942529287335158,-0.16595615021477242,-0.06005485558464787,0.2603561281794079,0.6723289795197455,0.22941876697877864,-0.07513821893344594,0.23546720767754337,1.2035487808659011,0.16921514833493986,-0.14735580386527894,-0.6082672463838781,0.274107695065566,0.21818530168567798,0.06624082811185535,0.6734732881615819,0.13533621494953035,0.08999985012321171,0.5255745330857946,1.2972741178933136,-1.055222192419862,-0.1215765707595553,-0.7692377962178896,0.3056658292658326,-0.6777424661320316,-0.1548449901973946,-0.3952786858402171,0.6734047102963387,0.0436330198132512,-0.01067212581846444,0.351632407693302,0.4175685637469614,0.13562780421702947,-0.20353584573741462,1.0557080157547567,0.30156900955428706,-0.13730895609482302,0.42254728356877475,0.4211010078084916,-0.06052060227280093,-0.2489882118783946,-0.5692606412451591,0.4336302776660326,0.3653727517069287,-0.43161668200405384,0.00574702826657944,-0.144700376899623,-0.8530322043886553,0.36865585685194047,0.2583812341152514,0.36437763353357966,0.47952749328115024,-0.4538530119534074,-0.9762182444128096,-0.19421841519798136,0.4861259614097548,0.9934310236190967,0.6671216579596674,-0.2291947903463225,-0.804411303604209,-0.07926889669142084,-0.5886054013935031,-1.1322690945166123,0.15345012914711958,-0.14297263304149754,0.4403753903266094,0.2831416337397162,-1.0767862678172322,0.6219659150579013,0.8662169232931352,-1.2129085400419577,-0.333163205377506,-0.6177526779674268,-0.46838622066514357,0.386213196827681,-1.2977971243204887,0.3035659332418508,-0.9526927939381691,0.3417504420270975,-0.30200830382255595,1.0793937738102015,0.377230513298045,0.04059130316724868,-0.6410686569318952,-1.8251134663609512,0.3181141791526856,0.5434269710405246,-0.34805381139865676,-1.034553985372908,0.09602589988593933,-0.8625873485392074,0.13888445930194654,-1.6848854643155948,-1.3800856294701895,0.014482837242671853,0.8848787092088843,-0.11324867650160766,0.8318531062602438,1.1540335935382666,0.30020362094522185,1.1177908992754695,0.25456258327483644,-0.9523461507642832,-0.10941997990110572,-0.4618142987298001,0.4554003218639693,0.04239714515706095,-0.2176632550224162,0.7996696627780719,-0.9703502327747229,-0.275412695034965,-0.3028112601031039,-0.8398530263829737,-1.2014787060332508,-1.1585270221312811,-0.4139701279699189,-0.6476779886087463,0.31808040928644254,0.2601161404725674,0.5367097230658883,1.3195520968464922,-0.9467668623123706,0.3637588506504738,0.8922715015149618,0.11835580107803978,-0.245259569811285,-0.3410946455977026,1.2070976499842259,0.16971147351190022,0.9571281048887565,0.12069829025473736,0.874175945725311,-0.9859013123473964,-0.8427665404488918,-0.19481064374481116,0.5231229404215995,0.5385325857694252,0.8333199682785495,-0.8899062748028252,-0.7681277364889343,-0.1786780276176006,0.59869054366118,0.81570127580773,-0.30063553415503247,0.818426997436623,0.3634368562272704,-0.2172820881928477,1.0267369064668947,0.14923470423789234,-0.040632327833687476,1.0745469878520868,0.26556889639379727,0.11123346650811068,0.1041867584596336,0.5898411549225787,0.7087826177560015,0.42364815570409076,-0.7560264252088421,1.2344095437141838,-0.19473985192108506,-0.4345579012644448,0.30250185384630335,-0.4434442804233017,0.0119189325095821,0.259977922380713,0.2615245581898701,-0.12890776767189696,0.7317242049112941,0.674986890646909,-1.349983301795575,-0.019840283058470076,-0.07129762543990584,0.07384614685131807,-1.5793078174230388,1.0067127225525656,0.6514022742053638,0.2413278319848892,0.7713264237753801,-0.19274543251082543,0.6228519481213785,0.5868530346857198,0.1289267263462234,0.6420132162506074,-1.6845811107056459,0.1171960721902709,0.6685072009065424,0.30816354466601537,0.1624522991324161,0.29695202312846825,0.45044760473775736,0.08005922450916726,0.6319366517981352,-0.9472398259941777,-0.06511658294550599,-0.8804184034360237,-0.6039696414994102,0.13717936588132168,0.7266268163996599,0.533541752241669,-0.9537727290926001,-0.4809359832145855,-0.2409367220295639,0.5393875343884897,-0.8843796004000372,-0.9818430768367823,0.7305433493007775,-0.2760992759242053,-1.4984011267724648,-0.5076962565375643,1.0470339791826864,1.2304257099335407,-0.387688286023233,-0.9424541077634863,-0.8464753367862409,0.3653664282530393,-0.0208932361347752,0.049712838128375764,-0.42781926787749547,0.10628087168970186,0.2786457732914813,0.5636605241491817,-0.4474708795104952,0.5555855769123969,0.08057244698437105,-0.5326362646308234,-0.16412413194127576,-0.5248613073302076,0.5886984208531535,-0.1374029206702858,-0.36858149561377707,-0.5667190763122087,0.6504395066918658,-0.3923836888805705,0.10665439405740984,-0.41166691989194226,-0.5691811018898361,-0.038195362101920094,0.23214838200645094,-0.17758001120759767,-0.46381262924262256,-1.1557744933647327,0.23616992725614877,0.898889360728242,0.5243168661783415,-0.15291360073009969,-0.6032695710958333,0.12145371435434073,0.10815231283694088,0.12323123908616551,0.6408826456326011,0.11854988394905804,1.495509851476463,0.8847981581804706,0.13607010401548525,-0.005059737167177614,0.6050331953092327,-1.1631412096004643,-0.700471275586075,-0.4513681155869007,0.820961493365892,0.12886116288117075,-0.1884491678630124,0.19944987316694246,0.342495213197041,-0.17886046211597634,0.06085983114211202,0.15489549784823237,-0.2671503136948946,-0.37675140724177325,-0.8126869319455957,0.8531160274119411,-0.10770958119658207,-0.18415514586911347,0.0004917509449776122,-0.17583329831170338,-1.2172324990686183,0.9105378097346025,0.3898014424937743,0.2828688045450109,-0.3026190526615139,-0.006478903396627683,-0.15113130338553868,0.23284891733751606,-0.8391055999008409,0.2816578136336362,-0.3393005674462429,-0.657644494999727,0.9039192880372884,0.4550886286420274,0.3736057066249649,1.2824772014536407,0.5416235155135444,0.2892425517189172,-1.1056800557697208,-1.1481961541210572,-0.14354945018195314,-1.6501961091048574,-0.11946784192682483,-0.5789930929034416,1.1392097294982793,-0.8104765111320686],"fitness":1.3335288333333335}