{"v":1,"inputs":13,"outputs":17,"arch":{"hiddens":[32,4],"bias":true,"activation":"TANH"},"weights":[-0.28426393748031936,-0.8377636995514028,0.044858561626003275,0.33737113556520243,0.6966459197409709,0.21100700213030038,0.7059265198678709,-0.2080864598678918,0.02545429871867727,0.838672242631673,-0.47456345678663703,-0.3822691926958133,0.0912061396651864,-0.30796028687717447,0.5936074367608163,0.20405648518896172,0.3000003633848424,-0.37065550003132375,0.2664386030117945,0.15574209058342015,0.08251676174677303,-0.23540138660458415,-0.10995099405418869,-0.6432867879603356,-0.5361914604215745,0.8203430867755486,0.07126073048592634,-0.05679456965472886,1.422003967431882,0.30646610767977267,0.2633289716588428,0.26073058167859275,1.2103220996659436,0.3029272641164038,-1.0404068133309463,-0.5154415073368237,-0.9394500753245383,0.3081462609615393,-0.22545558873420551,-1.0319769394296552,-0.3061952034153335,0.8873304000174708,0.33058983971588835,-0.3641327199751317,1.262235546948396,-0.18224086693746208,0.3098135703195321,0.26138777268215985,0.923201143481115,-0.17098549436128102,-0.16095227870006248,-0.5079096552231601,-0.49041524078297843,0.472961824358022,-0.4856571904203669,-1.2157023073265105,0.2537006375028289,-0.20472168422298703,0.066342811629509,-0.10218806867491965,-0.7577988498563034,-1.204695218826751,-0.018071684234127427,-1.0943013170973366,0.13984725886458338,-0.9354450596612846,0.1286782672285617,-1.203113958279573,0.9190593337542574,-1.409579275317499,-1.294015846736274,1.0184428848693294,0.3642615437642612,-0.2622622052462967,-0.05235628163131964,-0.5566278675453016,0.23417623359971212,0.7621215048076067,0.6744287106160933,1.7775292361196384,-0.4840886091794345,-0.7560802650875529,0.8060958841730307,0.45786537667880606,-1.4409599118123881,0.5990809453658823,0.015943357233760974,0.1147156614957231,-0.7975450213271978,-0.22063599932190814,0.05349341401468091,-0.3109442849661609,1.1474468948031826,-0.288632273287371,0.8857000010712918,-0.3292010615850241,-0.5831287800776822,0.316640258187943,0.745524341248168,-0.7277181349569085,-0.8925103756750155,-0.2775535669273334,0.29606314234887515,0.41967087250675855,0.4508358187131735,0.48923859830802685,0.3393388673486058,0.6262837814807223,-0.2011411249937353,0.5521657372210268,-0.02861507665619681,1.1689411873229048,-0.554127431197117,-0.6791945021545156,-0.22293936200039685,-0.14119890016968728,0.17297905559164692,-0.42925142262683386,-0.037714777567487846,-0.14481369431490193,-0.12363930343168295,0.4000551174820186,-0.13461908731022953,-0.6557856262292756,0.20245650660527492,-0.16649339564692497,0.9372144567891282,0.46368584034449284,-0.07620182845074766,0.12653099618662428,-0.6817503564834705,0.2671303409878076,0.6383313758186884,0.002081505968911254,0.8973558945543538,0.982662795433743,-0.3885507614953703,-0.060562152636737976,-0.4852596688987816,0.3450052251188207,-0.427976146213564,0.22867934268668227,-0.07961793327662166,0.27553536979461335,0.16969431602861657,-0.6758994217433124,0.3844112532316135,0.08258824235415803,0.6003195200286806,1.0221269931188728,-0.9230782268989954,0.22480311703496295,-0.35286807910758305,0.22873006070055973,-1.3676737336557356,0.5649249060134253,0.5862870665028773,-0.5498868540400167,0.7377699040707066,-0.46365425934303117,-0.7654535396055886,0.4177657614622726,1.2459147328840285,0.5582584242614947,-0.2830600104776822,-0.22430263241186713,0.516819536722791,-0.1252366732596443,0.44202218596520937,0.8442919355203864,-0.5059286557215327,0.10612346253695729,1.087116951544393,0.40234208971348734,0.7526916192290038,0.3075516104294425,-0.61126381264743,-0.20430715713819247,-0.34683353839448505,-0.9848766131813944,-0.05893660918559346,-0.5987043921102229,0.20840048694813448,-0.20368109604328383,-0.42621985246473554,1.154120883141746,0.14569915631398075,-0.07200772350237156,0.05959187419747214,0.3835008631085319,-0.27600642963239275,0.9358126961009229,0.06875446621681185,-0.11050578997821764,1.2959070235660957,0.6488854840049999,-0.19990306698709892,-0.5964654047761021,-0.6442451539923378,-0.6163004806141548,0.9158132745050158,-1.1146636662295566,-0.5058719675113396,0.49422841765238423,0.5000196565266524,0.3005441727203012,-1.1114447301963573,1.1329681417912039,1.1293559274528955,-0.016116687352962268,0.14915636712420582,-0.16325678796220955,-0.9129534324652873,1.056074308196175,-0.47913988564741755,0.1911370895871065,0.10073790645534231,-0.2817303418259524,-0.03388599746023688,0.09818826897642303,-0.4647651830978248,0.16189884172081553,0.09305665845166837,-0.13766227259010108,0.7192852883262969,0.28784436542388425,0.28602885646025833,0.017839656374235735,-1.0501403178991144,-0.18532036705946026,0.48305528477156,0.4190273261920904,-0.20361491048265148,-0.35129729948990984,0.11345113162939657,0.10567882271013046,-0.5817783294598886,0.19416177725404912,-0.5265210968962069,0.2892378466059615,0.5682140582456169,-0.5285694496535898,-1.1118161392997266,0.03803715773110584,0.10375203560726631,-0.0897415377242276,0.21532787044167762,0.38932075763771845,0.1544396652705297,-1.0125682805183036,-0.11305699679022796,-0.5167696919507261,-0.5630261941231165,-0.2551452944474725,-0.36698296912944073,-0.058897979965955416,1.0149694040628703,-0.1149328925961137,1.0124244521537886,0.005473313152849879,-0.13536235809183836,0.4912497443399105,1.886937639707131,0.11421486658715896,-0.01507219143836786,1.1948825179131748,0.37604353987124933,-0.19583000256357344,0.5669187855801212,1.205964476920166,0.6188441009639994,-0.5713052687999297,1.2990164715633103,0.3134301630698836,0.18263946722596774,0.40885998980971433,0.7814815107397886,-0.13311603008761433,0.841395270613351,-0.2019742327451758,-0.1334846152305799,1.0051079805013012,-0.05605816519820811,0.8338712244534144,0.42021930785357803,-0.5053956199729964,-0.21757100094989418,0.7136197533391674,-0.6424045893520663,-0.07616297444981308,-0.38469589741641746,-0.20318946031886356,-0.25815484832387225,0.4094235436289409,1.2049513135117758,-1.1080095973361634,-0.6264427322941324,0.474373339154235,0.1522283299140019,-0.21699150612590445,0.2933634130729552,0.408262381192854,0.3874322175990392,-0.2929664868282573,0.31223054692209634,0.5280768509262596,0.455554945920898,-0.07705248175310042,0.9269614963398369,-0.6633030967704729,-0.30282060494193713,-0.37142857682418956,-0.425841562357452,-0.3709888652794867,0.8690548306874613,-0.5514251830326279,0.5031219316147507,0.2873796668101765,0.02571371600259905,-0.04638157270414661,0.43779312060185527,-0.4311427454160081,0.5196993904109799,1.0418784804832055,-0.6455849088729868,0.9139458847577137,-0.6026071144671615,0.509059423024094,0.24280044602225503,0.8529747149900087,-0.6880767578419189,-0.29112352831427774,-0.17677081804564987,-0.09050608317369059,0.12612664271971985,0.11682019621683598,0.334118185264086,0.3693286673129411,0.4705658003212893,-0.4645104707927763,-1.1368755798791623,0.22909129319754234,0.08595792937386504,-0.6484363633055075,0.6294596422060201,0.2639950776397165,0.22249182509622278,-0.4565415322763098,-0.8160828280313184,-0.890053005615194,-0.24896446044722076,-0.35212616749759507,0.25930135432566925,-0.0001952440774561767,1.4485848497170593,0.3656002300503062,-0.52695254448971,0.13003309992219156,-0.18442555021111404,-0.20882107425635943,-0.37365253902763645,0.9226799412572299,-1.1829128268804052,-0.08572446348356944,-1.0640543456225655,-0.11579846706958344,0.19938001267067984,-1.0139752948795973,-0.8465479651285572,-0.4589021925964239,0.09973632081065688,0.632443197679432,-0.9030134612583327,-0.8724947084345759,0.11618695386223239,0.07769090098969866,0.5093913779447203,-1.4654416373147503,-0.049140061655957454,-0.1072079028554046,-0.9494115191243238,-0.23646753812571855,0.5876105393640273,0.11531865468995167,-0.36390403041493885,0.4220784821097273,-0.7998863254215335,-0.4546026961734225,-1.0540545110195967,-0.36466782028285255,0.5300785709516247,-0.462274591652715,-0.4279246158746866,-0.044647200439435264,1.3749120426721706,-0.35979775993448776,-0.09619854088348281,1.1506449749840004,-0.4125277297867431,0.033502313076133605,-0.2264351173449755,0.9108830706238547,0.9223472083849169,0.0862542151715325,-0.9837938772234752,0.6094033179788586,0.7118572196040093,0.4382933214221039,0.5960605285356013,-0.0920669393453437,0.4471453488193289,-0.29327139140277364,0.722103414678584,0.633838939812548,-0.12851411565895263,-0.1765345420841801,1.355155186358972,0.14878471878703942,0.1959251174986434,-0.8853896715790638,0.6741412678088742,-0.1235304558246798,-0.7287390991841576,0.8308436711006875,-0.9257823026597272,-0.6348640744666834,0.8967894066504521,0.7729878245146715,0.22056113254738832,0.36021513996197274,-0.3354566378076302,1.3609170714910444,-0.7069192319252787,0.001030485778372684,-0.2138306608794621,0.013924169886226578,0.4405300479921499,0.2738121554165783,0.16661844724059166,0.6738613778059166,-0.6688331864987691,-0.8515135195417203,1.1406202991203473,-0.35399955880558054,-0.15294714243850113,-0.41548522958428563,-0.2955664399967111,-0.7277443730299618,-0.31106635689242673,-0.8187140542830346,-0.29681185202658894,0.43062048926646,0.44718315344301895,-0.9202966907092436,0.03491735538075713,-1.1439028563908595,0.1864892427993955,-0.29705120161049803,-0.270889748524519,-0.2800650627514759,0.8242944564139949,-0.770294452914605,0.06898328569926657,-0.8236286428539074,0.21327471012125032,-0.04770846145174855,0.22521448066626493,1.13651716786751,0.9159589644865245,-0.37323842027512616,0.28008995760262695,-0.34224014854076334,0.17478200689587642,1.5249261650752015,0.024794907239544334,-0.04035534701082037,0.9670318595650054,0.7437175271316409,0.4519547049782043,-0.8968800866600469,0.8764047246487257,1.101273321183725,0.7178067449618916,-0.11378988990506676,0.22128986864108632,0.849294964185653,-0.12701286844201565,0.013471207891998632,-0.03960390829897603,-0.11183707460935288,-0.145732441272035,0.28979830632294007,0.21586509345532576,0.05708093834196015,-0.7041924193642093,-0.3366309942742722,0.7497117536903445,-1.2796322749955338,-0.008172109123554261,0.012866723047104373,-0.21243364692607367,-0.15285782089753036,0.8733153811867379,0.7036174812658241,0.06260851373113815,-0.642117909137417,0.2454472515228928,-1.4251604603170231,-1.1649407272462386,-0.5370996948477574,-0.059962380426470896,-0.35769640133323716,-0.29294668095242504,2.2276872394427034,2.04207566483608,0.34779389829066154,0.8822888345809204,-0.9326778258510091,-0.5674136116599953,-0.14433535437204123,0.6996025641157628,0.8502686558257656,1.0309343556793706,0.19328807435356807,0.11319060652463564,-0.688987272697715,-0.3043093549274313,-0.4370032739717324,-1.0815064085672181,0.8248817613987304,-0.24223009537161902,-0.18348550279592052,-0.08293943089465987,-1.4174342133653048,-0.7105338071061242,-0.2203578813061982,-0.6969945985377843,-0.2579753637253103,-0.3307353265846189,0.2855238433814666,0.438148621343813,-1.5650568152067201,1.1694505963554982,-0.4203234411771045,-1.03454082975336,-0.07995584034580494,0.7861179816799225,0.21380844939729035,0.29399154799775307,0.2415007927586132,-0.2845478331715853,-0.5876265534328841,0.08625163968214372,-0.9055129024302845,0.12337079714763374,0.060463230331372894,-0.019110261825784496,0.6713327846338273,-0.2667401115027601,0.8461480640167962,-0.7428744437582439,-0.440771187411336,0.023078187791033742,-0.24292244195952528,-0.3404074222171292,-0.12113574034500185,0.009401478876355666,-0.02471586435076226,0.29997462391541707,-0.5032762740677847,-0.853742860542748,-0.6205900599181794,0.8057496536924497,-0.6816769857928631,-1.1362945644274884,0.07838487411003181,-0.9808638869502729,-0.028485288674105914,-0.11985788070459201,-0.04473607562613506,0.3570747771722506,-1.0539921717915348,-0.20094414941292996,-0.3215581025180682,-0.7089313593938255,0.03556974335551062,0.2379764338281094,0.7204600065868427,-0.37997075219812715,0.0193131096111727,-0.20666271662015853,0.1288830154693924,0.33113816176396077,1.1150098134415891,0.048234907875457755,-0.31111567972093,0.5308928091358349,-0.6796179621833647,-0.1504401657542307,-0.3303772603241754,0.23931708889643016,0.15158239386843314,-0.7972201081223343,0.1337453142420759,-0.29326512888781947,0.30080320546033285,0.22213763908279113,0.2128438045273792,-0.44670135869418126,0.3200981153705525,-0.8899951145639383,0.20816266803849084,0.08309107056023485,0.3176998583057808,0.1434240729687037,-1.9999343582967326,-0.14980777031529333,-0.11219026484773954,0.224793780529404,0.9797834136682337,0.24276652384492087,0.7795250147510012,-0.5405845933976839,0.14680209165413088,0.4956305983575394,-0.22131708761775173,-0.18133935490159014,-0.1882356868112454,-0.7271713227901128,0.3424561733417547,0.994885384155741,-0.4609872180115409,-0.11845775217960648,0.0634033426132527,0.5014206357160752,-0.5048016865490392,0.36720958741158083,0.47573985498223353,0.13031565546214033,0.6543771540924234,0.3280722624045914,0.19460130282200394,-0.3990217769477522,-0.8033622274111486,0.7403272679257854,-0.1671591832857014,-0.6864026941387011,-0.9431226125822989,0.5835712365886718,0.379906811055143,1.0387481555760547,0.15832735206383325,0.309906501358138,0.06847659014632128,0.352171064337054,-0.4703118084859974,-0.26388979367029236,0.3139490684335349,0.19743300720794504,0.39697839429010523,-0.032502953486857285,0.3632765099832189,0.7409634721144223,1.0541769360292372,0.8570671641883846],"fitness":15.838566499999999}