{"v":1,"inputs":13,"outputs":17,"arch":{"hiddens":[32,32],"bias":true,"activation":"TANH"},"weights":[-0.5915793743055915,0.17058965614319282,-0.08246569579019439,0.4169929261406012,-0.06671207637588697,-0.27001429627870455,-0.4122915436875718,0.1342650577678281,0.2827354855030583,0.9718299706523421,-0.9566598172329607,0.5057247268874242,0.0784269834674392,0.22873006070055973,-0.5183724371980869,0.7176404275009384,0.5862870665028773,-0.6252336136963146,0.7377699040707066,-0.3275812831482685,-0.7679994098956089,0.34167991256257607,1.0944040220673936,0.07624683798014148,-0.20654001863259164,-0.6897207613556701,0.7860112256327632,0.024821349011493507,0.44202218596520937,0.8450213330606814,-0.2892220563488637,0.016566540484431742,1.0155730108717056,0.42611515803462885,0.4807114643902233,0.34908311554139193,-0.4927370598179509,-0.20430715713819247,-0.387326852862123,-2.2226940654074236,-0.3712752290195352,-0.5443116866477943,0.2410268201335248,-0.20308350156651692,-0.42621985246473554,0.7367022663314904,0.14569915631398075,-0.10030452069767667,0.4961333125355496,-0.02925082526210408,0.0642028087972023,0.8379349315814063,0.06875446621681185,-0.46128656806673973,0.9101206438246883,0.6826701473232307,0.15105702629692636,-0.3935968658385363,-0.8462789805422208,-0.43474945914476315,0.9158132745050158,-0.49882852642121883,-0.8387787234393979,0.26584146529790265,0.9641305956184032,1.239052360407226,-0.8388954838536011,0.6981848288654203,1.0598734781582457,-0.016116687352962268,0.14915636712420582,0.41567178603504784,-0.9129534324652873,1.1206550541725893,-0.47913988564741755,0.1911370895871065,-0.09125373037984702,-0.3180355090326679,-0.16284401603397447,-0.06299269342435959,-0.4647651830978248,-0.3709956154774114,0.09305665845166837,-0.13766227259010108,1.0979841532064987,0.10823773767312639,1.0255155323750145,-0.3387216270180425,-1.0501403178991144,-0.5723629123091926,0.8435625937669236,0.2826952487664272,-0.04232953845927126,0.2077522683622816,0.5009176413675088,0.10567882271013046,-0.6460541503933857,0.16729049644383487,0.07245579914529583,0.4728320815012419,0.5682140582456169,-0.8303447873827412,-0.5673068653525961,0.21682856958408414,0.691184093248483,-0.3574973112468286,0.7745890497205075,0.06263472827983058,0.578897552342121,-0.9584828878712203,0.13902754930833347,-0.018380617780112185,-0.5630261941231165,-0.6118433058688113,-0.2751418138996684,-0.3056915525827656,0.3061030977539881,-0.1149328925961137,0.13837008122320804,-0.15506827623776379,0.00030150981242104606,0.1878670685313492,1.324135173095306,-0.45022122801290343,0.07582835013343837,0.7694509017745204,0.23949657226155877,0.08252257087793527,-0.01345044998993783,1.22904343958349,0.6188441009639994,-0.06065748513697908,0.8731277896342323,0.5399266167592621,0.10268336041034636,0.40885998980971433,0.9411038893427229,0.09379901464356227,0.841395270613351,-0.3746837466109306,-0.1334846152305799,0.4614381967637634,0.36420450784946035,0.8338712244534144,0.42021930785357803,0.3295898089553484,0.10994871118358734,0.9699943563008041,-0.6424045893520663,0.08464621152825964,-0.5393409291769491,-0.20318946031886356,-0.9474667934198802,0.04608898775409245,1.2049513135117758,-0.947789244528206,1.1054447283097781,0.474373339154235,0.6342318653516072,0.6777062313568474,0.5647044720205119,0.408262381192854,-0.15116155092896522,-0.20905707252961894,0.31223054692209634,0.7610962492914493,-0.6908890660007729,-0.49790139526664823,0.6605651786877799,-0.6633030967704729,-0.6101501234944706,0.19994865982221835,-0.425841562357452,-0.5401847343008783,0.6011482952757062,-0.26537499095605716,0.5031219316147507,0.464944873715192,0.02571371600259905,-0.29746452988925803,0.5576663573539711,-0.13449162703773132,0.1915092066008772,1.336379575126746,-0.5827455665746921,0.9139458847577137,-0.6026071144671615,0.509059423024094,0.5626447377410944,0.6429206639909416,-0.1908615644905357,-0.29112352831427774,-0.19621121691157584,-0.09050608317369059,0.23140601091480592,0.11682019621683598,0.24810048388978734,0.6494404019185537,0.4705658003212893,-0.4645104707927763,-1.0957402581076314,0.22909129319754234,0.08595792937386504,-0.6484363633055075,-0.01575976928857792,0.2639950776397165,0.14426630410043592,-0.34981757389241086,-0.7248548330426579,-1.0175665914252834,0.3039351433794182,-0.2611464103168821,0.43095596129180663,-0.20478557286028612,0.5391391797982613,-0.19067360246720744,-0.3262792955836664,-0.04900407744142201,-0.3994004298106079,-0.09630452884153547,-0.3556594735822351,0.7732121800253747,-1.3002937259679235,-0.016854023725177126,-1.0640543456225655,-0.5208608182799784,0.4704045784315517,-0.16514725841600844,-0.6026428802596007,-1.188302245653827,-0.35430561130437943,0.632443197679432,-0.9030134612583327,-0.8724947084345759,0.11618695386223239,-0.041977597662985665,0.8443149197351976,-1.563540777676619,-0.2505522050110226,0.20591427346923763,-1.178268940492865,-0.05693749624005942,0.5876105393640273,0.11531865468995167,-0.5147043179112359,0.595646122104501,-0.7998863254215335,-0.9534296604428125,-0.11474750924459148,-0.2542009342132187,0.5035465858857562,-0.16916638888910016,-0.4279246158746866,-0.044647200439435264,1.3749120426721706,-0.4635790071913761,-0.6583970690628311,1.1417541567090068,-0.006972280777588707,0.033502313076133605,-0.36934878712231767,1.1913622390583176,1.1305270514509265,0.06917848164750703,-0.7878577208994307,0.7890860515429405,0.6102504606273641,0.38310582200822574,0.6290298803258834,-0.0920669393453437,0.13858047150784086,-0.7250512192001881,0.722103414678584,0.4453962734985166,0.46897711555562605,0.2256382431330728,0.3604186140751144,0.017997633480474756,0.0374446903272882,-0.7146259451072795,0.5190982808624635,-0.1235304558246798,-0.8529850832790621,1.3327220682110141,-1.2556116339582084,-0.6577824248488288,1.588072284436275,0.7729878245146715,0.40984752757440596,0.1574872928360108,-0.4735787987144626,1.4912135499663297,-0.7204928162402097,0.001030485778372684,-0.2138306608794621,0.5960298284788762,0.4405300479921499,0.5734773196191867,0.15720315620266062,0.2870783138015877,-0.7572374846914349,-0.8515135195417203,1.1406202991203473,0.13802621778266652,0.1196454321585502,-0.41548522958428563,-0.6968843054201386,-0.6838387026840825,-0.2775259918031265,-0.33440254535194675,-0.2163022740206138,-0.15054427834608997,0.365248209057032,-0.9202966907092436,-0.01596595242448549,-1.2657117638539894,0.1864892427993955,-0.2784771474112541,-0.04297740866863167,-1.1065801390194392,0.8242944564139949,-0.454050176643412,0.2747769473506915,-0.857416508078057,0.21327471012125032,-0.17010699375812943,0.8673068609711903,1.13651716786751,0.8892324478980188,-0.37323842027512616,0.43854160703587175,1.335493035386393,0.31365657866062313,1.4585367132227278,0.13718450930925669,-0.3750160556088052,0.3437893310866906,0.6134860216435017,0.5086230444369931,-1.3206825870503627,0.36282757324125803,1.2890439612610436,0.607935562471982,-0.11378988990506676,0.40630788587185374,1.2280672065409954,-0.12701286844201565,-0.4671365050810019,-0.314693467241283,-0.09424400935095878,-0.1126517854208294,-0.18670856029370086,0.3752355151653126,0.7654283923673112,-0.31431407464900263,-0.3366309942742722,0.7806911219691197,-1.1796399939738997,-0.6050035354430219,0.12888682583528271,-0.2654799236011219,0.1950545804946674,0.8733153811867379,0.7036174812658241,-0.051385647463622834,-0.642117909137417,0.2454472515228928,-1.4251604603170231,-0.9496880170623012,-0.5370996948477574,-0.3665631113677371,-0.29968699554405787,0.33951156909155644,1.8236378350635682,1.3998954425117351,0.34779389829066154,1.171915405786747,-1.1651127127804295,-0.9089167257302045,-0.14433535437204123,0.353946293108591,0.5899816139015441,1.1356129341510335,0.19328807435356807,0.11319060652463564,-0.1697517691521822,-0.511036165027043,-0.4370032739717324,-1.0815064085672181,0.436689303287182,0.007796956786299852,0.14962880336163417,-0.08293943089465987,-1.4053028543633277,-0.7105338071061242,-0.0032240432805143646,-0.6969945985377843,-0.2579753637253103,-0.3307353265846189,0.2855238433814666,0.438148621343813,-1.651561779650732,0.9163659928946847,0.02344260020050898,-1.4445978375633755,-0.572855956198695,0.6090797223571681,0.8507887150935349,0.5054170640909925,0.29832036320100297,-0.5813069842606176,-0.7407046656970053,0.3865487332435533,-1.3000919911364195,0.12337079714763374,0.3868030772832503,-0.10002883863004938,0.08645760414138169,-0.25394188875065143,1.0255682411852614,-0.7428744437582439,-0.4126120532398426,0.023078187791033742,-0.026687796611931963,-0.3404074222171292,-0.21992486318483986,0.07229969354581967,-0.02471586435076226,0.25666351062028603,-0.3416089010510914,-1.0244185237762458,-0.6205900599181794,0.41562383600284947,-0.6816769857928631,-1.244027587435244,-0.4599822934089002,-0.9808638869502729,0.22156786334400977,-0.5922265422681889,-0.04473607562613506,0.205865131239917,-0.5343734878386668,-1.1184854557143413,-0.12059914551917178,-0.7089313593938255,-0.3379994554909003,0.2379764338281094,0.7204600065868427,-0.21819109732719721,0.4685637880913317,0.34540814079056403,0.9474134406954686,0.10636843010176249,1.1150098134415891,0.048234907875457755,-0.31111567972093,0.5308928091358349,-0.6796179621833647,-0.16004023273556997,-0.3303772603241754,0.1218800152662398,-0.0880243624774385,-0.7972201081223343,-0.07055002775200106,-0.29326512888781947,-0.25145459060177144,0.37679481243597196,0.2128438045273792,-0.6625439820190774,0.3200981153705525,-0.8899951145639383,0.20816266803849084,-0.07278793108318779,-0.047559180870650475,0.7927571221411185,-1.915122535231447,-0.14980777031529333,-0.1782948281100939,0.549484028117982,1.0659662474280074,0.5527228570391398,0.7795250147510012,-0.5405845933976839,0.14680209165413088,0.7178061814434454,0.03897389799334425,-0.8576017841511323,-0.1882356868112454,-0.7144967434529296,0.25999283583350746,0.8425949454061687,-0.3686667069689443,-0.11845775217960648,0.8283260032782858,0.5014206357160752,-0.5048016865490392,0.36720958741158083,0.3079660232982798,0.19891286336751274,0.6543771540924234,0.4381295806558575,0.6466167684890483,-1.2847269744423693,-0.8033622274111486,0.7403272679257854,-0.2484994399562488,-1.2132121748757698,-0.9431226125822989,1.426089313811059,0.379906811055143,0.26990737328530573,-0.8212723750869497,-0.009646500970616959,0.06847659014632128,0.352171064337054,-0.4703118084859974,0.0006986932742551505,0.3139490684335349,-0.09072864122403973,0.39697839429010523,-0.42005207772675157,0.3632765099832189,0.26795550759051084,1.4016326519042193,1.4210224416992063,0.9517476548152359,-0.06434021495429032,-0.188293899997946,1.0971134479603588,0.12288446506611095,-0.07102798551076969,0.22216914235542298,-0.4322644665450394,0.7266808036998308,-0.19193198626920205,-0.034600905715968834,-0.027496301877071805,-0.0481188190415797,-0.9108933424529793,0.057067898141121204,-1.2496491237834135,-1.0224000446454196,-0.22039941051777576,-0.6175443223306892,-0.03769716740798912,-0.7091640112608012,0.5140970387634782,0.5058275456967637,-0.8754877241564409,1.223242314238418,0.564117442637412,0.3549286629450643,-0.7660199212614022,0.936740208689941,-0.4634759422163236,0.23216932704926885,1.1803790690576093,0.20569883307313688,-0.1258936307568175,-1.2045238682518284,0.3713940609708929,-0.310173750479798,-0.5189635274654288,-0.9996195383242528,-0.2919652805439788,-0.2862050521398809,-0.908690033134131,-0.467362611187253,-0.955940562689317,-0.6863840307770743,0.6690655119592858,-0.9069873901809975,-0.09357603883550678,0.7540521451260092,-0.1441523330240844,-0.38496883421783956,-0.11858158560924532,-0.2622966011839698,0.1867810047440851,-0.35863303007786324,0.028301321246334412,-0.060247697087873864,0.3752817904142903,0.42995430756933556,-0.2687842850985598,-0.5732143173438877,-0.32228671529173486,0.8266830310288715,0.18699532164306187,-0.10581431940402827,0.07661854538255279,-0.2641660182935571,-0.7202289479929234,-1.1466969151699247,0.4228395778316508,-1.233897052051926,0.3315225715387793,0.16986620159666388,0.06550536789494325,-0.4167773156828858,0.4336124694183257,-0.39987922840460116,0.0015743733242348295,0.2870076724207964,-0.7220947087247713,-0.03359188358027787,0.9114736592768995,0.41899233514749795,-0.0430883221030498,-1.1711168102342906,-0.25103078692426456,-0.551522766977352,-0.05365226013015175,0.8670974377733532,-0.014729503375125463,0.6142625726308063,0.37153146096772366,0.31669270961482465,0.08885833591023803,-0.17878631331611558,0.2912621011863473,0.2746641898709976,0.7981374456600309,0.13457274627352295,0.676148073441927,-0.7275715213558307,-0.12040623565086685,-0.14131680299638053,-0.21393104188249149,-0.5224780327828362,0.5341984633413005,1.1199590172771923,0.2816251643238402,-0.47707699311533736,0.07290320728110752,-0.10640379712750146,-0.4005356391024713,0.03691951727411272,-0.07587268631534189,-0.5877593047955159,-0.9909453217614433,0.00977143178883288,0.39433115557903675,-0.08797656668720905,-0.17664569479497677,0.46001185331479677,0.9272325157327642,0.6563826800568582,-0.45267699238052456,0.4138996508266939,-0.781486011978443,-0.12341481438297507,0.20062269274294556,0.2173097574683658,0.21573987586763485,0.25039446641869634,0.481785424688707,-0.625838237983786,1.5575650140325932,-0.6188242995117199,0.8528956493730339,0.7595971856651299,-0.3233281739828442,0.36855435881327087,-0.7797140858747867,0.5026263843627299,-0.5519279517786402,-0.4369085180102053,-0.3076525588713242,-1.4890839902677302,0.25192828399569783,-1.008793422912508,0.49120942950476887,0.017268293471134337,-0.10740021723281204,0.29487621508371226,1.244159706593952,1.3075078418919126,0.9486749353649708,-0.31624126713690914,0.14976988922909032,-0.21267675043411705,-0.07810152804411971,-0.4613927795377074,-0.5158801263971697,0.4702694728276605,0.45962496213994386,-0.8838710829205358,-0.5615351431377008,-1.2313634131445792,0.4012951539312971,-0.7439842908062314,0.35068971145672573,-0.16926996613248887,0.07959697314690065,-1.4512818138420942,0.7311532958475341,-1.013758306788814,-0.9252100389794103,-0.6563542442514549,0.37513556795051234,-0.2738899751599524,0.28580462073183827,-0.3485154867103757,-0.09384476983432105,1.0920770905694654,0.30823198384036693,0.02406113694603193,-0.463071970787329,-1.0724435652220825,0.19521179354414014,0.6123452675172395,0.08116333841757964,0.08630505669309736,-0.6820548668562916,-0.850195566674807,-0.04086012708372574,-0.20683095374887744,0.4795253580892542,-0.26659735405113205,-0.35149943874735046,0.6121043535996419,-0.7665313181884268,-1.2371458047220756,-0.10577493139954358,0.23991781668387746,-0.6351196686441539,0.34974392926430586,0.38050320054698034,0.5548336884661227,-0.32609403651593183,0.07334664184067038,-0.7245182857770959,-0.507664526721206,-0.3401666797782656,-0.014349998697580024,0.4292741573222808,0.5275195844244833,-1.4431100427330572,0.9588220297423209,-0.7787426871088974,-0.14774548197079423,-0.1404093435034185,-0.22491878218544784,-0.4942354171138157,0.060372092026650497,-0.220747880450825,-1.4353719952293555,-1.2279584225529798,0.6203303905698239,-0.25212891788919156,-0.637478808635784,0.820634768989226,-1.3200480699002086,1.423407604844886,-0.5182182519241296,-1.2230172432619626,0.13604175418199072,0.09239948696897769,-0.03142209883351176,-0.0022576504423547036,0.22466938935282807,0.18120084068575135,0.25884712312839386,-0.28885295873270433,1.05782953275106,0.44482072103438675,-1.3835253846822098,0.487985759766015,0.37193636550397036,1.158703572284884,0.23198731171661968,-0.3353782824143328,-0.35555637414278624,0.35643802503544786,0.8466298937472266,-0.21427768839514508,-0.14490933333507777,-0.13643354798877189,0.2551801010109261,1.2172866324937166,-0.5911532575960399,-0.4750702653823526,0.34989842841886065,-1.097702221276292,-1.0874730099880467,-0.7641384194258767,-0.7094810390948549,0.20671350646384282,0.680826343225048,-1.5601546297154292,-0.31667047852407476,0.5252043254143697,0.9657802508522839,0.8289902246682836,1.3755444397830803,-0.2795123335702659,1.8757119348142828,0.2303604816843018,-0.6370430171053205,0.06607522240581595,0.4324580011847643,0.2653957595025585,0.6064545585080902,0.08097032462117991,-0.5868729838212605,0.17825122164637403,-0.2887254563502358,-0.19859888735991044,0.8064244679531882,-0.5602507995763513,-0.9425671560133694,-0.10736469682029101,-0.47702331652159446,1.1795645859804338,-0.02814365122580758,-0.36751167774074206,-0.5957689695872616,0.6255888929091976,-0.5008588599408257,-0.38858736131146815,0.7545183117808194,-0.43029664974915705,-0.030091314703673128,0.589211026592053,0.3934914828397785,0.8636434211035104,0.4782791773903883,1.591700189478511,0.3599961101295224,-0.0634971889110249,0.14944226153387735,0.4320847510832124,0.9923475437322531,-0.49132028991875715,-0.15503511800641084,-0.3353329300561161,0.13123303353655266,0.23223815369449813,-0.08535047668141527,0.22760795020464358,0.23995359678221956,-0.5085060461425452,-0.6508597361631023,-0.6133251441652938,0.6983756179912597,-0.13676812076436237,-0.05342449232946954,-0.9917843379499437,-1.3267371196770845,-0.00803205890833513,0.19709348774248078,-0.6060926846573177,-0.9652116328099978,0.13102849187718346,-0.7838783866094027,0.39027547879942776,1.3726044187631579,0.26635600306837465,1.3250956848128215,-0.04812078482082082,-0.2035736911306834,0.005632135749331621,-1.5724636256952302,-0.5398947629472154,-1.0487672125232206,-0.791964307198938,-0.5202351292467166,0.5802492627853727,-0.4845416636192041,-0.084495955515311,0.47763524913884825,-0.46486762343854987,0.04133408029896074,0.5498659936905177,1.3059320651604642,0.7868306482731732,-0.5438563181156276,0.4639880689945497,0.8150115462644469,-0.30445655488157214,0.5176332810719583,-0.11091984476000838,0.35966681261262223,-0.16479086032421023,1.6973677973906263,0.28751691245310573,-0.8368243160849366,0.6168408026511006,0.057095922499813934,0.3025512530719667,0.03618437370928428,-0.32400133590000485,0.5526793253746697,0.8678959350210149,-0.5221977253503103,-0.8145247175993198,-0.96916814690932,0.1582984585946481,-0.036298051624840566,-0.17121906970015102,-0.5902091028240777,-0.06177458040707201,1.1011201495271217,0.3508790616899385,0.8794581681678985,-0.9051598247787374,1.4584661333776807,-0.39809027319805107,-0.5864486020564558,-0.40976982661206335,0.6977932059377194,-0.22772392507508835,-0.7051501801045222,0.4890421497633371,-0.5128998458934487,-0.7593775983289334,-0.1771099664885023,0.4806133424245751,0.2657986447224396,-0.478589502022082,-0.2049027774180665,1.8903828010379742,0.5707413614906047,0.1300925051540342,1.1723268306658574,-0.2908514660739266,-0.10985986185422009,0.24972468447724183,1.0262104801555718,0.5890598194611034,-0.6042400818170923,0.19511626056498566,-0.1539762663543611,-0.031550167734845314,0.0515367581443081,-0.8236111111781556,-0.6299867012905123,0.8669337685241355,-0.3335681535553834,-0.9996521764906716,-0.07118310040274901,0.5294655640167467,0.5982101007956394,0.20464355141517032,-0.3242470294378814,0.9413918516417629,-0.2383784611958547,0.25833686040129095,1.3026744986671712,0.5259421284174526,0.677677384549911,0.2658468775127766,0.5755425981681199,1.22322266909605,0.3015001151524637,0.7615653595436455,-0.0033824264447829245,0.1079538259204819,-0.48372619255270344,-0.5853986179024216,0.6423396998483627,0.02473367913912769,1.4237695740123357,-0.15203602662648305,0.02530459449045271,0.17281031492810509,0.01601733146468634,-0.39707501128598327,0.8420941285211105,-0.08276922528744907,0.4072086278843334,-0.03940830570223185,-0.10954645218757707,-1.954149687480442,-0.17019877929868352,-0.3126167101040294,0.6914319658261867,-0.48054264282950876,0.21482054535382258,0.26544966324422425,0.19238555976300498,0.11654039914469173,-0.13167529279424808,-0.7889924739676105,-0.5247288003133117,-0.03364821282101815,0.029746867207933254,-1.0119638425069741,-0.49158416845219566,-0.3073941298193119,1.7515369612104426,0.7912101203169029,-0.18111595725055804,1.4352059260095702,-0.5027447264338942,-0.008785437133257912,-0.6029570256629335,-0.023890128883193043,-0.930499602700751,0.5427824284559706,1.0188739017121242,0.6676205257890776,0.22728086093444613,-0.46674575951927455,0.1116464102623123,-0.23569408427523914,-0.4993410927990712,-0.007861974035878447,-0.28602130602839404,-0.637732022309525,0.2666346400277469,0.2695084858606873,0.23194890784567052,0.7258142469650949,0.11452760160771981,-0.11615102170688318,0.1874765981531913,0.41613087618365313,0.509307212097099,-0.46594610055428903,-0.5245935714902816,0.09859455643757366,-0.35975538257408346,0.5198833490664133,-0.8697674855402244,-0.02406550930019268,0.37717981257914995,-0.5297068013859096,-0.5251417160427376,-1.869264796080694,0.6906727442584625,-0.5104247505191362,0.43167645599448634,-0.046117732524857624,-0.537842719151451,-0.8804315889162031,0.49072160441366364,0.24577102796378447,1.2097015287025856,0.6985790479407835,0.16076731248688003,0.5254898604708557,0.2911871130969685,-0.7210531432753143,0.9834586816128509,-0.44346362693695907,1.1492501149521592,-0.03911630165372837,0.010525176431310013,1.2321361172253784,-0.02499988336034592,0.02364527407160985,0.5802476722705464,0.28884527184436165,-0.08975733383544363,-0.14717542666744898,-0.34542158474121293,0.5275942325087919,-0.8115901142627479,0.10716310312538174,-0.2924700485311713,-0.8595553283751007,0.0004129003643789514,0.02551970839101042,-1.0791822618698192,0.7282048747081965,-0.17412076423612816,0.6905999544480632,-0.10683965460867903,0.14647955342051272,0.6965917024998373,-0.7309548800076077,-1.416810974814383,0.1624167635377514,0.8164676157095607,0.028035351747887072,0.1943462179454176,-0.041767232074078196,-0.18454405762694454,0.634051054833403,1.1768928489527613,-0.6856067296905196,0.02310596887650823,0.5079377227974161,0.23911125856650378,1.3044273216632474,-0.8578699503778412,-0.935891390136665,-1.3055004104061887,1.125070474176879,0.4097716296215357,-1.8246299567474487,-0.5690881171546348,0.5756168513913513,0.43873578273432773,-1.0130297987941261,0.2106111356736473,-0.5088039658305631,-1.047127368373418,0.3253793313581536,-0.6624725360051194,0.418584074802258,1.2793767128949145,0.782782118324029,-0.16446625397010212,-0.08486503346676787,-0.3457241696874655,-0.5471036476525626,-0.41100445309293004,-0.838896419453278,0.5159943152423343,0.15308000216347284,-0.7015050487702984,0.6175893576866609,0.32523263498060445,0.23193115566057573,0.05157474529998016,-0.6576653341040427,0.07192496190682407,0.8685654175913209,0.02258273126573389,-0.22923317995058468,-0.7985545024572253,-1.124894066304672,0.3524767456548101,0.4379826527749328,0.7974454012797254,0.4403341750961353,0.7002111793752002,-0.12008494193337976,-0.2660850423853731,0.6507417949287648,0.3223400287706672,-1.2897850553472727,-0.025850291037996246,0.1346996550701847,0.10273865747219581,0.5069970734488745,0.2586149662971077,-0.5757938291638083,-0.25803278312988537,-0.6962215606349272,0.5039903637725431,-1.6295211093369504,1.0348714877329832,-0.19025545298235788,0.10173424535148862,0.5983923154946901,0.5420437498921394,1.7605030499267271,-0.3393475612311071,-0.6247073086864537,-0.24782894620086926,0.6736322243376958,-0.0010450030893059403,0.05214777780053981,-0.11645533791763607,-0.09502200889140461,0.06359094904110527,0.8817233155651667,0.15865110026797974,0.9973698547999588,0.9539242618174687,-0.24995691066563952,2.061653745463555,-0.1528718090593113,-0.5849743791453246,-0.5324679080301996,-1.8355759590817269,0.41818903605849983,-1.3117453093644245,0.18474544815469437,-0.9635923393986586,-0.5465925992337712,-0.3251426643212361,0.5060807108182683,1.7354478865020053,0.20876573955326821,-0.3354285647592876,-0.3095929694545041,0.5630921260204425,-0.8237450951722352,0.19239959020435957,-0.811528612287169,-0.35496412386473153,-0.3215538319530987,0.580270664490886,-0.28784965156558745,-0.6671894938957565,0.7584274965400547,-0.2283304591719573,0.30334718451578213,1.477077522243262,0.14044140671918617,-0.5370522628248485,1.0948731415656763,-0.569211429155018,-0.627076884781012,-0.04366391322348184,-0.7153559859440992,-0.13127292778118713,-0.28401008108290365,-0.9332415566840908,0.004576430285501109,0.41228484558372286,-0.8637377675299261,0.8974962502227666,-0.10754804311941724,0.9038508338079807,0.28148096568868797,0.6047423453228239,-0.1722595175076932,-0.7875416433695306,-0.3844841515346682,0.7361471860310612,-0.8128791433039673,-0.15702847107407156,-0.2264787773532798,-0.9897830649155999,-0.38966380442816473,1.0037490186014961,0.9128357856031931,0.19597529074056785,0.41156325286569156,-0.7611900420883773,-0.31587054072559106,0.8790552003331199,0.23441720712119796,0.2785348797501864,-0.1473450654931137,0.8159633374448575,-0.3429326438565784,-1.1085839649223739,-0.006114862258853107,-1.2884346709744512,0.6278417491248129,-0.5759498887916029,-0.5712597353240948,1.2726568278031065,-0.897492947423008,-1.3487303378709505,-0.21206929171527417,0.42847765098709834,-0.38158805878978047,0.3063926475643697,-0.4109355909811456,0.654994314910165,-0.6116188051686063,-0.8019922249345374,-0.1604296067027674,-0.22943408430664475,-0.23325048772576984,0.39108777381237303,-0.07114775301868768,0.5589889619891113,0.06485557518068585,-0.5452298991645984,0.5039551483563628,0.06269303728564801,-0.08837833104865549,0.6084608515582166,0.9974293136411175,-0.5874283127310626,-0.6619234169823385,-1.0046093005948373,-0.6565789551401106,0.8831838120498825,0.3018327260559081,0.8492840405288058,0.4465614644625792,0.0475706070351527,-0.20092156062082536,-0.04848023938396365,-1.2407566132801322,-1.1780941268229568,0.8413033805832661,-0.003479775777949903,0.7850977614980443,-0.15755392314757424,-0.3538522351080125,0.8681264417025676,-0.3937242851176733,0.30647165316975183,1.4386261145608812,0.5571131324367551,-0.22861178013080616,0.037071964127838114,-0.12346199855160117,0.7197739961783948,0.04768782734200229,-0.2812249039556523,0.13312602251044608,0.15129801849711155,0.2559861900812314,0.3005919313983322,-0.27004761544593286,0.004183375534351885,-0.19777274046947896,-1.0490203025266016,-0.9324895740408143,0.8400739852938968,0.1392814140754284,-0.1983307767203899,-1.1090887739149358,-0.25048249758008606,-0.018027910186864476,-0.35465026319506093,0.21017597433215765,-1.154224868057893,0.35842938940920127,-0.40680654187844184,-0.5141023706287026,0.8576177779233284,0.32030944967359964,-0.7737754676490824,0.8413987872218851,-0.9165984971400101,-0.22436153596677452,-1.0605275172066224,-0.10133011811058779,0.43987674857777914,1.1224013572310676,-0.16072171040175165,0.44338017424236087,0.6963570686685221,0.16384030432513946,0.07368032102684484,0.5903561204344301,0.36851389516918237,-0.8531772449778945,-0.9545928735136888,0.916664137832909,-1.8304372290411057,0.8988600122657712,0.6828724337397456,-0.48084066842922,-1.0268724178356257,0.27195743392253924,0.7437565233759026,0.008234734072651365,-0.935697463975806,-0.2577306187947185,0.2516058102049381,0.7993646291104899,-0.21308868347810597,-1.4594049561009006,0.6792523343814103,-0.3674736138504587,0.9242170015850908,0.9074578104253543,0.024434655713922476,0.1340980903780894,-1.1556174124546965,-0.23601342837395164,0.04704372955595694,-0.7062251191814748,0.43353109769116394,-0.3108408181769774,-0.30227821938737115,-0.7626303952262993,-0.43529235492111346,0.09975006808487943,-1.5583472372196978,-0.0854718493050565,-0.49751058686041033,0.3885031894214408,1.480557270532239,-0.23584003950732288,1.5575488856282944,-0.5325995509352921,-0.28462973132565517,-0.10715156746749684,-0.295848965307994,0.21725253176163542,0.5117056710138738,0.7293622283152701,-1.011455305865675,-0.5174480344859154,-0.14592549982822323,-0.4096966097102439,-0.07097669430998625,0.8492577473217828,0.5363021120461646,-0.12406147220406752,-0.1116680596901314,0.46791347657705573,-0.9499083070450907,-0.9880369632629861,-0.8466577056821494,-0.06837381646754925,0.004150882239154108,-0.28804450112055263,-1.1708645743595993,0.15483081522734768,-0.5953505548803294,0.3873829808452444,-0.5268597770518547,-0.4553719518602268,-0.794409277210178,0.17308878614070417,-0.984259905382693,0.9188949584827795,0.9691029118533832,0.5098110259440433,-0.6092863495987548,0.7721028687660838,0.6318188681283811,-0.6707567201476795,-0.2766139559906703,-0.57351489641981,-0.16338758492795644,1.1015483587595425,-0.5683328001344067,-0.4806786918870341,0.6506225324123988,-2.026465986270126,0.9381150198367979,0.2897430228926676,-0.9715332179941905,0.03798508246425672,0.20535272409174551,-1.4992991368404884,-0.24147314338246686,-1.2590234608990647,0.831899339707024,-0.06738553405003832,-0.9087298167156599,0.8338653929289342,-0.7717905689254707,0.14013099166081072,0.5552168394443511,0.9364692956867222,-1.3100299898399024,-0.10023940155566448,0.2020026687883463,0.3081206802914291,-0.3720116477535555,0.18584298121797974,-1.1991248974983664,0.020459239785000555,0.12036855705664527,-0.4286324827867965,0.21192609531259934,-0.0032268874949441776,-0.544182693827411,0.5329146665880136,0.27695836203234414,0.7857495672980058,0.14625540190366973,0.6542162797874447,0.6141202833317945,0.6188537062802734,0.1743411172244269,-0.6852106848607242,-0.6556471664264197,-0.08629181402971031,0.9353233715574277,0.23890185590208293,0.03384694512571797,0.982705824184459,-0.3422673930218676,-0.1490665536474924,-0.1544339129031076,-0.4304540392292187,-0.8890815227142013,-0.4087619485364633,-0.45273804232084225,0.11621421650122793,-0.14386913817079067,0.14216120770213544,0.1395970918376675,0.2197896039740354,0.3789970716178002,-0.9891035201567439,0.3169344074341985,1.3105825341896025,-0.6836161026804112,-0.14856633363087163,0.5046326677816304,0.7709716644455267,-0.05461628878425903,0.05025672160963406,1.4876116640845065,-0.39939676303369037,-0.4154214959148103,-0.291583212934266,0.8969174543249093,0.3849168572097423,0.5565941775609579,-0.1758949710807864,0.7323170314269823,0.8505865261017096,-0.9956326499168613,0.5065890091089965,-0.2878920552016286,-0.5101275526418494,-0.5329301968217574,0.2861363043251546,0.2793485535830626,-0.7888314132662453,0.23609178163345973,-0.08122256378001527,-0.20011794937800587,0.07950767747164816,-0.21133058338709737,-0.12046678202584224,-0.6361788477712086,-1.128601881983733,0.2633957098874114,0.14598453848218487,0.1379944704676857,-1.3248317390762894,1.2930837531697568,-0.5755191943000758,0.345071750515683,1.0673329697598284,0.3023261385255175,0.08862036138777303,-0.6679400826194377,-0.46993756908026646,-0.4052940613206682,-0.6192272436149497,-0.39030857364477123,0.59777356875149,0.1771136044789696,-0.23554883270275895,-0.6655159745869645,-0.008136225964687223,0.015201264508929882,0.012753405380896202,-0.34999738750452386,0.501969565371737,0.15939894701830717,0.5103986646863834,-0.5681591801032351,0.009287188775507388,-0.07736641253041089,0.9273639492490005,-0.7297673986971619,1.2022324721794109,0.15002761533623435,0.8110029463996434,-0.09078689059587894,-0.645662552102331,-0.19387417682140307,-1.196507255176049,0.45046589350312943,0.28157692297365555,-0.5331874343943517,0.012787968778325639,0.9430136696007542,0.2451785869699994,-0.3941442327000356,-0.503491394063433,0.22147374884188123,-0.125995081303099,-0.0861716553671977,-0.6238373844598347,0.2823825742700865,0.44928056145882944,-0.5427404120222222,-0.9935551467446773,0.7251681520376674,-1.1000864898934926,-0.06840368794908591,0.8217713680319175,0.44381833406957705,-0.40964078702243284,0.11793766680484685,0.3021981850200488,-0.18730207289073014,-1.2004607119783097,-1.6079269353249834,-0.14069344017174806,0.2039985377128843,0.04947495708028545,0.006727931370442396,-0.8822149687403988,0.8572464139823964,-0.22692845381590215,0.4831315410243666,0.615066837815418,-0.4799050937484667,-0.762805766458872,-0.6301510628162955,0.6327369946896859,0.37542260121265353,0.7150226370330203,1.0759120593604636,0.14052837278580654,0.8636080902003901,0.4386413693800786,-0.250123232615214,1.0658500151769348,0.2273526000782362,0.9674851997382554,-0.9370190516387877,1.1834542629417606,0.3082256755430024,-0.10938419697716398,0.9434233297748321,-0.00728649343815495,-0.15455783571938014,0.3285466681062392,0.05616710230870443,1.3262776591902217,0.8706872655604034,0.20323546327336806,-0.29290808144822805,1.2021738231998722,0.7980910588901011,0.7355909517456132,-0.5843744429391292,0.10685401075547642,0.6535395698852173,-0.5053074593095294,0.36235461002981706,0.10259755031952383,0.7025838606342907,-0.5287407629876671,0.36573342099969,0.09990444590033896,0.5809238016785134,0.07251769038614239,0.1568031687326721,-0.6764762557541604,0.8776905654773991,0.2749013338195769,-0.6507726284106711,0.26155141598693965,0.1581932945167918,1.2345312691418144,0.476311885935806,-0.24964109271175905,-0.3841805938649299,0.42609159650218675,-1.107137048631761,-0.0503703334153619,-0.40755751315895805,-0.682374924176977,0.22767581900873546,0.0539058293446961,0.5376732952203621,0.05218476188904488,-0.2482059568673084,0.4647099071155348,-0.5476729768863757,0.1469242653319993,0.3735725026786405,-0.5270836844857357,-0.32303909155159505,-0.5981388739558752,0.13706998108823545,0.13593822205986097,0.04476646566619941,0.020516387588487773,-0.1418868771140127,0.3472945828426685,0.7771923603838714,-0.16509692919711283,-0.560935290136189,1.3936635241736022,0.29812844757374624,-0.932992100792168,-0.403122522933058,0.00876789215126228,0.4590804968038373,-0.650058071161941,0.7117998040298094,0.38566306542427303,-0.17477785641800225,-0.1707728239735652,-0.18658223320327166,-0.7059360728303506,0.3276733480680903,-0.23626781555429902,0.6800754304867391,0.21661886833551974,0.07892286571655069,-0.7211235943668624,0.1294180813550927,-0.645653532813781,0.9427326206079976,0.12456520201345138,-0.16653132978891805,0.8116355783441569,-0.5390265666266406,-0.10327342586488802,0.8799403195260422,-0.7758111075548361,0.8581196741657928,0.8374545942766551,-0.6549403231787291,0.370920134376069,-0.20593415997507086,-0.6422077594392,-0.18355027416451522,1.103890708114664,-0.7971884756917854,0.29357988710527005,-0.11356178549410217,-0.05842456849155405,-1.007708270874513,0.7160011444880354,-0.44220088233571136,0.2871030788345237,1.262905465063798,0.17408856104456982,-0.6211748616638304,-0.33681879472250237,-0.08814387682429298,0.11312712546798483,-0.32065611841658864,0.5499401744662846,-0.3421027647117158,0.5904126974028396,0.6639736654694266,-0.21051333194651375,-1.0543414987964255,-0.9936141086221099,1.1780235707104407,0.10385776869689914,-0.7308512951158496,1.1221091806615393,0.8704064705147829,-0.11299267953244993,1.6986509022568188,0.6584597372366192,0.3812198346615716,0.23309124755190908,2.2446124833530656,0.325838044423984,-0.17903678990443997,0.32921987390665225,-1.213025621620121,-1.012553262879658,1.361087189656815,-0.9729105786111095,-0.6001221083948675,0.5047403096970442,0.07732356014524105,0.9223586097549713,0.03255022781145058,-0.19726019447797263,1.291137608466602,-1.0770395419782182,-0.08240668900814437,1.0498649280615053,-0.015687008464583176,-0.048706361238941454,0.15499764573202543,0.6411415980205128,0.7524435919194914,1.468634472648367,0.6421813062448799,-0.22817442406790053,0.19059447348926814,0.8120307969670545,-1.189232396473467,0.030719017411901875,-0.45086923999016393,0.3244023024580825,-0.6438162810844409,-0.17636364940217414,-1.847752663561091,-0.3791272387176096,0.2694758489714959,0.5806171353874637,-0.27200261328087993,-0.6342106027328871,0.809364835466878,0.6950386806510193,0.5591935352112483,0.27697011822486495,0.5421306084990251,0.0074324602991119315,1.9295091385144532,0.337398651018412,0.7891079448363876,-0.2058885053771756,-1.052385693497153,0.7343331737580311,0.6487315116131209,-0.3497250782229938,-0.8344195786870182,0.3886954367508411,0.09484294502912943,-1.1433124148853018,0.5946046941228607,1.0669210810031349,-1.207187599062463,0.5663292007401244,0.4523843101233142,0.361585993587913,0.2690755587320328,-0.6800986168808322,-0.7452231430728163,0.26905510260915366,-0.19487539748750057,-0.6998225017041734,0.4062384415794987,0.08960755763290779,0.7772247146144678,0.2655435314176523,-0.56265727690487,-0.15925030993288816,-1.3119771330375614,0.05538480504123524,0.06883719280732736,0.3267514724493842,0.44258812705463846,-0.21038589682792985,0.5260947998852882,0.5085746179990464,-1.0266725961933387,-0.5823860177462001,0.12882101996671952,0.9802816028478627,-0.20149292102898608,-0.7433683978946071,-0.5311794773601065,-0.9369898099622694,-0.049271097756713775,0.1425987135058038,-0.6724226482125067,-1.2826037993162462,0.45823501964449015,0.14219232291880082,-0.6037979309111947,-0.12296162919280512,0.15031545878506486,-0.14889444577939356,-0.44986203922768786,0.526468160073855,0.3910368742684427,0.38399266272868016,0.40452886459602505,0.3504509568526706,-1.4539282744014481,0.19971402948302389,0.0605909384567081,-0.6372273883137766,-0.5112120434546253,0.6422211151719341,0.7554258147347326,-0.3478050673532631,0.7415494695518815,-0.5172177571787457,-0.8267376220445807,-0.28913208357447573,0.3838178114665998,-1.0694489583816733,-0.4556506404596907,0.23670166517160526,0.4519699163084163,-0.5881845892693456,0.03549584423429903,0.6190019887096336,0.37305308664152487,0.6802471636523618,-0.5193324254485095,-0.859484644176156,-1.0006190482378998,-0.04546720982732725,-0.39829190780247303,-0.3842384778922702,-0.9451604658448364,-1.0929933543225132,-0.06262068026139134,-0.008070224758819765,0.2935900087709849,0.42785190988590593,-0.10692240318039303,-0.07364866862917589,0.7145484196669121,1.1982244931081898,-0.37948851036843706,0.5852579714567804,-0.4933675221677162,0.9097034962987871,0.8049517539750025,0.12575375073506256,-1.1303562921097423,-0.3192137381747624,-0.05732152570783112,-0.0011451391855166748,0.8400240638570081,0.33298734515465545,-0.9340524739331373,0.25647231298071577,0.6369075623083851,0.9534285026246426,0.04389332952547107,0.3480815800399255,-0.08361973635786839,-0.0729281529801146,-1.1408876003428068,0.7343214444831693,-0.12707626547973008,-0.8924221738614169,-0.20114844488555533,-0.1413467770902997,0.6223072062240221,-0.39883051957262217,-0.5235640373540267,-0.3901202991614477,0.057388270648178266,0.6963505779525366,0.14589402476469898,0.4767032310399213,0.8267957375568091,0.29681341003116507,-0.8611191988796385,-1.1793093500859175,-0.49499179702769736,0.359910499378841,1.0981440823677184,-0.47352919694817563,0.6280999853870786,-1.1296366484945308,0.5114550986779971,0.7352827205367901,0.09679779743155453,0.9310848830321503,0.16076582609444143,-0.6961488014591691,-0.5816748134844031,-0.17966259158906092,-0.5956154929388735,0.6211229019965696,-0.013492611193179238,0.2219903767186138,-0.2683031047314283,0.8610125269171417,1.5984778173179306,-1.2930159886338861,-0.31077373190267366,-0.3776195017612414,-0.5358846458057246,-0.053174042822738486,-1.0924143699488247,0.12188395184823483,0.7215243549237672,1.173884395376655,-0.27143911975478685,-0.6804263909994983,0.46665454773268233,0.009515236302375754,0.11168760014872157,0.22785028931722867,-0.4559866535407241,0.20047578003699654,-0.5575272567745185,-0.571011992861004,-0.3362232793927095,0.47921703134084137,0.37501429410018045,0.8144322149186343,-0.42619295765491005,1.1774511925388196,-0.09860811679919107,1.2081684200038623,0.06608929406122577,-0.4605641109427929,-0.3600184162485248,-0.1850763042172921,-0.6258511536382153,-0.7624485581133259,-0.5490748759538724,0.025560244756214934,0.48881108381877847,-0.5046454519312639,-0.9244701910236582,-0.367286459134264,0.17136745778975884,-0.9635980253847474,0.028339222379376094,-0.6122220584644871,-1.2060021773771128,-0.5438293138173445,0.7561241564464648,0.3768739784631072,-0.503152284370146,-0.5326701743763791,-0.30120385052683574,-0.26020321823422593,1.1600700332054608,0.47228731714560346,0.1324302579339914,0.567276607814885,-0.08690996490224653,0.394814649299197,-0.42353044841788595,-0.2781688184860029,0.7972839955751063,0.13301245502523704,-0.7581008874394147,0.4032352008551855,0.11678269419418237,-0.2931081284802722,1.0100335976620136,-0.30526866328090346,-0.2905547813425663,0.12019103229200874,-0.5771988052080309,1.6703198038117963,-0.18060522713860472,0.39976034781535635,0.6087663503777626,0.2184694987770133,0.5705690749608608,1.4034293981694654,-0.8516583874416731,-1.8497078580334856,-1.1745701540817266,-1.2850545570522676,0.040939030431712174,-0.7261144336566344,0.15320391939422168,0.3261524525478306,0.34896852176263293,-1.6819768301948717,0.6458441530608412,0.2294213761794417,0.04327582748552248,0.05089545953274632,0.9095759431605079,0.15866024152781852,0.2754441297813922,-0.46540823641831924,0.09754196764874197,-1.169531111997633,-0.6148992125091037,-0.75065315316832,0.04448657753924816,-0.8160385210829575,0.1238059771483644,-0.2444937278502487,0.195458738194829,-1.2682361643454692,0.056908455516199954,-0.5061612987527996,-0.9267933412886313,0.07681722903974982,0.5730776418204643,-0.32404734327244045,-0.3337508130244173,0.028170540421345567,0.6642857790136065,-0.7270981407713224,-0.1976532055910537,-0.12483728366418076,-0.7688638491433833,-0.17501346785928965,0.6901804699132702,0.2675678222761143,0.30123022006381145,0.34821057573979075,0.11338636003391066,0.8892015875942899,-0.1384606978858395,-0.7468117809965036,0.574796063273235,-0.03330010418531526],"fitness":13.505555333333334}