{"v":1,"inputs":13,"outputs":17,"arch":{"hiddens":[32,32],"bias":true,"activation":"TANH"},"weights":[-0.8815524563945653,0.0687319310129786,0.3429624829380918,0.5184560680832206,0.8963841066246896,-0.19452045534441761,-0.15534372217005038,-0.5646445966641123,-0.19051491624586583,0.5616399236234685,0.535458375134812,-0.3762723484741633,1.0686169587422638,-0.5516178997500376,0.5919505525993692,-0.5765207103046928,-0.4323422124879049,0.5097166112623829,-0.045829857860877524,0.5007953303128314,-0.6675456680287233,0.20393492026851695,0.33297517533889887,1.8206295274040585,0.2402774267683712,-0.788198835583215,-0.1674415604252039,0.4082410893161115,-0.401231990193999,0.3568985934247971,1.3568153360021091,0.36736863166384603,0.8139898837837148,0.19036376486603987,-0.026872627923120285,-0.3424919247752453,-0.29996961912956666,-0.11788351080464601,0.48707979416819824,-0.08815817847003875,0.7196001490767595,0.813128574225696,-0.08639266654623531,-0.4117025507032659,-0.30265638863763655,0.24672214641670556,-1.3450801235424406,0.028587225902859663,-0.07004822541406099,-0.14462349298852878,-0.2841585045749608,-0.258275671616838,0.34151123379887866,-0.2991043235543074,-0.6164057615922339,-0.770480001342736,0.1921723988933105,-0.9576797835404526,0.6034503113206132,-0.9820012450638471,-1.5625646408139053,-0.42674395013648464,-1.0243946930227958,0.6689091072108384,0.3678670414011022,0.294771257463516,0.046670376560315203,-0.2936142421105843,0.7869224851668387,-1.0812450433300944,-0.7933706198581507,0.30341035955233664,-0.763339982389007,-0.2978404044118323,0.4237832764153872,-0.7789199762260174,-0.11876819799013418,-0.011596039026770633,0.7686565454813666,0.6182447817029589,-0.13181081906417305,-1.2093215064505152,0.479146370080788,0.4395265455369242,0.03045224703871441,-0.06049476389171393,0.9199108112290457,0.12921382792208846,-1.3086404149151376,-1.567100405560513,-0.24936179051292812,-0.05967610972598004,-0.026779487870001062,0.4360936964666527,0.8975120917930574,-0.2508328493852093,-1.2691921638591694,0.2973414011839012,1.3788251503893858,-0.3919015075084819,-0.41091407753133413,-1.1107620872835384,-0.4129315324028543,-0.8197137316293588,-1.4282206675506695,-0.6110024635454225,1.158912578966948,-0.7959453044467291,-1.0221486689130745,0.6005368070093025,-0.045569858773210556,0.41076387985693197,-0.8993480061535565,-0.12572424226895332,-1.052093232136175,-1.0276967929702803,-0.2500758035567112,-0.16614142463199358,0.8187300781561547,-0.34448124774954064,-0.38623904031060236,0.1250749879025993,-0.5031902673524644,-0.2816062373381852,-0.6771363587993772,0.13636652864670337,0.6576069112841513,-0.0014444823946553609,0.8363879198079865,-0.2141249407749705,-0.6690754346943856,-0.3093285686873927,0.36196003628886203,0.3662759288239347,-0.48859997610647254,0.0009905412058491654,0.7838838460548749,-1.1107131784784028,0.3121464012099064,-0.31483495256367394,0.4660715962373605,0.5027073092433925,-1.003894359380485,0.21286398425001987,0.45888475248026,-0.12221533573045232,-0.007284444572437654,0.6494432044625227,-0.6404529499321758,0.03945717121604703,-0.12711036055894218,-0.7430487876893376,0.2634031212280723,-0.2098889865684108,-0.3929865903209252,0.5568625363115867,0.5903804607610922,-0.3036158147730923,0.947309317476593,0.19796032334312033,-1.0766214617673968,-0.9347742169728607,0.27955882882017385,0.08752220789800493,1.1185223265449102,-0.454452118900539,0.3523648703170046,0.3834866283445599,-0.38091490720020027,1.1426095413016608,0.0760853545851493,-0.18477468292773033,-0.26729817068546363,0.9289897329144242,-0.9326446432545811,-0.48445765129995905,-0.3688075273987867,-0.797869917469983,0.08601332252955093,-0.6447121106978344,0.6155614836452366,0.7436795192574004,0.47363837553140165,1.0399106195801981,0.3639522646307664,1.1181517787787514,0.7807223321199799,-0.7233831753482097,-0.11951082712183836,1.4531827227633256,-1.1672193909532016,-0.14965326061344267,-0.12092706945595433,-0.549890803955626,0.19671597311894032,0.10561485188795712,-0.33835917283190214,-0.3321471597305761,0.8114909118879772,-0.5846878182588853,-0.6639620648793003,-0.03197891883936307,-0.044893777087291274,-0.10559443647766927,-0.1954798633460072,0.1023156375409119,0.24075827836512545,0.2512687713016589,0.030906992838404014,0.5150914994594876,0.3409158328820841,-0.21231625174915236,-0.48234960479724215,-0.443549404204306,-0.19051423795308675,-0.09493129104866464,0.4847718192038323,-0.22613628482364614,-0.11407150509677849,-0.6171647570467064,0.15618305367066854,0.016113006583215034,-0.596230627418685,0.1517105928769266,-0.08452358219412383,0.3249532195372491,-0.06058422448466537,-0.7993076890648447,-0.06583586163024903,-0.01020615182415402,-0.3579631528265495,-0.4443126826805938,0.9196910367766779,-0.4921436868563024,0.36869136830340526,1.2756777416342844,-0.36733734195684625,-1.0244528805015176,-0.5767572700730501,-0.2301946835740714,-0.6677615696603382,0.3620318760087156,0.09062968840049455,0.6054662591899975,1.1407863314435347,0.531296345747223,-0.0788363255913057,-0.3053273725623694,-0.26671111581919715,-0.44346018505746587,0.4561889148761603,0.7669808198898237,-0.23509415847898676,0.7481606626558085,1.2494102332028019,0.3184158830849963,0.284720428662734,-0.0008528614145332064,0.16375937903069163,-0.9718453415019437,-0.09894660173028696,0.0745171104949665,1.3734926226814952,0.843377935625753,1.1611158334146587,0.7247806814404277,-0.5858982018883842,-0.07041184767585598,0.47130516688426566,-0.7683041086162276,0.29447836722374987,0.1273355497297122,-0.18472537310557013,-0.19192651358251558,0.6727385997493344,0.43159407561768165,0.8281932287529935,0.8327384115458986,0.9777593311962347,0.3477585462090768,-0.7434165044487457,-0.2571240617708139,-0.6059811115956466,-0.4167380570297498,0.11886351528799022,-0.3998825598399346,-0.07589193805606129,0.792593910280023,-0.49741520858050275,0.13985094036975151,0.020416856564426718,-0.3391519468691152,-1.5898506724968844,-0.05083411914171757,0.04729086567950957,-0.5965557973707096,0.16422331060603598,0.8238908125342264,0.7417969189646453,-0.6154896710596032,-0.9676076737752097,-0.423847514128898,-0.08794413962220737,0.32544725452364154,-1.6857981486311993,0.5056989588538,0.48059308972257425,0.5950383808011703,0.24386214906811748,0.4123856323936739,0.796518179403475,0.25443578145197854,0.23755887228666012,0.4070565210749668,0.26667538493400733,0.3908931235468947,0.48115453937053376,0.48346473292497105,-0.7540070573043222,0.6109741832183198,0.5000850703868741,-0.186031943132429,0.7638615471385304,-0.4794004870408036,-0.8995181797574346,0.3023164291755581,0.5660669087659456,0.015504790353178338,-0.26049986364372835,0.12395407385300428,0.36248570571566674,1.068051829547241,0.6372880718764674,-0.5059059109176712,-0.11135388521640247,0.09283681584951031,-0.8105311574188596,-0.8269768758550936,-0.06957703629599316,-0.4722153871352434,-0.7070437413971534,0.6442689617505754,-0.13929883996776402,-0.8699551502502973,0.27713669095941407,0.035447341392537635,-0.5566728943915724,-0.27993663583195594,0.5155717624446896,0.04277466420763014,-0.681279601118461,-0.577851017761665,-0.31246568864915697,-0.8122361790047125,-0.24181099853549773,0.8908187696027127,-0.5776721644598067,-0.4786762813037079,0.7655400972425339,1.6201708346594679,0.9636554814136207,0.6837972760207851,-0.8782350069025413,-0.05858939673374765,-0.14625829366697485,-0.013255714002131089,-0.15930919288326592,-0.5624221467647931,0.38575687153002797,-0.9535372148579518,-0.781706601153906,-0.20211017391777247,0.36188539448598606,0.32646440929388654,-0.1580457799174152,1.538855242380005,-0.30997049955014194,1.0243300930655488,0.1532982974240043,1.1223141167890445,0.40737594460798193,-0.29415314329629055,0.07694930646614764,-0.07872391989127664,0.42906649539774766,0.18039897497855745,0.3667500686058142,-0.5566081111611574,-0.202154446894623,-0.2475008165538658,-0.20060372357064885,0.204890689344709,1.2498989498079234,0.22122180023587734,-0.27244133256427666,0.6614351709082565,0.6901035552747073,-1.4702764849353964,0.1558569472342828,-0.8178598912443205,0.7996019700016224,0.5284891759425899,-0.28043837791963216,-0.27777432924636836,-0.7383257288682487,1.1602748612501173,-1.0463232211394875,0.1426149892426729,0.5925615947186305,-0.44802488876471874,1.0499345430873652,-0.11167643846549939,-0.2393489753475111,-0.12787853514030856,1.1474612361236913,0.25304566431388237,-0.5206126638353799,-0.021752481530315195,-0.5549710335700782,0.11453287574158962,-0.7492017986680307,-0.5692405959695281,-0.02700332240566474,-0.07971444830538571,-0.8287063686038144,-0.4380736954995033,-0.682184205904686,0.9658332189858853,0.4313835600979376,0.2549130773662732,0.053667572982029677,0.4998536559003979,-0.24722128513259856,-0.31104250152185514,1.1383696108016368,-0.7253395841571961,0.6574067696344307,-0.5720544653690115,1.3387511164058636,0.37961559471570955,0.2748469302278222,-0.007710877588004176,1.095437785313206,0.12809791448017072,0.14786868422024832,-0.3296964297443727,0.5504083428196124,-0.9734408768525857,-0.15322656470999302,0.1565573749992342,0.1925714544670156,0.4697599402192708,1.0076528192966028,-1.0349634762746778,-0.14203210966640994,-0.0962185074925788,0.19791465483632234,0.7331022572644964,0.04983076385148895,0.45594396567209694,0.42771373785543426,0.27645175328310384,0.2889623523540558,0.6770472164959086,0.7351450920095507,-0.5629130239743726,0.7576287229985335,-0.11044728208449564,0.19487717839968008,0.06608425393725909,0.9509681746005741,-0.5924337641212584,0.26994588742033887,-1.5226443913186616,0.32097689251392536,0.36015522867203337,0.022948835845934917,1.1937465810516004,0.154464889913587,-0.6322481490141049,-0.44531051287903267,0.41171923873064886,0.9495830491268602,-1.044705430358181,0.3832938050160051,1.312810383171629,0.10708902455877445,0.5815964264006902,-0.4851247711852826,0.2674629667530803,-1.317523298778359,-0.5389384667274396,0.10633750587478365,-0.6450683076627871,-0.25428033254991783,0.5474924469505924,-0.6682602815129266,0.6196051107095731,-0.10549301230613391,0.28208245238726093,-0.08197905975170239,-0.4715887355103867,0.5297161222502889,1.3397514679592575,-0.28241831787871796,-0.20962541775293278,-0.3797248193492187,-0.0738091941990798,0.03580850975302773,-0.30593106909006507,-1.6718156137254652,-1.9485915795994133,-0.8467257893746488,-0.24530034200716166,0.16231824868253433,0.41035306801029126,0.6806514269711919,-0.421496039457335,0.4345858030557855,0.04611906507732107,0.5283011377229415,-1.2213460212776477,-0.10085658358228498,0.9091298859371932,0.8628298264526656,0.08757411392580883,-0.05824757938853866,-0.09037280767300958,-0.025402332822117093,0.9782746660719759,-0.599699575376366,0.11914287860942444,0.8703506022232053,-1.0889934671152224,-0.2746105711504747,0.16668249014886816,-0.4808267498374339,1.0829657331337685,0.33350025291804913,-0.7147099439615988,-0.06596985216536208,-0.1763666762566324,-0.29697617201830073,0.1575046632782837,-0.5688039076603056,-0.5344847100784811,-0.42185617463211217,0.5263436141200701,-0.29936412096008647,0.36900754964676324,0.5158423032860149,0.3266751770867196,-0.06325619725592828,-0.37401313212847037,-0.22929382116837146,0.7224178643030773,-0.30642423064876667,0.2624092325186195,0.009287656078624447,-0.12598160587613924,-0.16572161423221554,-0.5567035262023651,-0.2666553520729755,1.5200314565517656,-0.06519661198210516,0.9687191910062389,1.5086822873619252,-0.1296508533358036,-0.6284233688012882,1.1113479028854774,0.3854903949124557,0.4503983339204088,-0.307685576536649,1.2049159103530882,-0.3739845317075866,-0.27107079086702013,-0.25284987472027753,0.6112298390942067,0.5505012371470992,0.4167127580322707,0.05654380598696429,0.016059115417347128,-0.30630299322207044,-0.24977603475977045,0.9311522037923514,0.7556359978487744,0.34013165921357785,1.4797583057879504,-0.16362005225589274,-0.2781102975062089,-0.27677816417979495,0.8293978794098961,-0.24431165572600277,-0.3128577551554372,0.28323159653221675,-0.2252898688066971,-0.37051445194999066,-0.3774062370118355,-0.6589728196244612,0.26439699280090495,0.3055265948539271,0.6149545841713489,-0.5484669910374175,-0.26153871957781594,-0.11404233213767015,-0.5941003155187383,0.25170171653704965,0.6912085566190205,0.11968347783620562,-0.6123063170680151,0.05192672805544179,0.4107225128286464,-0.8047289464346046,0.8489082275298412,-0.18996520523987775,-0.7519717203599234,-0.01664242258786921,-0.7172193927421759,-0.2377821866588347,-0.3953591030615861,0.36111228971255266,0.692130072872097,-0.6865639660160919,-0.8686423537352801,-0.45511382379022647,-0.0400850946863197,0.47873689097110567,-1.1330509112081881,-1.3927377775414227,0.42974464715739136,0.15577898622808925,0.3033869445847926,0.4078646126830923,0.1981739145389172,0.5421401918193843,1.502768222614608,-0.6263835048826802,1.340366269568556,0.3421792043546465,-0.12106521021129171,-0.4418363593400617,-0.8211943921497787,0.5074896385074567,-0.4164355188968853,0.6392119658970338,-0.2867288386276735,-0.0595883888445708,-0.6320163595901717,1.2421509450632144,-0.4084541160419284,-0.6637774749040944,-0.13515167815443585,0.31226849450952077,-0.08680171463185725,-0.5670357490025567,0.026374717985987704,-0.36191685295073156,-0.42877643882434824,-0.6470133973677502,-0.05054376872638251,0.3521727181109407,0.9438360434850127,-0.17116854067056414,-1.4931512686930009,-0.39234830646057267,-0.5003474588957376,0.4328617712710835,0.1444158956305599,0.08575760469927354,0.05202470803897818,0.519232961528122,0.17428929455014183,-0.9043735663667588,0.004378592177466524,-0.4524240132062654,-1.0431158790585893,0.3888423203289304,0.7912763984593739,0.04708633977496718,-0.11680687439723098,-0.3321228714413193,-1.4468093632407288,0.503501741857704,1.1824797057059788,-0.46654512964955097,-0.42907236761722345,-1.0127452281129423,0.38586982558564764,-0.9452033694781365,-0.8007064496251061,0.8384044108078562,0.46829593556313137,0.788215903246758,-0.7602576193061281,-1.6317202200481453,-0.2894449064723346,0.8466555243492097,0.02984098735751048,1.1960002763320294,-0.5561133458169649,0.7044818530108673,-0.2539835505123063,1.0335468864285169,0.5257255637123682,0.5370129553033397,-0.1981406147718285,0.6527390733970848,0.12795243669909778,-0.6399129332547643,0.6908495490090518,0.21339163142219778,-0.051216713008524005,-0.5998759580771239,0.3989820699574548,0.8264058178109729,-0.2832100227329262,-1.3614150532445528,-1.3332693323748654,0.37158747847789037,-0.640691755802466,0.8639851154137227,0.40183001616096875,0.017143787646779984,-0.7932345620619893,-0.4317123405459207,-0.8460983135211644,-0.1937957951802886,-0.5856701866241782,-0.09703742775333209,0.2044113878006572,0.1973463493849732,0.3069954278066519,-0.10283059583542187,0.015483037091992585,0.8504027193226295,1.013944279619951,-0.9870570570153268,-0.061343675339464804,0.2283691867350993,-0.8784455084964732,-0.026601286393040456,1.3609200239176789,-0.3701126603716703,0.10301139610349094,0.5680671329848689,1.7936178483458673,0.015814750257733493,0.12756856227051586,0.09825868696962517,-0.1324283346021854,-0.0007045084985368979,0.44926568983835835,0.58994414506723,0.6248421939474311,0.6939709459102988,1.0717886702171044,-1.2016952401132253,0.2373142715603876,-0.3199121976545873,-0.2234908171317244,0.27844092526636877,-0.00538494618809297,-0.5037200358595862,0.34651827311592703,0.40983469850585785,1.1190442042694264,0.5723463475893737,-0.07424076946257872,0.2606002156940588,-0.41601621232001934,0.8966831027844356,-0.263550762755398,-0.1580177792253501,-0.5030302781569426,0.7831254018951154,0.14369944059626824,-0.8293989816392354,0.22299419223413022,-0.0567442722453054,0.2788093652975495,-0.35196873028924364,-0.13874396314550652,-0.1308923954749555,0.020437637091413333,0.42437577191479814,-0.009504014459108147,-0.1306377327479917,0.488272184110309,0.2874096003877251,0.446114373694067,-0.34034433734472946,0.8066557286551479,-0.0820287473431047,-0.1389419822313053,-1.233216177683448,0.2634143601513423,-0.09181228765787526,-0.9792534080602542,-0.0011340064258257084,0.6918285582759787,1.0084888413598145,-1.2828883317469182,-0.7252345874010688,-1.1095683801186356,0.5540913524517737,-1.1610277662218993,0.7902537973836815,1.0161260324002361,-0.07091615020388316,-0.18275990781759507,0.850793092080054,-0.25973153530142773,-0.9905075569750349,-0.37487274868384923,0.07956141911212429,0.01947697407868049,-0.730018281532478,-0.34876987386741276,0.5754568941669053,0.20696722682952562,0.6759115202099873,0.2308755228823815,1.0140389679528328,-0.06945269027509145,0.4715488378765534,0.8516157274621264,-1.0089492107239282,-0.43888932040635453,0.7152799266201632,-0.5326101897207012,0.3029925642142525,0.584395914232294,0.2735569709021388,-0.4879414676974661,-0.8568821933425789,0.16404551706661713,0.5563430991567154,0.8261292273755623,-0.6615604383178333,1.7302033073807463,0.2709464487010745,0.06673359787734845,0.0029233739947357815,-1.3033302371972177,0.6756554093140227,0.08083400042389911,-0.5033298304239217,-0.9584336417760491,-0.22914642554401027,-0.22343118085021577,0.8470115108759639,-0.1570327546346246,0.8856581784693687,-0.9275157937666096,-1.323067446731695,1.3288550988538324,0.9650849574670038,-0.19791875656906158,-0.09495878108765286,1.0873677788440346,-0.27613276930130265,0.12187343386865979,0.31076619608635797,-0.0007781494838369569,1.1425424438257081,-0.053009069479695616,-0.4986542813727074,0.9187730687310731,-0.5453477094354184,-0.2987229688913831,-0.7952869241886726,-0.16365023833019668,0.16304886654476727,0.11158280037054469,0.47770670483513433,0.3885186522124785,-1.4195930368785805,0.5374808087860167,-0.017428374680052358,0.11815487124113097,0.6031512951964898,-0.8048152729804712,-0.6523082148940648,0.12888587515206076,0.5714445119448252,0.273203202832729,-0.6087829456580717,-0.44293723075665953,0.2680530166036106,-0.07193944790508151,-0.8345968864644907,1.031764408105201,-0.46880719034108975,-0.7816216332941772,-0.07092677474411394,0.10089515944003875,-0.2908987157522057,-0.16255188992121905,0.06854655066695575,0.7484418649273343,0.6433985106241566,0.4126434690394763,0.7664589890550559,0.20845995018542565,0.8906126253779505,-0.341692438605406,-0.02877216756602785,0.5130409370926038,0.0519583640563017,-0.27023606101022657,0.08123201246294257,0.31108021140200576,-0.9944682502484553,-1.254759427979801,0.009605858605501108,0.7941007600998813,0.1617814313738603,0.6982593409560757,-0.11630686669644542,-0.7941420053601788,-0.553435743001169,0.08403400303678857,-0.002263775073383173,-0.18831534257721444,0.5116777004242457,-0.6183123625030863,-0.3008745054431366,-0.533966847772118,0.6471963365263701,-0.3145506541239253,-0.778634089267835,-0.9217874469322498,-0.7743440992221142,-0.6382575862277782,0.14259676307452804,0.5705199398603724,0.18787867551170911,-0.3933079932031491,0.9674893195016157,0.08676016996340814,0.26744210590743966,-0.16359316658437692,-0.6064530265602336,-0.23499507981384235,-0.13764942268252675,1.3074145017955017,0.38777577502488436,1.1468674284198819,-0.1490514110565733,1.0739901238806417,0.447521726646939,1.7343570364459635,0.9756842792196818,-1.1018413853002373,0.5321515989036127,-0.4437351412952905,0.9826200009899198,-0.6285059140197401,0.3419504077059563,0.569100478990312,-0.004384078011399383,-0.802876978147616,-0.5070695627531187,0.27021428136668446,0.1052479299164335,1.4860610676753765,-0.8073222046537456,0.9014123806300629,0.23608431436945854,-0.16636648634975054,-0.21593196381632984,-0.21380796172054103,-0.5235014589320027,0.0743174406639273,-0.8658034128987336,-0.41864534513474183,-0.530896254537766,0.2987883317040979,-0.11613448293637926,0.9247337945854269,0.14366809319337717,-0.9792120726152126,0.2097867136967665,0.44655561321224185,0.39742277936285,0.9048247260381296,-0.4671824676333527,0.6426831421431624,-1.4471615609023678,0.507883957356169,0.5835063137702016,-0.3047373799876216,0.21699685780514258,0.6216214277393101,0.08015867018520521,0.8380147879168957,0.6177818828774083,-0.04614734658296363,0.5559623870322465,0.42689085085980016,0.04912949238521247,0.0951202674645212,-0.05392347888563157,0.19699945227921145,0.269445191841181,0.4936858123624099,0.2446905422034167,0.08439836708975976,-0.2786203868817727,-0.7877168372377727,-0.22613930583241681,-0.3901483900766195,1.0139286224121857,0.4142861909020575,-1.103236698606117,0.1882962115913238,0.2777387561017915,0.7786825574454088,-0.6587830756064845,-0.353990899574574,0.2122284293513781,1.0202829971669767,0.5998484261032321,-0.41918407350415526,1.1379183719461596,-0.7586715815104622,0.8685690090482899,-0.06656984751837325,0.24906102959232312,0.6608679652732975,0.37217183925959546,-0.28543140996965966,-0.5003953488068544,-0.8974823741498984,-1.3060426512441152,0.9577494125171008,0.20736665696612744,0.8512319042153091,-0.12908124781093555,-0.8295585313258866,-0.884158872916773,-1.2597312860360714,0.2320898319482809,0.3514952585891643,0.6052941192685218,0.20136127420012018,-0.0933357823497144,0.6592820802286871,0.24365956769752764,0.33497715590344584,-0.16940242779455142,0.3599852877625294,1.3130152999792095,-0.6129357418010988,0.08641200229538512,1.2250139778928562,-0.0697073224755069,0.3274979327777256,0.185432054899102,-0.4062706653889126,-1.0824489085433273,-0.16939000472533328,0.04806353274346085,0.6266848875388592,-0.6677552137339466,-0.4530290729094185,0.36407640757275356,-0.2186521264004823,0.9143199911229767,0.36701761695614077,0.5039597421751149,-0.975702934175475,0.8700533566801298,0.6085760664078408,-0.22394788533193294,0.32145987720208563,0.1582531825712878,-0.39830113043838744,0.9635410510836958,-0.30862574945951626,-0.4772911094788716,0.8994439472861098,-1.2292371382150133,-0.2165495792639508,-0.3023159367182612,-0.6632543166953111,-0.7726036950748639,0.7440444606919767,0.12268822156182836,0.03187970451877786,-0.8682775470041778,-0.09188098182894955,0.1400037458514795,-0.06292208147062398,-0.5994240471822498,-1.160789603039675,0.10124628489579303,-0.6574893753456669,-0.37075667800848844,0.7865392232321534,0.2164980285811152,-0.7293900634406028,-0.7626782309905522,0.040985717349596655,-0.20026606332352231,0.3873882709455077,-0.2330477010075584,-0.5865257346057341,0.8993440637769141,0.9316358811303918,-0.24998232164138193,-0.7761193218403027,-0.37245542970028067,0.21942262239341528,0.06709346925853764,1.308658973463828,0.7721495650801004,0.3824354323038764,1.0677276475868427,-0.9445575245398332,-0.31315153293235926,0.7333806514428781,-0.5241345744875371,-0.07780401548281124,0.7996737090994867,0.4285868319546908,1.0585473539230794,-0.9250025873969485,1.4524305732354479,0.2544511251517143,-0.2154975775652443,0.46747053183628134,0.6063877684304653,0.43913279958705626,-1.130459876785706,-0.3542175778748819,0.6740142131579315,-0.9872808731919017,0.1400075715308658,-0.8380728585653376,-0.04091065176424598,0.7758021206017462,-0.5928464387335588,0.5187764217128155,-0.03321815484317241,0.5574230348663138,-0.5789780094331247,-0.41108173631098394,-0.2928020927870285,-1.0533326425982383,0.21613252849147713,-0.8326814961166106,0.5002315655291374,-0.7170719066687052,0.687793880801714,-0.4579726624257179,0.5970706171722157,-1.0199970497728896,1.0036201111347267,0.37251874389450695,-0.17299848515320815,0.6692133788761916,-0.5812745325848471,-0.6873041370421873,-0.45822494068034486,-0.35681981372889826,0.3224000359578615,0.14305017677913232,-0.7749985647091944,0.38295451930326313,0.4388691936156975,0.6701774085811779,0.10041433409791622,0.011493172065822909,0.24375887983361824,-0.7694176009628932,0.6896457724293098,0.4140533057332228,-0.38874564023849734,-1.0268837223812413,-0.6906142372844473,0.9249286299213837,-0.11732113322822393,-0.03801103289571562,-0.4048291562316504,1.49025400809609,-0.8887002990796738,0.6075018722465041,-1.1229190673914662,0.34918947447765225,1.337401288813951,-0.6436940673351969,-0.435903981089233,-0.7525819759885826,0.28970763894516327,0.4142113889220849,0.5378428973879292,-0.26218707537233754,0.964979382875942,-0.037772617026960144,-0.050651291833405096,1.0226528907416013,-0.2383481447031947,-1.1623664515774188,0.19426831180499682,0.238557000471001,-0.2944349498913622,0.09609884464680912,0.750450301196038,0.31298213494407784,0.8533196471210959,0.5185682127750966,-0.489371548698352,0.5222447741753514,0.27364736607255963,0.47886165920518664,0.027780208924937783,0.11083423775467674,0.4330182417294432,0.7014137705748962,0.1995604074617469,0.5813182618547784,0.8914786908807139,-0.5207334708787368,-0.8712198558832126,0.8650024654238405,0.5194741865713395,1.14681404281758,-0.1410029999817568,0.28677435122038764,0.7652071012051016,-0.27920119423064593,-1.1043324813821467,-0.2938489233679844,1.5153767532578988,0.5780657954039221,0.5214850817443807,-1.0019231174765333,-1.6745454263165584,-0.10059997670410492,-0.6025964635234635,-0.35514915097181426,0.7068563486679125,-0.1851623917567743,0.4271754302711015,0.6477461122301262,-0.3671113655107497,0.34471416290981527,-0.9133485094786723,1.4117605416166954,1.05986138202658,0.14970519965834153,-0.11647333613473503,0.347840515029624,0.5996696303954937,-0.11232340883959954,0.40056064972378946,0.07970539446336057,0.2843921734767968,-0.14302714029362346,-0.6172555706241478,1.1683092491210882,-1.0954378975233539,-0.7143777323732654,-1.2716199832054251,-0.0995822641900403,1.0309632159077273,0.06285888595398047,-0.3044034749812639,-0.9325758376025232,-0.22640873491962493,-0.42390990601055084,0.35835545301630006,0.03353619426633539,-0.6152974796857149,0.0555001532924784,0.21131871357358314,-0.592026028935899,0.7839282421355859,-0.077615046151165,0.38129607117013775,0.33062949806686015,-0.6371331093488486,0.4541712123708736,-1.975405029135458,-0.32702047329499623,-0.6057288566368636,0.382883106218927,0.7972634204626086,-0.7949372978477448,0.6230975231215802,0.051872323425469546,-0.4414626268197339,0.3757914905417971,-0.32571576388442436,0.5347506005550586,-0.5458272929591798,-0.13957110999909728,0.12211837595101693,-0.10018058084961608,0.15792273758097952,0.5991586475863929,0.3559175727699656,-0.552787224104629,-0.04070161329092673,0.49357502148506954,-0.20468290106925632,0.1704691084643836,-0.6062754823742783,1.9336879107806817,0.5589674579141911,-0.31555666026559653,0.39485499553744885,0.044098161019376664,-0.172644924734657,-0.20668832613221846,-0.46172395439473446,0.39690163500433223,1.2873940488101652,-0.8041586059848767,-0.491528044651906,0.5617150074635647,-0.3122914167219054,0.6158768413522875,-1.010917130460322,-0.12382420886692203,0.40726599257025964,-0.9316074856428104,-0.7973030580261461,0.7275263433755005,-0.01387716274849758,-0.9750142830922903,-0.016957665273385467,0.38383476729592275,0.27798052655312433,0.37177267323970886,0.6841067099528096,0.7207346183346698,-0.7235129748694723,-0.04082501412680774,-0.2732478030369824,0.2815598515539231,-0.5883897809024004,-0.08418353344919849,0.6721585389945984,-0.8007491102927794,0.8909770450796479,-0.2697345427710156,0.24924085347422578,-0.20470969144152204,0.8654230428470764,-0.996605777516658,0.08979004463638174,0.10556599676471091,-0.6026535081332149,-0.6206506513113494,0.5039858306363227,-0.14242445149228883,-0.20737877284350267,-0.07271020397163193,0.3986891436951673,-1.1679464231630632,-1.2284908800530827,0.12687670122219494,1.0425005161484906,-0.6621458208404826,0.3745176579902115,0.0571486261652441,0.9558393227995818,0.1745058546537241,0.3944209686860946,-0.019750627547837813,-0.5975526617161855,0.8152372740930216,-1.6644428266090237,-0.3549646484396193,0.42369976239355317,-0.8339260587375376,1.1139575811884772,0.34134740464064106,-0.6144503236941723,-0.42453179796891394,0.14055866907616293,0.01472832945269968,0.49130847096550134,-0.41636796310906454,-0.20206766809385499,-0.9513123205902362,-0.7189085600050695,0.39543617450082286,0.19075304529314477,-0.19370557954808454,-0.5324132092101486,-0.5905241849847942,0.7169895491087612,0.3725798836645649,0.0840809691452269,0.14680269648086394,0.8441914318987064,-0.10539444779719057,-0.030502003964270503,0.5043396284818253,1.4533057922925332,-0.9494864116509895,0.6866149886201077,0.12578446358083492,-0.17294524239151965,-0.0815201786370429,1.515010409133826,0.26818028038781266,-0.15027379287266088,0.4256218044104094,0.2720858309624771,1.1048840929671193,-0.6599926073167586,-0.11495689870328722,0.45013100951298984,-0.27865555335630665,-0.0024767452451295593,0.06667321311274568,0.3785713160603186,-0.962893967477668,-0.24536704841214535,0.23839956371269716,0.5044481292632962,0.09230829545824996,-0.9500499247800861,0.28841555894408716,0.923342014068342,-0.6823211553577744,1.3749145926006483,0.19092225225534779,-0.1500521259704825,0.09730122667155129,0.0271887070658937,0.4494788589508979,0.23173511556284015,1.2036002266295849,-0.18368231045954464,0.5185586029907335,1.152676989039083,0.31222475230296254,-0.5934705935697013,0.13724543038054615,-0.3016069400604642,0.6803660280135183,0.20311823309084875,-0.16588407533945007,0.5224664626591063,0.27309393521938113,0.573815200296681,0.4469091071363948,0.595241905563332,1.0807457304512278,-0.46621960440245624,0.36994500500050015,0.1143444342112925,-0.3232386436745881,0.35846823073135686,-0.5468535142482943,-0.6837267853720497,0.11483485648884315,-0.2991529377557931,-0.06273286408495798,0.5120968374315884,-0.19518773114517607,0.6959055429875421,-0.8317711551655129,-0.22750702907187098,-0.004635803800753626,0.5584342011889454,0.4148594372565237,0.07461746738012845,-0.857124089755883,-0.12805109191313385,-0.0388935753555581,-0.4291444580923505,-0.5729891932034312,-0.08825350998147573,-0.26715847822457445,0.23001278490941837,-0.6255919265003691,0.4712455646977445,-0.41140843109500286,0.4469774404937636,-0.358748137225297,0.4026258465303321,0.22904877734452114,0.0106121849150519,-0.9460827240947527,1.1443106187730563,-0.4723814701296012,-0.5294520150282793,0.3064974977226376,0.17203540274859724,0.6038024685535704,-0.3676383426815507,-0.14866096589948555,-0.6659432046482485,-0.8434632103617717,0.24491538034297922,0.5071423914690923,-0.08681409407854342,0.9672072267338042,-0.2087724528547584,-2.298923910677517,1.2662056969033564,-0.4013464978120871,-0.39237531830202277,-0.9169666463215066,-0.6032513660639357,-0.3274506793506628,0.6924896988374762,0.3611156706670599,0.45544552245485453,-0.4878101697379132,-0.35618399553706914,0.06118920207503944,-0.24030204684467502,1.5070173333580419,1.3227821825678794,-0.09482022999540277,0.30534975296379485,0.43273040677907504,0.3976876928212915,-0.5163725444661607,-0.009777459284715294,0.06788294423864875,0.027193735731454394,0.6502513673928056,0.1302802260472964,-1.0182326266436845,0.5038900977266285,0.055395284505886926,1.0882792217190354,-0.5476408501980854,0.16739943379740393,-0.308524056786897,0.290317322171149,0.7039087911951345,-1.726942698222124,0.7052411237467205,-0.4163596861320192,-0.5772413065445808,0.07877945175166624,-0.5275221535416983,-0.7795942750426731,1.5763347448073173,-0.733302079031505,0.7648617713961242,-0.1668827239107599,0.8395146997293949,-0.5270457540826496,0.27530635398678205,0.5718044631996265,-0.09388848841386858,0.47825869295981,0.1755678575628028,-0.049366505725328545,-0.7463478400423585,0.556964703129975,-0.04873591533634235,0.17786859188189572,-0.3323159817106424,0.12354701014301893,0.40457110028925064,-0.5884779859462269,0.5193412569699069,-0.29410524787908143,-0.07911039566369107,-0.3600466763477243,0.12398685716786728,-0.677571931971296,-1.1371845996920804,-0.8087939211150915,0.05209511342403431,0.38331024811539244,-0.6699553438746719,0.34427623329350454,-0.4115873233028499,-1.4539257100865328,-0.047150745546112205,-1.1796223506237433,0.301761429900771,-0.7471897832446215,-0.1593677226842729,-0.5023842917647445,0.353533756042763,-0.2247792041394247,0.17346239512938363,1.1369888612241597,-0.9181967610560786,0.9767099760340173,1.1286744259973682,-0.32364268666707635,-0.13912834920396866,0.2827511035258324,0.2026539829625028,1.1673124277124318,0.5501791178846139,0.5465272291095574,-0.025127773210918622,0.46983310200868766,0.5826031680164852,-0.7797566894304134,-0.5773853847503712,0.18071497663242006,0.5181053872548324,1.224735721308024,0.6845901943336584,0.06249880815572979,-0.19851436500288586,0.8233211226510638,0.31909026400037777,-0.48404114233943796,-0.03945266434630917,-0.5523509823379217,-0.5893892141342743,-0.8666850974185963,0.4246329982078489,-0.31767505610576713,0.8970885343711414,-0.3285367765712886,-0.19257526217811588,0.9937886054101018,0.9359551777104703,0.20272176625617058,-0.25742728309454166,-0.27243681476965687,-0.4455828264122001,0.0863209759494984,-1.0670367763231106,0.26064870330514306,-0.320742672026131,0.5160757953538406,0.1799203891101842,-0.6608914197930615,-1.0864530897035105,-0.017024925408088535,-0.5943759018981092,0.21047971575982613,0.0023632565027178892,-0.03340424511300667,0.20537718594529963,1.3672884231254394,-0.25693157930467325,-0.6015731126615328,0.3432743327434423,1.0801533633873603,-0.2474997580812667,-0.027019603736342063,0.21065540745031386,-0.6814434130515726,0.45807581770562866,-0.7378618730764743,-0.07850894456329459,0.3247149190950013,0.8747636456589613,-0.20212902840028837,0.2775484642537385,-0.24297100571742106,0.3091703799372687,0.5541130396079537,0.3456823912428439,0.257572824568751,-0.5165916352573671,0.28208692195130186,-0.10550726623917055,-1.3951225427927831,0.0036409923756742643,-0.6078228411783354,-1.050480002122129,0.4041209794820188,0.19420782225003444,-0.42567557039244364,0.14588159587685628,-0.726118365869545,-0.0458065563603391,-0.043393142037757765,-0.22396975068331448,0.0818134226544305,-0.6452058838490378,1.2853106348814094,0.14766585654237208,0.08784497217310715,-1.0438452229124904,1.2010493147709462,-0.008737389948572608,1.0989455998483888,0.19897910291585097,-0.33709540399766613,-0.13691727951248023,0.3454714632353894,-2.0917747405527742,0.07799012673508125,-1.133463398652038,-0.13250271059315485,-0.7741408076734364,0.43620957660015075,1.4619996137910662,0.6122824573379871,0.5388270437115444,0.7425415569562265,1.010765203843624,-0.008834180280979303,-0.13294715908128873,0.8093223997176705,-0.7055963952977142,0.7124649864925077,0.8596182823456413,0.7831212536988135,0.24438664249977954,-0.08868657752680693,0.7947948967349998,0.08354411568701883,-0.876382657156553,-0.22214590556683983,-0.899779156716763,1.338893449486361,-0.12850802451656712,-0.782566445970335,-0.0038772622502915776,-0.02730626372070758,0.8410198299604256,-0.11074104807368108,-0.444196320546212,-0.061216292129493144,-0.5113371920414248,-0.2056638316705858,-0.8439553036537585,-0.6146417114175223,-0.4534026385030193,-0.9347162604959083,0.1831850078733219,-0.19635528332336713,0.17685751519073578,-1.0062627633440395,-0.2670594036756859,0.6559724331499732,0.6666958403559441,0.9155505821422288,0.19955489540332427,1.0778735157176231,-0.5760471525276216,-0.841700936500703,-0.44271838544570985,0.30340843032131765,1.2880762099196528,-0.14480131194652118,0.3379784439850689,0.03951275365646023,-1.0837546492026768,0.9794350685746015,0.35872697050219504,0.0016814046151009045,-0.2808331115420651,-0.5828291983799259,-0.32221461750318753,0.19055674521307508,-1.1440252449182045,-0.3949168836721488,0.37020914537334987,-0.7561065125635399,1.4398026434202906,-0.9510709344170214,0.7391246222110892,0.2465269922194681,0.7197673633577247,-0.6308888405725003,-0.9478009309553217,-0.24900587265446286,-0.0774173555308572,-0.2649763805506837,-0.3291446495776062,0.7912014146323784,0.08255079457666874,0.36441074982492816,0.7375847715206484,-0.32749143326558355,0.5232549736027505,0.571994512821614,-0.380356876460824,-1.3302089980143383,-0.16987436375074103,-0.309746349473431,0.2960342184409661,0.8575974949124916,-0.401151346247826,0.8771866780346057,-0.13627490335784126,0.1759824661941566,-0.43992793006798364,0.2296206486156702,-0.47313002174468244,-0.4836721696538841,-0.35636570091305286,0.45674998183970755,-0.6124556525561701,-1.278585984492991,-0.5605185542798042,-0.21010367402264934,0.9206818623948458,0.8734682993323638,0.41478350029490024,0.7069329050354485,-0.6185750969094274,0.4770786361758332,0.8702484858815859,-0.2014790876050444,0.07653899234611894,-0.1116353448365073,0.29699464582856955,-0.4889295062550081,0.26938896745021307,-0.7260815474418066,1.2849226272170486,-0.3344886463109012,-0.7268029370662695,-0.30692982105749095,0.4676342846522189,-0.3418843656247447,0.5522458717670108,-0.8155954560950407,0.7795796075657865,-0.6721631798221691,-0.21226898481901513,-1.1543575450454229,0.44851621589082447,-0.17409520812715004,-0.06405191034344443,0.12172203626199843,-0.0256325432078738,-0.23348958715081464,-0.25216601350769735,-0.5642367088228325,0.4958327803646536,1.5463352072618566,-0.06436818866960298,-0.7417013103711607,0.23094193795157436,-0.8261318803626653,0.2434624813399282,1.0332893560269203,0.6486944444854265,-0.30914751915593636,-0.6865655728273926,0.06334617857255988,-0.3177240240792029,-0.11204283335751286,-0.7742304317614618,0.9938512587078975,-0.08314492402672737,1.0112959892816793,-0.2115799878503898,0.7981925990281474,-0.2176522245982199,0.27037780051822696,-0.4723704131677529,0.5907239360584045,0.8810660766182372,-0.5700684616500986,-0.5205182953420653,0.09557174849839101,0.904654255448784,-0.25461694892356235,0.29081452565784616,0.5106215471380987,-0.24790801384442174,-1.4293216578002435,-1.6122634799679423,0.7081768041791942,0.0868525960898493,0.8009151914257117,0.7341766557001731,-0.2869211444894149,0.2281821827397078,0.8935296436683872,-0.10819713954058437,-1.187984190477584,-0.4236106143872592,0.23131024897180386,-0.015963884373383024,-0.03529950546657623,1.061465979184081,-0.2939639803680396,0.24982872863198136,-0.3159291119270589,-0.7447538080006799,-0.5256488878975918,0.47320977155074057,-0.141450870991799,-0.09868570674677381,-0.07728413390767615,0.2504597916842594,0.0361046148131928,-0.6100210368320467,-0.4103715975937948,0.46895676857709834,0.5390641147841003,-0.4571556783236814,-1.5365917332192642,1.0989611511461437,1.2588561204480293,0.9122786905466972,1.6931531330200396,0.3811529936070516,-0.652525424723253,-0.03485874937848136,-0.39089735723773505,0.47335322757226495,0.3909751904590752,-0.6892462598724775,-1.7821126603218018,0.34902408821556224,1.145744220537545,-0.40306911036405246,0.19804704571649193,0.8724965488772107,-0.023642922645640732,0.987175327744431,0.6313854527751138,-0.6242145937631641,-0.26536154717025334,-0.756092840339269,1.6568996561643277,-0.7906726438345423,0.7862599486856336,0.045376554409990465,-0.5213983738981117,0.28623739142051047,-0.44600794049623504,-1.3322168134099153,-0.6011893426170499,-0.0476367638645568,0.9307527917196599,-0.7115502747099255,0.028592655097210956,-0.08608168712816,-0.1307507296021629,-0.030711014932157065,0.8590054855109389,0.8088909768930346,0.6608147784014007,-0.23714031301420974,0.5175778161252145,0.23011463302777646,-0.1987570526520981,-0.1971456019685684,0.5240495162554806,-0.2562761436428069,0.7155160854549357,1.400561321807241,0.3836035129115576,0.3200320336697956,-0.7448151972910605,-0.4832088356092541,-0.0683564888091712,-1.1730785940112385,-0.8084143511755055,-0.4652305405556402,0.5530424181866008,-0.12631553849744218,-0.4615808694781651,-1.5308219440534507,-0.39619830485191376,-0.6884157525256923,-1.284659343559315,-1.2210075230997945,1.290584478204589,-1.2661225076742386,0.4279476459478447,-1.1097332433698197,-0.050053669888655034,0.756507004063045,-0.5862127661472856,-0.2434855856201029,-0.3562802142824583,-0.45550471744794196,-0.7481614273297097,0.9981079953470626,0.15503458049125646,0.517047638766616,0.6268228335042817,-0.46066718761931846,-0.09877784562695846,-0.0110423569044951,0.33909915199282015,0.2381530791686314,0.7612513554921007,0.5992811429071485,0.019660356448791348,0.35491750060352595,0.14547989689231852,0.3695127927109012,0.8509917608260482,-1.2651515187468558,0.30209351851824556,-0.4791872421194534,0.11340935282959802,-0.8700946844540512,-0.17336373382724668,-0.10918656426611961,0.5499769490986912,-0.8145416856454173,-0.30479453280736046,-0.6318679448845596,0.3254657149810895,0.5530066246367602,0.10309106095120125,-0.8559831948422334,-0.3506855595153065,-0.26739545979181545,0.30639500652002044,0.6576983434312001,0.45831141882743814,0.12098598218321674,0.051601879709759844,0.24968935828666364,-0.1764602706492294,-0.6958670701925519,-1.2383918787333377,-0.3920533603336595,0.5182913103927281,-0.20081603282191152,0.49831102446724707,0.028168865293725254,-0.4073064573314142,1.3624250274881478,0.3338899033196486,-0.03429382993113029,0.5481142223540516,0.28584886656454755,0.11127809471328902,0.061832242690898355,0.6191202080625279,0.7505490829450112,-0.7105746669559794,-0.1284705851131582,0.3762329593126018,0.22961265933445393,-0.0023811410772283936,-0.4019904800871004,0.16122649348769133,-0.46838895611021375,-0.32211100661960274,-0.2006046676757936,-0.024251276086624217,-0.1332183915549096,-0.4639863413004458,0.6191342012612606,-1.281522610955521,-0.7575413813401772,-0.30636771485402087,0.02239847119326884,0.006054458564180548,0.05347988564224704,-0.8543557090560062,0.4498100592193723,0.1443914409809156,0.5092043874603444,-0.7292882431282163,-0.618109241361265,0.6857348924802015,-0.6957886837994748,-0.3669169125528452],"fitness":1.0001193333333334}