{"v":1,"inputs":13,"outputs":17,"arch":{"hiddens":[4,8],"bias":true,"activation":"TANH"},"weights":[0.3610759955654056,0.725689020619415,-0.4595955929930708,-0.20745699196594047,-1.1003106696999856,-0.4255117090996884,0.32344405804873083,-1.4929882374292436,-0.16321332379535566,0.5550495243862701,1.0978079697726562,-0.36869928144757913,-0.6833841020072984,0.5415620743251731,-0.43226193322169,-0.1270285361235768,-0.08991374740668948,-0.8919467755186105,-0.36584033218914597,-0.20630431320205683,-0.7974634265283664,-0.15356644577162928,0.37937969234249513,-0.3225849868129105,0.3892162577326954,0.9292267522649202,-0.3550814869444671,0.7919627440882162,-0.13177366363420806,0.44495699136162137,0.08207360874640723,0.529472570281206,-0.47441372853588504,0.5484665379138322,-0.6634733758631808,0.37976828537477847,0.21544887827548093,0.3371476540849278,0.10735012586084641,-0.03510928881432574,0.9141758442422996,1.0267651775038877,0.4852651652319279,0.6667452261616896,0.5502317668344587,0.35946565693098226,-0.29833756744065093,0.11582580025741904,0.6822938616825126,0.9058585264426593,-0.7567578142902986,-0.3923669159743424,0.6141137768157103,0.3321883702113877,-0.4766042176791912,-0.4342044388244283,0.7573881551313423,0.5887238155519329,-0.4004683510858462,-1.1966304598756867,0.3176790097711007,0.5624772549919261,-0.06797706069958234,0.30048091963284557,-0.42949316707277047,-0.02080381048586838,0.3211594891729638,-0.637510947161023,0.055320543183938295,-0.9874105268519766,0.32316706506302756,0.13092763347750636,0.9109558482683433,1.780209713706426,-0.6753257326717721,-0.6455349490608135,0.42983525489829344,0.6536475171744978,1.1343853045203558,0.031509421769181145,0.17066478037408137,0.2640696950248691,-0.690993155107304,-0.12649230804963554,1.2057172163879968,-0.14469458605567717,-0.7742274321079555,0.7029777950813635,1.0173637781196798,-0.4625298905347335,0.3769051292258297,0.9288074584285164,-0.09528875334765824,1.315470857383131,-0.45214120819204134,0.5246186423104668,-0.04479075390835652,0.007598937375231022,-0.9031653630513156,-1.3170971013365402,0.3127962268015968,-0.4217569091366352,-0.16485363018441748,-0.3712204628992396,0.37380811140493586,-0.00395269797059442,0.8380425227753441,-0.6697848331157933,0.21694728046546893,-0.1202539416600094,-0.6555026120550059,0.1295725414097478,0.5290105780204406,0.26008162645536304,0.3136959206211935,-0.8498692034026452,0.9939132662864213,1.0672211463818588,0.056161961652396626,-0.3955454373688783,-0.29097275564936115,1.0381878032427008,0.2569044594165612,-0.6837817190006902,-0.18886261970335114,0.9348880536871625,0.34499503644282103,-1.4548674231106586,-0.5417782219910762,0.1144471895330251,-0.935188319277105,1.3695234459702765,-0.23975536591410673,-0.6903386067163063,-0.5217852680738395,0.32533902123595787,0.8681489488174527,0.6499340733380656,0.6053034052110465,0.5475443930714946,-1.4272245269122084,0.2801150485861884,-0.022821259183975595,-0.14799696339739962,-0.5319345755927589,-1.4987873371776208,-1.005697020389883,1.31854205723828,-0.2003143162386412,-1.2059219601817532,-0.5964374613764609,-0.5757434223406972,-0.07156898011714691,-0.2649197685708427,-0.5166748228698537,0.3152147489227692,0.25968067237572656,0.9488467064261108,-0.8580161219318958,-0.6004088874943105,-0.585670698952695,0.19307999271373655,0.16072019824924982,0.6051159453074078,0.07432337995796184,-0.2944424199860697,0.4428391000806305,0.33720327084813034,1.1153670162074905,1.2612390387588728,-0.10924888597795603,-0.06009505973690367,-0.5698371122747181,0.22116785015144433,0.6171275581841728,-0.2590922445221655,0.19168408220472286,-0.09154513287370294,-0.29729328039798675,0.182141144780804,0.44715796708432215,-0.05478565141649198,-0.18391543921107956,-0.9221278312234776,-0.038585325290454,-1.6519699418646507,0.7188834139624689,0.6647978729773824,-0.9277447443268684,0.8951337939227116,-0.5706749848241031,-0.19257152576424394,-0.10567070037624775,0.12884099469425273,0.7752060712870604,-0.7987090698065143,-0.4383017050678009,0.6083013171304346,-0.612175000080694,-0.8065802680324766,-0.8768003079683296,-0.12241035682661813,0.04180234081100261,0.5631358463356322,0.22495570772297888,-1.710716461526791,-0.27918486347181753,-0.40936445315841413,0.33351291043992337,0.4077957368280486,1.523130590317278,0.42286158164760834,0.0386430109216931,-0.8992448118665435,0.5289494746096304,0.9018650020884761,-0.4810802465185847,-0.1982440435037278,-0.3712118096485914,-1.2494813834647729,2.1992391106773614,-0.4374544002406118,0.4381713463553873,0.3585149423237588,-0.21024011295622982,-0.19745366498473185,-0.7636914312957989,-0.14270937590117339,-0.16999528612091527,1.0499418592186265,0.4279453006059517,-0.10149805561673764,0.5791096195460349,-0.47813952137602916,0.4713957888630089,-0.2280019098191043,0.8796207606378988,-0.2705686835759512,-0.5993558340074312,0.3437346643438948,0.5651186971860637,-0.48941068784967223,0.15525546834747067,-0.739724781759676,0.2075752189188523,-0.7953002940693724,-0.013520355991263736,0.7397978648801096,-0.7400064847383913],"fitness":14.838028833333334}