{"v":1,"inputs":13,"outputs":17,"arch":{"hiddens":[4,32],"bias":true,"activation":"TANH"},"weights":[0.891658639981599,0.6605917009202656,0.7422523223502981,0.055086582792578886,-0.29893254338433684,-1.2127628648307798,-1.4151712796730547,0.4318913008747523,-0.7285239062038609,0.5358871745272994,0.29350115627587936,-0.53163401860561,-0.7532023997661244,0.4305047143679121,-0.09540607976891002,0.2498134130313933,-0.8387952412704415,-0.5343076523347182,-0.07746196050979275,-0.7078742818102768,-0.8543719477524871,0.5356623169393424,-0.20370178131330077,0.00018242663510922857,-0.5988843003273618,-0.25008426528408695,-0.8666103116609689,-0.5810806262448617,-0.2328055436921015,-0.17117559820226325,-0.4358456426629554,-0.06329604156634239,0.01094428382064291,0.0832248285961309,-0.6235496327457501,0.7415633548350415,-0.7362608722461907,0.07693295371005876,-0.16553905629142082,-1.5234569557556037,0.042881804574735886,1.4936322282333898,-0.19947365458900262,1.6258265793102082,0.41237618465695897,0.2585058921117153,0.44300366117670303,0.7667714273479536,0.5551796492529325,-1.1364220388832988,-0.673819429984024,0.7066758445420858,0.0710588953342467,0.2022731939696293,-0.24035872923100657,-0.5963179293112467,-0.18679089095079238,-1.381843636019635,-1.1315875177806771,-0.2985446800017394,-0.856989027697282,0.14445249774766175,0.8506595938018539,1.263585312031004,1.4082937645734543,0.2323510144816922,-0.07621814243095618,-0.2969850068898738,0.5428408713133599,0.23639218098506562,0.052473364110748676,-0.2734906670046617,0.9971587471809503,-0.3797838733598876,-1.8660210346388306,-1.8121019402642349,0.6025351187801823,-0.819898523474677,0.049991256357770165,0.4723664074964007,0.29565810463477005,0.6565782051397183,0.16697927664371418,0.6099230614554481,-0.5008183300745235,-0.7444765905772502,0.20386320272052935,-1.1027775999289975,-0.48332806864134176,0.36898936568510593,-0.40442568601292134,-0.4082770592348968,-0.1610040810045641,0.9823189493849127,0.5190218280698796,-0.5402531891621899,0.11381288743639961,-1.0782289180318447,0.029401177886381635,0.31343063433801194,0.2302765682876608,1.4231546259609025,-0.227458118722136,-0.07687295880626277,0.4997689737001826,-1.0116113717804718,0.37123874169022003,0.42033435924617035,1.2874405519005572,0.7569071242041172,0.07445256322311461,0.8914862261228509,-0.16077953004533746,0.2903501232928059,0.19797310992557107,-1.7827773664566167,-0.32238293936104323,-0.5597446532435059,1.1656377833274223,-0.22369341396819195,0.43299677227788336,0.6505578798385954,-0.7447141153123433,0.7911022536671873,0.01460907080281431,0.7145818037913892,0.7533046460841131,-1.5181057147599317,-0.04568447788195842,-0.08185955955537005,-0.5128182785387048,-0.37092602238828465,-0.35286667174484726,-0.25975679085527614,0.4900326623525066,0.9715067511881599,0.7469455022943752,-0.09076688370975551,-0.06130618696362311,-0.7328595341254163,0.641705122372588,-0.2535172475569686,-0.9824078554210962,0.13855584996767795,-0.8399483386386428,0.6565297275365003,-0.15468990252192602,-0.6380654339317536,-0.9451865476894759,0.832337564731828,0.5268307760210545,-0.20129482600839707,-0.02187366397150444,-0.4166892763942185,-0.6513700319855743,1.0672537030177507,0.3156122907680825,0.3278293839985303,-0.5329251287634379,0.06167949711946402,0.4191917713344235,0.26613267152827613,0.19053017353252513,0.13769390720132546,1.6015569408470096,0.5820412292512125,-0.252850142481955,0.6772199422557571,-0.9443938161500872,0.3572182664317568,-0.2199281889216575,0.23298991852909035,-0.7486158162880945,0.59351845077958,0.3242917560155668,-0.2727727691578105,0.40607071686161045,-0.4022387059546822,-0.194233867668493,0.2631960594792621,-0.8023802946562525,0.3408901385406817,-0.2112987191975002,0.002101598707151411,-0.127926262298751,0.04192423601146833,-0.7669421501771988,-0.29730928984436295,1.0230630006924644,0.7373852341453015,0.6664939989576051,-0.6307614973455761,0.8627924127323257,1.7706059474592368,1.1021663213452435,-1.0623957733396914,0.33322393050892285,-0.04321393049380782,1.2993844154651049,-0.5420304103928508,-0.20200913264165032,-0.12751413244219195,-0.6581721704045322,1.2953393988318547,0.8787677873202762,-0.5443290829717313,-1.4365476184474404,-0.20789630340118784,-0.6567491693903715,0.44174335301312573,-0.05592935176598998,0.31446527750373066,0.2719080039677859,-0.844242714987885,-0.27321471986908125,-0.2515667463700214,-0.7880819195259066,0.223518125342912,0.07106715187931507,0.5586712176737488,0.5196179890645619,0.37129173128130233,-0.12918313820423277,-1.0236161485098643,0.28375214969175844,-0.17838753834271473,-0.061491560377892225,-0.5084858750785748,-0.0835070203946407,-0.42712943029762,1.1901871487909315,0.21884953013521571,0.5028915942406217,0.10786834529677683,0.25385279924680537,-0.24256906079279644,-0.07044299826840895,0.4842646224100453,1.0198090675821219,0.03915857730937006,0.39455089965104767,-0.17060216161463748,-1.0603917633989346,0.9221263115882619,0.5024181476193326,-0.6291725193865668,-0.8576315237197688,0.8341253116561758,0.2490251181745526,0.07739429652315966,-0.42804598515296843,0.22000683632142007,0.4893258982578538,-1.0962917580292835,0.606660530786863,-0.5172935343965004,-1.0422584359615474,-1.08717670295393,-0.00854650839896376,1.7039272533705503,-0.37144109100058553,0.5804917397108859,0.09306670255853466,0.08448609555060532,-0.15437699267840738,0.22275561561850996,0.3780827295436501,1.147432159890026,1.0932409298824912,-0.22943431309247375,-1.611858989981763,0.2760009175473467,0.45048346174845094,-0.12788242864820767,-0.11956161539734239,-0.45902729457338604,0.3377546026495925,-0.13977817421855207,0.4201542377049414,-0.2399104003678858,0.11675569765523114,-0.24020039102015434,-0.8379360026800575,-0.4403641610706521,-0.44647940073934467,0.12124821591591756,0.059429012046771944,-0.13859858747095322,-0.16628874130269844,-0.038729850998263954,-0.058248770291764285,1.193447625990081,0.8488681461187751,-0.5255168425812815,-0.6345448004548815,0.6651458176767755,-0.4514112382094506,0.15391526251460275,-0.960913670768167,-0.02562106267674908,0.33349852715535505,-0.034904582008085036,0.8802908921823493,0.4843668497987551,-0.3941944439083606,0.5481973721442809,-0.12725181844294176,1.212640400689332,0.28097764259215346,0.4219588038504261,0.5105734721096776,-1.0158281268613167,0.09762912575795708,0.31074538719068345,0.4331962434045177,0.07321405340582715,-0.9288726567476748,0.1940414780614908,0.381399276754441,1.396621624175997,-0.8131420491108904,-0.9611163004849221,1.6091347141488856,-0.16692156099073274,-0.617369263898098,0.6855206255014622,0.546367468512877,-0.9746570495944588,0.15199570743864385,0.228118450516905,-0.27496639364192926,0.39391201300177475,-0.17093701735743924,-0.5742917159153405,0.5695457716828947,0.00731072878077508,0.6518394327083046,-1.0997976017298774,0.048852236319968434,0.10339686199019374,-0.7878781550000483,0.3089009721023272,-0.009407556326789272,-0.4822700529878773,-0.4226007950009658,0.9099917376939222,0.2852489252327713,-0.07035201444807404,-0.6533382873885485,-1.2266368502590392,-0.38472186775240735,0.7687546355964875,-0.059286573110707064,0.00038223710224381254,0.16629656086898736,-0.7199039024318555,0.4849193383934508,0.49296363161926304,0.9583667366318422,-0.2513788108413094,-0.3219654014740831,0.513619129944631,-0.5263603927400504,0.6282251368275859,0.8378217142732151,1.3363864945552286,0.9079724843742571,-0.018780053375832714,-1.1067294025651238,-0.5398191035869859,-0.2703486911184283,0.2809935671030145,0.07375262663394912,-0.10532309833873765,-0.49396487991705845,-0.31555588284457586,0.3291664977474791,0.20972905531599598,0.39734276502129307,-0.2615280537072876,0.2348540575594137,-1.209682808313406,-0.8133761330243546,0.5164708131339508,0.6965832456706801,-0.41712439637713905,0.18876601252627928,-0.4169436057176338,-0.5809888847126198,0.022535212257619407,1.239576066970642,-0.39187938298037184,-0.2671778749551432,0.032354198044048814,1.11700117949304,-0.09116733406277529,-0.833061821464648,-0.14206723536499377,-0.7371399944003245,0.24643650314533286,-0.09891973108967737,0.5576126873183681,0.49820584908056187,-0.08595303118442454,0.014632032427847275,0.2965221460855917,0.3259587910231003,0.04463555611179438,-1.060075256350355,-0.3129273773473133,-0.4455466248412273,-0.009246747488494293,0.8833502573400721,-0.17687638602868824,-0.4549290757580699,-0.39100034037519055,-0.036840626976896745,0.5007289120068509,0.17774311030078727,-0.7882960475853414,0.4386998239483144,-0.5760051034704939,0.04593827439529696,-0.47429297246285723,-0.475030510350761,-0.11755311556525953,0.1710903614680877,-0.3716875045526349,0.4351068134459088,-0.2550096417308454,0.7692483163193935,0.5383387703217218,-0.5982578515229042,1.6174987800716172,0.09958661487799733,0.8634089348228937,-0.7845183891859403,0.622149065193708,0.6873410317710476,0.46973302325427635,0.1718873393553088,-0.26012246856235516,-0.3240321698089495,0.3888440172049219,-0.09655502381992792,-0.9933991229945038,-0.47028791787451385,-0.043777953028055525,0.3343170657127952,0.4533077489680928,0.49424106750927593,-0.3378946330652732,-0.2027335650639744,0.22752188000896062,-0.7334493888399989,-0.6871695968248093,-0.7777604276502948,-0.42165873676731386,-0.0788225072165974,0.664852143311427,2.1443285875560036,-0.09956668269233088,-0.7666878785102071,2.048988773559585,0.8502707226405724,-0.05902666050347515,0.6063861123643377,-0.12480839209603242,-0.8159925146775747,0.5104791327877024,0.1850130310995694,-0.4195558580302991,0.5169803219174145,-0.4002354452282086,-0.2751167197828183,0.6200833934101143,-0.18245931173675728,0.27352609651234044,-0.04017131626028674,-0.2606414711059567,0.5560810025621002,0.2907950548810718,0.29358578775576527,0.31870003765260835,-0.8522235300309057,0.32245611184516654,0.32330501301349085,-1.37627451384891,-0.3796808499446306,-0.7373097004888974,-0.6162016075634411,-0.450005611886629,-0.38161565567552685,0.8412488629622051,0.17006767478736862,-0.11950114805376992,-0.5940330548887269,-0.3667595062256218,0.053595486365936806,-1.5166982975024685,-1.006097858158082,0.9884800206747005,-0.029571805510221094,0.048154343124839905,0.863994411981991,-0.23806921300581874,-0.4787046253248831,-0.2652475925364315,0.2677607134676185,-0.6488932597523169,-0.1522475724126628,-0.7379699424535124,-0.2778713704554661,-0.23561709328485933,1.0194529501692362,0.02027187576292201,-0.6694875643921719,-0.5431144988395251,-0.2337029138319409,0.5347556609766781,0.9441018944674823,-0.1520332661663573,-0.6780298853550231,-0.43093878247802725,0.12947569865639771,0.31277990318997534,0.042969841876953074,0.2580399488090562,0.6553142952438752,0.6357727323388717,-1.722835221071584,1.4630249964914794,0.1206868425290639,-0.7818565761647117,0.3386579817021317,1.5234358096865304,1.23302280785889,-1.389567688470517,0.009595599447568938,-0.8758378255265863,-0.012884989184338499,-0.7261306985146827,-0.9886305817247358,-0.5217925199185641,-0.6278287115667548,-0.15768126393769516,0.48884911530004566,-0.6077678061647119,-0.6912735175936435,-1.0747865665015144,0.6216872750379743,-0.7143495175467528,0.7984528549554024,-0.276385348484036,-0.22383372473853488,0.7272045805477831,0.5206139576529678,-0.3741421215969891,-0.1549906856681853,-0.5190223450060238,-0.04798511992476309,-0.5941422020013778,0.4703640009910802,-0.9942045103565148,0.1985415891354553,1.166491849243958,0.20572828865901713,-0.5007762156868574,-1.1856937164572208,0.03717906191717996,1.256636077604378,-1.0404129966379518,-0.7940378790067685,0.08658205686002313,1.0569641785664528,-0.17697752090618749,-0.2804391460022548,-0.7403261791307968,1.1696759636211136,-0.46069592885202093,-1.224271945399524,-0.17434962797848874,-0.08333694530041603,-0.9574264734070558,0.06881786730211548,0.1503808193752904,-0.5603937332994704,-0.1598483533233569,0.5422461605983645,-0.603593080433041,-1.1391578360610985,0.2617182540901844,-1.7289962421973335,-0.647139749594243,0.5771352001221429,-0.6553969986923674,-1.5761930889271367,1.1011936667128595,-0.34735782210084837,0.7948352579648784,1.001297294994177,0.2593852119408769,0.23788844661595082,0.9550095944989033,0.14728851385569136,-0.18390098682060552,-0.10675481748604757,-0.20786019042896192,-0.43811238807464614,0.7802805652418388,0.00018985570964717084,0.3508918520635161,-0.014883837819159064,0.6008725510950297,0.24698656511442,-0.5894034496069123,-0.12137314701957105,0.7992003971156841,1.1375452408485123,0.02456841779465213,0.17944023335545886,0.2858138247536667,0.7576573254701988,0.28396743906482674,-0.43631933958681196,0.7976348309647543,0.13782009187487912,-0.7964036368919472,-0.9164515438711699,0.6363224502052758,-1.103479064090037,-0.16766056532969914,-0.9545104864002805,-0.728687063737543,-0.21255920339442683,-0.7974410656650025,-0.47993486317560063,-0.4028921378096883,0.06832566743101426,-0.01104798822396374,0.44013443313716216,0.28660412594982576,-0.9052174433777911,-0.6768132230856805,-0.87410892927887,1.4800659565342738,-0.7993779867535523,0.4109585474797212,0.9569296551077107,0.3197941867114709,-0.8709934242602566,-0.04059211957351461,0.2992898164177399,0.6917601108661964,0.07142844788030728,0.017734786347231538,0.30670892292945146,0.5940658235920339,0.16957275999346375,-0.9802590529390443,-0.617706583858304,0.8219557562563748,0.8547742220808977,0.1344354721624546,-0.3939003758521717,0.7644902193129067,0.03626055044811133,0.5728781329170605,-0.40117362064810697,0.605656420284579,1.197324193505872,-0.11127383110310864,0.18938896659961788,0.3925600029168382,0.6962702683482529,0.5865090483702415,0.06889209910185862,0.2668704518419754,-0.4633016276859646,0.059494574603999484,-0.5684440340819774,-0.2166963619344119,-1.1895178852125656,0.6935061521152972,0.03816556724476161,-0.20018184533779923,-0.26352038350306134,-0.40085089057259765,-1.0013418866615529,-0.23994468348055187,-0.2371322651254584,0.3660965196740326,0.27851295075928967,-0.14744402104820348,0.3794128141045716,-1.1034891948601016,-0.1789258552585595,0.8851946673064827,-0.7110070002646126,-0.5741552091359291,1.6055559041681755,0.14176992032858665,0.17211559547758618,0.40988135173041335,-0.5806622416555935,1.100630569981851,0.1899574704377485,0.915706661129922,0.1263862159062254,-0.19516767009668806,-0.4778007613204718,0.39328545721609304,-0.5811347234313379,-0.26691047669659557,-0.5023639300514708,-1.4645921645905524,0.14018408416099365,0.10294636490095065,1.5708508273349902,0.25438044893819994,-1.0981135454543955,-0.5209724580478001,0.021147737790197074,1.0462669990156521,-0.956759234106251,-0.2788007921701654,0.9119296019258757,0.14304917954980978,0.9199990204553271,0.39186650380112115,-0.768930621779815,0.2871629017646599,0.7360091336887641,-0.14906943676421927,1.4889866184399272,-0.24188427675228286,0.2896473684704424,0.8434654468905906,0.1990715582964238,0.9121678407282936,-0.5447953931772793,-0.7434953304891602,-0.03978930697623608,0.605163005283649,0.5275099445846325,0.6723822884896158,-0.6708730389837841,-0.2497425460602143,0.6269321653105646,-0.5563586398584978,0.4810607877199512,-0.5066325001856614,-1.248423819967616,-0.040495934803157635,0.2942726093244436,0.09004029910250914,-0.6576044954039381,0.09647305782011231,0.7381205996376233,0.37262494847570277,0.7605728636998393,0.6648022259456609,-0.8108130217220758,0.7508415289287071,-0.7631728851719114,0.0867740373588481,-0.7748992292428379,0.05972451748288551,0.14559361974352536,-0.21292406852328358,1.458822696803549,0.6905841573519222,-0.12123126908719811,0.28800422080686805,-0.1510130412370925,-0.7037015953032147,-0.30282077497559495],"fitness":13.337594333333334}