{"v":1,"inputs":13,"outputs":17,"arch":{"hiddens":[4,8],"bias":true,"activation":"TANH"},"weights":[1.1139671808516538,-0.2087789941659638,0.327148034992605,-0.1535000437993124,-0.7359024087672313,-0.14890154699924252,-0.5936637068361237,0.23168267397049322,0.8165335594578941,0.04061676502372735,-0.17712977481879683,-0.91952705962777,1.2784499467121186,0.5284598533564177,-0.6328949386174018,0.25185154864909226,-0.47593275010168645,-0.11295145233955764,-0.5131532971261206,0.8198347867265293,-0.8305054644271758,-0.07833175358225017,-0.47550468557562164,0.7368402270106097,-0.14104095794948177,0.21998739514119067,0.39220018427793496,0.3105846949035666,0.43790124126688884,-1.0897708379469289,-0.5755243691955241,-0.39002283409649324,-0.0970020898846471,-0.07938484520205803,0.4319962006654152,-0.4341659021325794,-0.11221702130511206,0.41023649020173514,0.5686171540930017,0.3963391450987304,0.6240519200490475,0.09945206682058268,0.6128909040455482,0.6175046163199663,-0.20484829896919377,0.03589036378255868,0.06215081387479456,-0.05918976343695645,-0.12459185801452714,0.20410716466159037,0.8483179298635145,0.33646578336673166,-1.2485368970103223,0.03884596117625085,0.27130903419808855,0.5318542881396707,-0.26381782641212864,0.39540241697347595,-0.13230744359966806,0.6685987559949793,-0.7445056944725481,-0.6017275809084435,-0.06812538913368797,-0.35011367173460567,0.7003752449012142,0.5677146432616573,0.27786758357946884,-0.4228538575751765,0.6294283028915044,0.13833965545383475,0.24827966471452423,-0.17114871646980126,0.08341056788893243,0.9616991596746978,-0.19818824207861988,-0.3638123986378568,-0.6908642356777015,-0.496142569920662,-0.33770862507017363,0.10124417269077525,-0.5697412733920255,0.2043011377912339,-0.28598608363536115,-1.5349450364206179,-1.1702044854748483,-0.7221577919834489,-0.41566181718814554,0.7295786911441733,-0.15590033966113628,-1.1848962339326319,-0.2276207934946642,-0.12452967000560114,0.09771695822311045,0.1083127804118874,0.4616947406267994,0.43064289059758226,1.091431805766676,1.1332722266054336,0.23284897039180574,-0.3952013448386898,-0.3351253004919469,-0.45004280382194345,-1.0338843870338978,-0.6248015880307742,-0.77259499131497,-0.10040330690446003,0.5082794960831853,0.965821993673841,-0.929446079033927,-0.021727745790962854,-0.19746847571939283,1.1455554693011107,0.9312610496049761,0.29105612181505963,-0.589729889146978,0.3599003078965795,0.11898337179375114,0.10592592940235178,-0.0600052386854809,-1.027676498855577,-0.3211865496512506,0.09943286724836843,-0.767747678299143,0.7365444665157699,-1.6511248715095979,0.051319508129611224,0.3267613437235942,-0.4915691967363631,-1.1799815099641864,-1.3192517015972425,-0.24696427631283321,0.2370584722941478,0.040814384042875664,-0.007782339246307877,-0.49404525122961984,1.426699243343455,0.7574455147987139,-0.04730638244269909,-0.3777954172976674,-0.1160465543017965,0.04973498190391799,-0.24000895543957868,0.08853123029272929,0.9854614851686841,0.21380360673905707,-0.08659396382375462,-0.16265564368361143,0.3674838979397695,-0.34281576445149814,0.5814780344045635,-0.5489794399906102,-0.45354564960370664,-0.4718690793765533,-0.620816237507125,0.3245851922135875,-0.16209785694449327,0.048950935077091834,-0.9652703636350946,0.4563067699440603,-0.5374197388887662,-0.6573771816059846,-0.5878240636339872,0.2542027896008366,0.9853188947794845,0.7073360196348842,0.07294469349222742,-0.7399473012329815,0.40307312504314124,0.5427232731983969,-0.3617626593536822,-0.0503986740833999,1.1611243794394386,-0.8745472007157471,0.40636511531624037,-0.6263682720904534,-0.33394296391426853,-0.5030025955406153,-0.45704082066325596,-0.34383946836976914,0.0266046572102078,-0.5797813009564015,-1.195205793089656,-0.6095772000205818,-0.5317741415877445,0.7059393859285117,-0.6020602623156599,0.12582157578026162,-1.4084417488861865,0.08183480176818209,0.1605504109008156,0.21282137914045438,-0.11268032210666575,0.36840940281402573,-0.23002750840962624,-0.3364731651803062,0.5535906426454192,0.06302657701345105,-0.9495068712381282,1.1653504414762197,-0.7950333266342062,-0.7424850794752499,0.23826551524904713,0.5347679138515191,0.653612234429828,0.2273865632475583,0.3961602174556117,-0.3543874676956283,0.22741787619602483,1.7663432706304263,-0.8819964486213483,0.6919654407513285,-0.556085170241239,0.47750870573344395,-0.3802030564598931,0.6938348613244227,0.16161441897822826,0.14817872960888098,-0.25975258809734714,0.35629672865904943,0.08443502029101821,-0.24108995997200244,-0.17679235236662713,1.0932823287590367,-0.5074440166260034,0.7693991043740618,0.14532177912168603,-0.24139845098605134,0.9283855489611509,0.03235473897039435,-1.036921217007314,0.10538267634407285,-0.23206152938978905,0.4772059913085691,0.3867101222487039,0.5221918199285428,0.476915888291585,-1.1289437767554975,-0.04104523614595406,-0.19654732323206495,0.3178969033227215,0.6305798593515971,-0.6964179452747811,0.24209626083426816,-0.2036286493112075,0.924965060415692,0.3667231116635506,0.07968050888645682,-0.15886660552268078,-0.5862647428652612],"fitness":1.000395}