{"v":1,"inputs":13,"outputs":17,"arch":{"hiddens":[4,4],"bias":true,"activation":"TANH"},"weights":[-0.5736973376304894,-0.16381566292956626,-1.104976310870158,-0.6845292425724144,-0.31766027622984916,0.7371544038378625,-0.16111063597634664,-1.0810760506122543,-0.3995994889542367,-1.9674462800012498,0.33917211664247454,0.7857697763221942,0.9025807063158836,0.23036310367207324,0.21989350982082073,0.6181666640679047,0.8440197497920152,-0.8497448006029245,2.171498328320353,-0.533192592755276,-1.291466750364276,-0.3507339839788661,0.2947861215630734,0.1982333098282204,-0.25397152824700486,-0.7333427307376028,-0.1841705819237416,0.19764069625820663,-0.18537631213760536,0.13454999872389137,1.2519807187516279,-0.8514993240095298,0.48012271102248627,-0.4461933267776773,0.10830827007808852,0.4101586401060336,0.29937591467245767,1.3304852287056752,0.5560353546146602,-0.6829520466964046,-0.7280620598155788,-0.11635652271850139,-0.707658737002816,-0.11859731493498649,0.05072293137283943,-0.7463322704484215,1.2300769840537866,-0.19758370305197212,0.34410409416711246,-1.2902414229405086,0.2572412408265151,0.06133999950947753,-0.31735875239697886,-0.8872532627984973,-0.6438751642009477,0.23678389177103565,0.22694809521483789,0.23653000164721333,0.5561340843572478,-0.2219145113597364,-0.14450732321918489,0.4064880859780931,0.016395025696240746,-0.6011942128307214,1.0552147461237238,-0.1295871721308383,0.17180757208873576,0.8706602413308296,1.0418475004753844,1.1064178616372722,0.4256199643059102,-0.2576039004252385,-0.7496772890885275,-0.3093811172375122,-0.4192245693218298,-0.1315291193551737,-0.5455652245240878,-0.5585677283231537,-0.4653884354219978,-0.4000900859487,0.09779213340140445,0.17877266914417766,-0.04750948156103196,0.8812565327095373,0.16518267024805963,-0.5285531121450288,0.4218269717829732,-0.35977836511992134,0.7816036950929647,0.36595711322654423,-0.2695064768496107,-0.6822444820211605,0.10134080125625174,-0.7901094400844091,-0.10595060601400923,0.16158827965571892,0.43593370130098263,0.6224039170743736,-0.31118973655908383,0.44302483322304936,-0.2591040733825104,0.2157559637792336,-0.36015525186533803,0.3965864438899937,-0.3071398985084663,-1.0478466238459787,0.8222175021878453,-0.7748482067404275,1.2671465141058875,-0.08274786279706303,0.1308836806542086,-0.19568520959814917,-0.17050113449633142,1.1385891145774218,-0.8787016712450898,-0.1336823901195401,0.0884817229849754,-0.5434929572916857,-0.6455269681792613,-0.843742525922738,-0.3863811254975108,0.5525146632314439,-0.07656912244656673,-0.6451040388227987,-0.15659121206336335,1.1038456515818835,1.0987128839663616,0.9531639987778542,-0.7790027972339912,0.5619032200298891,-1.6657102245953337,-0.6407607908885926,0.03716449370218883,-0.2432644229159695,0.1568142211580111,0.22203994857867435,0.3977949950099845,0.8696239631533136,0.5083215798238677,0.12605715800015743,0.22123947480533057,-1.3199919390770334,-0.7431165624163321,-0.8412049607506574,1.0034790034998462,-0.019165548661438502,0.2006029391427174,-0.08714704964623134,0.23442133574846458,-0.9151486136191871,-0.43282954104713345,-0.48969145863406693,0.6458980382341258,0.011082110217396976,-0.6231441290909701,0.754248301334473,0.5953860236323245,0.6625317106305336,-0.42591783491290336,-0.23920689994937155,0.11689650308985627],"fitness":10.170073}