{"v":1,"inputs":13,"outputs":17,"arch":{"hiddens":[4,32],"bias":true,"activation":"TANH"},"weights":[-0.4689245906283063,-0.4192007804928643,1.0623516542673217,0.8706504759520644,0.12116027954396828,-0.5244166973840505,0.011355503846000344,0.7181118819075506,0.018526040569756236,-0.23879013261156828,0.8497082483849104,0.4491974537545276,0.5886359383009461,0.10889886861503682,-0.07843131392302548,-0.41302191571188385,0.6711484413160921,0.9181688914811548,-0.12587879843324754,-0.6242720517296849,-0.11308236139500631,-1.0539921222884883,0.27101201448330414,0.09116758783421584,-0.03901887388085991,-1.0922947007157913,0.588244739383055,0.1242446878762033,-0.5411923097656816,0.6334646715212653,-0.8293712081376703,-0.8260378117699515,-0.40455533597824767,0.33284097495622705,-0.2977250750649744,-0.2053297045461439,1.9329858134735045,0.6212853730302788,0.07383073943522898,-1.1617268735542363,0.29630330631982726,-0.7314355457585457,0.1263981755415022,-1.0476579906532844,-1.1468150261859793,-1.45267674659722,0.8318018676285467,0.355308313734125,-0.6799318070428518,0.19796261149928757,0.40802420602052136,0.24995895005814717,-0.5521242316560928,-0.34869885929978467,-0.42526232152414706,-0.04153857390020744,-0.289047920810605,0.3472173522550503,-0.21812223760661154,-0.15782322449864672,0.7057301953564424,0.2298222826244082,-0.2048191045354012,-0.10312471394718267,1.3330230613349057,0.29474483084592795,0.7740263792849884,0.4232075711834326,-0.32207485552465653,0.16056558157919326,-0.3885200039538024,0.15320283919541786,-0.29188533418580753,0.17228352715298545,0.2049616847191238,0.06368920900342087,0.9549062913697584,-0.8653688088369677,0.41152736720154537,-0.34227146069832426,-0.6508170859779646,-0.8713832164143361,0.178730159783864,-0.13303421279034086,-0.6104986082966274,-0.09460634182360526,0.0835824112742739,-0.6501910387469779,-0.07556711385218981,0.05785840147925539,0.17752970497145032,-0.28202175389098094,0.2916388261680308,-0.18681510290346623,-0.6773895725724334,0.5333365697775774,0.5476659949300731,1.1918547526788268,0.68949051099335,-0.9178555213029549,-0.9101658416947614,0.6919680073512375,-0.7759967282926574,0.8476712650650332,-0.5560267736356301,0.22521393845985838,0.4341421836251832,1.6656581780083297,-0.07611345821968214,-0.9056947459114001,-0.19028254189139232,0.017749504075430245,0.5893373188869213,-0.11811586311600816,-0.5542104468843493,0.6464515151792769,0.283971271268241,0.20236561120588353,-0.0634511992300066,-0.5964211526409089,-0.02339765508934749,0.6470784553820467,-0.3126717731862753,-0.12003117750836625,-0.03139068836439357,-0.0865667747759695,-0.4463413938801558,0.028818342833936025,-0.07910037889345073,-0.636450311924872,-0.5428180818191661,0.7950609724929437,-0.5212867701355105,-0.9122992427442973,-0.41454689404007605,-0.8736557976563575,0.18397553958127422,0.9004751776625197,0.1680287847213994,-0.7116188148886282,-0.04045393769240718,-0.4479070225994761,-0.07308268951467814,-0.12889432477330826,0.7549476151709763,0.546203921021454,-0.9454559398329406,-0.6394134187936001,0.9604753483464002,-0.46254090236225937,0.6155318617919099,-0.2031256776413788,0.19320018846612433,0.7802280277456772,0.7634745982417139,0.27914419796707673,-0.126725804398358,-0.46055669263243865,0.14189178546137196,-0.7744172423958859,0.38817639164163065,0.1753632346144804,0.837180067183205,0.07331744391376509,0.5188879194836052,-0.06743129704954891,-1.2327937409246938,0.14853667571949625,0.09754289689825082,0.7610561183813903,-0.24944099891394622,-0.0405101291506228,1.1845249401554618,0.5709831830926376,0.424493572326204,0.8560550253193695,0.7702154672493666,0.24565960546806742,0.8548181748469987,-1.1125002980407328,-0.13176116688003914,0.29174850764218235,-0.19072101047955897,-0.2523868549607965,-0.38479870550028583,0.16947591253582792,-0.7768438558883964,1.4429014897836319,-0.6089827059901416,-1.103267089509167,1.5723278243711019,0.25820331790584194,-0.036127115592928846,1.293815630784568,0.7081533266592678,0.8711933768558362,0.36817397851411543,0.5690625783543257,-0.47914926142240977,-0.398582513474021,-0.18124152090652568,-0.5082797077822002,-1.0600136375144076,0.4666189643118254,1.4222295167492265,-0.3989482884451701,-0.35713235907001945,0.6426597684566191,0.808943480489492,0.3575204764932863,1.2678266923383779,-0.8070443316025714,-0.059523811449208326,-0.9605538769824806,-0.7355897042218222,-0.19337640223833902,0.43322627129986074,-0.004118345666930555,-0.8540523911028968,1.220374162376126,-0.7149577331151761,-0.8083227458383759,-0.12049450146997537,0.14250749280779407,-0.5618492518746037,1.1579322695067622,0.00869196155010561,-0.10650288373759276,0.8730242966971276,-0.4899632533507103,0.6617646577883012,-0.24349507019662173,0.14868122471785983,0.9696739632750375,-1.0924131663601304,-0.15097385709211675,-0.6364276688951929,-0.9646793792529748,-0.9080838904265605,-0.47339964351667596,-0.5479606277296482,1.3983072983793088,-0.485734924805864,0.8960375381248856,-0.7990350888063293,0.8616231043062266,-0.7065811136446873,-0.5271989234175833,-0.040560307740331765,-0.3041930142843623,-0.1112948707603367,-0.42844271566514985,-0.37810571359921097,-0.2537653727158757,0.7249183895397677,0.003993021303848841,0.7498234086052612,-0.66700901652407,0.608932059174432,0.2071909947816746,-0.8578431826609152,0.2273642698148876,0.34639615260308665,-1.2667760119563602,0.012854431639540623,0.36247201882492136,0.5240028548481266,-0.7996428777669864,-0.12096699583747766,-0.8738468837160446,-0.3388821030410323,1.7833817401928542,0.5984014465729796,0.8936550281465813,0.24347991756661327,-0.20774090658774536,-0.2820060509456172,0.25800957127443047,-0.35934896077503314,-1.0652934009281294,-1.1012043566055787,0.4287362704927716,0.4250550923122915,-0.9212511482821533,-0.529684448742287,-0.49335264416324376,0.8046038475817918,0.4609131832979103,-0.7805086114985218,-0.09445139108619285,-0.21191252963883594,-0.40640557969766283,-0.4026896638250955,-0.9139139604497392,-0.10349791618615997,0.4935837097895602,-0.18675308707048346,-1.2743607402467358,-1.2917653018599944,-0.36175987942716936,-0.20436182586134477,-1.4067859318821783,0.5676984688757226,0.5937444901486457,-1.45419442528421,-0.05053937305029432,0.30629176953551557,0.8844667353354535,-0.05854295669037601,-0.6067809270116965,-0.422298110868528,0.6487890557034425,0.29438501305662457,-1.128800309852136,-0.11362993492091834,-0.10758998213956462,0.41368763554368737,0.44982107154018985,0.3665875090947549,0.13512140014452648,0.4327293581782544,0.9512465822717514,-0.2675081676315325,0.2682916858194735,0.4537649916873828,-0.32561944720762537,-0.1579139966382582,1.0040694197775157,-0.5236208920242288,-0.055249821173977864,-0.19987453070093925,0.2137617306395111,-0.10143766892750679,-0.42280066749367773,0.24384920013919612,0.25102203972993076,0.6919808348039209,-1.3171745110017739,0.4748731757891775,0.8129440100747023,0.45388524198121716,-0.9449455798904973,-0.48486928607875446,0.10430363680182898,0.3605610242737932,-0.34128848795967637,-0.7478748416552103,-0.566803221655007,0.5786359407691078,-0.2183618412799197,-0.9896832394244474,-0.7742883261190773,-1.276042592979713,-0.20888440131802458,-0.14601224103333424,0.2821627019130877,-0.14564739424661854,0.7679307271284814,-0.5512783901838401,0.3758557462143499,0.03027913700137294,0.8367492390370261,-0.34999946385026776,-0.1431460187886407,0.29566958262064014,-0.40310136437639876,-0.7513000440433323,-0.6759579990926728,-0.7921973420525957,-0.5176794714749366,0.07233157898085309,0.956539088829832,0.7198629124558342,-1.7877913377430525,0.08289322558181084,-0.42792145908271767,0.9700542126703435,-1.550745716953744,0.3190145206206955,-0.9895254124667795,1.0626086016335887,0.712198904967279,0.18791113768372178,0.6796322772264649,1.0107860040108052,0.05600343606288877,1.258332877455886,-0.8339004109367323,0.676999179955867,-0.7975244011809495,0.12649371139300028,0.06424348015252321,-0.4762160585819335,0.537989860837245,-0.4183448262366712,-0.10156486523740187,-1.2037604172620457,-1.3889666347078053,0.26937515351101243,0.2682540305081448,0.27560696619363406,0.18254713269212308,0.43389458656534,0.07739870169827627,0.5257029676611161,-0.10845450084952035,-0.525406806163658,0.01278540171463895,1.5141973043132404,-0.9274395708197534,0.5256487229938119,0.9640306589629631,0.4027873091109151,0.3010870412165042,-0.5432277204961838,-0.285515060522709,-1.3559655746481387,0.3092862469241975,-0.7592843316975781,0.3377933115495035,-0.5886173517020212,-0.4832719753136676,-0.1358353263756666,-0.08874170140299432,-0.6994517651166214,0.011181793959355603,-0.47602622167544867,-0.20200154397732475,0.19028210829658604,-0.9899472861629653,0.1537084763493937,0.31857978852177865,1.5943513736180048,-0.2464219023220168,-0.41451954930165147,-0.41669703754334136,0.4848426232567291,-0.1581079829773121,-0.4146090273659513,0.42636755469018744,0.025766935008891656,0.7268424911584996,-0.39728574922837384,0.3226839184774548,0.009150483485932141,1.0734062926256853,0.16840578566452813,-1.2587636564321232,-0.36555983169980377,0.294222788230268,-0.5528873089376765,0.44206746353104764,-0.6491077385272258,0.4535273343802015,-0.8740218263053074,-0.632597547633299,0.20825435045067567,-0.4848539530894632,-0.32921429353400844,0.2839855051339846,1.15258898964538,0.5086116120272575,-1.3099196830139164,-0.35388444541964587,-0.12531992180013807,-0.16530102335854183,-0.5773871652064918,-0.6204758559408258,0.3414114191489817,-0.44135496381338984,-0.605708251482452,-0.6874678517919681,0.5531698413322491,0.32072202743146894,0.22493435548891236,-0.18505399447186444,0.8066187007148798,0.6018413948697267,0.10783411438710895,0.6732597622881596,-0.5204579334250479,-0.4076570087308313,-0.35233539475503656,0.8889873324819757,0.8932432421355135,-0.5285800594320023,-0.225231854659213,-0.32441222509917467,-1.484359014124346,0.762710599589707,-1.0101630685498695,0.5831747443582673,0.16527756428553222,-0.5009244391261911,0.4231086829314028,-0.07374061364021073,-1.0747997610461029,0.49685526059083773,0.11833382994942639,1.128776775669833,-0.2996341317492915,0.21570880031000494,0.5521198591584213,-0.11731424920277436,-0.52400024793687,-0.4000044744652926,-0.959644626803592,0.04036987062003777,0.40062585996687705,0.9421515484502467,-0.5764739161037419,0.18225383148217456,0.49591355527274344,-0.7503012437063253,0.6127988903658836,-0.3158570503917849,0.5902381418868624,-0.2836431423562049,0.4058220740642754,-0.10164306687382621,0.035539075108082574,-0.10572129884375728,0.3243662087963664,0.7601068633793019,-0.5828710127201465,0.003704187363822997,1.0571616942411812,0.055225498412829976,0.732910607495963,-0.24526359381400148,0.7272935226132516,-0.6791285717469384,-1.0770447642821372,-0.9810773158371444,0.023190707469228095,0.9826220337656051,0.15020535251346373,-0.024331168835683724,-0.5251832153979779,1.0071652567322236,-0.037501023919360166,0.33929703093939245,-0.7670143947352096,-0.5140757942472204,0.6527793245259973,-0.19139146955042582,-1.2639499313534897,0.7063926007682557,-0.0464326652355559,-0.1914760342160035,-0.2997509718379199,-0.501459344772457,0.9027786128157602,1.0812627792695197,-0.42387459208322703,0.878144130991145,0.351876610746324,0.45076471448829647,-0.3205007628988895,0.18624945163049705,-0.23332478101422957,0.7173576461858232,-0.2848078741031733,-1.0894212102525167,-0.021377054052742327,-0.014450666262017048,0.06085286100296198,0.7800040191105716,0.38154470536613994,-0.02310888288511158,0.03513149982994319,0.004236897400021856,0.20486768099169061,1.2860541123635945,-0.9054745593225796,0.19220802000448323,0.07584335594363896,-0.6265105929031235,0.6117150266698613,-1.0820253906040178,0.10834645525850058,1.3384936640355714,0.6947505187673377,1.707426822654819,0.7591060553894349,-0.42343192244946776,-0.0421725306636373,-0.08086508640162288,-0.08002697783250598,-0.572835796514932,0.8113464176312696,0.8546775179961859,-0.8682155218719559,0.21004102683160453,0.5984996426271975,-0.6861075782541357,-0.439874165162121,0.22134209289136517,-0.02238239622545677,-0.24886864982853674,1.0038470522708127,0.21170494328130884,0.1138486428739884,-0.5168494572170994,-0.16567255306893264,-0.5381349170542451,0.8832310505430566,-0.17125821047069176,1.0382724869318325,-0.5205663251842212,0.7558366373562099,-0.5934134984276681,-0.36863742863804383,0.3104001350188979,0.2791425435430872,-0.3236423371964583,-0.5764340008677276,-0.524751128225951,-0.21177713795463834,-0.046164967148275185,-0.509052354714247,0.66343208952088,0.9506675683566672,-0.3178458119143187,0.5356386829641578,-0.1792548375046136,-0.9336295969671936,-0.029501526214233475,0.32133677506853714,-0.7243935790741564,0.09700537986666019,-0.10892219018488263,0.6841323497374534,0.6951243102958812,0.17067073741734703,0.6736043200812238,0.03247280954042144,-0.07874796603360239,-0.15747906798120748,0.8910384364251761,0.1899223155238241,-0.40764444563803753,0.055660670906304145,0.9168915807643315,0.8999002094544801,0.8175211003395492,-0.4054189686354894,0.021301804312715777,-0.3550230959823982,0.49763309456249966,-0.8710795440359237,-0.33282612750638724,-0.2714824979477582,-1.3216070017206512,-0.2846231044027389,-0.9272965155539983,-1.2720162222571618,0.200620961985111,-0.5811439327279738,1.2612241814893466,-1.8480004238790984,0.3079514192331412,-0.21211396235141655,-0.5539181590597928,1.2155263994114196,0.4279506258318237,-0.31523435603360267,0.19861872302208736,-0.2222371970107412,0.011035314372090972,0.46956679453174255,1.3561145744942777,0.4455207245665286,1.4021025112488814,-0.7568236289763887,-0.13380808596547114,-0.10547220914338688,0.7021824189994869,-1.005345582026497,0.3883075847697123,0.3003106463649097,0.14126731126269126,-0.7020866478066519,-0.16007865443692204,-0.6603911151264394,-0.2531910353121995,0.8361868874024049,0.3955373544322284,0.5933545163927483,0.2734979522466664,-1.7604361074745287,-0.13425698623947935,0.3874197053376117,0.9013330037828746,0.6750147427852398,-0.3602416024608899,-0.5856067052994712,0.064895570528721,0.4207720459276673,-0.2863577747060251,0.20745111981287206,0.5257182193256447,-0.2711833690578286,0.6380397467069017,-0.12601963780595954,1.1134809502564067,-0.1549260505044106,0.8767183750914226,-0.6714430182312325,-0.13744102772109984,-1.0818795566143962,0.19079457282577114,-0.5508359381548872,0.5148430348744416,0.47552064210231487,0.2507501113253127,-0.13486855006018833,0.12811357871270063,1.104689929587601,-1.042321566657234,0.013960225651260023,-0.6100213066133796,0.34963805840365186,0.5507609660580981,-0.5510215914103485,-0.8846068923809781,-0.46157776752513857,0.7018160852987515,1.0153100681887104,-0.10837687064540248,0.14930839316312042,0.4743038100614113,-0.001225489331005497,1.3150908071685008,-0.2406591060409781,-1.2487142535998719,-0.44518021198912827,-0.4745618806721549,0.5121699570971592,1.7104380259421252,1.2302312588941222,0.22928896549953687,-0.4349822338512101,0.28253607139230746,-0.7341648512179948,0.6599216036350146,-1.7771377682999732,-0.02693248543017522,-0.2578212708465883,-0.08437140624954752,1.0686447406091497,-1.3732179988990894,-0.08371044665388874,-0.9755426620465442,-0.4663514474834524,-1.144588793637438,-0.28934419957183455,0.10170262578125844,1.655449895285233,-0.7027606360348292,0.6902331495908011,0.10614618137204113,-1.7563074676411374,0.8140265129798426,-0.12953329332787963,-0.8024524633251103,0.5568929180522962,-1.0043415374141487,-0.6674788958176241,-0.9787015879506672,-0.013273451928031138,-0.006951602721813963,0.6727563170630446,0.8389605050653123,-0.009404447625605368,0.34817935798470784,-0.5261402408018672],"fitness":1.0002268333333333}