{"v":1,"inputs":13,"outputs":17,"arch":{"hiddens":[8,24],"bias":true,"activation":"TANH"},"weights":[-0.8373336353795487,0.07584311954240823,-0.40721775896747836,0.46079028401692784,-0.2769686828496297,-0.589975684668534,-1.0399250790904342,0.2310565130824827,0.4168908124141831,-0.217090194381413,-0.06568237491620743,0.15293854878656787,0.03758178685543902,-0.8591059416881669,0.1269879197233457,-0.20006310046746717,-0.21335405181278308,-0.08965625613803202,0.333398089933062,0.4162178134886277,-0.31477963340947523,-0.26465335391486944,-1.0042579789928185,0.34502690379804485,0.6215561956742225,1.3310903839063108,-0.07895716755592874,0.4234169689402899,-0.3027121927904208,-0.9845726140183977,0.9555208736083959,0.09594599529607031,0.22834052220186818,-0.04034895363997576,0.6733132498464848,-0.786297810183229,-0.5404832195076041,-0.5373990801965913,0.18376183744189242,0.26824977500630265,-0.7603149633028152,-0.7617026156860273,-0.3669110170422225,-1.053475342875308,-0.7683441788280029,-0.9649352798009192,0.15558104114898522,0.6890688801227047,0.22039248290628924,-0.02442316749808954,0.11504135574089322,-0.3649634321714468,-0.340233985856507,-0.5511118649636715,0.7693631598437873,-0.5614456319234351,-0.2689953099483611,0.2355904427501202,-0.32716248164078887,-0.13108601951786342,-0.4798911991844476,-0.5826281840073295,-0.9584636481433372,0.6250923046710368,-0.8306355398962514,0.8552801905586878,0.029828833527859366,0.2386559361245815,0.8843294808913377,-0.24084662468024365,-0.04919472236778859,0.12113060358116809,-0.1570124961511178,-1.482299958915051,1.5110775156632685,0.2548875983399319,-0.44596077376432286,-1.76176104221647,0.5571013768668741,-0.04239515871301508,0.17073946644905005,-0.7986248469132251,-0.3162443256756662,-0.5555069924012527,0.7047503919243036,0.9149284688779363,-0.00671127913633307,1.0080248293333898,0.10683944837122192,-0.8336881269350658,-0.25948935943565,-0.4277824644705357,0.8706974640945645,0.524507595470882,-0.1247475806676294,-1.3487890100130144,-0.7573837693632688,0.48666959215512445,1.3970883661455613,-0.5974361465498724,0.4353493475154018,0.057434769344919645,-0.32007145244165164,0.6346592072584734,-0.6971649739330782,-0.5628340455533023,-0.5364862373012174,0.62825640644891,0.26632602877885936,0.11999766527722816,-0.9162567867620193,-0.6142660399626575,-0.4993150643994879,-0.29555153175326,0.282719919880843,0.9293707038161803,0.14901759007226775,-0.5703536044272961,0.23252309059411524,-0.5932739668266432,0.3114796598901154,0.37256388943813157,-0.8918430109621029,-0.4370757805444569,0.10870327231831925,0.8445365620491251,-0.47646507654435283,0.5393030958522881,-0.6162022947978344,0.4894691090166338,-0.32846339585162576,0.9097786421510325,-1.0113741388338997,1.3962781568082643,-0.9020213561006167,0.5300649946769481,0.922283196691771,-0.34550438726061117,-0.2455189430299031,0.10330473861323017,0.29543722987489246,0.12337775759530405,-0.32714045487421256,0.6932147370911032,0.22499787406985144,0.15829673470729783,0.4534760780443617,-0.15546200348602485,-1.032132014556366,-0.17259141033745504,-0.304852666048267,-0.736776686630724,-0.6009281088595206,0.21324812480769378,-2.0866220227707992,-0.31593331182628237,0.36993602254251257,-0.026113196321402025,0.33931237257721986,0.24220715245393118,0.3615184252810574,-1.0511452446121727,0.30970386466253913,-1.1014780992250912,0.4335929236125944,0.15879883583681517,-0.53452730200186,1.0052798109399896,-1.110928433853235,0.042198047980636866,-0.2783473352483871,0.5086716640416235,-0.5807057014247065,0.5318084694025049,0.2430551993366661,1.8499924162439179,0.13338568763786804,-0.6667098666147819,0.6156816995561889,-0.07255544618162084,-0.38342050295542535,0.7855783268851667,-0.47609298397257344,-0.30698857151386977,-0.20971308420442386,-0.09686231575289984,0.12424009522245949,-0.4793634852445902,-0.27871608974714124,-0.7391506458317924,-0.525129381468463,-0.6456839618001932,0.4200593123509253,-0.6390992066106059,-0.5057086890651218,-1.1179027465686002,-0.37961640619851006,-0.6159094284364225,0.29490161807759785,0.6480619148049678,-0.5238178388131779,0.918626734728357,-1.1789144484111596,0.2336571521126738,-0.03081131519059252,0.9515638075215138,0.22684182577451512,0.7140695249636584,0.34151752402446106,-0.7824341534760642,-0.12624435846156595,-0.5280990193035364,-0.4786391615022316,-1.1902434005145917,0.06546978391739433,0.3057732474176886,1.082701701091453,-0.4940385735628541,0.09122994876406894,0.7626479231939506,0.8750627803913246,0.3939742527777371,-0.7629334078056134,-0.6095054175046213,-0.0580072272141192,-0.27461438578912223,0.6270950860481403,-1.1274991702336243,0.6557156095219144,-0.4843671379451372,0.5082743078155698,0.28587504867194785,0.41436886836048015,0.6785645679465698,-0.20189928531026835,-0.08523157640088964,1.09426625035417,0.3812272067195004,0.20930145004916276,0.20017353966999504,0.5916049928224133,0.10957126006120042,-0.7635040938335018,0.15926007400525918,1.0607256898078874,0.5529497845524529,0.18015550388408194,0.7759590654347354,1.0996578817326232,-0.451118480759665,-0.37158780644367373,1.1550711007503254,0.49471221503952434,0.874029204986971,-0.2584632420952962,-0.1876810647893352,0.1629165383915092,0.35486100626240724,0.4438746489927661,0.45562568514198043,-0.3498050749317952,-0.6558809504570196,-0.011697064558804909,-0.040619130643525486,0.15394911022826765,1.2087782799034517,-0.43989321436158735,0.0035599572135809,-0.8663075050516603,0.3871758269607934,-0.5562569662989364,-0.08514748449920989,-0.29990250063672474,-0.07632572792464845,0.3404435012723296,0.06747145857195237,1.337576679007161,-1.5164648321196623,-1.0975814068097356,-0.08171504669715296,0.20601789466410897,-0.013880168783287489,-0.22980030442080537,-0.4192291189646661,-0.31380241285043087,-0.47807539826789724,0.027609717079909817,0.8193112266702335,-0.3616173783750435,-0.38228587760150134,-0.2129074004394709,1.2268995960576616,-0.11482687990574271,0.1490708248000781,1.7243442546879073,1.2398994148995948,-0.4451309827440464,0.36210509522513684,-0.024640726192761583,-0.4749914603144421,0.28465460662795705,-1.887151431943165,-0.30852832227474214,-0.2704910345880052,1.1396284254356088,0.3538233865895086,-0.015521741827114915,1.4532729587274091,0.7496258205145567,0.4292614881839473,0.004325402710091242,-0.27528497058725393,-0.3178593500188673,-0.16904074687890974,0.945199302364738,-1.1483383434774046,0.8360604708055214,1.0641541564004222,0.5174674411063455,-0.06713721204769643,-0.18451042961195066,0.6200272899065831,0.21058106742397523,-0.21176411812809917,-0.1421439364335274,0.058960301136763024,-0.5865882446296428,-0.7702847024125552,0.25890254528106715,-0.24340375578406287,1.117818927555136,-0.05819900694982604,-0.2391158976428836,0.13391856663613716,0.395939666435742,0.5336164957586527,0.5292922361711715,-0.8731107088837613,-0.7161746837493139,0.30395083617851076,-0.8243902692326853,0.12602625352439845,-0.40685228341823093,-0.27052917555130657,0.18139232331712202,-0.1743126135139951,0.25201281320804864,-0.17209256068874992,-0.4726794496271713,0.3832728727329564,-0.029660605050649047,0.5852039096697471,-0.3457369201705433,-0.6064188828621161,-0.23248325523704694,-1.3224826062999346,0.028514399069548113,-0.6102128018407624,-0.38299156410057383,0.02425617168730889,0.16194473265474815,0.4024759355966183,0.08108038996767024,-0.2938321143133864,0.1307921534597352,0.4149970648222337,-0.0894733055207053,-1.177624255616263,-0.017390161590621827,0.48456556411409796,0.3997709445373446,0.1472837944213778,0.13887068516464277,0.1986937571344031,-0.43984488176066433,0.06617576431357623,-0.21454069908840928,0.4189887125535503,0.6305677938046996,-0.40489234047312045,0.42583540645079426,-0.5070919853059427,0.06873486825542587,1.0461978433803911,-0.7734306725037389,-0.2974805921002851,-0.17520721683947485,-0.003191362029604088,0.1153442610407888,0.026313407003036828,-0.8261617091400877,0.22964531725303425,-0.6674921440367412,-0.024430626431988095,0.28866642507811013,-0.030074838522979295,-0.48274183868812515,0.24825317813995929,0.2593421527354466,1.3566772434500884,-0.45343543071968384,0.4678878164262429,-0.08418162465348503,0.8047482974327786,0.21977320176386944,-0.6391528380354744,1.0210404414380772,0.4002561851042638,0.26787807612389397,-1.1663465188185924,-0.34952006877092,-0.27408206457012907,0.4294077214916891,-0.7026244311811147,-0.5339544218486384,-0.43037945373379966,-1.3264301260948743,-0.19450714861523888,-0.18656672315923065,0.02558632415037715,-0.541297680597818,0.36412472844277893,0.33571066032310204,-0.1583866784031644,0.13191665423757015,0.4476867806096627,0.4778451975693102,-0.6185148960146198,-0.7737091633778018,-0.5441260681244072,0.25217898616683554,0.17815650493247293,0.41975093174389916,0.3156804060555367,-0.40409318962622326,-0.2561018744578793,0.05839346769921233,-0.8550049216849412,-0.8573590456638698,0.4757610968335998,0.22266663987659094,-0.8941345645597445,1.9397179055387865,-0.07852894658827285,0.05659638646302816,0.5555587183066736,-0.6634904483655227,-0.4088040168509612,1.2151905628208244,0.7250941793942539,-0.6391274089312091,-0.4032461180861643,0.18631213192397347,0.2723660528662183,0.16797595214469896,-0.5117812536798467,0.2580398386534835,-0.5172186684307988,1.787809258289771,-0.5490425856960317,0.5932154462170488,-0.6345950490111463,-0.4601052247004644,-0.23100243801461567,0.9197770248115352,-0.06439638573938099,-0.7213063257932862,-0.40590229777392,-0.5569160067942467,0.6904143554310658,0.38152881258898547,-0.6231232683490527,0.5440884538883801,-0.9710955223824406,0.29544959147616,-0.19877628075617557,-0.027202511804038234,-0.639537801547991,0.2843412116559634,-0.1165774316708025,0.20048633508186892,-0.1482805451039897,0.07350011503290725,0.11649291066453066,0.8763269214730529,-0.0762330210219844,0.3454236341201971,-0.7617357042346098,-0.6575403512848331,0.15075521460455454,0.6478714919724472,-1.030081182487109,0.7433452113395519,-0.6197924203030353,-0.2665739138685599,-0.7085078180307957,0.06684874058760593,-0.24951122874783538,0.4637841735219018,-0.9681218472430418,0.04105488978968205,-0.07787557141978377,-0.6974365508321045,0.5522985373271132,0.8449895215072523,1.497451105579229,-0.4861000711571576,-0.19789438399896414,-0.37068157867376106,-1.075365782456575,0.060721065385639116,-0.4588902924508734,0.47737113925730545,0.7167908138163526,0.27558622079986156,1.2145052780658663,-0.9392293113706672,0.025704886394692632,0.025477240647560347,-1.394885719388192,0.10012366957784596,-0.35761675850503705,0.2667923519028606,1.4538807461959533,-0.685344608927118,1.4216628642805154,-0.7587013157841453,1.4887137284791612,-0.23085196022566143,1.0941997374804464,0.8082373271196707,-0.003962885781150893,1.1598506083559974,0.02572159808458029,0.20991177499849878,0.9907735706522013,-0.3490605476042466,-0.6600203997630952,-0.8494211441231861,1.3597805179279685,0.6383713174311344,-0.9293165689913919,-0.9194811500812776,-0.4408269000353039,0.43687964618814423,0.6564736357838531,-0.10036556214428549,-0.861266828508277,-0.39334143345071376,0.5209271767506373,0.13898890228223407,0.04329870969802294,0.20990267595092943,0.44875730477963155,0.26175435805847436,-0.27087175600608726,0.0772267836490154,0.6567020488401035,-0.4094347441160496,0.6799834606515287,0.05470741074902741,-1.2060507983448485,0.21629361182988574,-0.26485313667145727,-0.29991599570490296,-0.15546000015994438,0.2595268382696452,-0.5852764446062825,1.0350650567134116,0.3053074745550866,-1.0920646590388183,0.14690749196540231,-0.740649209548354,-0.43194142739083663,0.39780185652536054,-1.0193560358717484,0.5456544869210244,-0.7957434990787393,0.5951442346196739,0.30695577206853847,-0.2865777265976728,-1.295059694009919,-0.5370431129870904,0.15758077232547138,1.4455960880333805,0.9143756444513391,-0.34264501385714363,0.7058995195123207,-0.10746282741328754,0.37009131143426377,0.7957852250491001,0.6629822581668474,0.3467132511827113,-0.09988597947237267,0.4020177522398049,1.277082301632506,0.013496752522657742,-0.27015196842928746,-0.7423621393100927,-0.9873431513791542,-0.22861430305453834,0.12975095689214425,0.4415929905802114,1.086383545332938,0.7866226273028849,-1.0438650525986777,-0.3771380273105229,-0.81768425885377,1.2139440355623368,1.0881673718912086,-0.09741314884884787,-0.5878900593961557,-0.4004569533271453,-1.1254165591013778,-0.6394112236396946,-0.8396349519278083,-0.7807089218634026,-1.262503864704077,-0.7366209104281873,-0.3728893663975958,0.5278380772536583,-0.47540783053641494,-0.16001079448104424,-0.4744666209614887,0.6405864460524983,1.106874227311769,0.16270388690496143,-0.7080920107786889,0.24672553329637315,0.0525303003179099,0.846580189604883,0.002606520849628031,0.8068771554526639,0.7034665245555195,-0.08432692620219712,0.43642614061555124,-0.45290217649275427,-0.25674223157691994,-0.05152725582854653,0.5809184400491675,-0.3111291746023688,0.8041730266831956,-0.3436847019290705,-0.9573522467155529,-0.5928493060446903,-0.3330857299123852,-0.728353113883542,0.06282144485776443,0.18191208894711983,0.02992888568031565,0.14532871295624147,0.15752980107124842,0.9053732729564858,1.4029916763045445,0.8260395700582875,-0.1811517484855949,-0.15839164732692265,0.6264018802425072,-0.026079482684341064,0.10096725451424683,-0.7493683675656556,0.03283485421486592,-0.20835267629470042,0.7224578965073948,0.8164948143416146,0.23343988243094216,0.8200995734251366,0.8378949288678801,-0.25632091970386794,0.1781158357280368,-0.8704659523341552,-1.1237422268424975,0.6336300658736548,-0.35521772081208397,0.6019669176691028,-0.20055109772299917,-0.19353700936082924,-0.7586759911033139,0.7131302322479927,0.39428684716834883,1.0252102986301808,0.6686516258945469,-0.3726392951780122,0.27227944530702314,-0.5136882919632925,0.07544235857915954,0.06374190974956642,-0.2847089640429159,-0.10910027519771749,0.20321057771972215,1.080818184919068,0.1794677959277102,-0.5538638216853309,-0.21924533314753958,0.8678736971936021,0.09679765297559628,-0.5655321949699691,0.7260180664253371,0.7430816087670218,-1.02863922533016,0.6796292030283035,-0.31429365090878864,-0.09709027699149826,0.31597024247014355,-0.003414685249058875,-0.9904740788913329,1.4450124121074293,-0.5466633714189977,-0.2860165271954514,-1.186776902576207,-0.2187497641150053,0.2923510821064622,0.4055572910949879,0.4254707227359813,0.36309577807728866,0.8377262630457015,0.3394958111234597,0.40170639617597553,-0.45365977103149263,-0.4222481288405369,-0.24459683731381215,-0.3826610187906524,0.7200014235571927,0.9349068471829771,-0.3133534308824875,0.06248218770865852,0.6469588820946554,0.7739587258890683,0.32292906074311484,0.1712137359723535,-0.48318356234114607,0.2237036344481382,0.03571101550397481,-0.2427809512231956,-0.6038327108191232,-0.3969332134158679,0.42059442630750776,-0.5505234636858173,-0.8055860881599503,0.6291345623341293,0.08531636268776868,-1.2977911986822785,-0.4998705098497813,0.16979454410640912,0.6021504428377596,0.5481096955524228,1.1221996857897052,0.4721468805977085,0.5027811787694113,0.02550950143855268,1.1180513603937958,-1.0312368987703997,-0.8845204401068893],"fitness":0.8336123333333334}