{"v":1,"inputs":13,"outputs":17,"arch":{"hiddens":[8,4],"bias":true,"activation":"TANH"},"weights":[0.39199380286826885,-0.571565719291182,-0.5054168835365368,-0.0012322238241131867,0.35124134986695466,-0.5338706544177012,-0.07353372372868539,-0.25146881399189264,0.16222254950288661,0.2554284473888241,1.028400223624241,0.1946101771715101,-0.6016973488430969,1.2237737139486038,-0.12111719562444061,0.4084661992228222,-1.0268153908882054,0.2514247938573081,0.6288358854242821,0.16796881978304692,0.5315660261046191,-0.9436429292861241,-0.083670986412292,-0.008198722801496942,-0.7351576554908068,0.4957380132527546,0.29871151059430384,0.6648145297393334,-0.06571975820907706,-0.11929449265018084,0.10018528712849903,-0.26887618169171507,-0.0746321834296858,-0.6524389303506845,0.7841289640593081,-0.5048792184266019,-0.42087031697519245,0.21612332609880042,-1.0209059273039953,-0.1892053401481808,0.32896494022192974,0.16344742524378414,-0.9194188403542275,-0.41625970327822515,-0.25553275024612093,-0.4758666301767084,0.27379477479577335,0.13118185447331476,0.10070917021910325,-0.28119525695483205,0.3124157871690368,0.43384483342842334,0.4552894880198343,-0.31094291378590305,-0.217959292023378,-0.17707675428456665,-0.4419549776069389,-0.7099429609653052,-0.39846365141529233,-0.6821231572596966,0.19298446696220029,-0.4138269609962504,0.26854714331277013,0.9847491930367398,0.9816816721151538,-0.017402088180157455,-0.08559175434629555,-1.3827904638970543,0.34052620517899396,0.3445902631524799,0.8135812148456585,-0.2806099345746132,0.5002753031668875,-0.9381964677510899,-0.34460403175168797,-0.10690246608145935,0.6980193943397587,1.2754607998213954,-0.3016289308782738,0.03743894631917394,0.2581574024938686,-0.8081168227376226,0.036494494238505926,0.10341691468187875,0.42018852936423423,-0.44427474096485964,-0.4741612722595137,0.29665030074435433,1.4104886885837626,-0.6342400667835771,0.1973070358188452,0.5491334527755825,-0.873844169187667,-0.6007275429534507,-0.04683892106317805,1.1281977072062348,0.971638344749247,-0.15697648755652063,-0.2850488148289915,0.2331268208339732,0.19944320390964856,-0.02345729774100549,-1.4171677151194668,-0.5380102184529455,0.43058979712696394,0.006563997370962252,1.191335270521598,-0.21662314158162443,-0.39085235176218286,0.9416615915140616,-1.2763196502830199,0.14841670147091354,-0.8604409708141773,-0.08127193137374765,-0.5404686736861424,-0.31232814330588166,-0.5813241626113723,-0.2800327730083334,-0.7869048694928908,-0.1942755149385564,0.8453466804174044,0.23104063842858857,-0.4230310065759448,0.09470639431201232,-0.24434128963099705,1.2211843882426372,0.20720526040261605,0.652297253876284,0.8815746353092239,0.5037249078349917,-0.7990445819745239,-0.08598658583463849,0.8295599965720256,0.27513266366826894,1.580901046155063,0.9246972062635802,0.29504605906862186,0.7571325931051984,-0.6197850301981382,-0.45952414854546497,0.9525114461871027,0.021357388697734972,-0.9240127210743012,0.4996334131226457,0.10650648515947737,0.16007367047701507,0.5524777197314715,0.04140645139358461,-0.23628997232152354,0.8736766568758876,-0.22458022070941902,0.08143626208667917,0.32126876246756386,0.46293808873670284,0.4177957055255677,0.4021483865545076,-0.6423021171762513,1.0313189195686507,-1.1307031748438108,-0.11568412846870882,-0.3336998753213685,0.42985526529074897,0.9050798535231361,-0.3822395974672551,-0.57949344033301,0.3748995595821412,-0.2688334904852774,-0.0652450038601707,0.6740993175830408,-1.0049428311006616,-0.7859277661969136,-0.20000504242122816,-0.6983103653835575,-0.5887458554880591,-0.6241425939090047,1.0052506707079805,0.013169362830192377,0.8362594742065895,-0.16325435761853585,-0.13990806257655827,-0.46317325916292035,0.213228569311818,0.046738131294270804,-1.3213761154133128,-0.4732512709370495,-0.5573900510669421,0.6972066071258265,-0.6087372115033618,-0.48983611857723464,-1.1496529890114422,-1.4251501136202305,-0.3824746890325907,0.4289852074054358,0.8318604656392138,-0.27189595186881593,0.18329151187971118,0.10440784285340632,-0.20879436122931416,0.9839883816523014,-0.5193462919992404,-0.3947954405925553,0.4543210084337773,-0.18123424437617333,-1.4266161996939022,0.7589193070939959,-1.0516883744140992,0.2760761078490918,0.22562672227606917,0.5617332428166475,0.6130462627529486,-0.07594454405613506,-0.8516665861677709,0.7026501506843548,-0.18754700992673934,0.2704833334350025,0.10902164334549481,-0.2226403445150539,-0.7307593160943937,0.6708276963778266,-0.40994992076600756,-0.42176986950877665,-0.27125558799226746,-0.4813535850195621,-0.19087391931296077,0.5673198177577299,-0.2519908253097512,0.5137025327081886,0.731872037377632,0.5044946159942784,-0.16535282551432182,0.31594845347148354,-0.699689348840146,0.04083322022422819],"fitness":10.002631666666666}