{"v":1,"inputs":13,"outputs":17,"arch":{"hiddens":[8,32],"bias":true,"activation":"TANH"},"weights":[-0.6430507034040992,-0.4745618806721549,0.20505264635792272,1.7104380259421252,1.7014942906799162,0.22928896549953687,-0.42186381166423376,0.31490560189929145,-0.9974285716681306,0.744158566835087,-0.8744386467256686,-0.02693248543017522,-0.2578212708465883,-0.08437140624954752,1.0099369681476478,-1.3732179988990894,-0.08371044665388874,-0.9755426620465442,0.06853369218087474,-1.144588793637438,-0.28934419957183455,0.4995023254155639,1.011571919854888,-0.8484154843689514,0.5644271272435104,0.10614618137204113,-1.180772257299193,0.8140265129798426,-0.12953329332787963,-0.8024524633251103,0.6526394931434801,-0.8410894546150092,-0.5263873321326706,-0.9787015879506672,-0.013273451928031138,0.13797752517929948,0.5149960307119105,0.8389605050653123,-0.009404447625605368,0.34817935798470784,-0.5261402408018672,-0.6645900771105068,1.7067074524128045,-0.8073006477275785,0.6811780124850436,-0.10622817706152039,0.897009733382385,-0.45044931920416353,0.9132119737391903,-0.6599454081385282,-0.15391139660456463,0.042284523374389156,-0.1988706769425143,-0.5873155249289032,-1.1907358832761745,-0.32206594883958284,0.8873467007227763,0.2989924967919765,0.3841386447142225,0.889752654795783,0.021997547698590157,0.5297299367221974,0.6738503470804966,0.4895426216649489,-0.2526772691114802,-0.3727516494232792,-0.014377231013924924,1.2983757696449552,-1.3828974319327354,-0.8388012219590321,-0.5129521431281903,0.6523513027347508,-1.345081794258432,0.5069891983599035,0.5927972386918199,-0.10730420853725353,-0.2714844732196305,-0.00709351771764774,-0.2581602348413839,0.0760510359020815,0.9121599466314048,-0.1900727364093511,0.17404222796991367,-0.22839143470610093,1.4748850746748048,-0.7761452054171655,0.9322770760236233,0.35242170031387055,-0.3365771338915223,-0.1835309573846324,0.4734879315117852,0.3095951801328549,-0.7890640722916029,0.3801448259970439,0.5032368887469757,0.35494521597913126,0.5673367340680191,-0.45791565361576714,-0.8169808642749314,-0.6664599940558654,-0.48888292398867184,0.7208701344620915,-0.355626956825059,-0.5557889450667889,-0.45852382279466364,0.8892774754955793,0.14222454093400663,-0.2608137932037781,0.08731596534358796,0.3718875605852392,-0.1587126710074753,0.02584119587186795,0.8472573959439611,0.15291369354762516,-0.750180071273805,-0.07057044601555192,0.8379656990900289,0.05447292260188759,-0.6956511898179053,0.5232328091903672,0.23052990682096017,0.17849804889650298,-0.07323817782203978,0.05356570142454378,-0.34536915370015936,0.7579905639760801,0.28185984821860965,-1.0176736114512983,-0.0008017405425336812,-1.0853373356146991,0.06978946253362708,1.6184444218397587,0.537386146287527,0.5234203063080306,0.06363902307171598,0.1500875331097623,-0.11158114733280777,0.8619535702101884,0.8791580748237532,-0.7795272013502693,-1.8245690619314812,0.3015147729694389,0.4909792499241084,-0.0502652229804563,-0.9463407635832787,0.03126864445722912,-0.28426393748031936,-0.8377636995514028,0.044858561626003275,-0.19237487891170352,-0.10586673897218912,0.21100700213030038,0.7257417670422868,-0.2080864598678918,-0.05669571140126055,0.838672242631673,-0.43575593371105453,-0.20995420705551465,0.0912061396651864,-0.30796028687717447,0.5936074367608163,-0.2479836476210968,-0.07863153791411312,-0.10011148215269977,0.2664386030117945,0.15574209058342015,0.5420703525051533,-0.23540138660458415,-0.24648890273551877,-1.364565285435448,0.09516483790440637,0.7324071721586226,-0.09166215468795204,-0.05679456965472886,0.9064938272253807,0.30646610767977267,0.2633289716588428,0.7804312810255418,0.5908803013417053,0.3029272641164038,-1.1260340063732763,-0.43904862342584616,-0.7533764175879787,0.24560628855001682,-0.5215933100395421,-1.0319769394296552,-0.37399112117572547,0.8873304000174708,0.7532592184169817,-0.3641327199751317,1.2369217642262336,-0.011720774404921534,0.1318547839345493,0.6720898510598347,0.9445634046638227,-0.17098549436128102,-0.16095227870006248,-0.7070027414993324,-0.746567059749428,0.8008764102344487,-0.017504832972891845,-1.1766569590957414,0.12170804966347591,-0.7348458077883485,0.2965397934842139,0.06071167911879877,-0.7577988498563034,-1.204695218826751,-0.018071684234127427,-0.5587731006950053,0.24950884650282412,-0.9426471531285994,-0.1286646156201867,-1.203113958279573,0.5718068761614238,-1.1999208918878097,-1.294015846736274,1.0184428848693294,0.3642615437642612,-0.2622622052462967,-0.3503828124475236,-0.856921477839272,0.23417623359971212,0.7621215048076067,0.2568224711029234,0.7586346595879999,-0.4840886091794345,-1.0741114385349306,0.8060958841730307,0.410798861684839,-0.9751561689909829,0.5711023751339767,0.2326365202185809,-0.3966963271925491,-0.8330754062093568,-0.22063599932190814,0.05349341401468091,-0.3109442849661609,0.9182470669243081,-0.288632273287371,0.45754507194921895,-0.3292010615850241,-0.6696339196847847,0.316640258187943,0.33604691758923877,-0.7277181349569085,-0.8925103756750155,-0.232433783257232,0.3606761042250042,0.41967087250675855,0.3213026474727161,0.48923859830802685,0.3393388673486058,0.6262837814807223,-0.24523267585057096,0.41284976928369727,-0.09561170131506568,1.1689411873229048,-0.07092695491136002,-0.6791945021545156,-0.33453132722622264,-0.262072807925797,-0.12180925284582247,-0.14915061253625894,-0.037714777567487846,-0.14481369431490193,-0.12363930343168295,0.3836042639385509,0.2949584885529937,-0.6557856262292756,0.3640777364296457,-0.16649339564692497,1.176169896192949,0.46368584034449284,-0.07620182845074766,0.043745190512696,0.07362533389568005,0.440832657465432,0.1764355710544971,0.002081505968911254,0.8488392007746208,0.8422630007030248,-0.3885507614953703,0.40187185586332486,-0.4852596688987816,0.13108195858725288,-0.427976146213564,-0.383440672504295,-0.07961793327662166,0.4169929261406012,0.10465064209099745,-0.7146062218832128,0.3558369401489915,0.08258824235415803,0.5130665927018185,1.0221269931188728,-0.9132029131250765,0.22480311703496295,-0.35286807910758305,0.27766738277805114,-0.5183724371980869,0.7176404275009384,0.5862870665028773,-0.5498868540400167,0.7377699040707066,-0.46365425934303117,-0.7654535396055886,0.34167991256257607,1.0944040220673936,0.5582584242614947,0.33212979256005476,-0.12165479045916906,0.516819536722791,-0.1252366732596443,0.44202218596520937,0.8442919355203864,-0.2892220563488637,0.016566540484431742,1.087116951544393,0.40234208971348734,0.4807114643902233,0.36120778115867963,-0.61126381264743,-0.20430715713819247,-0.387326852862123,-1.1802406937277583,-0.3712752290195352,-0.6327972318863208,0.20840048694813448,-0.20308350156651692,-0.42621985246473554,0.9457968705814368,0.14569915631398075,-0.07200772350237156,0.05959187419747214,-0.02925082526210408,-0.46229637146467517,0.7881943361779292,0.06875446621681185,-0.11050578997821764,0.9101206438246883,0.6488854840049999,0.16526121582645673,-0.3935968658385363,-0.6442451539923378,-0.6163004806141548,0.9158132745050158,-0.5635213495961933,-0.5058719675113396,0.49422841765238423,0.10600523103844955,0.60807974621546,-0.9642128620221972,0.5443358203363341,1.1293559274528955,-0.016116687352962268,0.14915636712420582,0.486406753795377,-0.9129534324652873,0.932075754392862,-0.47913988564741755,0.2179918490083357,-0.45170414002821735,-0.2817303418259524,-0.03388599746023688,0.4273545420909216,-0.4647651830978248,-0.3709956154774114,0.09305665845166837,-0.13766227259010108,0.7192852883262969,-0.1606960990835699,1.53981983016576,-0.3387216270180425,-0.7751711692239505,-0.3882862967242915,0.48305528477156,0.597537972573621,-0.20361491048265148,-0.35129729948990984,0.11345113162939657,0.10567882271013046,-0.5817783294598886,0.2084319082711856,0.38557829982940506,0.2892378466059615,0.5682140582456169,-0.8303447873827412,-0.736242153720986,0.03803715773110584,0.2733809241159702,-0.23539512803163065,1.146559544686832,0.2467464808548432,0.578897552342121,-1.0125682805183036,-0.12665135032317482,-0.5167696919507261,-0.5630261941231165,-0.6042457417402131,-0.2751418138996684,-0.3056915525827656,0.3061030977539881,-0.1149328925961137,0.7231040377697175,-0.15506827623776379,0.03462528724077907,0.4912497443399105,1.324135173095306,-0.2850806186695543,-0.01507219143836786,1.1948825179131748,0.23949657226155877,-0.19583000256357344,0.3434642320119238,1.205964476920166,0.6188441009639994,0.24692706120085064,0.9354793514419429,0.5399266167592621,0.03283659328228536,0.2719346964898632,0.7814815107397886,0.100874990176341,0.841395270613351,-0.2019742327451758,-0.1334846152305799,1.1922394487890846,0.34382251945141884,0.8338712244534144,0.42021930785357803,-0.6893578443173349,-0.21757100094989418,0.7136197533391674,-0.6424045893520663,0.08464621152825964,-0.5393409291769491,-0.20318946031886356,-0.3803154132410863,0.15108687209310925,1.2049513135117758,-1.055477028486576,0.39723595577989407,0.474373339154235,0.1522283299140019,0.557543996351355,0.5647044720205119,0.408262381192854,0.23973873918114721,-0.4468176381729771,-0.02401363155867725,0.5280768509262596,-1.0398235030108043,-0.49790139526664823,0.6985026073352484,-0.6633030967704729,-0.33043979752292335,0.19994865982221835,-0.425841562357452,-0.0767247532250156,0.6011482952757062,-0.5514251830326279,0.5031219316147507,0.2873796668101765,0.02571371600259905,-0.24884503615433076,0.5576663573539711,-0.13449162703773132,0.8780591987800992,1.0517221225888724,-0.6455849088729868,0.9139458847577137,-0.6026071144671615,0.3987334369833898,0.24280044602225503,0.6429206639909416,-0.1908615644905357,-0.29112352831427774,-0.2565381711503202,-0.09050608317369059,0.23140601091480592,0.11682019621683598,0.24810048388978734,-0.22348060893693245,0.4705658003212893,-0.4645104707927763,-0.8821075233837237,0.22909129319754234,0.08595792937386504,-0.6484363633055075,0.15132930005315484,0.2639950776397165,0.2496127645601745,-0.34981757389241086,-0.9090783255586921,-0.6178285031884517,-0.24896446044722076,0.1577182932626298,0.5633919113723659,-0.0074531686257011814,0.6174072882702527,-0.022522509473916465,-0.3262792955836664,-0.04900407744142201,0.09225022922824373,-0.16463556641639987,-0.37365253902763645,0.9226799412572299,-1.4284864974184683,-0.016854023725177126,-1.0640543456225655,-0.11579846706958344,0.4704045784315517,-0.3298158625229949,-0.6026428802596007,-0.3479726179101771,0.09973632081065688,0.632443197679432,-0.9030134612583327,-0.8724947084345759,0.11618695386223239,-0.3611053552634584,0.8443149197351976,-1.337158348193925,0.04728639472081096,-0.14182181514145664,-0.9494115191243238,-0.16112334868880043,0.5876105393640273,0.7979440997674014,-0.1988812677642792,0.4220784821097273,-0.7998863254215335,-0.4546026961734225,-0.1709398713600464,-0.2542009342132187,0.8904736573454445,-0.16916638888910016,-0.4279246158746866,-0.044647200439435264,1.3749120426721706,-0.3422501038527037,-0.09619854088348281,1.3057798683492954,-0.006972280777588707,0.33687438864664604,-0.18302105289956438,1.1913622390583176,1.1305270514509265,0.0862542151715325,-0.9837938772234752,0.7890860515429405,0.6102504606273641,0.38310582200822574,0.9967562628149848,-0.0920669393453437,0.4471453488193289,-0.3385446394521804,0.3212567370810661,0.633838939812548,0.6736597302033358,0.4039300196286882,0.5671563584186484,0.14878471878703942,0.1959251174986434,-0.7146259451072795,0.6741412678088742,-0.1235304558246798,-0.2888108498742446,0.8308436711006875,-0.8081208059375953,-0.6577824248488288,1.492096437609005,0.270211683383499,0.22056113254738832,0.1574872928360108,0.007860216896497702,1.545587693475147,-0.7069192319252787,0.001030485778372684,-0.2138306608794621,0.43069777259738035,0.4405300479921499,0.2738121554165783,0.20786064524136022,-0.10352211403291972,-0.8711187366433945,-0.8515135195417203,1.1406202991203473,-0.44012092672819164,-0.15294714243850113,-0.41548522958428563,-0.2955664399967111,-0.7277443730299618,-0.31106635689242673,-0.10286587195662611,-0.29681185202658894,0.43062048926646,0.365248209057032,-0.8516688486146732,-0.01596595242448549,-1.2657117638539894,0.1864892427993955,-0.2784771474112541,-0.24644777611503255,-0.45892521668781017,0.8242944564139949,-0.46779599263654886,0.2747769473506915,-0.6168276672771328,0.21327471012125032,-0.17010699375812943,1.4554375080850885,1.13651716786751,0.8892324478980188,-0.37323842027512616,0.28008995760262695,0.37718254267066864,0.17478200689587642,1.4585367132227278,0.13718450930925669,-0.6740380264981567,0.09219238252728233,0.5232752206525747,0.5086230444369931,-0.6596258854680992,0.5017698783090732,0.858601694583284,0.7178067449618916,-0.11378988990506676,0.22128986864108632,1.2280672065409954,-0.12701286844201565,0.013471207891998632,-0.314693467241283,-0.24755902127906468,-0.27044737317627643,0.28979830632294007,0.21586509345532576,0.7654283923673112,-0.31431407464900263,-0.3366309942742722,0.691202166421467,-1.2796322749955338,-0.26722480275097044,0.13961445136864234,-0.24368305100393856,0.1950545804946674,0.6946111570498057,0.7036174812658241,-0.10190450395637818,-0.642117909137417,0.2454472515228928,-1.4251604603170231,-1.1649407272462386,-0.5370996948477574,-0.3665631113677371,-0.3956301711259889,0.33951156909155644,1.8236378350635682,2.04207566483608,0.34779389829066154,0.8822888345809204,-0.9326778258510091,-0.5674136116599953,-0.14433535437204123,0.353946293108591,0.6453078158028964,1.1356129341510335,0.19328807435356807,0.09778091110219103,-0.1697517691521822,-0.3043093549274313,-0.360470839880214,-1.0815064085672181,0.436689303287182,-0.24223009537161902,-0.01756063037710318,-0.08293943089465987,-1.4053028543633277,-0.7105338071061242,-0.03573187956529016,-0.6969945985377843,-0.2579753637253103,-0.3307353265846189,-0.17705385783663014,0.438148621343813,-1.5650568152067201,1.093246673965905,-0.4203234411771045,-1.0267766575689168,-0.07995584034580494,0.7861179816799225,-0.042855341227598515,0.29399154799775307,0.29832036320100297,-0.2845478331715853,-0.5876265534328841,0.3865487332435533,-0.6241304488507036,0.12337079714763374,0.060463230331372894,-0.0016124440383936363,0.011714298757357772,-0.2667401115027601,0.824963106799246,-0.7428744437582439,-0.4808086700526382,0.023078187791033742,-0.1955319418245273,-0.3404074222171292,-0.7876817179439263,0.009401478876355666,-0.3562025754040748,0.25666351062028603,-0.2435067558410431,-0.9986991338772158,-0.7131677041937858,0.6088120378758815,-1.1950908450896947,-1.1362945644274884,-0.3937741198904597,-0.9808638869502729,0.09935431984030829,0.04938413708895538,-0.04473607562613506,0.3570747771722506,-0.5343734878386668,-0.3832019282050344,-0.5744227085589486,-0.9729318635553572,0.03556974335551062,0.2379764338281094,0.7204600065868427,-0.37997075219812715,0.0193131096111727,-0.20666271662015853,0.616463629393844,0.10636843010176249,1.1150098134415891,0.048234907875457755,-0.6957297620676479,0.5308928091358349,-0.6796179621833647,-0.12341758657960197,-0.3303772603241754,0.23931708889643016,-0.0880243624774385,-0.7972201081223343,0.1337453142420759,-0.29326512888781947,-0.011194399889819939,0.4377471253354064,0.21301916295128812,-0.44670135869418126,0.3200981153705525,-0.3345470242189552,0.3940825439671564,-0.07278793108318779,0.3176998583057808,0.11109022737452659,-1.915122535231447,0.22538476306484692,-0.1782948281100939,0.1074912418581147,0.7764442902408802,0.24276652384492087,0.5940146228208547,-0.5405845933976839,0.14680209165413088,0.6006391390414692,-0.22131708761775173,-0.7874413271503267,-0.1882356868112454,-0.7144967434529296,0.25999283583350746,0.6799345925412947,-0.4609872180115409,-0.11845775217960648,0.3279571809785491,0.5014206357160752,-0.5048016865490392,0.36720958741158083,0.47573985498223353,0.13031565546214033,0.6543771540924234,0.760398544300604,0.13778913566452644,-0.48440992867411464,-0.8033622274111486,0.7403272679257854,-0.5878296659566323,-0.7347086086763476,-0.9431226125822989,0.9292935366643222,0.379906811055143,0.26990737328530573,-0.773045232239139,-0.009646500970616959,0.06847659014632128,0.352171064337054,-0.4703118084859974,-0.3978243481795712,0.3139490684335349,-0.2747614640713949,0.39697839429010523,-0.032502953486857285,0.3632765099832189,0.26795550759051084,1.0541769360292372,0.8570671641883846,1.1432552395879025,0.5230377955081824,-0.188293899997946,0.9401463425750359,-0.23666779642145747,-0.21347021718300266,0.22216914235542298,-0.4322644665450394,0.7399981546040784,-0.19193198626920205,-0.034600905715968834,0.1238073449355738,-0.0481188190415797,-0.3469255922581648,-0.17488924763390448,-0.894235314968669,-1.0224000446454196,-0.22039941051777576,-0.6175443223306892,0.705382210837012,-0.7091640112608012,0.5140970387634782,0.5058275456967637,-0.4158768612800091,1.0757151151182254,0.564117442637412,0.5853995527299918,-0.7660199212614022,0.5603320676905776,-0.2171026223793396,0.23216932704926885,1.1803790690576093,0.20569883307313688,-0.1258936307568175,-1.2045238682518284,0.5475849852298666,-0.5455679114246565,-0.5189635274654288,-0.9996195383242528,-0.14885421842353191,-0.0548931278271413,-0.908690033134131,-0.5975074236687099,-0.955940562689317,-0.6458709391495252,0.6690655119592858,-0.9069873901809975,0.06898037887048758,0.7173410846654786,-0.1441523330240844,-0.6679811478433296,0.10112181579704559,-0.5131940884005682,-0.11071556744549398,-0.35863303007786324,0.028301321246334412,-0.2220917439361874,0.3752817904142903,0.42995430756933556,-0.2687842850985598,-0.4264031064505368,-0.31177529436457,0.9708003756708086,0.7732602412526073,-0.10581431940402827,0.07661854538255279,-0.2641660182935571,-0.6051251717458366,-1.1681203356909409,0.5892575601824303,-1.2107393419879624,0.3315225715387793,-0.4648257950147544,0.06550536789494325,-0.41027837488558766,1.1603674209585093,-0.39987922840460116,0.0015743733242348295,0.6093985227006121,-0.6610807971817048,-0.3168176928947091,1.0042476367837323,0.4715125381595675,0.25694500044606544,-1.1711168102342906,-0.25103078692426456,-0.6978893693015111,-0.05365226013015175,0.9112360310931071,0.49359385325524413,0.6142625726308063,0.37153146096772366,0.31669270961482465,0.08885833591023803,-0.17878631331611558,0.2912621011863473,0.2746641898709976,0.49138261752864776,0.13457274627352295,0.9442740887802091,-0.349766576512221,-0.12040623565086685,-0.14131680299638053,-0.21393104188249149,-0.09152442595017977,0.6614516031770751,1.1199590172771923,0.2816251643238402,-0.9053186579320518,0.17665416686712623,-0.10640379712750146,0.07892240899353535,0.03691951727411272,0.37037788227911056,-0.3832220975291197,-0.9909453217614433,0.00977143178883288,0.14205470066400697,-0.10842541515714715,-0.17664569479497677,0.46001185331479677,0.8511238045635948,0.6563826800568582,-0.45267699238052456,0.4138996508266939,-0.8962633099765998,0.09019262999678639,0.20062269274294556,0.2173097574683658,0.21573987586763485,0.605749813453869,0.7487857605518929,-0.625838237983786,0.9269037463604838,-0.6188242995117199,0.8528956493730339,0.7595971856651299,-0.3233281739828442,0.36855435881327087,-0.8192491160678541,0.5026263843627299,-0.5519279517786402,-0.4369085180102053,-0.3076525588713242,-0.9204109795689127,0.166848858105755,-0.6257504103454752,0.49120942950476887,0.017268293471134337,0.022659662485721717],"fitness":12.336821833333332}