{"v":1,"inputs":13,"outputs":17,"arch":{"hiddens":[16,4],"bias":true,"activation":"TANH"},"weights":[0.006184637008835147,0.4375822942210382,-0.22774617242723494,-0.3381029976211543,-0.27682937158041104,-0.2937863729710709,-0.21592105587286523,-1.38427475067131,-0.6814588482098861,2.0351616257688585,0.02541614144434415,0.38797526400979787,-0.7915441918080574,-0.12212934938034851,-0.6182759177430459,0.7842623880938581,0.7565861634049595,0.9917038645017681,1.012749754197442,0.5733207908389928,-0.4995675600197314,1.0974550399805605,0.012788265109627384,-0.9850493583075075,-0.08129725553747133,0.07827926406528918,0.8948702939400094,0.6445521251567845,0.41755214568039734,-0.30130878185698706,0.5849469320432402,-0.3263248576486855,-0.3250069194598652,0.2041761455122821,-0.7246364314567105,-0.24546239157096839,-0.6021376787437436,-0.7112400640475743,0.3363217655775615,-0.37120732747806867,0.3729976721747878,-0.813771364354705,-0.09207212364332742,1.0518545150483989,-0.11524185307183334,0.3521126274258381,1.0782104203616567,-0.2687790388428138,0.44203399889789163,0.9135393216489772,0.7043352687430436,0.3173600481786022,-0.24151234751105347,-0.3531651308682795,-0.40158125664815086,0.11639043663512871,0.6434778456488829,0.24524974150538867,0.5269951299729192,-0.6320225992406575,0.1898980425764504,-0.05848576191652689,0.3860421568493491,-0.48860127122692465,-0.3954947814481068,-0.1785964641304356,-0.5800767142685757,-0.41712405674589825,0.21207854411983476,1.0262042983403024,1.5017195157817789,0.19155177451928224,0.2306220330981843,-0.22749748791276603,0.10906296256717013,0.289485373438358,-0.12314189586311987,1.3175666590943291,-0.992244765008512,-0.33493860757970023,-1.002010803083985,0.5225405842013501,-0.7390605808296286,0.5041195505710555,-0.3111222967176665,-0.11462642108576998,-0.3306216354523736,0.2715256747930155,-0.7923533802216652,-0.7204622536093581,0.04947802745893384,-0.3594890561166966,-0.3570330398176589,0.2783351415012977,1.3971920959197894,0.6101397708161315,0.6528059235793506,-0.33943610290002996,0.6542922068153662,-0.24796007729550426,-0.939438262057601,0.22091610705242373,0.4591674982281293,-1.3067142289591127,0.32109974971773125,-0.6088821828059195,0.641818524833135,0.30953110510233633,0.05783745965005743,-0.008140215859294798,0.47865967238749135,-1.048116582235858,-0.14016549426556976,0.20680832947028868,-0.03492613533851017,-0.14936198354820232,0.785331581780387,-0.730861845044549,-0.20305985388414863,0.20720367981819365,-0.8130470958686216,0.02815951742009518,-0.2157969654301536,-0.0008830044988749017,0.7883364804522821,0.023835295830180844,-0.06550445930269792,-0.10083170176125691,-1.3385394967395203,0.27769996199427993,0.8641754187115772,0.28960315245604146,-0.18386006901626273,-0.9367167831149603,-0.1816749270410511,0.003102006017513397,0.29352126814166507,-0.021378406051224024,0.43381752548187075,-0.11693786091660793,-0.029537383742354702,0.5734386914049981,0.21936100450330556,0.04493696903092746,1.1110525775986553,0.0777491679449137,-0.5463424766747846,-1.398245076823234,0.3075507446361325,0.6014677413018387,-0.6750089797810943,0.7420778439520428,-0.30665788941722205,0.01225143929715184,0.20113605133050408,-0.07934262438462576,0.3318942627357187,-1.134185678264192,-0.20339020834112,-0.4780450864872335,0.1277935960628093,-0.03428063821215116,1.6611238287363124,0.12698306064062231,0.8609584007498142,-1.0215731815848152,0.5180633845879538,0.12176261347893355,-1.392506876397701,0.869868602567281,-0.9798223418643859,-0.5377327995509368,0.17873162753103866,0.04928863973957142,0.16117472264152208,-0.2811097438204123,-0.08434888082618203,0.15986599916505193,0.06897831414382884,0.14988636237309613,0.36514664220832155,0.4672250567037421,-1.1850901765153663,0.1850250089263536,-0.7904903400089385,0.6228802926394698,-0.4137967723680088,0.5933474785203043,-0.9072437784738182,0.06946637840347805,1.180678908323714,0.8197179524340593,0.014334961220859749,0.5424911658941145,-0.2320333365921476,0.2747796041037849,-0.45727186700821804,0.08009939730800118,0.43716403923101005,-0.21636540164747603,1.2049372067936182,0.827845834652138,0.11891323064242441,0.3320437829646546,0.3238120064356577,-1.2580073719139186,0.9190459433396888,0.551042182525802,-0.8413147899489408,0.22349811051883517,-0.4245085092269158,-0.3487214343186324,0.9013761540850462,0.15596427788201822,-0.895968764206298,0.033579844381077584,0.7590374903345943,-0.18826806622611036,-1.0519449630489168,-0.06304610573998135,0.07984417869443607,0.039006706018199507,-1.4601826788469874,0.4971784170323539,-0.027110596160591232,-0.023000527708786644,0.3953217845786241,-0.40967997311224746,1.1139671808516538,0.0754919460483906,0.38960706907221365,-0.1535000437993124,-0.7359024087672313,-0.14890154699924252,-0.5936637068361237,0.23168267397049322,0.8165335594578941,0.04061676502372735,-0.17712977481879683,-0.91952705962777,1.2280948150974045,0.5284598533564177,-0.6328949386174018,0.25185154864909226,-0.47593275010168645,-0.11295145233955764,-0.5131532971261206,0.8198347867265293,-0.8305054644271758,-0.07833175358225017,-0.47550468557562164,0.9244144855951932,-0.14104095794948177,0.21998739514119067,0.39220018427793496,0.3105846949035666,0.43790124126688884,-1.0897708379469289,-0.534683197756924,-0.39002283409649324,-0.0970020898846471,-0.07938484520205803,0.4319962006654152,-0.4341659021325794,-0.11221702130511206,0.5800296117446869,0.5686171540930017,0.3963391450987304,0.6240519200490475,0.09945206682058268,0.6128909040455482,0.6175046163199663,-0.20484829896919377,0.03589036378255868,0.06215081387479456,-0.05918976343695645,-0.12459185801452714,0.14467448119487114,0.8483179298635145,0.33646578336673166,-1.2485368970103223,0.03884596117625085,0.27130903419808855,0.4379558144908041,-0.9010267348411316,0.39540241697347595,-0.13230744359966806,0.6685987559949793,-0.7445056944725481,-0.6017275809084435,-0.06812538913368797,-0.35011367173460567,0.7003752449012142,0.5677146432616573,0.27786758357946884,-0.4228538575751765,0.6294283028915044,0.13833965545383475,0.36165404279037505,-0.17114871646980126,0.13770396483360936,0.9616991596746978,-0.19818824207861988,-0.3638123986378568,-0.6908642356777015,-0.496142569920662,-0.33770862507017363,0.10124417269077525,-0.5697412733920255,0.2043011377912339,-0.28598608363536115,-1.5349450364206179,-1.1702044854748483,-0.7221577919834489,-0.41566181718814554,0.7295786911441733,-0.15590033966113628,-1.1848962339326319,-0.2276207934946642,-0.12452967000560114,0.09771695822311045,0.1083127804118874,0.4616947406267994,0.43064289059758226,1.091431805766676,1.1332722266054336,0.4959009384824086,-0.3952013448386898,-0.3351253004919469,-0.45004280382194345,-1.0338843870338978,-0.6248015880307742,-0.77259499131497,-0.10040330690446003,0.5082794960831853,0.965821993673841,-0.929446079033927,-0.021727745790962854,-0.19746847571939283,1.1455554693011107,0.9312610496049761,0.29105612181505963,-0.589729889146978,0.3599003078965795,0.12226666191697086,0.10592592940235178,-0.0600052386854809,-1.027676498855577,-0.3211865496512506,-0.5166356383676048,-0.49039510934219693,0.7365444665157699,-1.6511248715095979,0.051319508129611224,0.3267613437235942,-0.4472140555416229,-1.1799815099641864,-1.3192517015972425,-0.24696427631283321,0.2370584722941478,0.040814384042875664,-0.007782339246307877,-0.4325571700164665,1.426699243343455,0.5912379179800465,-0.04730638244269909,-0.3777954172976674,-0.1160465543017965,0.04973498190391799,-0.24000895543957868,0.08853123029272929,1.4082647831037396,0.21380360673905707,-0.07989324896042639,-0.16265564368361143,0.3674838979397695,-0.34281576445149814],"fitness":10.002805666666667}