{"v":1,"inputs":13,"outputs":17,"arch":{"hiddens":[16,24],"bias":true,"activation":"TANH"},"weights":[0.046434189181574714,0.3114809261352261,0.22994835641403105,0.9244550231532118,0.6970127908972145,-0.016110706576517225,0.17811939121542053,-1.131598521272231,0.9239653929061373,0.05360934187865474,0.6744401677823741,-0.020051137713460888,-0.15410624366241668,-0.11971296270640454,-0.16274569741633912,-0.7459437770151713,0.5297139400695468,-0.6463098358324363,-0.5516588857447311,-0.4321815693730476,-0.42364476534427115,0.7190750108845803,-0.17779264168698752,-0.08938060349161911,-0.6307399550274408,0.8999012051746146,-0.14518713645402243,-0.6202479127305188,-0.2946406746331285,-0.17693463670542187,0.9878041987701063,-1.007189437023008,-0.41355045500101095,-0.25464607538918294,0.033642696951558304,-0.4099418595013318,0.5408228968531578,0.2689164998980056,0.35078070565851194,0.38005656503905777,-0.8052169025399483,-0.9600987315923349,-1.031340783365261,-0.297820202356709,-0.21717587492998056,0.2928361252163494,1.3130417533044256,0.2786203682448145,-0.04429384715515151,-0.5129402702259174,0.37972145538573404,0.4140333101563821,0.9164806299426251,0.494286730701798,-0.6299054467717496,1.4889683580347413,-0.07916077205188048,0.29547632036953664,-0.6553451484596186,0.16585995304268364,-0.32823773928321,0.599478158374283,-0.4615505288395621,0.3285755183107447,0.0005604759741684198,-0.385353472389015,2.0721200746418,0.08751845968407561,-0.021329401824445426,-0.37874723100758556,0.3797264870669883,-0.09421954675730342,-0.2800417119766542,0.46563814853684105,0.2542526504253653,0.8017012986990448,-0.017476940736623574,0.41273097802062303,-0.7009265491531028,0.630387998247437,-0.06223672406970458,0.21577569471729946,0.20700321582544157,1.3329446368060016,-0.5805462856266803,-0.14807833404966053,0.9304415123094688,0.1530296160194472,0.08398917405136862,0.43007790530453066,-0.22051050058406568,-0.19102197446546235,0.23599581767824562,0.34525354336962283,0.42696968073643765,0.1830122567789212,-0.1715202009294901,0.4624845472651796,-0.11819418054174832,0.486971893046187,0.3322577141096171,0.22959222403091192,-0.8545503787058716,0.2846780541726823,-1.1513900789972795,-1.6143985562461005,-0.7559712679754758,-0.14480233901259387,0.4074316602804201,0.08932150978467386,0.03127799582375266,-0.6387774843115139,0.6897707841044883,0.3038320463195527,-0.06840202085754277,0.06597695434380095,0.4666959636167315,-0.11283936308653508,-1.0384269824957157,-0.7704385071650887,-0.7088131024806018,-0.3215545509199472,-0.13240037351621575,0.8734701283067794,0.24903161613790245,0.6479834106687312,0.7252605467314547,0.5654996097755548,0.22880444649134593,0.5521568896631162,-0.34452610108536885,-0.14878035985064572,0.06377328349559722,0.9298974388784755,0.7424688398475908,-0.08420678893362665,0.26543835034505114,-0.07244251790978795,0.364833191179394,1.2897787294766467,0.7362755214174849,-0.17636507343198754,-0.3316365043393466,-1.8793715104487834,0.32281906141767397,0.1640263861507112,-0.595667871220747,-0.24211637391894705,0.006184637008835147,0.4375822942210382,-0.22774617242723494,-0.3381029976211543,0.14686091759533615,-0.2937863729710709,-0.30472551917303325,-1.3672340641800873,-0.6814588482098861,1.7060022547653717,0.02541614144434415,0.38797526400979787,-0.7915441918080574,-0.12212934938034851,-0.6182759177430459,1.2211014162657103,0.7565861634049595,0.8606595135305458,1.1172025836351005,0.5733207908389928,-0.4995675600197314,1.0974550399805605,-0.0634814409684997,-0.9850493583075075,-0.7392324711818862,0.07827926406528918,0.8948702939400094,0.6445521251567845,0.41755214568039734,-0.30130878185698706,0.5849469320432402,-0.3263248576486855,-0.36848471220528584,0.9883588832651616,-0.3828645209727017,-0.24546239157096839,-0.6021376787437436,-1.3387945522440605,0.3125788161285106,-0.37120732747806867,0.3729976721747878,-1.044524632340125,0.7142351279515733,1.3198189378427299,-0.11524185307183334,0.3521126274258381,1.0782104203616567,-0.2687790388428138,0.44203399889789163,0.5683144836631184,0.7043352687430436,0.3173600481786022,-0.19152384702097242,-0.11489664205372738,-0.7834781966822273,0.11639043663512871,0.6434778456488829,-0.004133217719439419,0.5403152409344828,-0.7169155823298768,0.1898980425764504,-0.05848576191652689,0.3860421568493491,-0.48860127122692465,-0.3181199604651741,-0.1785964641304356,-0.5800767142685757,-0.3069442848878916,-0.04117342171254365,0.8854801356952322,1.5017195157817789,0.19155177451928224,0.2306220330981843,-0.020014276213158096,0.10906296256717013,0.289485373438358,-0.12314189586311987,1.3175666590943291,-0.992244765008512,-0.11866540545280778,-1.002010803083985,0.5225405842013501,-0.7390605808296286,0.5041195505710555,-0.3111222967176665,-0.11462642108576998,-0.06096184963092781,0.2715256747930155,-0.7923533802216652,-0.7204622536093581,0.0389319884194574,-0.45748416400525804,-0.3570330398176589,0.2783351415012977,1.2719058193346027,0.6101397708161315,0.6528059235793506,-0.33943610290002996,1.2601587855318082,-0.24796007729550426,-0.939438262057601,0.22091610705242373,0.4591674982281293,-0.9672531802462881,0.026099029976373124,-0.8254241479041734,0.11141376274953141,0.49947335212111343,0.05783745965005743,-0.008140215859294798,0.47865967238749135,-1.048116582235858,-0.1733799061601626,-0.17548303814368835,-0.03492613533851017,-0.010418611464887201,0.785331581780387,-0.791396438803299,0.07829928897795638,0.13859279925692292,-0.8130470958686216,-0.17756305987303658,-0.33929630827035756,-0.0008830044988749017,0.7883364804522821,-0.4532573784097229,-0.06550445930269792,-0.25589078903616796,-1.3385394967395203,0.27769996199427993,0.8641754187115772,0.28960315245604146,-0.2462843258663171,-0.9367167831149603,-0.16174723664075596,0.04951367654184394,-0.12147391829749965,-0.021378406051224024,0.43381752548187075,-0.11693786091660793,-0.029537383742354702,0.5734386914049981,0.21936100450330556,0.04493696903092746,1.1110525775986553,-0.18166946090442182,-0.5463424766747846,-1.398245076823234,0.3075507446361325,0.3034965355094053,-0.3018000066786905,0.880322823176652,-0.30665788941722205,0.01225143929715184,0.20113605133050408,-0.07934262438462576,-0.15829419341339118,-1.330798689821487,-0.1725399952711814,-0.4780450864872335,-0.013740274077316206,-0.03428063821215116,1.8621639366439677,0.12698306064062231,0.8609584007498142,-1.0215731815848152,-0.025668083113685625,0.12176261347893355,-1.0559090061238925,0.9565404985831157,-0.9798223418643859,-0.5377327995509368,0.17314048661866782,0.04928863973957142,0.16117472264152208,-0.2811097438204123,-0.40056030544751664,0.15986599916505193,0.06897831414382884,-0.24267958333618297,0.36514664220832155,0.4672250567037421,-1.1850901765153663,0.1850250089263536,-0.7904903400089385,0.6228802926394698,-0.4137967723680088,0.5933474785203043,-0.9072437784738182,-0.037330821382848614,1.180678908323714,0.9146306591600197,0.0851594596757448,0.2726919716617812,-0.2320333365921476,0.2747796041037849,0.31639700437093854,0.08009939730800118,0.41196992244241915,0.10447964372196616,1.2049372067936182,0.827845834652138,0.11891323064242441,0.3320437829646546,0.3238120064356577,-1.2580073719139186,1.2919555287632016,0.31691198685261934,-0.8413147899489408,0.22349811051883517,-0.3694012452743588,-0.5419273878349162,0.9013761540850462,-0.15264243855873372,-0.7196154085527857,0.033579844381077584,0.5731444170734367,-0.10664786302287284,-1.0519449630489168,0.20331269012867356,-0.2919978029634482,-0.22096029990003707,-1.4601826788469874,0.4971784170323539,-0.027110596160591232,-0.023000527708786644,0.5753355708715755,-0.5119387841923515,1.2804608575098866,-0.2087789941659638,0.3911569452531477,-0.1535000437993124,-0.8640963587279529,-0.0045806115750843535,-0.5936637068361237,0.5521942625016574,0.8165335594578941,0.04061676502372735,-0.17712977481879683,-0.91952705962777,1.4188099042770554,0.5284598533564177,-0.31567081445686873,0.6119633687173849,-0.47593275010168645,-0.11295145233955764,-0.656593978162257,0.8198347867265293,-0.8305054644271758,-0.07833175358225017,-0.47550468557562164,0.7368402270106097,-0.14104095794948177,0.21998739514119067,0.39220018427793496,0.8377375262111748,0.43790124126688884,-1.0897708379469289,-0.5755243691955241,-0.39002283409649324,-0.0970020898846471,-0.07938484520205803,1.5342510362152275,-0.4341659021325794,0.15874583721954272,0.41023649020173514,0.4234102165671284,0.3963391450987304,0.6240519200490475,0.09945206682058268,0.6128909040455482,0.6175046163199663,-0.20484829896919377,0.03589036378255868,0.321595075505695,-0.05918976343695645,-0.21759981712106316,0.20410716466159037,0.8483179298635145,0.33646578336673166,-1.1535128960374728,0.10871106308190745,0.27130903419808855,0.5318542881396707,0.0606707638990992,0.39540241697347595,-0.13230744359966806,0.6685987559949793,-0.7445056944725481,-0.6017275809084435,-0.06812538913368797,-0.28112766191017724,0.5872927075471498,0.5677146432616573,0.27786758357946884,-0.4228538575751765,0.6294283028915044,0.13833965545383475,0.24827966471452423,-0.17114871646980126,0.08341056788893243,0.9616991596746978,-0.43016369630670614,-0.3854194826487573,-0.6908642356777015,-0.496142569920662,-0.33770862507017363,0.10124417269077525,-0.5697412733920255,0.2043011377912339,0.23586434888541807,-1.5349450364206179,-1.1702044854748483,-0.7221577919834489,-0.055146709538268834,0.7295786911441733,-0.15590033966113628,-1.2412662976224242,-0.2276207934946642,0.19698654263123108,0.09771695822311045,0.1083127804118874,0.4616947406267994,0.43064289059758226,1.091431805766676,1.1332722266054336,0.23284897039180574,-0.7860565730753619,-0.3351253004919469,-0.45004280382194345,-1.0338843870338978,-0.6248015880307742,-0.6177150593189434,-0.10040330690446003,0.5082794960831853,0.965821993673841,-0.929446079033927,-0.021727745790962854,-0.19746847571939283,1.1455554693011107,0.9312610496049761,0.4548541362919224,-0.589729889146978,0.3599003078965795,0.09964792192222399,0.10592592940235178,-0.0600052386854809,-1.027676498855577,-0.3211865496512506,0.031476532488395687,-0.767747678299143,0.7365444665157699,-1.6511248715095979,0.051319508129611224,0.3267613437235942,-0.7629573511761008,-1.1799815099641864,-1.3192517015972425,-0.24696427631283321,0.2370584722941478,0.2775310279660993,-0.007782339246307877,-0.49404525122961984,1.426699243343455,0.7682112167764757,-0.03065104180838228,-0.3777954172976674,-0.1830616807085675,0.04973498190391799,-0.24000895543957868,0.08853123029272929,0.9854614851686841,0.21380360673905707,-0.19667956882627374,-0.7134930507727762,0.3674838979397695,-0.34281576445149814,0.5814780344045635,-0.5489794399906102,-0.45354564960370664,-0.4718690793765533,-0.620816237507125,0.3245851922135875,-0.366040948679536,0.048950935077091834,-0.9652703636350946,0.4563067699440603,-0.5374197388887662,-0.6573771816059846,-0.5878240636339872,0.2542027896008366,1.24706940652265,0.7073360196348842,0.07294469349222742,-0.822979465638088,0.40307312504314124,0.5427232731983969,-0.3617626593536822,-0.4015091357593019,1.1611243794394386,-0.2674044541938959,0.40636511531624037,-0.6263682720904534,-0.33394296391426853,-0.6114148899701712,-0.45704082066325596,-0.34383946836976914,0.0266046572102078,-0.6511231563284511,-1.726934258550174,-1.1926563307047262,-0.5317741415877445,0.7444309734590839,-0.6020602623156599,0.12582157578026162,-0.8549178358588766,0.08183480176818209,0.19418999080659927,0.21282137914045438,-0.11268032210666575,0.4034507356007102,-0.23002750840962624,-0.3364731651803062,0.5535906426454192,0.06302657701345105,-0.9495068712381282,1.287030091999103,-0.7950333266342062,-0.7424850794752499,0.23826551524904713,0.5347679138515191,0.653612234429828,0.2273865632475583,0.3961602174556117,-0.3543874676956283,0.22741787619602483,1.7663432706304263,-0.9061421821392601,0.6612272636621614,-0.556085170241239,0.47750870573344395,-0.3802030564598931,0.4369914036265017,0.16161441897822826,0.14817872960888098,-0.25975258809734714,0.8139828231027246,0.08443502029101821,-0.24108995997200244,0.084733672124678,1.0932823287590367,-0.28471845310863575,0.7693991043740618,0.14532177912168603,-0.24139845098605134,0.9283855489611509,0.03235473897039435,-1.0936591831920441,0.10538267634407285,-0.23206152938978905,0.4772059913085691,0.3867101222487039,0.5221918199285428,0.476915888291585,-1.1289437767554975,-0.04104523614595406,-0.7275410797329718,0.3178969033227215,0.6305798593515971,-0.7856153057663289,0.24209626083426816,-0.2036286493112075,0.924965060415692,0.3667231116635506,-0.10162041158222555,-0.5580112257150407,-0.36358843465635327,0.17760555032143252,0.725689020619415,-0.4595955929930708,-0.4052908597152475,-1.0419870411814114,-0.2834740858356448,0.32344405804873083,-1.4929882374292436,-0.16321332379535566,0.5550495243862701,1.032650142041586,-0.36869928144757913,-0.6833841020072984,0.5415620743251731,-0.9360342211358972,-0.1270285361235768,-0.10450592926833056,-0.8919467755186105,-0.36584033218914597,-0.14307801492816333,-0.5035485935500502,0.2776264547892317,-0.16172004986353666,-0.37780977591413534,0.834524841999252,0.9292267522649202,-0.24472529427838907,0.807422401798969,-0.13177366363420806,0.11808233234438913,-0.13482072903127715,0.529472570281206,-0.08373009151889205,0.6219719613121976,-0.42831747162018213,0.05786098833365633,-0.09375178183329358,0.051380111028225546,-0.31141586341830996,-0.12127350433832362,0.9141758442422996,1.0491457265734327,0.48396190480711393,0.6145650130777587,0.2060041261909429,0.07839286074896967,-0.3218004492862357,0.28779379113077097,0.3816564819142712,0.8391860897608693,-0.7567578142902986,-0.3923669159743424,1.0347003675980497,0.3321883702113877,-0.3428028477238737,-0.22835789326764055,0.3553016417897445,1.0472497283211706,-0.4004683510858462,-0.9335015456539136,0.3176790097711007,0.5624772549919261,-0.034199435090928786,0.30048091963284557,-0.42949316707277047,-0.4391947648068606,0.3211594891729638,-0.7378045482741353,0.055320543183938295,-0.9874105268519766,0.32316706506302756,0.13092763347750636,0.8321909477327191,1.5898658689620564,-1.3768215708240443,-0.48206939958686795,0.5204111291410909,-0.08643651565207455,1.1343853045203558,-0.2134111904592994,0.1837045217162519,0.3294057420414784,-0.33655666231420694,-0.30918403502492875,1.2057172163879968,-0.14469458605567717,-0.7742274321079555,0.7029777950813635,0.7898146369469238,-0.6573122177416015,0.5781152896849362,0.6209498486006468,-0.21200869456312932,1.4749541615269675,-0.45214120819204134,0.5246186423104668,0.13589137221549524,-0.7192194736646776,-0.7803282724468757,-1.3170971013365402,0.6081601071312295,-0.9351293780146062,-0.16485363018441748,-0.07211282079302017,0.36178899707699436,-0.00395269797059442,0.9081817469021292,-0.2908234021263414,0.21694728046546893,-0.1202539416600094,-0.6555026120550059,0.1295725414097478,0.5290105780204406,-0.2962888721992206,0.3136959206211935,-0.5394783474186177,0.9939132662864213,0.88493404170683,0.006085076536448394,0.08486063261138702,-0.27728718312759065,1.0381878032427008,0.2569044594165612,-0.7692766496454798,-0.34924380098098984,0.43706101941884556,0.487349518464279,-0.8435249917167408,-0.08828452690057745,-0.2739726048893164,-1.2529687528771352,1.3711842618381487,-0.10517055801583809,-1.0501966694425358,-0.055806114371778015,0.32533902123595787,0.4363761739128938,0.6499340733380656,0.2972634188185922,0.5475443930714946,-1.4272245269122084,0.2801150485861884,-0.3943620635674865,0.06580325953470498,-0.8847018007352924,-1.1083071564368416,-1.0093523847802706,1.5331200072933517,-0.2003143162386412,-0.8138757723480733,-0.8126137927352441,-0.5757434223406972,0.07159742437477312,-0.2649197685708427,-0.5166748228698537,0.6938392647765492,0.53771613624862,1.1285672732442096,-0.9657752774235483,-0.4657496316206477,-0.585670698952695,0.0764240509418879,-0.05201516311874084,0.9768241195657215,-0.11416900372673808,-0.7276816900510004,0.5515859599940026,0.655497846820914,0.9549249795478818,1.019944682455326,-0.03983384444203247,-0.42881078516446813,-0.47698168114725575,0.22116785015144433,0.6171275581841728,-1.0195907987019708,0.19168408220472286,0.008410284742985774,-0.29729328039798675,0.182141144780804,0.44715796708432215,-0.11542791236274674,-0.9656734716725446,-1.0288971268048221,-0.42556468823498816,-1.8259058246272908,0.5093872463887199,0.9190134414888753,-0.6861529631562954,0.937796756453845,-0.5706749848241031,-0.19257152576424394,-0.10567070037624775,0.12884099469425273,0.7752060712870604,-0.7987090698065143,-0.44993111854425516,-0.16033716327441958,-0.3714631852424704,-0.7781377018243842,-1.035146662775742,-0.12241035682661813,-0.19496037238703778,0.5631358463356322,0.22495570772297888,-1.710716461526791,-0.2131306644204887,-1.1091172230676043,0.33351291043992337,0.4077957368280486,1.523130590317278,0.5584833019739802,0.0386430109216931,-0.49141092602172903,0.15726637108259708,0.9018650020884761,-0.4810802465185847,-0.5593870808750729,-0.3712118096485914,-1.3436843667558604,1.6109699501693637,-0.2541773781494833,0.2973587641934672,0.5781243894007104,0.2693064046466188,-0.19745366498473185,-0.5155683877549575,-0.14270937590117339,-0.16999528612091527,0.8295999435472734,0.3263154061598925,-0.2799170510473125,0.6278553407426127,-0.47813952137602916,0.6630068376275687,-0.2280019098191043,0.854572681032029,-0.2705686835759512,-0.5993558340074312,0.7684395084732873,0.20250711893402157,0.11980040164694962,-0.3070956636447551,-0.6488106752063957,0.31278179707724385,-0.250968684149228,-0.013520355991263736,0.7397978648801096,-0.702667943657771,-0.2111340451637413,0.8055085454450793,0.03183715150716904,-0.4594708196605185,1.061323480528964,-0.5774994860543142,-0.46292082517485206,-0.21466720367356504,0.8877636998155298,-0.5282432475305612,-0.5088512494745916,-0.2415373850200138,0.24875948891519173,-0.11389455926800132,1.0920422299917216,-0.1463661327133951,0.3324682386317485,-0.717327387558055,0.11895204552669024,0.39117003806851747,-0.5699638392207222,0.5118577904547822,-0.9372894401547037,-1.3771259159409546,0.12825507656014767,-0.16047064933561142,-0.5771249812886681,0.6714791968942692,0.004604528985596071,0.7875753513214584,1.4689855926979412,0.06883313862943008,0.2897868665994909,0.1348128218306137,-0.41950719310122236,0.46489936119758013,-0.22972852435317398,-0.8248902446779537,0.020140637922978034,0.011019720130251973,0.16787148279033556,0.017188883340944885,0.6027986620715564,-0.3203983898579191,-0.1143316993268404,-0.22577878054321465,-0.7377164787557285,-0.4435795869802715,-0.321040026312874,-0.1309673829168255,0.21421163031681856,-0.30169408711300666,0.8773609264399306,-0.2230283156183192,0.4554668300861665,0.8869622267068411,0.626081701824956,0.07809462480126535,0.3276611720624209,0.16228492224407673,-0.012430705795440634,-0.7242211245482116,0.46093696036890885,0.10723710878368337,-0.4858730729519607,0.6895064314065189,0.3660348188565488,1.480363961167065,-0.9286045133804663,1.260263727210656,-0.826693106671741,-0.2864916646926441,1.2866013717114744,-1.6836439382821577,0.5440505598018703,0.5592116410987024,0.2883359444538655,-1.0496795141059554,-1.1368512946848732,0.6755485773425666,-0.4746563367957113,-1.1689199918534339,0.24151881967915395,-0.09449871097485464,-0.2769207116750798,0.7885931171103991,0.1613973277447903,-0.6262350988093973,0.010364776674438246,-0.19008822375172457,-0.36316881833847975,0.7325047454889292,0.329255873032293,0.1049273884618152,-0.38953089617999326,0.06826993677916249,0.4473129455297906,0.7385082689244461,-0.1525414683716337,-0.32723413551893815,-0.398248742470107,0.8196431255223894,-0.788519390597497,0.39669953373363354,0.0660080744123069,0.2321526803616265,0.4379079889597111,0.06380646911616178,-0.17709955886040463,0.2354103954278094,0.11213959115655527,0.46071350853074977,0.7452420364016138,-1.1677943086008966,-0.638192575156479,0.4312882786359172,-0.704591733744217,-1.074588434674422,0.5630109383269752,0.7825729425337632,-0.1745356365357083,-0.4192007804928643,1.3329088206838298,0.9496847868667198,0.12116027954396828,-0.5244166973840505,0.011355503846000344,0.7181118819075506,0.018526040569756236,0.3978726024617097,1.194741455470729,0.44503745046868415,0.5886359383009461,0.10889886861503682,0.2611572225017292,-0.41302191571188385,0.4696210184523187,0.7023932587862046,-0.12587879843324754,-0.8651798194157315,-0.11308236139500631,-1.1122046734762259,0.27101201448330414,0.09116758783421584,-0.03901887388085991,-1.0922947007157913,0.9263437100423226,0.1242446878762033,-0.5411923097656816,0.7621131095964004,-0.8293712081376703,-0.9655065627946474,-0.5198142445234282,0.05753443775244992,-0.2977250750649744,-0.1133745954638199,1.415516677829242,0.7190452028386848,0.07383073943522898,-1.08323198878418,0.29630330631982726,-0.3576993879232063,0.16350394299884793,-1.0476579906532844,-1.1468150261859793,-1.1987762336119037,0.8318018676285467,0.355308313734125,-0.6799318070428518,0.043616896156885396,1.4280593026687791,0.24995895005814717,-0.5521242316560928,-0.41962126527604765,0.06028000128722159,-0.04153857390020744,-0.4016080129377299,0.3472173522550503,-0.2085167037201548,-0.22674361794809433,0.7057301953564424,-0.11900421257128016,-0.39563406420273123],"fitness":0.83349}