{"v":1,"inputs":13,"outputs":17,"arch":{"hiddens":[16,32],"bias":true,"activation":"TANH"},"weights":[0.8420623109997741,0.11978805073617038,0.28278387837794233,0.06231940962945026,0.473723050126057,-0.34632040711032636,1.0032558693750766,-0.07602119089825955,0.3492640920264772,-1.2681389362790532,0.29351797002996854,2.0359276183342585,-0.5210931092383145,-0.27787184460442643,0.020442130243841016,0.3807073613973331,-0.870865581332733,0.31498706068690546,-0.14474232816379365,-0.9310479826938829,-0.5476785169565911,0.38563064505709344,-0.15571929711694818,-0.2034721261709927,-0.008524985242787952,0.025370524182864094,0.615716344959874,0.91881875611177,-0.7356479969844104,-0.3029464857175762,-0.17367112758188094,1.069760461987619,-0.46549682668136483,0.6079982392738993,0.3079557704968381,0.5144318691566536,-0.629200016491924,-1.3648764908582927,0.3772627559528778,-0.28031895482191893,0.8103353157326519,0.10651817286365395,-0.031686280892484396,-0.5349320362652746,0.3097874916111648,-0.48919043564284276,0.04681952381441106,0.18902661646292307,-0.5588241931038624,-0.06856227517836905,-0.3170727179666536,-0.4900680736525787,-0.25581874461900483,-0.6188325538792193,-0.9940476928226605,0.5862333648127568,1.1239339847908754,-0.6732595291107406,0.5079255532562515,-0.39403150742123955,-0.12922428447756906,-0.13558631941682908,-0.1675519693399892,-0.846732814613119,-0.22879883749631952,-0.7387635326152808,-0.010732599270269372,-0.4806229849939683,0.37139171415583994,0.39199380286826885,-0.571565719291182,-0.5054168835365368,-0.0012322238241131867,0.06889864173587448,-0.5338706544177012,-0.6320488732088442,-0.25146881399189264,0.16222254950288661,0.2554284473888241,0.6540073433482946,0.1946101771715101,-0.6016973488430969,0.9882231056555184,-0.12111719562444061,0.10760756110977188,-0.6931788138242568,0.2514247938573081,0.6288358854242821,0.16796881978304692,0.5315660261046191,-0.9436429292861241,-0.083670986412292,-0.008198722801496942,-0.3255330974568798,0.4957380132527546,0.29871151059430384,0.6648145297393334,-0.06571975820907706,-0.11929449265018084,0.1165696937143203,-0.3127181162773756,-0.0746321834296858,-0.6524389303506845,0.6647040636288398,-0.6525299016336918,-0.42087031697519245,0.21612332609880042,-0.5536555924707828,-0.1892053401481808,0.32896494022192974,0.16344742524378414,-0.9194188403542275,-0.41625970327822515,-0.25553275024612093,-0.4758666301767084,0.1665528584876398,0.13118185447331476,-0.43757594470063305,-0.5317521658698341,0.3124157871690368,0.43384483342842334,0.5616278632368928,-0.3625276635866361,-0.02602179713011523,0.27395536375335433,-0.4419549776069389,-0.7099429609653052,-0.6282761324852643,-0.6821231572596966,0.19298446696220029,-0.4138269609962504,0.26854714331277013,1.1596128727670576,0.9816816721151538,-0.017402088180157455,-0.08559175434629555,-0.7343715667250369,0.34052620517899396,0.3445902631524799,0.8135812148456585,-0.4281862043420801,0.5002753031668875,-0.5636838469311664,-0.2230563888848723,0.09236526827569018,0.6980193943397587,1.723296932945994,-0.3016289308782738,0.03743894631917394,0.2581574024938686,-0.8081168227376226,0.036494494238505926,0.10341691468187875,0.4640729273269667,-0.7593873127078641,-0.4741612722595137,0.29665030074435433,1.4104886885837626,-0.6298571694517817,0.09729521120669553,0.11571515874361465,-0.873844169187667,-0.6939490732466826,-0.3530115548217978,1.1281977072062348,0.971638344749247,-0.15697648755652063,-0.2850488148289915,0.40741569323700244,0.21987326745151142,-0.02345729774100549,-1.1622565201949713,-0.5487101226831594,0.43058979712696394,0.006563997370962252,1.191335270521598,0.028111844038620496,-0.39085235176218286,1.0333872858002098,-0.7201390952534261,0.14841670147091354,-0.8604409708141773,-0.08127193137374765,-0.7329173407805026,-0.31232814330588166,-0.5813241626113723,-0.2800327730083334,-0.7869048694928908,-0.1942755149385564,0.4412171586612859,-0.2851324053509595,-0.2969620116843322,0.09470639431201232,-0.32536897808413984,1.2211843882426372,0.20720526040261605,0.652297253876284,0.8815746353092239,0.25669858138449997,-0.7990445819745239,-0.08598658583463849,0.8295599965720256,-0.18404222949787827,1.580901046155063,0.9246972062635802,0.29504605906862186,0.5540800797115581,-0.24138104522251536,-0.45952414854546497,0.9525114461871027,-0.11134802303244414,-0.9240127210743012,0.4996334131226457,0.10650648515947737,0.16007367047701507,0.5524777197314715,-0.0056208138136816365,-0.23628997232152354,0.6376577971373398,-0.22458022070941902,0.2914751328901419,0.32126876246756386,0.2806005063213321,0.4177957055255677,0.4021483865545076,-0.6592125568546974,1.0313189195686507,-1.1062899603609697,-0.11568412846870882,-0.3336998753213685,0.42985526529074897,0.9050798535231361,0.5842093191607097,-0.6256931838174988,0.3748995595821412,-0.4167142995566775,-0.0652450038601707,0.6740993175830408,-0.6056763968699617,-0.6647344166497701,-0.20000504242122816,-0.4959117402562814,-0.5887458554880591,-0.6241425939090047,1.0918902456205801,0.45263545731520294,0.8362594742065895,-0.16325435761853585,-0.13990806257655827,-0.46317325916292035,0.213228569311818,0.046738131294270804,-0.8616848505662511,-0.4732512709370495,-0.5573900510669421,0.6972066071258265,-0.6087372115033618,-0.48983611857723464,-0.8038141181741321,-1.4251501136202305,-0.5286677567607827,0.4289852074054358,0.8318604656392138,0.24098665415789916,0.18329151187971118,0.10440784285340632,-0.20879436122931416,0.9839883816523014,-0.0853536961825573,-0.3947954405925553,0.4543210084337773,-0.18123424437617333,-1.5236670117017141,0.5094220301526569,-1.0516883744140992,0.2760761078490918,0.22562672227606917,0.5617332428166475,0.6130462627529486,0.22228148223870464,-0.8516665861677709,0.9236981539403551,-0.18754700992673934,0.2704833334350025,0.12679605903085372,-0.2226403445150539,-0.7307593160943937,0.6708276963778266,-0.46594764816775613,-0.13754319186637404,-1.1758474478070668,-0.267920793941163,-0.19087391931296077,0.5673198177577299,-0.2519908253097512,0.3985222918660376,0.9638870050430266,0.5044946159942784,-0.16535282551432182,0.31594845347148354,-0.3067865799154318,0.04083322022422819,0.5311334968158621,0.004677522848803937,0.3176781811206581,-0.5948566668841075,-0.3814115557849354,-0.2101333686307134,-0.3020803746048583,0.051081189952433166,-1.4665308416200733,0.01724966327721267,0.3481315972043005,-0.4983094865835383,-0.5557239630229602,0.173231450088959,-0.13289372164636293,1.0702680454855507,0.2109320978465526,-0.45161644336328466,0.25028166584597833,0.3916575264488133,-0.35289206303039217,-0.5054636228522472,0.7855875290472905,0.6856945963570115,-0.6775190476730969,0.11398120257407238,0.26795535450403307,0.25572415198536647,0.6734183559285646,-0.906900972928194,-0.29580805916047614,0.012525085374562086,0.2590209064623541,-0.8727226265340424,-0.47945950084908334,1.0622522050395893,0.18073024879069022,-0.5953800498717332,0.9230592974153122,-0.8298030365164362,0.4435208357350037,-0.5872508173742372,0.17527442578949526,-0.30393258411085605,-0.18789789914683191,-0.13567541645995765,-0.6222151055125279,0.4766431128948733,0.6730832798380172,0.08031077336574502,0.21027905784863768,1.163772904051989,-0.3555233581796005,0.43243507431579853,1.0876954591557269,-0.7637547431877527,0.15863590639108713,-0.5275135180394845,-0.21152604346641699,-1.1383846558160913,0.344978104752357,-0.157948805616724,1.0766064516794958,0.8596400313564323,-0.07128695054071457,-0.4155822423586604,-0.21350227536386968,-0.119103257039961,-0.72686005871547,0.12623037521957683,-0.7171518699630204,-0.04453229933716951,-0.814354786564711,0.4070197625030469,-0.3095156985278981,0.345782749369091,0.7279899636621378,-1.2097320803431524,-0.5646501168103708,-0.15915165424458916,0.5736437107062927,-0.3857003256406811,0.26106878418853596,-0.4849637940756753,-0.9833479150881049,0.3167271887872768,0.019859863041873548,1.0393228278460644,-0.9189867448423481,-1.1074410265496912,0.36668507792262933,0.8937034154090806,0.4608306045522377,-0.32486507475422105,-0.8586309361291653,-0.43640239735383846,0.48100364853301686,-0.17957302133245626,-0.4084843951792392,0.2856293744386295,-0.006269552724153193,-0.33754133463868274,0.15784079680019722,-0.962209584418693,-0.18578032670406472,-0.07200996545578424,-0.4975362616970113,-1.436490991042909,-0.15065433720697952,1.2374994374321135,-0.2786973710127588,-0.24716755128639845,0.7660837128302821,-0.27083384967914537,0.4601100279767554,0.23796887611541342,-0.3316103635443703,0.6818854769528959,-0.3527112485730678,-0.2632335439498758,-0.14608441303833142,0.5463048447341239,-0.6784917678380855,0.401807464385327,-0.5025616267201735,-1.1795456744350892,0.4480689674343905,0.16277776613205144,-0.027191722710056085,-0.6107736121653279,1.319834706285442,1.2079612570448055,0.18011910184453653,0.5883398916268551,0.41769785401908605,0.778749270095779,0.8510607818709854,0.3517294256808656,0.8170881311913288,-0.5891347939412861,0.09454070130349781,-0.47775247787298325,1.2731600489533574,-0.055942104350816715,0.4316811194394334,-0.6325555981050793,-0.8207499160020305,-0.4960898919675698,0.3550982957464987,-0.8410138561187326,0.5653734463674638,-0.19891525270618673,-0.27429007046062936,0.7903067342547964,-0.6148989552195788,1.1859093512242336,-1.1443944116155587,0.05936696851385562,0.5642741252261768,0.10822053566981363,0.3745923554617251,-0.6820220681099396,0.31742621776467234,-0.4950879792534581,0.20099172535365356,-0.2737090224133487,-0.639511162711349,0.24055491966085496,0.4734079824909599,0.0038425751215407336,0.40545007598052346,0.37686085965716193,0.4190548508942881,-0.5454308261965791,0.7013124081481888,-0.06442431475624857,-0.5286780993675928,0.3482488938496493,0.1929671321112481,-0.6571875553781633,-0.4402200182641923,-0.8532575145962336,-1.396962507274401,0.7257762389407063,0.23191330246770192,1.0858921839286722,-0.48774313948805825,0.2045207344859327,-0.5466738629741638,0.8633078290683246,-1.0419977148602964,1.202696294802642,-0.7100377580382115,1.063397035248427,-0.010151970334608238,-0.3966894522268463,0.5335841703677937,-0.6028368343135735,1.1478664576745052,0.042135231415476794,-0.23034444113801505,-0.003066351869706801,-0.3105189325606438,0.8398035626146787,-0.3118333662343134,-0.7782858387548465,0.03855965497458778,0.083695686818696,0.9119776381973979,-0.8579075945153714,-1.0762286109749373,-0.05546300774782102,-0.48664502352756434,0.3314937157540284,-0.7264430363539212,-0.070590266974296,-0.005201207366332241,-0.34754257869085375,0.627591110650091,0.15532478015370488,0.3412173351540041,-0.5097526118059094,0.15084923205741402,0.161957163238208,-0.3238533181714823,-0.5760862577253363,1.174508961830898,0.17237101473380317,-0.07418347864702651,0.5929871127914144,0.016637282853856683,-1.0916535947970694,-0.7045728783150671,0.5842111522727604,-0.36502176475483417,-0.7402066736590923,-0.6904423870638051,-0.6904087664248626,-0.4997273412103542,-0.4065213287158201,0.8023597738256335,0.07546680884756202,0.5121158261323472,-0.22983574715359822,0.3644993755170845,0.5199934123756046,-0.5955745624158789,0.7507487400453225,1.2677896807280198,0.27544839617158506,-0.5997865133445879,-1.2382839612589385,0.7170840859827098,-0.7347955436818016,-0.5880254041748766,0.5662498826961756,-0.6308100183211381,-1.2724810088252634,-0.4473670494623053,-0.13223231424119528,-0.8828463416851042,0.07181643115007448,0.380003032129316,-0.02468037753608247,1.3796732637954636,-0.08624385890981258,-0.10948013602457124,0.780158426698056,-0.5390241672064715,0.23640992384946324,-0.15876842404516386,0.09945027804670178,-0.3566973378133101,0.10706008999379275,0.6064051779225126,-0.49370036342172546,-0.27234404490272174,-0.5011236158115381,-0.49640350190193916,-1.3895964121571232,-0.48889124908523895,-0.8236012602567901,-0.28218102948656926,0.312347008392369,-0.22395293624661639,-0.7310478676841441,-0.03462160158838015,1.3998619731969204,0.10163343716608433,-0.004716942407627856,0.6503539107758214,0.0670553822803518,-0.16089379736185766,0.14662727072767304,0.28479898547721905,-0.2381494422579416,-0.16047341635909715,-0.5638627638013463,-0.3745419483406924,0.35604095252359885,-0.28034126130013304,-0.22529540747348015,0.803600059899637,-1.7298562202701198,0.06843660167819117,-0.3426442477957297,-1.0126067135753347,-0.3166504253377489,0.059583276358603485,-0.14490349656244988,0.07141364033636587,0.13539487542260004,1.0478456957940678,0.4199744296053364,-0.7882920450613434,-0.4655424114044082,1.146760593428325,0.9774566328064427,-1.2099450576810562,0.6175307637155132,-0.26324418588951415,-0.5866203565335688,0.156918277584332,0.4620117560902312,0.05078402987691511,-0.6706702968504955,-0.010273962204075712,0.8289248290102198,0.33727408650410184,0.5021325505563495,-0.05298575601672021,-0.9805016071945188,1.1616116348160483,0.3095635961460133,-0.7408295398361501,0.30973357852113087,0.5277259135017898,0.03732097736657388,-0.28267798746843353,-0.17937651798072385,0.7750942061014904,-0.5633539611804558,-0.3007690829492601,1.5763265228943915,0.45793543166123024,0.368370642807198,0.11736083075287984,0.9616430460589283,-0.5268250647898327,-0.06268555308315014,-0.06094018091923864,0.5454670436366045,-0.7246636707392774,-0.49442207348168654,1.1064692238041782,0.014666110412057688,0.8033164239277442,0.37190527817873537,-0.35468797508488936,0.16313464376116452,0.4591296875266162,-0.017535367365107413,-0.14838348336244725,-0.33466329868151795,0.35601673711542237,-0.5949706636023943,0.08341338743683159,-0.03574731100799886,0.03786702309159001,-0.3433922999566497,-0.03487158321143748,-0.3191480697169668,0.7394832648152377,-1.2644904716492797,-0.17867459871734068,1.3252493589828889,-0.12434745922177436,0.05999851646642902,0.24876974229924115,-1.7810720978315147,-0.1675621348658953,-0.16394567171134533,0.255395515631655,-0.5700066466883861,-1.1036369792070775,-0.22952339159350646,-0.6881781927037608,0.821930846213216,-0.5882409086932332,-1.0098559973517196,0.7079300486430479,0.21657388424451368,-0.5004008909744531,0.5014798473191849,0.1649288382524591,-0.39818167448506797,-0.07152436389242821,0.11705526768304902,0.4321204687178011,0.550739512963246,0.7386310268965887,-0.9436829867519211,-1.4363251795654697,0.17870726878584117,1.0525258699384001,1.0872775627747258,-0.6735641155884204,0.30268738424611885,0.4575797577283635,0.25856167045886963,-0.06516554526050272,-0.6368412890234092,0.12638693567298867,0.1542478617001121,-0.028899285191484794,1.558188600500127,0.49082394522421485,0.40248445512942405,-0.40921466203768186,-0.815900343739576,-0.1700939852075078,-0.0672545285544354,0.09271037201002699,0.1545826655328086,-0.18134365305012368,-0.6062895435127704,-0.08935724032537633,-0.03313480823567919,-0.6238140899450614,-0.07535289903926046,0.08938280891314268,0.33987216649998536,0.7496809148923698,0.3373932875659895,0.9319063865427719,-0.11825220590901035,-0.8807593205084439,-0.017976480588797535,-0.03337285463256534,-0.4015885652279345,0.5946070710882257,1.299802571075489,-0.27513118318061264,0.02389570906754316,-0.4316848142958196,-0.47552644918142095,0.5815084102163062,0.13450101665868705,1.3481559847815001,0.3563573545287888,-0.09341908245577733,-1.1428702294108057,0.4757850702645394,-0.13403088086651938,-0.16139881450213153,0.1922628565684722,-0.18475603068649196,-0.202719185227235,-0.30462475933909583,0.722489581929476,0.34249582089914693,-0.4804734067051667,-0.5628294769814168,-0.9594797858929469,0.5064383346628724,0.18026870560874067,0.5744184799323906,-0.1646745325303721,-0.26633155416398496,0.37752127983552836,-0.7759442042182282,-0.4484828574677228,0.3765349256395997,-0.3480062275689389,0.28358167487364705,0.08014741817460551,-0.40500051633477513,-0.9092895381243177,-1.092455488437926,-0.1106452058998258,0.13498046197151103,0.09784296863554788,-0.9569721455471926,0.046434189181574714,0.3114809261352261,0.5679463688343254,0.9244550231532118,0.37982712239476096,0.23569432875805116,-0.017058660110669116,-0.9598402486280346,0.5677251452209369,0.05360934187865474,0.6744401677823741,-0.020051137713460888,-0.15410624366241668,-0.11971296270640454,-0.16274569741633912,-0.7459437770151713,0.5297139400695468,-0.6463098358324363,-0.5516588857447311,-0.4321815693730476,-0.16948137581326272,0.34803569518882055,-0.17779264168698752,-0.08938060349161911,-0.707300624467488,0.8999012051746146,0.45989365489395523,-0.6202479127305188,-0.2946406746331285,-0.17693463670542187,0.6763385193053321,-1.007189437023008,-0.3829152543260176,-0.25464607538918294,0.7524511399909489,-0.4099418595013318,0.5408228968531578,0.2689164998980056,0.45783617077517963,0.38005656503905777,-0.4553253103302183,-0.9600987315923349,-0.8101351134633719,-0.6018821797937091,-0.4058309747229846,0.38757295910714734,1.3130417533044256,0.2786203682448145,-0.04429384715515151,-0.5129402702259174,-0.2753980347973354,0.41271132342994304,0.9164806299426251,0.494286730701798,-0.6299054467717496,1.4889683580347413,-0.07916077205188048,0.29547632036953664,-0.6553451484596186,0.16585995304268364,-0.32823773928321,0.599478158374283,-0.4615505288395621,0.5724698378851161,0.0005604759741684198,-0.385353472389015,1.770403601648984,0.08751845968407561,-0.3819376626473118,-0.37874723100758556,0.3797264870669883,0.2304925247035265,-0.17036843320743913,0.46563814853684105,0.4764738787050897,0.8017012986990448,-0.017476940736623574,0.41273097802062303,-0.7009265491531028,0.630387998247437,-0.18599164793779224,-0.24138028076216994,0.32891614479248155,1.3329446368060016,-0.5767612229734437,-0.14807833404966053,1.26716992809816,0.1530296160194472,0.08398917405136862,0.43007790530453066,-0.22051050058406568,-0.19102197446546235,0.23599581767824562,0.34525354336962283,0.42696968073643765,0.1830122567789212,-0.1715202009294901,0.39217626908693437,-0.2482784361605919,0.486971893046187,0.3322577141096171,0.22959222403091192,-0.8545503787058716,0.12617860210875814,-1.1513900789972795,-0.8399827635581381,-0.7559712679754758,-0.2889682808875521,0.1816516498690043,0.08932150978467386,0.03127799582375266,-0.6387774843115139,0.6897707841044883,0.3038320463195527,-0.06840202085754277,0.06597695434380095,0.4666959636167315,0.5105067786285398,-1.0384269824957157,-0.9284186754152569,-0.7088131024806018,-0.3215545509199472,-0.13240037351621575,1.4032610683581608,0.30825959722229,0.3940195420622473,0.7252605467314547,0.5654996097755548,0.24483589314141596,0.4454529697949382,-0.34452610108536885,0.07352505889491939,-0.5274590014862602,0.9298974388784755,0.43647900874300427,-0.08420678893362665,0.26543835034505114,-0.07244251790978795,0.36390292141883845,1.2514142251199944,0.5538774745760564,-0.3330937975368983,-0.3316365043393466,-1.4822101560684289,0.32281906141767397,0.1640263861507112,-0.595667871220747,-0.24211637391894705,0.006184637008835147,0.19467583636814936,-0.22774617242723494,-0.3381029976211543,-0.27682937158041104,-0.4352364774599131,-0.6589397484009911,-1.38427475067131,-0.6944651792934742,1.7060022547653717,0.02541614144434415,0.38797526400979787,-0.7915441918080574,-0.12212934938034851,-0.6182759177430459,0.7842623880938581,0.7565861634049595,0.9917038645017681,1.1172025836351005,0.5733207908389928,-0.4995675600197314,1.0974550399805605,-0.35082319922700733,-0.9850493583075075,-0.08129725553747133,0.2301906900819964,0.8948702939400094,0.6445521251567845,0.41755214568039734,-0.30130878185698706,0.5849469320432402,-0.3263248576486855,-0.36848471220528584,0.2041761455122821,-0.7246364314567105,-0.24763703682034338,-0.6021376787437436,-0.5291358852313586,0.3363217655775615,-0.37120732747806867,0.3729976721747878,-0.813771364354705,0.2243570227393407,1.0518545150483989,-0.11524185307183334,0.3521126274258381,1.0782104203616567,-0.2687790388428138,0.5160152524821844,0.8426876945457611,0.8576783199157656,0.3173600481786022,-0.23330533671186549,-0.3531651308682795,-0.3279883743718193,0.11639043663512871,1.2713739497675443,0.36022327546691457,0.5403152409344828,-0.8590682048513595,-0.224206912891548,-0.05848576191652689,0.3860421568493491,-0.48860127122692465,-0.3954947814481068,-0.1785964641304356,-0.29321142413384166,-0.3069442848878916,0.21207854411983476,1.0262042983403024,1.5017195157817789,0.19155177451928224,0.2306220330981843,-0.020014276213158096,0.10906296256717013,0.289485373438358,0.10252630471891137,1.3175666590943291,-0.992244765008512,-0.11866540545280778,-1.002010803083985,0.5225405842013501,-0.7390605808296286,0.5041195505710555,-0.3111222967176665,-0.11462642108576998,0.08956353317980724,0.2715256747930155,-0.7923533802216652,-0.6473792143465941,0.04947802745893384,-0.3594890561166966,-0.3570330398176589,0.2783351415012977,1.3971920959197894,0.6101397708161315,0.6528059235793506,-0.33943610290002996,0.6542922068153662,-0.24796007729550426,-0.939438262057601,0.22091610705242373,0.4591674982281293,-1.767668089714572,0.026099029976373124,-0.8254241479041734,0.641818524833135,0.30953110510233633,0.05783745965005743,0.25584567545867803,0.47865967238749135,-1.048116582235858,-0.02581292876771704,-0.17548303814368835,-0.03492613533851017,-0.010418611464887201,0.785331581780387,-0.730861845044549,-0.515601871695155,0.5314308254808083,-0.8130470958686216,0.02815951742009518,-0.33929630827035756,-0.0008830044988749017,0.7883364804522821,0.023835295830180844,-0.06550445930269792,-0.25589078903616796,-1.3385394967395203,0.27769996199427993,1.0697384701291177,0.20451791867602315,0.04787294745789155,-0.9367167831149603,0.08158134027896896,0.003102006017513397,0.29352126814166507,-0.021378406051224024,0.43381752548187075,-0.32426334889384667,-0.029537383742354702,0.5734386914049981,0.21936100450330556,0.04493696903092746,1.6937929893076475,0.0777491679449137,-1.4383648358719354,-1.398245076823234,0.3075507446361325,0.4289042742176255,0.29254228864997295,0.7420778439520428,-0.30665788941722205,0.01225143929715184,0.20113605133050408,-0.07934262438462576,-0.15829419341339118,-1.4942630171211304,-0.20339020834112,-0.4780450864872335,0.1277935960628093,-0.03428063821215116,1.6611238287363124,0.12698306064062231,0.8609584007498142,-1.0215731815848152,0.5180633845879538,-0.03810766090203427,-1.0559090061238925,0.869868602567281,-0.9798223418643859,-0.5377327995509368,0.17873162753103866,0.04928863973957142,0.27252471612208057,-0.2811097438204123,-0.499336651821349,0.15986599916505193,-0.15374443366241158,0.14988636237309613,0.36514664220832155,0.4672250567037421,-1.1850901765153663,0.1850250089263536,-0.9567510453095944,0.6228802926394698,-0.4137967723680088,0.5933474785203043,-0.9072437784738182,0.06946637840347805,1.180678908323714,0.9146306591600197,0.014334961220859749,0.5424911658941145,-0.2320333365921476,0.2747796041037849,0.05166158090132093,0.3004267807596042,0.43716403923101005,-0.21636540164747603,1.2049372067936182,0.827845834652138,0.11891323064242441,0.3320437829646546,0.3238120064356577,-1.2580073719139186,0.6920497243141871,0.551042182525802,-0.8413147899489408,0.22349811051883517,-0.4245085092269158,-0.5419273878349162,0.9013761540850462,-0.15264243855873372,-0.895968764206298,0.16177043139561553,0.5731444170734367,-0.10664786302287284,-1.0519449630489168,-0.06304610573998135,0.07984417869443607,0.039006706018199507,-1.4601826788469874,0.4971784170323539,-0.027110596160591232,-0.023000527708786644,0.3953217845786241,-0.4308649846061368,1.1139671808516538,-0.2087789941659638,0.8656576298121761,-0.1535000437993124,-0.7359024087672313,-0.1354222221727736,-0.5936637068361237,0.23168267397049322,0.8165335594578941,0.04061676502372735,-0.17712977481879683,-0.91952705962777,1.1937629146165194,0.3552410769472861,-0.6328949386174018,0.25185154864909226,-0.47593275010168645,-0.11295145233955764,-0.5131532971261206,0.8198347867265293,-0.8305054644271758,-0.23985992862852526,-0.47550468557562164,0.8082679347437669,-0.14104095794948177,0.13033067141543775,0.39220018427793496,0.3105846949035666,0.43790124126688884,-1.0897708379469289,-0.5755243691955241,-0.39002283409649324,-0.0970020898846471,-0.07938484520205803,0.4319962006654152,-0.4341659021325794,-0.11221702130511206,0.41023649020173514,0.3307299823965738,0.3963391450987304,0.6240519200490475,0.09945206682058268,0.6128909040455482,0.6175046163199663,0.007717311737373722,0.03589036378255868,0.06215081387479456,-0.02569683095964044,-0.33021104872649776,0.20410716466159037,0.8483179298635145,0.46300987995850906,-1.2485368970103223,0.03884596117625085,0.27130903419808855,0.5318542881396707,-0.26381782641212864,0.39540241697347595,-0.13230744359966806,0.6685987559949793,-0.7445056944725481,-0.6017275809084435,-0.06812538913368797,-0.10582049185746012,0.7003752449012142,0.49437266468169916,0.27786758357946884,-0.4228538575751765,0.6294283028915044,0.13833965545383475,0.24827966471452423,-0.03050783320447001,-0.04514843749091853,0.9616991596746978,-0.19818824207861988,-0.3638123986378568,-0.6908642356777015,-0.496142569920662,-0.33770862507017363,-0.09789870609982619,-0.5697412733920255,0.2043011377912339,-0.28598608363536115,-1.5349450364206179,-1.1702044854748483,-0.7221577919834489,-0.41566181718814554,0.7295786911441733,-0.15590033966113628,-1.5248826827500588,-0.2276207934946642,-0.2982520065912583,0.16575868515345404,0.1083127804118874,0.4616947406267994,0.43064289059758226,1.091431805766676,1.1332722266054336,0.23284897039180574,-0.3952013448386898,-0.3351253004919469,-0.45004280382194345,-1.0338843870338978,-0.6248015880307742,-0.77259499131497,-0.10040330690446003,0.5082794960831853,0.965821993673841,-0.929446079033927,-0.021727745790962854,-0.19746847571939283,1.1455554693011107,0.9312610496049761,0.29105612181505963,-0.589729889146978,0.3599003078965795,0.11898337179375114,0.10592592940235178,-0.0600052386854809,-1.027676498855577,-0.3211865496512506,0.09943286724836843,-0.767747678299143,0.7365444665157699,-1.6511248715095979,0.051319508129611224,0.3267613437235942,-0.30712348598447914,-1.1799815099641864,-1.1350099187511036,0.01839677837210199,0.2370584722941478,0.040814384042875664,-0.007782339246307877,-0.49404525122961984,1.426699243343455,1.1173790724349106,-0.04730638244269909,-0.3777954172976674,-0.2794166187918511,0.04973498190391799,-0.24000895543957868,0.08853123029272929,0.9854614851686841,0.21380360673905707,-0.08659396382375462,-0.16265564368361143,0.3674838979397695,-0.6984716658362156,0.5814780344045635,-0.5489794399906102,-0.45354564960370664,-0.4718690793765533,-0.620816237507125,0.3245851922135875,-0.16209785694449327,0.048950935077091834,-0.9652703636350946,0.4563067699440603,-0.5374197388887662,-1.1199688257463862,-0.5878240636339872,0.3563433955678453,0.9853188947794845,0.7073360196348842,0.07294469349222742,-0.4412066793044869,0.40307312504314124],"fitness":0.8335590000000002}