{"v":1,"inputs":13,"outputs":17,"arch":{"hiddens":[16,4],"bias":true,"activation":"TANH"},"weights":[0.9154421786226526,0.5618825128531925,1.578947124654383,-0.4902950524706195,-0.6247073086864537,-0.24782894620086926,0.29607760311897763,-0.21177653963738863,0.849626415342433,-0.11645533791763607,0.22918545878764776,0.00975988583372328,0.8817233155651667,0.00810103359817459,0.9973698547999588,0.9539242618174687,0.25050217437427746,1.6175243897964267,-0.1528718090593113,-0.5849743791453246,-0.8138783220599244,-1.841997399145722,0.41818903605849983,-0.7548979740490892,0.18474544815469437,-0.9635923393986586,-0.344733875275072,-0.11732979645347223,0.9297709999940156,1.2726273918122888,0.11996127625310021,-0.3354285647592876,-0.3095929694545041,-0.06622150012543274,-0.8237450951722352,0.3110650958712953,-0.8006438785278829,0.036782342065821094,-0.28921998635892165,0.47887407674092086,-0.28784965156558745,-0.14181285852558134,0.695495943490159,-0.4225929684824074,-0.10494375833516406,1.4182437287541239,0.14044140671918617,-0.5370522628248485,0.48885032869819967,-0.18840805463348592,-1.0791970293782975,0.49522799233441306,-0.5250681993320693,-0.13127292778118713,-0.07069587009412354,-0.9332415566840908,0.004576430285501109,0.19085162401166506,-0.8380758673995925,0.8322608436968678,-0.14498167689882738,0.9038508338079807,0.25773801623963705,-0.08693917199304188,-0.05990087712304619,-1.1108590823278237,0.3375328482738167,0.7361471860310612,-0.8969254905726115,-0.5684550821293366,0.1274254264240143,-1.031178024354356,-0.01551114704903879,0.3176367298225553,0.950676760998409,1.385937879813976,0.637039601884307,-0.8062363054625681,-0.6977674807596674,0.8528490533707539,-0.1928678511922831,0.029151920525358338,-0.5264149433222379,0.7310703543556382,-0.4915749201643047,-1.232508384427505,-0.006114862258853107,-1.2884346709744512,0.7052165701077456,-1.058851166892022,-0.03890419381822029,0.7486851605631645,-0.6089384780642422,-1.168715094849477,-0.31241312314555114,0.7072667821041163,-0.3799783130303461,0.6154526956410608,-0.0023841924330796765,0.19087822078124245,-0.6116188051686063,-0.6760677636652366,0.14525292279973556,-0.10179055979713546,0.019871434972743962,-0.11327906657884271,-0.3357649982472817,0.517837943025364,-0.36138521747913893,-0.5452298991645984,0.3517721172824741,0.04962846777403849,-0.06487267066915388,0.08543430235349425,0.8407935726078976,-0.08967527478009407,-0.6619234169823385,-0.06296151497110364,-0.3623265885481164,1.026883175317219,0.42367031515925985,0.8492840405288058,1.3888150455900878,-0.5244235168245441,-0.7017558464897494,-0.04848023938396365,-1.2407566132801322,-1.1780941268229568,0.5937631408019253,-0.003479775777949903,0.43628109617282596,0.09730795551032682,-0.3538522351080125,0.3447842719824405,-0.39298110044046397,-0.07706967809407922,1.4054117026662885,0.5571131324367551,-0.39427763081015155,0.16760575608323766,-0.4035954147988276,0.7197739961783948,0.3290469702041073,-0.12978575716412394,0.13312602251044608,-0.054424558796020206,0.2559861900812314,0.3005919313983322,-0.27004761544593286,-0.3667803549288771,-0.015271051431309232,-1.0490203025266016,-0.6749945846548386,0.4517452438074842,0.4401914102070841,-0.1983307767203899,-1.0526518695463982,-0.35274242099559155,0.12294377225754893,-0.35465026319506093,0.23812993636475052,-1.058061277736153,0.24280818381541464,-0.6601055280846266,-0.5141023706287026,0.6077140803998491,0.32030944967359964,-0.6162650645898622,0.264776936337088,-0.5360110311591786,-0.0701972044069491,-1.136687645431367,-0.11155751182225718,0.6085185213924467,1.0711677897801062,-0.749741055952582,-0.06825659197278902,0.738655812256388,0.16384030432513946,0.07368032102684484,0.43647192824574854,0.36851389516918237,-0.6292857114546078,-1.0750228579279244,0.7751302676927835,-0.8410164888588257,1.1294538540046264,0.18918695362645466,-0.3418945746333852,-0.10534975662796453,0.2098574180998655,1.0717362382258302,-0.1686888835082671,-0.6213693800439769,0.059807026668410146,-0.2759786815470624,0.793773488198119,-0.015673290041711273,-1.4594049561009006,0.6792523343814103,0.06181710795556668,0.9242170015850908,0.5742749023059831,-0.47332470876732813,0.1340980903780894,-0.7606716568889507,-0.23601342837395164,0.04704372955595694,-0.20660939197985706,0.34954974788945264,0.1411047357517013,-0.30227821938737115,-0.7626303952262993,0.25977479959755745,0.2638387948536633,-1.0924269677093454,-0.01464735085017145,-0.7673097810927436,0.2631553903213551,1.1711092013302604,-0.11179798653361406,0.6289159778333513,-0.7894783169354205,0.19833876404297562,-0.10715156746749684,-0.295848965307994,0.10185050167717882,0.5754587058265543,0.03765166260273593,-0.6574125601456271,-0.14453844906240254,-0.38005569550140583,-0.21998166146004539,-0.07097669430998625,0.7481954197513712,0.8731019427286193,-0.12406147220406752,-0.1116680596901314,0.7589316088225495,-0.9769027895062805,-0.9351831606277989,-0.8466577056821494,0.31145229957490017,0.004150882239154108,-0.28994142484560254,-0.42246722065092673,0.01002294959481542,-0.5545870261607695,0.3857457916279782,0.1974515710320236,-0.45001301106305835,-0.896668088290282,0.005132336681733408,-0.6579865231804168,0.9829038687433221,0.9691029118533832,0.17722590305097408,0.1091247221039201,0.9691671896259081,0.5903479868037208,-0.6707567201476795,-0.06598722849603506,-0.18123367637202234,-0.16338758492795644,1.0136272342711057,-0.7502045382557175,-0.7377866562088241,1.0107343524806913,-2.026465986270126,0.9381150198367979,0.2897430228926676,-0.9991779625399086,0.07038473675346758,0.20535272409174551,0.3895700250184231,-0.24147314338246686,-1.2590234608990647,0.5527156931738281,-0.06738553405003832,-0.9087298167156599,0.8338653929289342,-0.6411521759334893,0.25565688056759117,0.5552168394443511,1.3045699118211396,-1.7701469075354428,0.31278697816543016,0.2020026687883463,0.36309910237334325,-0.19859076683371202,0.21603547630704648,-1.1094260049450093,-0.20418907560798497,0.12036855705664527,-0.4286324827867965,0.21192609531259934,-0.0032268874949441776,-0.33593030138645236,0.5329146665880136,0.4387363432540587,0.41080980651853083,0.2519810935009126,0.293616939311321,0.5001654911948757,0.6188537062802734,0.2442062191300835,-0.6852106848607242,-0.6556471664264197,-0.0005331664253099543,0.9353233715574277,0.23890185590208293,-0.09721501909671278,0.918918771860214,-0.05352668444935778,-0.1490665536474924,0.2060647863893444,-0.9660179392643352,-0.5451528402897798,-0.4463368680284356,-1.196537344510537,0.369152383204353,-0.18191217928694425,0.14216120770213544,0.1395970918376675,0.2197896039740354,0.3789970716178002,-0.9176237427476464,0.295327323423298,1.3335478712443536,-0.6836161026804112,-0.14856633363087163,0.869613170418757,0.9396008906333745,-0.04356343553351776,0.7485426475851218,1.3517855340007372,-0.39939676303369037,-0.41444069406672657,-0.029716538059572417,1.3769073566039987,0.3849168572097423,0.5565941775609579,-0.22139563921924843,0.8962641944105894,1.1731136308622385,-0.9956326499168613,0.6297816546038454,-0.07270887624925244,-0.5101275526418494,-0.5517507501238299,0.38756675882331765,-0.11150667465360953,-0.7888314132662453,0.301621529950082,0.002561667748091459,-0.1159113874447188,0.2343876094676747,-0.21133058338709737,0.8010853961261576,-0.6361788477712086,-1.128601881983733,0.15087089226098968,-0.013381313990502958,0.1379944704676857,-1.4867903604277874,1.1937268492087072,0.1250769996762937,0.345071750515683,1.1594830288078375,0.3023261385255175,-0.296772605768223,-0.7147674859715342,-0.46993756908026646,-0.5228036726283759,-0.17765716781500843,-0.08903223386926727,0.6872414103452681],"fitness":0.8334285}