{"v":1,"inputs":13,"outputs":17,"arch":{"hiddens":[16,24],"bias":true,"activation":"TANH"},"weights":[-0.15044857974633843,1.3330230613349057,-0.3470599868509787,0.7740263792849884,0.36747986100868774,-0.15583392298875845,0.16056558157919326,-0.3885200039538024,0.344243845826009,-0.29188533418580753,0.31279342639962815,0.8149638991445488,0.23320318277776042,0.9549062913697584,-0.6774544843978154,0.8605618953767269,-0.7744096149453216,-0.8567692588282277,-0.7887800029819845,0.34380784814326626,0.0370861426103849,-0.6104986082966274,-0.4339767666431017,0.0835824112742739,-0.7133390130561936,-0.07556711385218981,-0.1585177135938736,0.4099496412621048,-0.28202175389098094,0.6437222914841236,-0.5938323491671339,-0.6773895725724334,0.5333365697775774,0.5476659949300731,1.082592196642532,0.9090615534989248,-0.9178555213029549,-0.9101658416947614,0.6919680073512375,-0.7759967282926574,0.8771735231362944,-0.5560267736356301,0.29837414484218727,0.4341421836251832,1.8881938629604293,-0.07611345821968214,-0.9056947459114001,-0.07593704919332128,0.017749504075430245,0.5893373188869213,-0.11811586311600816,-0.31389185621045035,-0.00017074435779357088,0.5298615745262673,0.20236561120588353,-0.0634511992300066,-0.5964211526409089,-0.3115237696794249,0.8803375048929597,-0.3126717731862753,-0.12003117750836625,0.11787743839052794,-0.0865667747759695,-0.4463413938801558,0.028818342833936025,-0.07910037889345073,-0.636450311924872,0.010429490919593961,0.7950609724929437,-0.856653730469982,-0.6257482907455322,-0.41454689404007605,-0.6604692546022496,0.046339172790349145,0.9004751776625197,0.21724436653176546,-0.2614717990451934,-0.29163263812656753,-0.7434776659460918,-0.3105879324125975,-0.5150852931306918,0.7549476151709763,0.036990953783188944,-1.0629980364713179,-0.4882305338745311,0.5625441938749135,-0.7083688794347415,0.6155318617919099,-0.3858871146669709,0.19320018846612433,0.6224084603353689,0.8206809986103345,0.5078722770389175,-0.126725804398358,-0.8320159101296614,0.14189178546137196,-0.9694238582900214,0.0038882255723339774,0.020259930156579037,0.4810747616081491,0.21691537898626972,0.5571285439808986,-0.06743129704954891,-1.5374002223849643,0.14853667571949625,0.09754289689825082,0.9177245692342006,-0.24944099891394622,-0.20182680797747607,1.3914110657089611,0.5246028770628964,0.424493572326204,1.360257337312322,1.2058989895782644,0.06175684589187254,1.3613778804985788,-1.1125002980407328,-0.13176116688003914,0.25211047992489805,-0.19072101047955897,-0.42845877805211896,-0.5452262459355618,-0.7133052429830974,-0.4728767709206679,0.470274048864719,-0.37294787330573426,-1.0459169206476435,1.5723278243711019,0.34412523401624706,0.19155997462225477,0.7645393506640192,0.3700042297072233,0.5468155697543504,0.36817397851411543,0.30147945957649036,-0.14645258075245726,-0.468388521182844,-0.18124152090652568,-0.5082797077822002,-0.9391111518356976,0.29041307613122846,1.278212849005526,-0.3989482884451701,-0.22084383477644948,0.6592110622579537,0.34854856197606116,0.3575204764932863,1.2678266923383779,-0.8070443316025714,-0.12149921025165444,-0.9605538769824806,-0.7068907044186797,-0.455991898062736,0.43322627129986074,-0.004118345666930555,-1.1301523309213821,0.5112569780399926,-1.1303723758418884,-0.2936642727328271,0.01768892953917956,-0.14098171443663737,-0.02514730002628918,0.5321372622296622,0.00869196155010561,0.19165423757791628,0.8730242966971276,-0.7748269508516523,0.6617646577883012,-0.0020938692141995946,0.5860804687468808,0.9696739632750375,-1.0924131663601304,-0.15097385709211675,-0.6364276688951929,-0.3753577665357733,-1.0137530417786689,-0.31991705639980794,-0.5479606277296482,0.6418522778435647,-0.5164040461970073,0.7167603520751571,-1.0389265216942452,1.2355082886100222,-0.7065811136446873,-0.5271989234175833,0.22346071976923576,0.12710204829065996,-0.043456201339875135,0.024146149245986737,-0.14769943468709995,-0.29117548154034145,0.9645542248015111,0.003993021303848841,0.7498234086052612,-0.6695548868140903,0.5904425184397243,0.2071909947816746,-0.8578431826609152,0.2586523842934954,0.012880172781732258,-0.15067998627858764,0.21958533234681943,0.36247201882492136,0.5240028548481266,-0.7996428777669864,-0.12096699583747766,-0.9453908243887321,-0.8166874902784307,1.7833817401928542,0.5984014465729796,0.3203971355977498,0.24347991756661327,-0.7358979366977682,-0.0226494289943584,0.7671631391714472,-0.11448548372018802,-1.0652934009281294,-0.7152306307860388,-0.019165208693413004,0.21596048806234508,-1.1652099582501412,-0.45287214911940454,-0.7522436055682772,0.41122883927265796,0.4609131832979103,-0.7307680160950447,-0.19878353492541578,-0.21191252963883594,-0.060517523945849985,-0.18842702824102853,-0.710850419335635,-0.10349791618615997,-0.4563374038427499,-0.18675308707048346,-1.2743607402467358,-1.074391235834461,-0.16529529024325815,-0.4789320869336574,-0.9559437437356894,0.6711464636823663,0.5261071928917862,-1.0538486704653998,-0.5362591598840843,0.30629176953551557,1.1192838785610788,-0.4240745744456035,-0.6067809270116965,-0.422298110868528,0.6258434297701049,0.29438501305662457,-0.7683499002037657,-0.11362993492091834,-0.10758998213956462,0.41368763554368737,0.44982107154018985,0.3665875090947549,0.3436388022049494,0.5432588189856932,0.9512465822717514,-0.2675081676315325,0.10420857769167222,0.4537649916873828,-0.32561944720762537,-0.1579139966382582,1.0040694197775157,-0.42198121940557687,-0.2850856728060109,-0.19987453070093925,-0.42704289060252076,-0.10143766892750679,-0.2760452893596008,0.4544004617178947,-0.04241128653844797,0.6919808348039209,-1.3171745110017739,-0.032087320430081626,0.8129440100747023,0.9172907095666217,-0.9449455798904973,0.08583121920786059,-0.06907083534434073,-0.10550214689920669,-0.15172286459489553,-0.7478748416552103,-0.22575769341294055,0.28126414052020055,-0.2183618412799197,-0.9727804064017733,-0.4246784115379481,-1.276042592979713,-0.20888440131802458,-0.14601224103333424,0.2821627019130877,-0.14564739424661854,0.5413961277216113,-0.5512783901838401,0.19590851544403348,0.08771341907165345,0.8367492390370261,-0.34999946385026776,-0.1431460187886407,0.29566958262064014,-0.7600160463782604,-0.7513000440433323,-0.8665362255016764,-0.8691717229726835,-0.5176794714749366,0.07233157898085309,0.8664704543830618,0.7198629124558342,-1.628168959140118,0.5109944901179708,-0.42792145908271767,1.2025808605279218,-1.262409586709935,0.3190145206206955,-0.9895254124667795,0.8567644800760666,1.3000758257071099,0.40627547208590864,1.0071519893599463,1.6514144844032483,-0.2901268918606388,1.1150964271084942,-0.8339004109367323,0.676999179955867,-0.904964048043478,0.13024473599118228,0.29229106698425444,-0.4762160585819335,0.46322104870056063,-0.4183448262366712,0.31127938657896864,-0.8928579203748408,-0.6969616083687606,0.38929256327027784,0.2682540305081448,0.27560696619363406,0.18254713269212308,0.5068359630295525,-0.25670250231582437,0.5257029676611161,0.35634388322734917,-0.525406806163658,0.01278540171463895,1.2941831474974033,-0.8242849690205181,0.17623417434743813,0.9640306589629631,0.4027873091109151,0.37253736153988837,-0.4826424536856162,-0.285515060522709,-0.7692879365768854,0.3092862469241975,-1.4050903176437108,0.3377933115495035,-0.5886173517020212,-0.9611367819917682,-0.15616814036851714,-0.036023725540282325,-0.6994517651166214,0.18232955225404068,-0.47602622167544867,-0.20200154397732475,0.19028210829658604,-0.7674945417803334,0.29939316102990043,0.22980219073714925,2.093779778514424,-0.2795440934010084,-0.41451954930165147,-0.41669703754334136,0.2807175293871642,-0.5356069918128078,-0.22900788378062503,0.42610639335465733,0.40561311604229094,0.8330458140774641,-0.39728574922837384,0.4565288249664978,-0.0618391098063468,1.0734062926256853,0.04089219985443865,-0.9007181672598268,-0.36555983169980377,0.294222788230268,-0.5528873089376765,-0.48396180024648416,-1.2326798177540546,0.7378645498766279,-0.8740218263053074,0.5868774683906008,0.20825435045067567,-0.43774265400654655,-0.5724755108014253,0.2839855051339846,0.7799334099466181,0.5086116120272575,-0.9485153351287183,-0.1444032345833479,-0.12531992180013807,-0.16530102335854183,-0.2627964284944357,-0.695132870285467,0.3414114191489817,-0.5865608618268883,-0.34465262421018983,-0.9717308956790638,0.3797517947053082,0.35272476431938976,0.16344124186226486,-0.43495436228523104,0.9821627196190466,0.6018413948697267,0.10783411438710895,0.6732597622881596,-0.4338160133382041,-0.11390259336652805,-0.02064618818426244,0.9005465107420302,0.8932432421355135,-0.5285800594320023,-0.225231854659213,-0.32441222509917467,-1.484359014124346,0.8804117599771879,-1.0101630685498695,0.5831747443582673,0.15684408451267473,-0.0828931873772613,0.03489263850575143,-0.07374061364021073,-1.0747997610461029,0.49685526059083773,0.19465058422282436,1.200378237846703,-0.454292630903711,0.21570880031000494,0.2559548020123692,-0.5478969375412326,-0.1742838311727446,-0.9703798817172966,-0.7881327290227924,-0.5849301675345213,0.01244839753968785,0.9421515484502467,-0.07684636697393506,0.6680712464032222,0.025023361428293422,-0.7503012437063253,0.6932158779085043,-0.3158570503917849,0.5902381418868624,0.0007769979082662137,0.8985125005632335,-0.12714365482150816,0.2174167157718911,0.14435491180040708,0.1815970667460508,0.7601068633793019,-0.5828710127201465,0.003704187363822997,0.8316296976008601,0.33905413697667447,0.3791991347042388,-0.2588371781289324,0.7272935226132516,-0.6791285717469384,-0.9117127084006413,-1.5611560702960408,0.023190707469228095,0.6324354920673639,0.3956178688245815,0.04093358067955507,-0.5251832153979779,1.0071652567322236,-0.7013112169580163,0.11361415643190134,-0.7294049733529011,-0.9153936596706479,0.5781371830529881,-0.19139146955042582,-1.7546742031913314,0.7680065848774891,-0.6275974328481059,-1.0657938436181544,-0.2997509718379199,-0.5709370062552671,1.0154104845157745,0.8861814070563288,-0.42387459208322703,0.878144130991145,0.351876610746324,0.22486883378327213,-0.30675494690575267,-0.0029968239068496856,-0.40165660570244865,0.7173576461858232,-0.3439350859728374,-0.13524535967724607,0.13929423098152613,0.1306708110932833,0.06085286100296198,0.7800040191105716,-0.2956798916580441,0.10786241215677832,0.03513149982994319,0.004236897400021856,0.42501865979666476,1.490829242807947,-0.9054745593225796,0.19220802000448323,-0.5852133456386246,-0.6265105929031235,0.6117150266698613,-1.1918965730939273,0.10834645525850058,1.3384936640355714,0.8587260015353643,1.727785719702324,0.27849834241643434,-0.42343192244946776,0.12706814010738904,-0.27388139692704755,-0.08002697783250598,-0.3680942907075427,1.0232974407816253,0.7138942306443511,-0.8682155218719559,0.7514364359913605,1.0107551186130617,-0.3605573855127882,-0.17947531707402986,0.5136201098683806,-0.02238239622545677,-0.24886864982853674,1.0159104793473483,0.09744574346349785,0.1138486428739884,-0.5168494572170994,-0.16567255306893264,-0.8337405529756201,0.41969138886179136,-0.17125821047069176,1.4966102853753733,-0.3446887476323873,0.7558366373562099,-0.5928437931561937,0.04193905619211722,0.3104001350188979,0.2791425435430872,-0.24915221992247846,-0.3820583623063955,-0.524751128225951,-0.21177713795463834,-0.07407044643188203,-0.147827404673985,0.7358556651078916,1.063723751789417,-0.8235401958717178,0.0858140306877842,-0.1792548375046136,-0.9336295969671936,0.2205255259436854,0.32133677506853714,-0.7315819823126668,0.28684184375602495,-0.10892219018488263,0.5363563074358317,0.6951243102958812,0.3285505756330726,0.6736043200812238,0.03247280954042144,-0.07874796603360239,-0.12284106666671488,0.617270538262778,-0.17571142374519838,-0.40764444563803753,-0.43723944494658584,0.647842864477239,1.2014332674478323,1.0289466164327885,-0.4054189686354894,-0.047931029232685496,-0.3550230959823982,0.49763309456249966,-0.9517653504887664,-0.462481472563533,-0.3465467113523772,-1.1263828517926542,0.06171198183240313,-0.9272965155539983,-0.8105734348992278,-0.15817388179716682,-0.5129473159151783,-0.006335096669767514,-0.8521135461523727,-0.6332139640420139,-0.21211396235141655,-0.4275569760372153,1.2155263994114196,0.5895600191090637,-0.5491290134978097,0.0672505140276998,-0.08532696909699042,-0.569530069842128,0.46956679453174255,1.0113179397423044,0.4455207245665286,1.1620022395692389,-0.7568236289763887,-0.4941272868598715,-0.10547220914338688,0.09637989348543985,-1.052496011153025,-0.34697594273959464,1.0198329891440534,0.14126731126269126,-1.0756558466530628,-0.08314827898795815,-0.45261120654258136,-0.37649415916668966,0.9014787378699143,-0.07423463589847801,0.5933545163927483,0.3923009964696281,-1.3002903478867391,-0.13425698623947935,0.5169228994257684,0.9013330037828746,0.23377356280758385,-0.3698416694422292,-0.5856067052994712,-0.003441301031528024,0.4207720459276673,-0.2863577747060251,0.20745111981287206,0.5257182193256447,-0.2711833690578286,0.6380397467069017,-0.2552985987992658,1.1134809502564067,0.233044201087154,0.3142343210484902,-0.5877026722323673,0.34996231369845104,-1.0818795566143962,0.19079457282577114,-0.5508359381548872,0.7025435360471041,0.6137891812760761,0.1702524731697621,-0.13486855006018833,0.12811357871270063,0.6518405001063123,-0.7297893591820903,0.013960225651260023,-0.6100213066133796,0.34963805840365186,0.5507609660580981,-0.8513403964349093,-0.8846068923809781,-0.46157776752513857,0.7018160852987515,1.4923180309850026,-0.10837687064540248,0.14930839316312042,0.5453634683908003,0.24228771910446315,1.3150908071685008,-0.40843293772493183,-1.3118266499170748,-0.6430507034040992,-0.2806176313115807,0.7138802791824446,1.7104380259421252,1.2302312588941222,0.22928896549953687,-0.42186381166423376,-0.10437185299426033,-0.9974285716681306,1.170103233838823,-0.8744386467256686,-0.02693248543017522,0.17904164522491228,0.14155471628340888,0.7738273423918756,-1.3732179988990894,-0.08371044665388874,-0.9755426620465442,-0.36925599834904865,-0.8779434923422009,-0.28934419957183455,0.4995023254155639,1.011571919854888,-0.8484154843689514,0.5644271272435104,0.6701014588828629,-1.180772257299193,0.8140265129798426,-0.12953329332787963,-0.35341815626406553,0.6526394931434801,-1.0043415374141487,-0.5263873321326706,-0.9787015879506672,-0.013273451928031138,-0.006951602721813963,0.5149960307119105,0.8389605050653123,-0.009404447625605368,0.34817935798470784,-0.5261402408018672,-1.1666901984976088,1.7067074524128045,-1.0189062978661578,0.6811780124850436,-0.10622817706152039,1.0603301432425791,-0.757512305899605,0.9132119737391903,-0.6599454081385282,-0.15391139660456463,0.042284523374389156,-0.10183454125280374,-0.5873155249289032,-0.9457622701558985,-0.06569908674843108,0.5511461703232983,0.2989924967919765,0.3841386447142225,1.3110602855261233,0.021997547698590157,0.5297299367221974,0.6738503470804966,0.7081757076455538,-0.1157910408492959,-0.3727516494232792,-0.014377231013924924,1.2983757696449552,-1.3828974319327354,-0.8388012219590321,-0.5423219396710702,0.6523513027347508,-1.4598240759591061,0.41008870049379204,0.7977961949884802,-0.6218583796091941,-0.2714844732196305,-0.00709351771764774,-0.2581602348413839,0.0760510359020815,0.9121599466314048,-0.1900727364093511,0.3358862748182272,-0.22839143470610093,1.5515387559509293,-0.9395174151044412,0.3280915675050848,0.3569837693959176,-0.48069447853345937,-0.1835309573846324,0.4734879315117852,0.3095951801328549,-0.7890640722916029,0.6405276530169701,0.2607147694504697,0.35494521597913126,0.5673367340680191,-0.45791565361576714,-0.9596902462692409,-0.6664599940558654,-0.3225953694252002,0.6079272189001561,-0.8087694523883207,-0.5557889450667889,-0.8776323063372596,0.8892774754955793,0.14222454093400663,-0.2608137932037781,0.08731596534358796,0.07185423803612395,-0.1587126710074753,0.5381653016467192,0.7700478280381027,0.15291369354762516,-0.750180071273805,-0.17733822210074424,0.7091637002212146,0.05447292260188759,-0.6533282188735383,0.5232328091903672,0.23052990682096017,0.17849804889650298,-0.07323817782203978,0.2981657295878517,-0.34536915370015936,0.4898645486377979,-0.09594509662500011,-1.0176736114512983,-0.0008017405425336812,-1.0853373356146991,-0.36116414429902943,1.5032739501445815,0.7109917670999131,0.5234203063080306,0.49319457617293294,0.1500875331097623,-0.11158114733280777,0.8619535702101884,0.8791580748237532,-0.7795272013502693,-2.0291062691978774,0.3015147729694389,0.4909792499241084,0.09694559871067618,-1.108937396059908,0.03126864445722912,-0.15264663876865595,-0.8377636995514028,0.044858561626003275,0.33737113556520243,-0.10586673897218912,0.21100700213030038,0.7059265198678709,-0.6294696090782482,-0.05669571140126055,0.838672242631673,-0.43575593371105453,-0.20995420705551465,0.0912061396651864,-0.30796028687717447,0.5936074367608163,-0.2479836476210968,-0.07863153791411312,-0.10011148215269977,0.2664386030117945,0.15574209058342015,0.5420703525051533,-0.3607662698488577,0.060905133503198663,-1.5538545591576374,0.09516483790440637,0.7324071721586226,-0.5572671598141982,0.2186052305380447,0.9064938272253807,0.30646610767977267,0.2633289716588428,0.7804312810255418,0.6083270945123329,0.3029272641164038,-1.2366211133951572,-0.513555074755216,-0.6665364288449483,0.24560628855001682,-0.5215933100395421,-1.0319769394296552,-0.37399112117572547,0.8873304000174708,0.33058983971588835,-0.4767298904518834,1.1583210767777588,-0.011720774404921534,0.1318547839345493,0.9618396154924258,0.7039776778348875,-0.17098549436128102,-0.16095227870006248,-0.6661505298877595,-0.6926600809723521,0.8008764102344487,-0.016999776676090213,-0.3456078385791955,0.12170804966347591,-0.7348458077883485,0.2965397934842139,-0.029432960255933102,-0.7577988498563034,-1.204695218826751,-0.19403419651239484,-0.5587731006950053,0.24900875269780376,-0.9426471531285994,0.1286782672285617,-1.3484362734784587,0.5718068761614238,-1.1999208918878097,-1.3976721282896873,1.0184428848693294,0.3642615437642612,-0.35716775385769,-0.060437182102947115,-0.856921477839272,0.23417623359971212,0.7621215048076067,0.2568224711029234,-0.105464033767246,-0.4840886091794345,-1.0741114385349306,0.8060958841730307,0.410798861684839,-0.9751561689909829,0.018953484513997032,0.2326365202185809,-0.3966963271925491,-0.8330754062093568,-0.5616593966565557,0.48962323917190287,-0.3109442849661609,1.1474468948031826,-0.288632273287371,0.45754507194921895,-0.3292010615850241,-0.5347597527222718,0.316640258187943,0.33604691758923877,-0.7277181349569085,-0.09198630293721843,-0.4157078118418729,0.3606761042250042,0.3481026802413713,0.3213026474727161,0.48923859830802685,0.3393388673486058,0.6262837814807223,-0.01373594200395223,0.4774741771083728,-0.4606009622224917,1.1689411873229048,-0.07092695491136002,-0.2313032653732105,-0.33453132722622264,-0.262072807925797,0.05469860483093175,-0.14915061253625894,-0.037714777567487846,-0.14481369431490193,-0.12363930343168295,0.3836042639385509,0.2613492715644417,-0.6250987090511051,-0.1763333144247089,-0.16649339564692497,1.369976338483373,0.46368584034449284,-0.2779982139458163,0.15093304622841006,-0.13194409489979425,0.2671303409878076,0.051864522340052954,0.002081505968911254,0.8488392007746208,0.8422630007030248,-0.3885507614953703,0.49816022487243156,-0.4852596688987816,-0.21208845920918298,-0.427976146213564,-0.31771615556696237,0.21254017221378102,0.4169929261406012,0.10465064209099745,-0.7146062218832128,0.3558369401489915,0.08258824235415803,0.41395069034571497,0.5648242396654046,-0.9132029131250765,0.22480311703496295,-0.35286807910758305,0.22873006070055973,-0.5183724371980869,1.3736887355099583,0.5862870665028773,-0.5498868540400167,0.7377699040707066,-0.46365425934303117,-0.9332801851695244,0.12314444509429867,1.0944040220673936,0.5582584242614947,-0.27500891971411545,-0.22430263241186713,0.47774283362694675,-0.1252366732596443,0.44202218596520937,1.1491774691698786,-0.2892220563488637,0.016566540484431742,0.9634069508740173,0.5485201176841996,0.7101872071716586,0.3075516104294425,-0.61126381264743,-0.20430715713819247,-0.5246882853055794,-1.1802406937277583,-0.6265480250454013,-0.6083581419283034,0.20840048694813448,-0.20308350156651692,-0.41487734453598113,0.9457968705814368,-0.34584589286142053,-0.12501632365357,0.05959187419747214,-0.02925082526210408,-0.46229637146467517,0.9458011447838552,0.04025340071360065,-0.11050578997821764,0.9101206438246883,0.6488854840049999,0.16526121582645673,-0.3935968658385363,-0.07071757536280698,-0.6163004806141548,1.4198353265115742,-0.32283839019030636,-0.5058719675113396,0.647622200248596,0.5132884074719143,0.60807974621546,-0.9642128620221972,0.5443358203363341,1.1293559274528955,-0.18576504116541093,0.14915636712420582,0.41567178603504784,-0.9129534324652873,1.1206550541725893,-0.47913988564741755,0.1911370895871065,-0.3313772984283124,-0.2817303418259524,-0.03388599746023688,0.08483132383185296,-0.4647651830978248,-0.1916592492873605,0.25663708109940325,-0.2919205598946245,0.7192852883262969,-0.1606960990835699,1.1895986405028158,-0.3387216270180425,-1.0501403178991144,-0.3882862967242915,0.6447295938686337,0.597537972573621,-0.20361491048265148,-0.35129729948990984,0.11345113162939657,0.10567882271013046,-0.5817783294598886,0.2084319082711856],"fitness":12.504455166666666}