{"v":1,"inputs":13,"outputs":17,"arch":{"hiddens":[24,16],"bias":true,"activation":"TANH"},"weights":[0.4197552038144244,-0.20964283804154557,0.21124872147251234,-0.2883024905476501,0.2729267028041785,-0.5832548403732043,0.7283743326826231,0.3849733818925496,-0.785812225489441,-0.9994756037046701,0.19984900692509064,-0.6154929549022224,0.09102182473603931,-0.31115246719331996,0.3692189192182619,2.348863628824743,-0.44031814849149,1.3253953545213142,-0.060917781240692956,0.6463530536955371,-0.2775339510405816,0.8132251296430335,-0.01705600263898641,0.044339324784420674,-0.4919233214647784,0.12416216643351924,0.34123384738292095,-0.0526657130292322,0.35910784010890995,0.07227326316701804,0.015485577636928635,0.45111471034357553,1.1971466800102093,-0.3224126684240353,0.9982000116664652,0.7866774136330662,-1.315356313261536,-0.6406414998241238,-0.6776521634290489,0.6257802174550015,0.5027605820496261,-0.9293944578360505,-0.1843296979470732,0.39224143577829174,-0.2137281278953372,0.6150459182073439,-0.8125405571318436,0.5951111933587729,0.46229449078755214,0.43672304032967846,1.4318212329608917,-0.3207863236768546,0.5579236870020123,0.4882428235354163,-0.9716223264675279,-0.6217602401005524,-0.18468926195031649,0.14073327064453023,1.1991049276088401,0.2119526709498386,0.4936448163499426,-0.11413413270374552,-0.24485107991483007,0.633152991450667,-0.8662447146140405,0.2096235589679971,1.099011396370817,0.4890401608610395,1.0592579715795136,0.15395445083238452,-0.913827066403053,0.4283906725321865,0.012836707476139297,-1.1529768617431297,0.9018820699794198,-0.3186697954679321,0.6685080292114406,0.6700557248017471,0.4686556811006475,0.4971792982414915,0.33769963798021446,-0.18151382497191274,-0.46464726587838556,-0.1185934741286062,-0.024842153311052603,0.10151917245042123,1.0807230993791874,-0.34785256253932306,-0.23892434759039874,0.24923245843608463,-0.4381887547996221,0.7937323274818082,0.9211690796626608,-0.14503248910753022,0.9299881408869267,-0.27817889962301334,1.4037994112448042,1.6218321926856787,-0.05390139244748126,-0.19699366672041232,0.16270483683860995,-0.8101629787450554,0.31049715607116357,-0.4192580478451702,-1.289007179690122,-0.4563265095632355,-0.8313576488863927,2.052215323672356,0.2784071397877854,-0.17020416730949547,-0.6682989213840365,-0.4223470277182935,-0.27222109666726135,-0.08807848862584162,-0.42884409477329266,-0.04024724944833272,-1.0137409983213552,-0.6521220606561746,-0.39298937540151,0.831384569269498,0.457620709952406,0.027020509438136376,0.3972493168779724,0.9147488505464525,0.5526875896433683,0.008599004063240453,-0.45117848520416687,-0.40872143140319217,-0.8628347121535581,0.10272340970821844,0.6623200248594183,0.23491042814026464,-1.0851655618715705,0.5154547831550351,0.9163281841056541,0.6409253431644772,-0.2346054005047447,0.20768474472923573,0.5332293609009232,1.1129477056254746,-0.8385629636165222,1.3331085796638618,-0.018019738024764517,-0.47407903941243923,0.707631044583438,0.7111654389631665,-0.3483218519620829,-1.1480235209115452,-0.6430166789709977,-0.1388221154801327,1.4456417951340153,0.4395670337467441,0.7310819253826458,-0.9988435160102521,0.44615505548162476,-0.31548819361817304,1.170956248249698,0.0618352044555589,0.04992772735030222,-0.5110223948462398,0.7364678921685474,-1.0937998744449249,0.9171572971315766,-0.27742730072945454,-0.08385742460719427,0.0559379676171739,-0.6509078512880975,0.24378901523272045,-0.18716327371197117,-0.5716935253649718,0.4420049915010948,-0.02328685542310127,-0.5523014899136245,1.0147848519531346,-1.1360454741389812,-0.24992142180551735,0.019258365449865384,0.008313406144301129,0.38146876913032307,0.12981420096873036,-0.7862322735960539,-0.5090916924149189,-1.0495004664829923,-0.7004317544608917,-0.1584004536693916,0.11143549038490026,-0.23771858318356728,0.01827714658225918,0.3194564554968969,0.27662175804582123,-0.3548040667287864,-0.253591740933828,0.1732308822046947,-0.9452078814117273,0.4652124776723152,0.5219968613746025,0.4759551384315591,0.9260755042423924,-0.45297077550374415,0.13414257658326847,0.7549614328132958,0.038288175491047904,0.3472240515092101,-0.38810802516314663,0.6637460667694088,0.4778326747687766,-0.26222732967762646,1.035140163909726,0.461082935244424,0.02171720412494729,0.20280582160919156,-0.35702551125981236,-0.5415252910334536,-0.7806222074940298,0.13131433787069635,0.12075736716294877,0.43593110429511406,0.012144173790656243,-0.017059165620920025,0.7662001943761322,-0.09189637520582034,0.5267952013547031,1.5770396471829624,-0.4165354294354848,0.4315569647996518,-0.1858705124149838,-0.05739686112790121,-0.20850098417579452,1.2214006365856886,1.5364769158142142,-0.948947724491261,1.448956489712095,0.07655024542247932,1.043237496351376,-0.3322546563015161,0.645026985732351,-1.4040785229091228,-0.44916347833269454,-0.6420821343885614,1.0302273117181175,-1.166938535598995,0.39372985334956084,0.5025461185819474,0.45197399399291444,-1.0276829375706837,-0.8384308320582168,0.21569778982569757,0.11406035379772043,-1.3578559371223347,0.23511600956270956,-0.5823676208885443,-0.1275947645072118,0.05696773911480546,-2.0579045094946875,0.387888132971787,-0.3539246570651553,-0.8870462966469559,-0.4688140032609352,0.3237722159759552,-0.48035687660502735,0.9187919068303514,-1.0307509271135196,-0.6356644338022717,-0.45308391933311853,0.2709506691002794,1.3327299547654936,0.05899459652172871,-0.7165925639234612,-0.8021864939157499,1.4255538265979646,0.39937471722325446,0.46638918344013613,-0.16212109814328857,0.43892109950294744,-0.5027586932011178,1.4203609698514197,0.1864821562519021,0.08165924171416447,0.13781858844642764,0.022922533362255717,-0.3301260304875182,0.14193222112311316,-0.21348282187394618,-0.12422933283936605,0.31862278702507335,0.6402292927388065,0.05696566601857175,0.8446847055144149,1.3824610289235064,0.4450147163219994,0.3730752697210824,0.7464613753868705,-0.3275993177381928,0.4417725608716038,-0.18870939952905266,0.8206462477756102,0.1208703618923255,0.03609788605976294,0.7637425062913179,1.7097307964804314,-0.07406877602177608,-1.0619471542810661,-0.554500875678341,-1.3814570192960514,-0.2844970976437779,0.2513490849473213,-0.06319029880125412,0.5518221773265739,0.2500654441802226,-0.14297850401308135,0.8430442486145853,-1.1084372315076132,0.328766387054197,0.453094683360407,0.20225733520708009,0.5414229804811794,0.6091194648033179,-0.3096012117734315,-1.0709938486436512,0.6384071253110347,-0.6382301961940237,0.6588633073036521,0.05310953945877278,-0.2257431842710539,0.1369076587058819,2.0032243213877985,-0.13884228438809731,-0.6983209570921476,-1.5785246200916765,0.09963500323061536,-0.8092771284152342,-0.8187469647711525,0.6393362001889401,-1.707554725689666,-0.27638619768314443,0.32180328779883893,-0.4395171712099629,0.027843250602842484,0.048820570456558875,-0.2734786900626821,-0.8865496690852994,-0.7938498282259784,-0.027669604200528455,-0.3156802541523082,-0.4141961955139432,-1.0908520953982728,-0.2209730749463336,-0.8876141816719191,0.9806239254777593,1.010265358107289,0.30404311446858195,-0.09714816045039172,0.34005189636887334,-0.5847308900848363,-0.6823856347375729,-1.4783459892637947,0.6859903225037406,-0.6090621731087351,0.8557637991230032,0.3893149851168733,-0.0541107071921933,0.06259870103294646,-0.9436515612840177,0.0015416309782885218,0.4793867752342728,1.5175661677968744,-0.21180073444444378,0.0016512214118214186,-0.01360711585372055,-1.0747619944360018,0.4542213313486048,-0.3632496237253946,0.6332376361075541,0.5472896457647338,-0.5627928174306807,0.2782514013821485,-0.23538328872409844,0.14471807271362203,0.695072728894245,0.18389592578594555,-0.5346265470641038,-0.0778472256595177,-0.26123200782658224,0.04806909170573965,-0.003862606611302836,-0.6734751084369426,0.9173987761478123,-1.7757637038408027,-0.10062482484807467,-0.9157125095654228,0.818056717406969,0.9341838866935533,-0.6305309695963283,0.2691516802926509,-1.2310619462011911,0.13587300260823731,-0.3692776230502751,-0.21586527942144984,1.6396847487005803,-0.6038142611643943,-0.015979267814563936,0.6120548229810623,0.8787972643544473,-0.6547763822950449,-0.3786189124479528,-0.18712339639383369,-0.7344486679590126,-0.043108850506219154,-0.39052636793693835,-0.01012672973048375,1.3385319455712492,-0.5376534062014992,0.7182996449460671,-0.7888115715183127,-0.08818959943022073,0.21223181728641266,-0.434543343560888,-0.7342803761979982,-0.32431877455847663,-1.1317482368955718,-0.6868808893455981,-0.038734218749640725,0.4892670408470361,1.171698742643985,0.12465507147681676,0.8285426113302939,1.2317293497855313,0.06856230172248422,0.5982850037173918,-0.9664414968633788,0.4243534434459305,0.5544103443680094,1.8431999257741984,-0.9963766933993781,0.36606614658886644,0.823862591272454,1.3959553374787375,-0.5125943657706875,0.6676152445783229,-0.8374037301546845,0.5742583822900388,-0.02047467783632255,-0.759878897521397,-0.4478281452973185,0.26860759737810436,-0.7991622702364873,0.7155308190681038,0.12588690032238783,0.3650354714184663,-0.3635282109818712,0.2769070709627234,1.220860249866674,0.031773434074516396,-0.4429129576088605,0.6515643358600199,0.3113634179128726,-0.8059238284814325,-0.38607818103683555,0.7623846644400478,0.848286460373685,-0.902441583127121,0.8808996681822796,0.4666053801279282,1.052122667983436,0.08897490341347263,0.24746704645931836,-1.843414946686104,0.5475119270827863,-0.027262414332166862,0.28294204049898286,-1.3556906956397419,0.9245893853801034,0.19898822198706423,-0.8368255325422403,0.8270220447577565,-0.44940595580104425,0.36844920449605933,0.11950631965846104,0.8173016558268302,-0.2105784171554812,0.20527045296867596,0.2471006141684074,-0.47162311400433365,-0.8983978761814498,-0.6961267189126226,0.49779516410203783,-0.1317724367863805,0.8478804017009652,-0.05335803329714284,-0.40796682864640016,-0.6280733772123314,-1.449380476636788,0.6244166734463332,-0.1789078102160515,-0.6208897644563846,-0.5533512838325538,-1.1457525362133674,-0.912118823751134,0.2989818483040371,0.35536565434667167,0.043493346319412124,0.1382736510502238,-0.3308387633601239,0.5876617275660587,1.2179166087737547,-0.21576404158715806,-1.0610446114592191,0.2094828571704602,0.4727729175488449,-0.08391770820766195,-2.035889762654558,0.6608708882135197,-0.004409862588189174,0.17312471993784748,0.41171198898372197,0.391955765768979,-0.14105736622822565,0.3863935210108046,-0.08024471979340378,0.5716944300924394,-0.3556734769041479,-0.23578812425148465,0.008511756807116022,0.9969227292972794,-0.4702747401789248,-0.5553074103963361,-0.7736157443045834,-0.7016209595805342,0.10385439161666171,-0.5354986604064443,-0.24577260845563148,-0.10739635008803067,0.7040751826241918,-0.01182544267803904,1.5600417702465323,-0.25873632788853845,0.3101007073641693,-0.013788769762219127,-0.46516453760305837,0.8488667867738474,0.15251384354120068,0.5143705576006457,-0.16340511333819585,-0.1659275233219026,1.2242655928561403,0.5527466556231465,0.08006778851829525,-0.19670538430347811,0.0799363464002354,-0.5841250489533875,-0.39524679183418737,0.4373607067922029,0.16480526553784208,-0.3449838504289905,-0.30550708951862815,0.6995220017431988,0.2963640210074031,0.3319224054958742,0.3848112934968037,0.22381384123470158,-0.3599410140229888,0.16081816325810785,-1.3350181076990664,-0.38197537496533146,0.5384549890000103,-0.411044278545087,-0.528110081663505,-0.9019315483514386,-0.6659501638228701,0.16657081069029964,0.32914422373492047,0.5404154990147874,-0.8450040308751153,1.545643181765054,-1.3371085153899704,-0.8227381004049227,-0.31139960796709976,0.07637760423068378,-0.5127396135179546,-0.6191670076625964,-0.19731507207967017,0.5065911117958478,-0.7161502368945942,-0.6285385105377628,0.5870591554047949,-0.6109905990397376,1.3273940711851806,0.392538454265441,-1.9015307187516204,-0.18467296691557655,-0.22440911096053895,-0.23901337735873052,-0.7114850267419272,-0.8802639584515118,-0.47872110310432964,-0.45970700869153835,-0.8741317629459886,0.36876128112913364,0.11616524416799391,-0.4376139616941395,0.15355016677088115,-0.8826466354530049,-0.2886249208720521,0.41578756556934354,0.10838084874039798,0.7157192916629544,0.43689686993407423,1.2974347270109623,-0.7624165107180734,0.09078163902553572,-0.40118353967977877,-0.8113504541420646,-0.13382152050993742,0.5436585038666549,-0.2901918933050385,-0.5635828729830409,0.32951178507256684,0.20989985952603715,-0.4255557406307676,-0.3956171302173847,-0.46553560508748104,-0.6612982672183092,0.3323369323359599,0.7238909710257145,-0.18134243809805464,-0.5853666136031386,-0.12579728694480702,1.127706144958744,-0.26177810878589935,0.29999866938453285,-1.2082507476430864,0.0141618864901716,-0.7560090062449848,-1.2357136254504941,-0.6870623991974683,-0.5598321763051045,0.33278861937629295,0.6807829209906083,0.35235935845599053,-0.5205899693689797,0.1407508586394699,0.036945534963051835,0.35334010302707153,0.102802799461053,-0.32531238294083625,0.5920431985690142,0.23617569419727732,0.36752643036324195,-0.5695746877565157,-0.3676158788720585,-0.10941893404326125,-0.2602490632294325,-0.014791349934440479,-0.8164219489814176,0.5160725923691067,0.9881999633115579,-1.0674921283843444,-0.0005412610443804589,1.1033541555499282,0.7988088790814403,0.7857016256155132,0.10484405463808553,-0.1998748212952141,-1.2712484093244283,1.1687980611792403,-0.9695107836159906,0.305683622330738,-0.5334136250025533,-0.19799978470987006,-0.01248794431663208,0.1663325339220694,0.3068603077993936,-0.026529233004084562,-1.095759230059993,-0.9372821393817546,-1.3033354744508099,0.6296842718778985,-0.44597519736480545,1.366666155598843,0.32069959713491264,-0.31479628639243407,-0.4035485444707525,0.06034672026559662,1.9625818586765595,-0.11205273678151166,1.348521100777858,0.36565956524179,-0.06104648679861807,0.5724935424388173,0.3775127977412297,0.46232596214308863,-0.22139013809341754,-0.9280548996519857,-0.14532863180242875,-0.43503243017472304,0.42955964821802567,-0.3884192968031609,0.4735458448226531,-1.803670388120716,0.20835803042420586,-0.6680756755310342,0.5374171408894106,-0.724448915507413,-0.6007900346037897,1.0288418995630197,-0.14039392322840769,-0.6788137608608267,-0.5805784587408969,-1.3152244769405066,-0.3232070507188538,0.29726966191026605,0.42515837718021854,0.4609250361840135,-0.29518965392798696,0.3250718140511539,-0.6444162255145461,0.855263887591199,0.6324470375685927,-0.8982383543118899,-0.17685620807166907,-0.020578657215654994,0.08479089445159826,-0.25226000993430714,-0.1171243341397611,0.16453418394658037,0.2735982160390333,0.5521661840833367,-0.0947702860025586,-0.31488751498425005,-0.9006523774889952,-0.262249154803745,-1.0910133044652142,1.374307905374925,0.4697929382349307,-1.287180485817139,0.9823911657275994,-0.5055045026324717,0.14499272801550964,-0.46246508990675184,-1.1196280128653446,0.49422163498762584,0.712913303868874,-0.7899528350192904,0.8676073903502026,0.37724209995456615,0.15022543696574428,0.36458597442693497,1.4998993674344978,-0.6356576753026759,1.6264984511621348,-0.22598912336946853,-1.2057062212285092,-1.4686315002660089,-0.6885215559309166,0.20455406715305188,0.3511097844321506,-0.8460287743884456,-0.755071227789869,1.0459008378037196,-0.5988757147483745,0.3703752341168763,-0.543176441647819,-0.3373457875621221,0.7479253991684152,-0.9060170973541415,-0.2505927458713042,0.3433147206708059,-0.4730094362042523,-0.07471455976467947,0.12901944160543394,-1.0097870700884053,0.23632405669288678,-0.28008709037975915,0.7741493897928888,0.6110955389123488,0.3437421855218941,-0.024453188342317946,0.4450270807161129,0.24117085307478456,-0.3279680844998745,-0.2134853699209366,0.6635435656338399,-0.0883374220294032,0.13930179585248545,0.30381721769233216,0.04499821114384043,-0.5044268844938127,-1.4765825905360779,0.23429749267489597,-0.3320164088196614,0.6584462487139844,0.8948567348445798,-1.1120738202536127,0.9066333841675227,0.2695765360631795,0.14911753131401378,0.777175380380668,0.6381410882530167,0.16779880473325356,-0.33974182214537385,-0.633020852306911,-0.288992712684334,-0.01238218278344115,0.3808267004093774,-0.07359402406275145,-0.493706009006729,-0.6825360074089305,0.12444226099566226,-0.6699966925631079,-0.5621984083497427,-0.3783987216103908,0.3650379990657232,-0.41257786221440634,0.2449786941022295,-0.5098476037383205,-0.3068315326066977,-0.1386968009666176,0.5589850200930007,-0.37439348259752003,1.0492391606300768,-0.45031753113411505,1.0716592983571023,-0.5399447454073754,0.5141447014094344,0.7715096084109586,0.3629167969396083,-0.8078125570071966,0.11126849427946293,0.22460505206751205,-0.7042999717407762,0.25672380317333254,0.2650445984484474,-1.6462590682760647,0.7653789927843321,0.1694600212791287,1.5206690171374635,-0.01045995289205548,0.7560156493369035,0.15069779847347034,0.5061839511281514,-0.30979693541036046,0.060531786380741165,0.24782127934099735,0.10825724838953693,-0.32653983819697185,-0.5517593600085844,0.8840019927033415,0.8271283827465779,0.4050978241815922,-0.07165092085868813,0.5354915858932813,-0.23741476638890086,0.47426733923300735,0.28260786539320654,-1.0673906629261243,1.019526191680206,-0.34303648509351103,0.3886263143531646,-0.2567440219944099,0.6820265559116095,0.5210529669473208,1.3170662542252976,-0.046469030411990214,-1.3562688225476651,-0.2455848899518005,0.2561644913841469,1.0292467165967876,-1.0791190052156567,0.30603085070459146,0.6350856202767224,-0.03659523300616506,0.27708256206230236,-0.025572645366207153,1.262439688750629,0.2547079384508661,0.3314099403501979,-0.2018544128590724,-0.5706378325091954,0.4339371167832189,0.9381546193784458,0.24754790134773347,-0.1731286653363946,0.06996804733847439,-0.038633195939074265,0.884260013683944,-1.1260230821915371,-0.025042871466974842,-0.4273018540001175,-0.8998203983980815,-0.470446656397397,-0.4688977850347465,-0.41394957905624036,-1.1300619088513613,0.49957366052462693,0.13418389916806803,-0.04095386757551484,-0.4577345575424635,1.075228869077221,0.8048239696256292,0.8569734129759179,0.265326133801744,1.0109611952396491,-0.553860388555337,-0.7459023639186495,-0.20411958796180638,0.6341866077844232,0.1749165162030173,0.0846972180913853,-0.8073208126151193,0.33841462943117195,-0.40242731535509846,-0.17372167857567591,-0.419096537206757,0.9640396893505538,0.519329671566957,0.11739478076368971,0.8787724070815642,0.05695782337162206,-0.6834351011866451,-1.27353312077791,-1.3569954840888363,-0.3384145753864542,-0.43941234022973313,-0.5209343393608712,-0.5325734826034377,0.238142264894513,-0.021796994537175082,-0.5485988195671471,0.06199823422379906,-0.3463570431904343,1.8500883739221592,0.7774080585080699,-0.09705089049817378,0.4575756295015099,0.40418069957009356,0.7214962395653332,0.45729964355544744,-0.21273816175071178,0.10296884808911486,0.7043725736108502,-0.08939303803788293,0.830681188491504,1.164246665162171,0.6225514702819935,0.6851456930521764,-0.1755573905254743,0.50056833365991,1.1952363735855809,0.06276623875062173,-0.32793351521301056,0.38279081317625235,-0.673121332499358,-0.7897265117016843,-0.01770157296489324,0.1872110912178985,0.480137633765549,-0.0692095439982282,-0.9431449502225422,-0.0228087653405337,-0.4108003840943894,0.20545938326973237,-1.3904388869948292,0.2269694259624053,-0.8552415579661874,-0.5372262016622151,-0.15565042125260503,-0.6707405644614733,-1.0926833830764637,-0.6329796007609801,0.09219851527684125,0.24505469960660223,0.9425639698875532,-0.27256770236690353,-0.47580878872130683,-0.7299904291954162,-1.16990653174666,1.048366884581665,0.8963749289796928,-0.5510193368068936,-0.3481767173055908,-0.3846787152998792,-0.6207958253702159,-0.42060451624681966,0.028096097840540197,0.4531651620729992,1.1246951533525427,-0.29008065815758455,0.834501150329192,0.15142942030819215,-0.10472391889270855,-1.004847260239387,1.2880451583425039,-0.053684724913878615,0.23138464889892396,-0.4480218521496765,-1.1397980377840666,1.1880444175160152,0.040124187933386124,1.3131350647816988,0.73353216503265,0.3880328918423881,0.552171526632414,0.5590303653696816,0.5482479116573911,0.5963797218370004,1.1658187203504806,-0.43391239062984277,0.8260999746598165,0.18516779191538316,0.04813756859255454,0.12021685434736198,0.5331248932578853,1.4835940418268216,-0.3561384088707369,0.007358765650148452,0.4867060224353509,-0.4516377734838271,-0.8067629113554554,-0.7590578062797125,-0.4837883875331316,-0.11873665631498911,0.15498006585734164,-1.2742858363535758,0.5868992844874706,0.5033363259461323],"fitness":18.005706333333332}