{"v":1,"inputs":13,"outputs":17,"arch":{"hiddens":[24,24],"bias":true,"activation":"TANH"},"weights":[0.2390591239176031,-0.35369639858616886,0.06425533128864717,0.5938282833465877,0.825688503632741,0.34838029610333593,0.4120884800691723,0.07407777419609493,-0.6037050028108746,-1.2274256470151794,0.3105367007333874,-0.6682024080282013,-0.6578906009342075,-0.2748879874851673,0.17837645026590493,-0.10096899861356037,0.17992297105829197,-0.05197209881396933,-0.5470247432154878,-0.693593852166843,0.9864913257148695,0.610450427490288,0.7572623105081593,-0.4601636228328478,-0.2174485251034819,0.6508333453976982,-0.29739306684830846,-0.16012415853969705,-0.9675829644124586,0.8165178874578437,-0.6370266749942152,-1.3396370742975774,-0.03881157944582229,-0.4221077356830481,0.7101135289868901,0.5130843762562024,-0.05185477090379668,0.39868263250731545,-0.13864009614373665,-0.35577439368927866,0.923392733535497,-0.8625259581043204,-0.4207256304603472,0.15100998400747498,-0.4750632007886294,0.4236498551027096,-0.8319744914631783,0.7416051756433568,1.509872719577732,0.21951329338678838,0.5313932506366338,-0.12082505429257978,-0.3282420273700995,1.277713669578576,-1.2435376624893046,0.5175377288151735,0.17169807056331637,0.5722054810007017,-0.0933964579164347,1.9391917130006369,-0.4576107542872817,0.14871157671241822,0.4697249648036298,1.0463692272256064,-0.5260584931622851,0.6850528891860475,0.07083479863120005,0.4218745620868977,-0.7602971941673811,-0.2716866614480766,-0.3710683617028193,-0.7034452219750098,0.30557752019760587,0.9880013504192823,-0.7641527468730758,-0.3837821432739017,0.5725976694268397,0.1432029243537396,0.05974316140374049,-0.7965525973830326,1.0602349374433022,-0.8484803643445272,-0.8198178169642979,0.14869508421159255,1.0187400827728457,-0.3002048342226227,0.6872320351935165,-0.4828690800276643,0.7089743236259258,-0.049342481020496376,-0.9772931610701306,-0.13811432361654413,-0.6243024533518955,0.4408517377401573,-0.36600237385143586,-0.20514144272320511,0.5553517048286966,1.359974669179162,0.2781747467714608,0.470287607738633,0.7542303592663648,-1.1601575089177927,-0.3700213036735786,-0.08419155620110824,-0.18225918829100765,0.4016751064909063,-0.8865502066708153,-0.8398866988127442,-0.01577064427607151,0.4120267171586325,0.6319537498187614,-0.4064580572005624,-0.8585429103162804,0.3797213513201398,0.26928530294817854,-0.48846061524214196,-1.0564336250600266,-0.6561235569231554,0.30590888074696054,1.1190747809008086,0.29066309670044876,1.0504371553864826,0.20574182025762466,0.19513849966065447,0.04968472772316953,-0.6999657997446618,0.2766548520326687,-0.7908735248947605,-0.6829116010060065,-0.3172093932229167,-0.37798335876723343,1.0530745802981212,-0.21675254871142602,-0.9222886187914652,-0.2839423461239786,-0.09154523651434644,0.2603143904824521,0.7434399755106916,0.39979407896143426,1.0827908183195118,-0.20283121789622804,-0.4299087740614531,-0.8390984881475648,0.7357084824170436,0.22872744029282838,0.18499531922092158,-0.05176295186387259,-0.45706374835937513,-0.34508175805876395,0.42805481608298906,-0.1379386601873857,-0.6262810849935013,0.020727125917118394,-0.35391400553270236,-0.36055809848383,0.5404545990834555,0.7085700887461055,0.7081611769035112,0.024811441135878354,-0.7659412254255227,0.9365570167532133,-0.6053683678900336,-0.0003239765651386782,0.3220248664768999,-1.1755869310277385,-1.86588020728675,-0.46777393635776787,-1.560577893182705,-0.4503422212775259,-0.4529060416463365,0.09784106374998804,0.44362000659839085,-0.3360135596453751,0.43393318944987647,-0.3931217543264585,0.355080306805559,-0.8441063736843996,0.0032681396374760604,0.15491438920077408,-0.577889890430471,0.3698031599154503,0.3499465716997972,0.3904482998559937,-0.3018763766235208,-0.19466326567169034,0.1492435404276802,-0.22399524488246064,-0.485689515690405,0.9463416291264993,0.04077182801530471,-0.4067737480363613,0.519273091654901,-1.1611307684284378,-0.07409888238074315,0.10777973770442567,0.11890606781066769,-0.970439952384528,0.37165178322864806,-1.0371064874667062,-0.3720583312048445,-0.3993765338366278,-0.05349513357011653,-0.34576723193301784,-0.1122936339418017,0.2528347345350164,0.06360178381374819,-0.24086901959398693,-0.3686088299115211,-0.1493845391105719,-0.24206715758340488,1.1194839098620122,0.0982004041398827,-0.20839361419269328,0.22435510129532626,-0.45060908163923796,0.019607257195932638,-1.4008503538044548,0.3432498894111213,-1.0855958640274543,-0.7859405087718878,-0.41917380260889514,-1.0129647578371954,-0.23748127539574326,0.10328941534121128,-1.5037575214287622,-0.26426140084732697,-0.5375497758094634,-0.03411457170534504,-0.004178190412638557,0.8519570599608192,0.5977498923442474,0.09406613775490699,-0.1415133257342134,-0.5481548854635192,0.38890557601305054,-0.07198862639961412,-0.03780882174244152,0.2678073690878624,0.08437867234187352,0.0478847652170252,0.2959414991975206,0.4518522450659128,-0.43289792765911306,-0.08397000294062949,0.3216885114160573,0.6279105525096582,-0.945436091597768,-0.3360500289679553,-0.3585954211040875,-0.300335970654283,0.10828146755477686,1.0007521231161611,0.6707679156401176,0.8380546734257711,0.62631662792704,0.7879970973515295,-0.5877928305764121,0.37705962751788596,0.7461572427945493,-0.2933726251447153,0.4908034609315462,-0.3653371009160276,0.07607854592491979,1.5329045623387538,0.2899040405822942,-0.4301729989619704,-0.468272992102415,0.0016279568369387837,0.19944073644056548,-1.5533391816419102,0.4604522053762169,0.40292390759130975,0.16818106198633143,-0.5871920886003275,0.5619397914779026,0.38474189896115285,-0.11864069661679587,0.343078790719663,0.46851535136768296,0.8226932346645223,0.36583375438701743,0.8490091578482528,1.0199714370118336,-0.37885840735600684,0.1952250014756956,0.23035015832192424,-0.4715546844888102,0.05758699498914514,0.15099356084544835,-0.30954995893971937,-0.9723615500988516,0.364166131604623,-0.3267444193745514,1.4227150202106897,-0.23121876131036248,0.24373108466981575,-0.6933164156971455,-0.8073165104080331,1.409328295225082,-0.5003599878717674,-0.09127642930472246,0.5711961507413231,1.093656459594907,1.2961910194051265,0.8660623551785793,-0.4801236144800606,-0.3085127862652593,0.06171157649130078,0.45864313562926645,0.5289419537430817,-0.43548025723077766,1.0026647863003533,0.550887509295135,0.11048608319170539,1.3961627724454728,0.3167872105413399,1.222980388871996,-1.0789104343066305,0.1387553473219144,0.40244583794864885,-0.29542098571830716,-0.4929413189019123,0.20676995528496112,0.8288311223522495,-0.23034094339035407,-0.8573870593456091,-0.004667605012923283,-0.47030947193937755,-0.2958393534806191,0.06140352514546931,-1.1994264041080462,0.6455727581875045,0.42384910725509434,0.08759611794826073,-1.4444536531527838,-1.0634325030970724,-0.4225373160680685,0.3174224786622614,0.5676950566498872,-1.2312274753958141,0.16169508072023167,-0.6047834988436285,-1.0463036571146087,0.9058291991535821,0.01662191763768717,0.3621576920461754,0.3019722205081057,-0.25072976648854706,0.2899535500043329,-0.11632923503436837,-0.3664257968056983,0.11532074436826448,0.7718701948033135,0.46535350042220425,0.14622745001722898,-0.27117726142532955,-0.17946608378464177,-0.07689639566674299,0.47322820087517437,0.0037728651632154236,0.07740784993522744,-0.20622875682124858,-0.6590349676124603,0.7507135008929039,-0.3316909587781407,0.8569015338381595,0.7250299587649011,-0.8277853003141781,0.44571995706104806,0.613084983812806,0.656169613926741,1.7282230047141138,-0.20126911835986555,-0.18979690161915191,-0.4006527583072946,-0.2983923130900598,-0.3370242499917059,0.2720850011376141,-0.9903259670641342,0.1080711021067342,0.5285246274689465,-0.1898110972227867,-0.8434998671436651,-0.7929819890042015,-0.5098419276886181,0.4344746504284742,-0.1721950396736479,0.8139003670057102,-1.1602549217037705,0.19974014889342293,0.23880191099185144,-0.6820467946692953,0.13208080609104436,-0.5091544487005554,-0.8627853547236268,-0.018109087676123282,-1.0552305480356343,0.7457785501352285,1.4827078175425668,0.8263599111007552,-0.3665480571692818,1.019948435571506,0.16527908255249818,0.1900322678953894,-0.03178143045092172,-0.3915490998181175,1.0219943084661298,0.5624647661850405,0.6762843479694554,-0.8004276831228659,0.57171457218531,-1.2080377123166528,-0.4317008310908759,-0.3310750476021083,0.08424366669555199,-0.5902160613723341,-0.4440301751085304,1.2538500061180655,0.4366955053121899,1.3025551640512738,0.010920444918049341,-1.1422744949794477,-0.10881421395477073,0.33909098683622446,-0.037476243861165354,0.14507744171087247,-0.6965491163528683,-0.2956906499364115,-1.540324403369508,0.4452156093004597,-0.8018235164568419,-0.410856316755308,-1.2181235263668715,0.45901175333116045,-0.13686246480119807,-0.5181174770510045,0.2121839506907665,0.11639589469259783,-0.4764140898453955,0.29373568734504973,-1.7665792558169273,-0.05563803453038175,0.07101133084152457,1.1967573062784571,-0.20662782565491203,0.5071582203354288,-0.9354630449282916,0.19603111099454326,0.11240417295673222,-0.11570356446059349,-0.5485240705643689,1.3144150081360895,-0.2908784518294257,-0.4729217896082175,-0.5456447202260359,1.2241981638941002,0.0035633254131678394,-0.5712598576096212,-0.0846664483925262,0.6109868404193561,-0.10601720030239685,0.8468101581035181,0.9448102124687265,0.3997149283095618,-0.509535650043885,-0.045401857550557735,0.36028511588026474,1.3806471591000116,-1.1163022479582836,-0.12974661058269255,0.4582137380654283,-1.086040381868228,-0.15466216275095215,0.4597347385253177,-0.36361924593932465,-0.5697395800611448,0.2957919850509251,0.08855145559868251,-1.4417919606341372,-0.5851145172287336,-0.08341634388186474,0.26815008219744746,0.397067475735213,0.4801848907543763,0.22510785302524422,0.022566418922433273,-0.3456035812924664,0.12517367216305347,-0.11845993528629184,0.3815326398756168,0.9975188148399112,-0.003655036671094124,-0.23107374259788988,0.677929479203681,0.12582886712861371,-0.3966028248822097,-0.6379817314410489,0.0029138477843970354,-0.09398443963471363,-0.3296235255069962,-0.4072092686353487,-0.6915457789970099,-0.10302563578487602,-1.3199967165079536,1.1181087853912375,1.422186046359345,0.9456676331680347,0.24758791721974308,0.018118310412223396,-0.4226270250464146,0.26360875444364573,-1.3607047038840254,0.09180633407505936,0.676601613801951,-0.06598440252784811,0.18426561815327186,-0.11052240116638433,1.3081969708622043,0.2699028893915102,-0.6854512210179684,0.7924433171590103,0.31746347054379637,0.13831304676848524,-0.2254575576259493,0.3500121520024308,0.8642968099625369,0.9261490961498062,0.6039533232659583,-0.7911076445954976,0.27936737392343974,-0.17646234010999265,-0.6494754557759083,0.16958925083390042,0.6669529526832836,0.024882768467613517,-0.3760269524857505,-1.4606242282212751,0.73430726283769,-0.835343042474247,0.01553342269609364,-0.39012650875199556,-0.49741797218023753,-1.4380079532141132,0.49227267899977784,-0.3295849717940442,1.4211397141984916,-0.5325578664094905,0.3766857838409669,0.2397622549696558,-0.4139243541337024,1.0066405016537183,0.2396693741764921,0.2563973657573414,-0.3773922799292108,-0.08863700539862172,0.4372304879162798,0.12679200063651655,-0.6363899638145544,0.15578781129522956,-0.32512984304488707,-0.3456559449192532,-0.006075779881026174,-0.08584144734728066,0.5348340375409579,-0.1305022512666993,0.5088769104847096,0.44394045817493993,-1.0817979456141338,-0.29551176285456243,0.44656372891220253,-0.42075747205861314,0.5581785350107573,-0.1765296254279735,-0.4620859435902165,-0.4918673898273105,0.34149024445367077,-0.07044523457811465,0.5334863916064615,0.09081658338018321,0.08870276838758567,-1.205370370284264,-0.1959242648728171,0.033900101363995135,0.6413602549813647,-0.5240839902594897,-0.8192392731400333,-0.811064071512509,1.940281253568559,0.0013639667867555733,-0.4477502283962372,0.2953549275337367,-0.9363229795816599,-0.14120217868710683,0.07701832213991379,-0.18004593634777474,-0.07535437429456485,-0.6880023464560125,0.6192471873310149,-0.1616820186050876,-0.473955657532931,0.9855718509289524,0.7942525372177675,0.5117115804079331,-0.45661893985295565,-0.4190487916779465,0.03766323929055229,-0.06652943663102967,0.656248521132393,0.0743507406901357,0.5756204685508928,-0.8247167454784491,-1.0935799834901248,-0.9431631738470141,-0.4601907127143249,0.121551489650422,-0.5005638615924485,0.22424149991047887,0.031912335068841675,0.6423395653701931,1.5090433778574408,-1.0237274083593246,1.4357076312926689,0.27407117070611614,1.0291921633435652,-0.6084433206695935,-0.6193053327520506,0.18981229325098298,0.015525134476211686,-1.0172192744772621,0.86691141337552,-0.2481587175723168,1.3661933154613448,-0.6987879225846528,0.4934200902649601,0.4140475094222807,-0.08519290740366513,-0.9287655495446326,0.21987202797801775,0.2026191779517524,0.4028539796444639,0.10420218533659735,-0.9708671758009839,0.41225576702982736,-0.5612426973039402,-0.4430177083937675,-1.603721496549156,0.6267930684029215,0.8574690611205393,-0.2294956257476477,0.3613491349909803,0.709742981482435,1.1635794727490734,-0.1361082949684048,0.3026120952401573,-0.19444545666248295,-0.4075717837930496,0.9332046494094088,-0.42115793791203865,-0.12729085791096661,-1.4459036056376233,-0.08309153978761935,-0.7321726358329314,-0.09893903776187739,0.9654199192419083,-1.0487991429029608,-1.2744505210630557,-0.1837176829091026,0.32226409975030496,-0.08368371343080216,0.5525511010074489,-0.8645401572334037,-0.5572826099195948,0.8365172207771121,-0.11125181787623596,0.08859589466772444,-0.1634207795440933,-0.39528274181908285,-1.2119477802421377,-1.5326458053516483,-0.6550914516506018,-0.3930205251503723,-0.45943512969115713,0.021353012827319717,0.9165218622058345,2.208587557367306,-0.9294407425490684,0.3103767945938306,-0.25420162114312617,0.2833923473585632,0.6638324430108393,-0.4504299054453331,0.8485712531324776,0.5814602913740494,-0.3508022125824528,-0.9783165700624525,0.9917769666712488,-0.020080000165656354,0.6671650685749528,1.208823929534226,0.9006846034675641,-0.365360117920131,1.1631515931077079,-0.3587373733068779,-0.6907001508592558,0.7288613442303654,0.8197409847299718,-0.22595264124707073,-0.677916400521892,-0.8571504410810794,-0.8574389772145428,0.7340378490015662,-0.6338534159926055,-0.26587857912626,-0.44796718322070367,0.0008389891298224428,-0.23026981504797625,0.793818711706246,0.5255808974097448,-0.14785007285946603,-0.6233452186236931,1.318433346549346,-0.05467294646206211,-0.13094600808527113,-0.73108862771411,0.012241825012642538,1.6614917424785285,0.227648265602403,-0.6250969321961282,0.7911775714337602,0.1272665872437007,-0.40103575233771965,0.16408452626643727,-0.7586975469948952,0.5907165677182513,0.08983547531281351,-0.6242555584902869,-0.07989983505723511,-0.4384248249696611,0.33684404825785225,0.6080556513290446,0.32098236588686935,-0.8924695602528799,0.3944299833261102,0.0327152281096482,-0.0015347287315798902,-0.14731885296663216,-0.06616215339288795,-0.4176079884531168,0.8863127789535283,-0.10097555785829782,-0.003472745461927329,-0.2435935386070367,0.0336489758650682,0.6226227388449262,1.2417857332915325,0.1858660014654944,-1.3634716186037905,-0.14384438815221495,0.2479117006443979,-0.05187768906851533,0.3347023858859529,-0.6546982537058118,0.4110531265341509,1.7456255508262681,0.05415246748373629,-0.39839850096741847,0.1273162078598911,-0.34393846087613233,-0.4223301535910383,0.0007592786802046864,-0.5127333934593745,0.033582383370580705,-0.02121566877391654,-0.5683683982565393,0.6055362214219896,-0.6789166784822824,0.01565194343270207,0.7309451615328492,-1.161463520663246,0.3413587691322634,-0.02235015666736423,-0.24550551091653622,-0.8173991339408481,0.8309228719532433,0.13046977306741592,0.835159325995228,0.46362991089458994,-0.4566825891177995,0.46221732919258074,0.6869188925216058,0.29490137283505174,0.2157401696094755,1.7038505120613747,-0.31194279452055884,-0.01815340505284063,-0.9623421450144939,0.1848256390607481,-0.00929647027830296,0.48440162183498925,-0.09329812967922504,-0.1268147338393521,0.24596331246987366,-0.7752170270306311,0.43577680898436344,-0.6652711494114518,0.5624966175156297,1.2097878536287854,0.23405598828763327,-0.12310600420100196,0.7096849452705231,-0.1807432520821719,0.008460646222735103,0.07851702439411758,0.7772408667188123,-0.38520501581081945,0.23759848730620237,0.4497212453239153,0.061881165797945746,-1.0533155862837686,-0.31180415258448024,-0.3684491336942573,0.0864965210972688,-0.466410450105171,-0.22695682567312905,0.005084409074306674,-1.0756510708106535,-0.7110961818157197,-0.6026976971931782,0.3871875823704607,-0.9069045284159015,0.2044358726443005,-1.3458842254709722,0.2079058918743177,0.06355960930296613,-0.3700894252521915,0.9492300871685004,-0.7546346462468271,0.39985672921901677,0.7148107250421547,0.3654807077307063,0.2970147065606368,-0.4021923645992201,0.138529828919606,-0.6256824059752214,0.2946670043677124,-0.07905247530842753,0.2234007855643164,-0.00978543130646787,1.095119217932869,-1.019559125632923,-0.4354987676256626,0.8930686172892663,-0.4256314521158605,-0.7087305684204174,0.0610821800629979,0.2838107668652087,-0.2391988273102339,-0.4064864829969245,-0.1917156104355851,0.6933164866282158,-0.6953674862591385,-0.20636547110663672,1.3888931207999786,0.924475977661991,-0.4455745162843199,-0.1722023621070538,-0.5243438331924122,0.3084620303371089,0.4063545647528575,-0.6272993721215211,-0.5408357948276277,0.2466756333397967,-0.6903109300081935,0.3159924871967886,-0.07054503183345148,-0.13719046022771617,-0.20344819221910032,-0.4152088981137583,-0.4332852683884357,-0.6282644350458465,-1.2014350992436613,-0.6620538714483829,-0.06581520331567334,0.4592612709746621,0.399930979180365,0.054808079598254816,-0.10949530381242706,0.3575056613999151,0.32319295403139897,0.8685798780910386,0.28130408563168463,1.286242039018138,-0.10632694773854555,-0.15082584775617316,-0.6516138303567296,-0.2513785823184405,-0.6908894172179875,-0.8243199876975122,0.4959209485198316,-0.166523265093574,-0.06666439122013114,-0.3590250048028365,0.4582858684868151,0.5888941503581416,-0.21582588303107306,-0.4670588549968442,0.0010005638185262744,-1.2049075847548518,-0.7392394045303126,-0.4909869267494533,-0.715909173299045,0.2648917416006191,0.6258438382558393,0.08667056252898964,0.19651213408711674,0.9695882706706165,-0.7134425325370146,0.7571314107821145,-0.7112073788439084,0.3270876452479574,0.030904229501378527,-1.6227690642031485,0.0474849624036035,-0.5748052490755239,0.8380495837572324,1.331651093112157,-0.5209053561951897,0.8127023999248354,-0.6984024954637874,0.020588886363780562,-0.172345612646513,0.712884245727035,0.008590262444381304,-0.4081576298056754,-0.6116291435134563,-0.6949124123328014,0.5188807615807964,-0.9045133735610514,-0.6270488197327367,-0.17838764010916247,-0.08804259167348547,-0.18501532580519817,0.5062490553011171,-1.4073538375005317,0.4089245598629701,-0.16245152136917096,0.6399963989996866,0.10286783427008377,-0.3984714335105799,0.636656823546332,0.7099121506144862,0.5595836637100969,0.4462729568705217,0.10251171849966055,0.4484599198313869,-0.7011893143917698,0.6788903794809744,-0.22490610891311377,1.6092301219891583,1.2104935182078398,-0.13239835683467177,0.7634709150956289,-0.06491005744324417,0.5568582800012172,0.46274176503209574,0.3695836735957391,0.06076585990473199,0.0017295381988569392,-0.4936619142303805,-0.5093040344174594,-0.7719557963503133,-1.1014264421001791,-0.6539834019757096,0.05234991866086842,-0.4099625286985361,-0.9661683401097867,0.26690753551841956,-0.11145574599028195,-0.4067349760241578,0.017114414551177112,-0.3861056292333416,0.4513836123581776,-0.22226841319889298,-0.008589890716488857,-0.4395477013914519,0.07267124731562237,-0.29999418649817194,-1.1015645331683426,-0.16093817384512338,0.06899562703141573,-0.4337751234906567,-0.07475931497632662,0.24366380917366257,0.962551821754215,-0.4262201277479797,-0.30659197718388925,0.6735464061773,-0.9604219918213325,-0.25634109537938515,0.818683512636056,0.024199975573001273,0.6225019303279374,0.04230962243443594,-0.10084139227977894,-0.027542777821087477,0.275194744747456,0.0711920101624985,-0.08648214946473205,-0.5128910181182362,-0.09381982340904185,0.5985708190910606,0.6097078712523614,0.6612145625092447,0.07398393616781297,0.18814820160223755,-0.6852152111664686,0.11679136734791908,0.5689275200533134,0.1669796335377951,0.34622772998352397,-0.318243770910285,0.1339473984237695,0.3747299680339598,-0.40723224764468385,-0.07114046794873972,0.6684109397701847,0.48212574983209977,1.1512852262046083,-0.1493041218807299,0.8478866393918496,-0.46407030405403726,-0.09482159885967188,0.3761072196604714,0.13893506463312644,-0.5645652728698602,0.7823585382541027,0.15129362719391656,0.822409908457667,0.10238193497484338,0.10333431993044603,0.0010899672371135402,0.7634889293254635,-0.7374790282876976,0.13765182375209428,-0.8858289075401931,0.5389916448726269,-0.7461272523735135,0.24011834173459756,-0.7547323368095975,0.08812143863187678,-0.6514191166398028,0.3234338588703436,-0.06924361780446442,-0.45577237421091676,1.0263089044723783,-0.2715356810326958,-0.2589889730777179,0.06519925374629669,0.5678334336329702,-0.16557869298906225,0.5174785857342691,0.4092257554593651,-1.4353229389157764,0.4497929555487246,0.42696725859399837,0.8185270472170755,0.5419175205498642,-0.43833878226791806,-0.07032845828320748,1.2146227681577568,0.3708006206142278,-0.7295026671495021,0.03220797138777143,-0.15514961886519266,0.30492149950119407,0.4584696441741114,1.0217924634572142,-0.6373104712685577,-1.1837373258057078,0.058471132511667384,1.1387807318167114,-0.2303062093233838,0.6305045050126764,0.4875213306734859,-0.09807263030036739,0.015808074542936576,0.2826092013351797,-0.00921800510809832,0.0023019366237654027,0.053628829569298396,-0.9110209123381245,-1.0340500599245768,1.3803508115915073,-0.12096131141939633,0.6085609904631122,0.6870374992074048,-0.24496067237535002,-0.9185977986062934,-0.1800112985364305,-0.5877548991323286,0.4791714534616899,-0.20675312402040188,-0.3223976876439219,0.18542090173716685,0.8110048964097426,-2.029878563971494,-0.8879810236827707,0.14813841715039539,-0.38408080710323184,-1.1894612714558972,-1.1158688332867266,-0.21227078635492064,-0.1309383670341409,-0.6057723792593855,-0.4974582832361972,0.7758725960695262,0.15352782613756502,0.259760527206455,0.21776512819111568,0.5855895112671162,-0.2021676241255342,1.2058127175621092,0.5036665914171695,0.17750186935606554,-0.556084574449204,0.5118968103402656,-0.6983933473416183,0.2990828661178985,-0.6527699249131294,-0.19983165185688062,-0.37292074240606665,0.03835640512003988,0.8444768001163814,-0.0013230865229630906,0.15494771721435882,-0.37049161345253384,-0.21269976897011722,0.009635959830304927,-0.5402488956353574,0.9416776769682533,1.3653939145062486,0.7327730687917532,1.3037212167555297,0.4264633545515283,-1.5089614165929939,0.4286861232181652,0.1426953952652944,-0.22489467580073272,-0.35650748966637286,-0.5790335672820626,0.20164365967129982,0.19172341558403094,-0.10257546561528301,-0.22527563722473432,0.6441340232251911,0.4058808449712241,0.03947464421278187,-0.816857506117217,-0.5103790029936703,0.06661764167387485,-0.9042971026253529,-0.18902164069293617,-0.21610941027744754,0.7799347768274218,-0.9408704525439572,0.17463454788978522,0.14129631538125748,-0.15499789266347377,1.4638605563835578,0.6736042694610328,0.08545211151554888,0.5150906506670355,-0.5919328143491781,0.7492051532120798,0.19749313454102504,0.24692622757906063,0.9697038830031766,-1.3055928568035484,-0.011072026278231594,-0.28468684263534966,0.16276982459263728,0.9046084944464454,0.31352430727642006,-0.8890932493369217,0.882550851604709,-0.9495548187223468,-0.42643064109889683,0.22015175881668153,0.5007974526760347,-0.41969280865115505,0.7141636930030214,0.6211873619044421,-0.07643034802900256,-0.7200332300699592,0.7737263321295484,0.8593438724308254,0.9878390811412415,-0.19145912315419134,0.10951380392224318,0.26194643710709364,-0.029402386686866247,0.25810413820668887,-0.6366693266842154,-0.038862801604987805,-0.996951780874834,0.7761536398645826,-0.6343688852727216,0.5054960671488533,0.264185398124193,-0.12305792385887836,0.03136563642180278,-0.15013994588237367,-1.1750183374156251,1.1367656436284561,0.8470439882669833,0.9965700167690046,0.7793455085558989,-0.11018395062899602,-0.22032024362915684,0.5461225683655941,0.3713890892531478,0.1694278676026121,0.19335100444796505,0.06151641357056825,0.11831752957778738,0.22990663031237146,0.7746737629109469,-1.041343031014911,-0.7613097574055845,0.2899851747945851,-0.170347533276174,0.04692399858306362,0.14794226709070168,-0.3967000580183638,1.0734663365003916,-0.7600307059724197,0.1306886286825938,-0.2497917311917861,-0.48368691672668274,-0.5935116616012495,-0.5551157650269364,0.14978442248408913,0.32107267005632756,-0.09639210884977642,-0.682929078502495,-0.4540726535572995,-1.1737299537988133,0.3631373211102201,0.7160789424366414,-0.17056393887589943,0.37138699537318,0.33205214501966485,-0.29122241625754636,-0.05925774157743373,0.36198673811238974,-0.2454358024260135,-0.9286543647296196,0.4909493619774385,0.07726616789102843,-1.1010873205928795,0.24248077111407948,-0.10962519922501307,0.048301837947552544,0.10937747013379127,0.33036796079238,1.0557223128664568,0.2969488198546448,-0.6631603825193987,-0.19585575560943527,0.009342071840314702,0.7230585808435117,-0.23556775407451847,-0.07411938362417433,1.4214527010945666,0.9263115688039475,-1.2245750348555002,0.060665851487897084,0.057310625082305736,-0.7789284958359259,0.12115720424834386,-0.13662319547194074,-0.07765034878269375,0.8271492729857136,-0.41590257604476494,-0.8560589784395566,-1.2861071561892417,-0.020915716624537773,-0.5348086214843434,-0.8187200412993794,0.13491847199801846,-0.06933668451833863,0.76625425689883,-0.5547487139509458,-0.2118584229849874,-0.7940659069430236,1.2673566347519005,0.4192964575803112,-0.5778475005250931,-0.5886698219357285,1.4313647818399893,-1.4300408029388751,0.7786756833661216,-0.9280083753829769,0.5627599060502336,1.0888785501594351,0.3838284376464582,0.3023695956285115,-0.031264758198683656,-0.5499323023387988,-1.1767221668500325,1.0943499590401273,-0.2231060088412953,-0.7104754334812945,0.258092134184665,-0.28535388268013845,0.18687160953886106,0.02683705602193453,0.9678098250953249,-0.08071245311989095,0.16244149475924133,0.3893881363058163,-0.3702741405670698,0.6178158027642914,0.6246709189550146,-0.8206291530309799,0.5473548715293771,1.1130962859256444,0.1851316030636483,-0.21389750450576792,-0.2787044625160669,-1.4888071225282242,-0.11114898769645035,0.3656369180146574,0.9948837675877062,-1.6093427074501683,-0.03712315683702206,0.7412683468794364,0.07664532736753817,-0.46935626704950195,-1.8410977514724225,-0.39209208673582613,0.3489035348740082,-0.41234799023286944,0.11602921352257117,0.48958404163608515,-0.3363961365218399,-0.99321209451403,1.0618009625736515,-0.25702762801120305,-0.3078346959825066,-0.24800144838283825,-0.7389160774371545,-0.35285539945553,-0.7128499802875758,-1.5450169250316692,0.15070295883503917,-0.3780229239437087,-0.032903953775943344,-0.28451757818041884,0.2277634649514096,-0.24248039621542128],"fitness":0.8337628333333335}