{"v":1,"inputs":13,"outputs":17,"arch":{"hiddens":[24,16],"bias":true,"activation":"TANH"},"weights":[-0.6321641721076917,0.7523702798819718,0.6459090976535994,-0.7938029895685601,0.756665669030058,0.642008520733822,-0.6190996033719542,-0.6990285021952003,-0.4163267717561045,-0.06947225116579196,1.2078724896779514,0.3162884460740626,0.6239805358663292,-1.1499872794233796,-0.29536605290151,0.09789429096531223,0.4725769068255226,-0.21631645413904335,-1.2304544874211127,-0.5980305874238624,0.3084283186959504,-0.06695603900170054,0.5893761804423658,0.752027946611082,0.24759176858777224,-0.35671184851194443,-0.5256076856574043,-0.18854956220360475,-0.7899668236547249,-0.7782849639663486,0.16553331397178433,1.0163674510925027,0.28873813481020494,-0.2819248387239495,0.7721707269683792,0.4014026485847841,-0.5537899590871578,-0.5147179837056725,-0.09350036150918412,-0.34591335810277773,-1.26146761383286,0.869900523546308,0.49669699943727685,0.5070371858383464,-0.0522874506836269,-0.7272758236207477,-0.12939386620708132,-0.2810979407406229,-0.3691379426978937,0.0029663661376635453,-0.9522052815151032,-0.7666303696410868,-0.8230075886646772,-0.4414373263151332,-0.5105247408921744,0.6344814258544514,-1.4778514755550314,-0.014100507260480831,1.0705890628674013,-0.027070798385069733,0.356771978028872,-0.5370519558593779,-0.062207790489788056,-0.2669092144379268,-0.24051400776880924,0.012110919567933448,0.8322342855394519,-0.083820460140222,-0.5055908090683331,-1.4639015798131587,-0.13320270198777057,0.199071109232736,-0.6179566652125773,-0.09852670798061536,0.046246925186103266,0.27718463283852207,0.8095964223642481,-0.8458110397193896,-0.3884210340929244,0.18028461368253426,0.025800667788235865,-0.24451962907475117,-2.0433998146444856,-0.48220874517749895,-0.4532263993760619,-0.5054066406592491,1.0325229955764523,0.04068593512528088,-0.6579065254104174,0.07606397104980854,1.223374056782789,-0.4256192666084294,-0.21800204776610999,0.7547266931582852,0.10897579628047799,0.2236231519067625,-0.10959633037668512,0.13535104801549555,0.6593137437397086,0.2609055787079038,1.9090740924359844,-0.5668600605229906,0.24916092439731968,0.12203109866945253,-1.1544204737646282,-0.6699714577486023,0.5210724897822339,-0.5127377034793834,-0.1716343862513902,-0.1571815005198857,0.6522624273783685,0.25142480696788566,-0.0482590777773388,-0.4303963099755683,0.007614124161820085,0.34418184652317074,0.345774753670829,0.24669062710742226,0.1266408565974223,0.6534110480608871,-0.3314076929891984,-0.36422381340227167,0.08547638478336297,-0.3577067799899154,0.1871034734291754,-0.2554315146131083,0.7844226154196977,-0.32904857332135523,-0.24435794644115405,-1.2604918213798464,0.40009734181875173,-0.050266777934173494,-0.20037317871619434,0.19688490849311385,-0.6887008190128271,0.3662781483301545,0.28023395807939727,1.0926361247180982,1.1232210303299586,2.124965355390411,0.12596309857285987,0.004287531269254302,-0.023406166611579838,-0.002031562317227731,0.509099279881615,-0.12431882001608888,0.4536951505006812,0.4883066448924773,0.49149378091461265,0.5264234924921529,0.7338534144789516,0.05949013433026926,0.8796829026496314,0.0777209097634394,-0.08837591370726187,-0.9959452835992235,0.9631607828221895,1.430736322707643,-0.7911578928298764,0.232072471617703,-0.2848685814681019,-0.829928876531672,-0.39738347304669214,-0.04911574004579816,0.795611428128103,-0.5817110267270064,-0.4266873910619893,0.3581314369360565,0.3991812074163713,0.3994749116227827,0.10222304114978295,-0.1502520724289989,-0.42206614979463414,0.5414469149275959,-0.24178737363703118,-0.546634347519037,0.40551600635039486,0.6080873353534145,-0.4379758743529015,-0.22290954609237426,-1.0247916098039247,0.10563998496538156,-0.5292911033066048,0.4360231513137251,0.5586958988272549,-0.32185969707695306,0.05261225766406619,-0.4992853230459272,-0.3983192502309086,-0.4473555130869564,1.2973795669837465,-1.9762277529749435,-0.650153873448918,-1.7989143706606645,-1.1779938046726348,-0.21641308971337037,1.2817681153389742,-0.107689368040166,-1.5491042610464352,-0.3733866543416675,-0.3532254212834395,0.04781488318913072,-0.057931809723318156,-1.0775644860884386,-0.20209326315804452,-0.9433612644821138,-0.3938039991601738,-0.7271908068137672,0.10790215996123542,1.4968907073331055,-0.27938262135187697,0.9232374284632521,0.022633976870099166,-0.6863263671901867,0.2338653063819107,-0.5067859756371069,-0.7732285701163302,-0.4596866290517436,-0.2724566292471809,-0.12937998432879427,-0.024929180061869168,0.8215759906950236,-0.6065500887056806,-0.05271507668387164,-0.38083632383918103,-0.5693872681069567,0.32388443343944656,0.17764533018866627,-0.27372356694560285,0.1418353727263189,0.7942504638015535,-0.1768123091806281,-1.190309414870936,-0.35009657157950824,0.7225565590054198,0.5694066053684991,-1.3881587785978848,-0.14107754954703092,-0.023831822779901278,0.4356281993583307,0.18569104975208006,-0.2959141945609507,0.4090960701065516,0.827049418582128,-0.11238618038346458,0.2278285205716084,0.219266539113863,0.06495426556746337,0.11033944839949053,0.5790573140666031,0.1760578338794991,-0.9604521237176611,0.8009617025006728,-0.13141002694743706,0.7502614519206856,0.6616532850167426,-0.12854664960872475,0.3700202493836112,-1.3630286853760103,0.28213217512614913,-0.908633295376614,-0.36530241123240625,0.6471755921570317,-0.8746514838625619,0.34581115052311967,-0.09054702851932127,0.47953378761820825,0.6870209734695834,0.6830757177130489,-0.041891774406490674,0.32988224911430497,-1.5312125676116173,-0.4804242340220326,0.34999617055396753,-0.2867363689864363,-0.6540058537886411,0.15142972820364461,-0.24859892495844743,-0.5595449422919565,0.8710214369131555,-0.5907996577119041,-0.6826500681060913,0.15240182489329632,-0.9179904031797866,1.308453573922651,-0.46259768279984076,0.3733276997859121,-0.516086074910945,-0.7130911556962806,0.0959446746500046,0.22043952454591778,0.5067555390143224,-0.5656234552850938,0.542985585162948,-0.47663093157683234,0.7375031390881963,-0.2664939395873928,0.36112081520732636,-0.5300721427187377,0.10308258810706053,0.13286920302844946,0.3809575781777244,0.8669046601752732,-0.16916581322929267,-0.5837261021437656,-0.2850815507877591,0.19028198829090195,-0.25441916648138796,-0.6304420891925617,-0.49860567873895295,-0.37787122234871784,0.2187577323846414,-0.2670472304550099,0.030715722659503203,-0.2986247942079983,-0.9617016520090313,-0.5438044838378527,0.4467641857177657,0.3143155467166336,0.2938685123529414,0.6383824718478931,0.04945882317098247,0.44051921850449993,0.7822444886302817,-0.20365647215301796,-0.2924467685300537,0.6116814688530562,0.35070347304656097,1.3128496499857003,0.5270333628094358,0.08163550256682948,-1.328059594333702,-0.30391313071912635,-0.2591653893654558,0.8223133232917433,-0.24473948708445314,-0.2868865072194331,0.3340300330357288,1.5729139467214988,0.6474460058955871,0.2793382588364766,-0.06624165071573619,-0.7165277543434292,0.19608176884770473,0.18137125325049316,0.7268428435182847,0.4929783615226535,-0.2790152544653095,-0.18259369586217714,-0.9168143742818622,0.13730505986401215,0.2258629894305292,0.6227657159009173,0.3143488082260995,-0.1988228086135983,-0.9768775623186198,-0.7133985349623043,0.07686589906563977,0.882495947763917,-0.057486944688901545,-0.1426885644876538,0.736626886697386,-0.13890147709642064,-0.5120869982692203,0.4636365872589896,-0.5302549439096377,0.8712288288219657,0.5687947068989894,0.4900840589215464,-0.3266403893582131,0.02791162586513828,-0.05764926737308087,-0.12851125580987563,0.1660582606811246,0.7917829993162513,-0.47669011972822023,-0.3707856020961529,0.9935890798775776,-0.21993625250109308,-1.341217383218442,-0.013221501976036873,0.9680395289061173,1.4448992308421167,0.6463042674794732,-0.29072459054676447,0.5587555925159947,-0.2190006660179793,0.12682824815863258,-0.5941674096597894,-1.073393723082013,0.2921489777246224,-0.2852136878319082,-0.49822147673006156,0.08752946997296991,1.3710523886888193,-0.03379816407091124,0.6727533029519618,0.8783752872340834,-0.20766332221004213,-0.7547201971426895,0.05888456804509473,-0.12576913921957245,-0.7161165779260475,1.439111494873542,-1.749774321731165,-0.08876096789018971,0.02154866222385533,0.14278743677825895,0.2782990292815353,0.35862892989275114,0.5306903467864494,-0.6486916425942512,-0.2164324351312906,-0.1295121418894158,-0.4235629021601321,0.07964471976969711,0.759189531643823,-0.4053478906801876,-0.17899449221041716,0.43528570871009653,-0.052202614656714275,0.4718159433302051,0.984036442876678,-0.3666520673638555,-0.0299314236050279,-0.5876990129271744,-0.558640132841154,-0.020117622083187226,1.0475563719056187,0.40289330625757164,-0.76564505407361,-0.8660982774768062,-0.1413806118324696,1.1956547986448354,-0.0649584485126516,0.14723240449282465,-0.4669965480232785,0.5022639374092809,0.3042773401762602,0.5394259611891478,0.8669912514725906,0.7547051499342508,-0.6831439817306396,0.2976861747476938,0.3725920994384767,-0.5121767534414874,0.06034762371565216,0.07990707079172266,0.5732052596873182,-1.1142514964571786,-0.40888660332725557,0.4851762135943783,0.8149476049554558,-0.34938835848070043,0.9056030343577316,-0.2340474002687358,0.801777703814703,0.8057483519623005,1.0422252683323827,-0.42973767332059565,0.576747400340425,-0.003421189368175196,0.3084239833042422,0.4471354949286204,0.22418519161219136,-0.2087864290539937,-0.43170639361727864,0.03734669517656738,0.542860944499001,-1.0797989133664325,-0.1250539087132425,-0.20842927997801675,-0.3819410372455273,-0.8673332283939355,-0.6204369852638228,0.6424363301638681,-0.4049521892168703,-0.5148753589399698,0.406114923911676,-0.8596278924123044,0.15794243669246788,-0.29217958624738904,0.4282241099740632,0.604727029242549,-0.14500548615612488,-0.6959122530933447,0.10087948170549664,0.561348161913311,0.054147484143507736,0.7906387566047726,-0.11305737979121717,0.43370018434028623,-0.022269736770219307,-0.5463977168824408,-0.4068638080725277,0.4911132591799184,-0.3789688944481146,-1.3447548131337368,-0.44672787703103634,0.3047067368174863,-0.6575175908141329,-0.013334448474174442,0.5439212116321603,-0.7987049136138797,0.6631008680652501,-0.26114260346077844,-0.3614911097425958,0.07660566459504604,0.530164585886061,0.3772997240498154,0.8731078129846087,-0.10736059029533397,-0.3614073531830856,0.3504235293837109,0.9873739030215634,0.4250036858843543,0.4424594139370248,0.4422805749081861,0.9570047717825886,0.3961536124398693,0.07890818319193328,1.0358771436898988,0.6785501017517619,0.2617012107855231,-0.512058151893584,-0.03079635442965082,0.4055560353720091,-0.450768100086863,0.669177278553469,0.003894009382090156,0.3898694173586624,-0.5812891712222683,-0.005450705848583575,-0.36149218966988966,-0.4882391948246223,0.5937357963616708,0.3349974352381295,-0.17834171289261208,0.22810867560292677,-0.8072006810755085,0.31217934403030156,0.05273441743383107,-0.6643679372404567,0.7411578520130521,-0.734183805135423,0.17246042001400835,-0.09896752021380507,0.6439556343213498,0.7483384997101794,1.3416088285374217,-0.17043872310722422,0.14448808684318634,0.02067294544825449,-0.08762511002842291,-0.243532743271376,-0.827911776842778,-0.39020155154447733,0.26002429473492455,-0.4331302999032954,-0.1847505062245613,0.5049269734210755,-0.47742222714785904,-0.1465722942332627,-0.432998424183171,-0.07223050395148245,-0.32096142191278254,-0.05063360917145308,-0.28973368663511656,0.3765882824241647,-0.1296179264940268,-0.8608216251933015,0.16968636926888003,-0.30962853345974956,1.3286039969845402,0.6989342513498593,0.09064208548632263,-0.7545794830754077,0.12045093961253243,-0.3148527637032868,-0.24878300602060857,0.12477080321988361,-0.35976000702660954,-0.6334535095956948,-0.5310809367690278,-0.6518209791162665,0.07474182632770814,0.5767288185682704,0.2833248756649661,0.714018990400091,-0.17789523538742238,-0.21012329388149878,0.6230215876488424,0.2842313540126277,0.29181495019470965,-0.3677399620714353,1.1534091517247642,0.6605917009202656,0.7422523223502981,-0.9528918009616962,-0.06948739715890015,-1.0360698040191054,-1.2253348157836899,0.08078083919885026,-0.7145371311172581,0.5358871745272994,0.11900259271449161,-0.011892855671191615,-0.7532023997661244,0.32209241993835624,-0.2216922209014403,0.5596004636946432,-0.8387952412704415,-0.25217002424690693,-0.45679070097389557,-1.2909534124944213,-0.5963691927527822,0.5741539044699147,-0.5452151235690528,0.00018242663510922857,0.3055244072984866,-0.23624620205338534,-0.8329707317551852,-0.1767334396535865,-0.2173005101732137,0.28132257662693044,-0.4358456426629554,-0.06329604156634239,0.24859252494678202,-0.27557001518614693,-0.6364104317880402,0.7100110224295562,-0.2041869592409575,0.07693295371005876,-0.16553905629142082,-1.5234569557556037,0.042881804574735886,1.4023599958077078,-0.18407574628733678,0.7679514637854876,0.09319052594139178,0.2585058921117153,0.44300366117670303,0.39123661550681316,0.5551796492529325,-0.6678684359997387,-0.673819429984024,0.7066758445420858,-0.6086886949225683,0.2022731939696293,-0.7146854692056336,-0.3415830956822572,-0.18679089095079238,-1.1619074629078752,-0.870061493289372,-0.2985446800017394,-0.5673748532718713,0.021149373893171584,0.8506595938018539,0.42695011082123896,1.21530806705751,0.31935316679777986,0.00028760872516870266,-0.2969850068898738,0.4270798834096991,0.23639218098506562,0.052473364110748676,-0.2734906670046617,0.9971587471809503,-0.5212630032548184,-1.8660210346388306,-1.6209543522895205,0.6025351187801823,-0.5766079815346816,-0.03920610413377764,0.4723664074964007,0.11358148995314798,0.6565782051397183,0.37352619226282346,0.42862214098676565,-0.8999629502668834,-0.5359532105471241,0.824688645655257,-0.6357054431158998,0.06138007589116275,0.36898936568510593,-0.40442568601292134,-0.4970299276045013,-0.1610040810045641,0.6478040156445584,0.5190218280698796,-0.355195777538406,0.11381288743639961,-1.0782289180318447,0.26281093848092163,0.2601365348318449,0.08890378654717886,1.4231546259609025,-0.5971708588324942,-0.07687295880626277,0.7027819933308398,-0.9167043885769804,0.37123874169022003,0.42033435924617035,-0.015532745332901665,0.7569071242041172,0.8810370599458145,0.8914862261228509,-0.48599774406243784,0.2903501232928059,-0.10914420081366541,-1.8824487297749262,-0.32238293936104323,0.15135253423583964,1.42339004842262,-0.15018799056982657,0.43299677227788336,0.3964295569623976,0.15798500626196108,0.8947704967285894,0.1578578716411574,0.7145818037913892,0.4769501515148745,-1.5181057147599317,-0.04568447788195842,-0.23142635731163982,-0.5128182785387048,-0.37092602238828465,-0.376329553590432,0.13804290877902928,-0.40519111030377997,0.9910988769978442,0.3536341886429327,-0.09076688370975551,-0.19590327460472434,-0.7328595341254163,0.7028242267351342,-0.5484628004189048,-0.8866612803299123,0.13855584996767795,-0.4870630921389161,0.46816101206170113,-0.15468990252192602,-0.7872550700786537,-0.9822443859611832,0.8903586724786197,0.43691246744000317,-0.20129482600839707,-0.02187366397150444,0.46962819090505636,-0.6513700319855743,1.0672537030177507,0.37047024461054473,0.3278293839985303,-0.8226024934023286,0.4401598878904452,0.4191917713344235,0.44162380814263397,0.4969049753189031,0.13769390720132546,1.4113245188290753,0.5820412292512125,-0.252850142481955,0.7049497075510548,-0.9443938161500872,0.3572182664317568,-0.2199281889216575,0.5011947343793435,-0.42929998497339683,0.59351845077958,0.3242917560155668,-0.8857000737593145,0.6072808773207169,-0.5968380450673861,-0.194233867668493,0.2631960594792621,-0.899178712501327,0.3408901385406817,-0.5555263598410161,-0.315433502196851,-0.24318517084393151,-0.2333823011923088,-0.5404910619308216,-0.29730928984436295,0.660513773093811,0.10573704673548755,1.0371129791102758,-0.6543121595080043,0.4672543504093746,1.2557322541074345,0.7000798080036458,-1.0623957733396914,0.33322393050892285,0.266607407048093,1.2993844154651049,-0.5420304103928508,0.415949583676001,-0.12751413244219195,-0.2897175108193512,1.2953393988318547,0.828690902204328,-0.6075444450787815,-1.0011385036455889,-0.20789630340118784,-0.6567491693903715,0.6618967175566002,-0.2950754335792529,0.1944027774475333,-0.4295878341844863,-0.844242714987885,-0.3734538052936138,-0.5375105157116041,-0.7880819195259066,0.018159990667315967,-0.058240209722911204,0.28634945520136146,0.18331587209918132,0.5749805173274836,-0.41633567252449294,-1.4957103994796872,0.28375214969175844,-0.17838753834271473,-0.061491560377892225,-0.8534869356088799,-0.0835070203946407,-0.34386001509003317,1.0734672075754603,0.17606396115851858,0.35511587771448533,0.7486489936787488,0.04550747218081939,-0.24256906079279644,-0.28661932962719217,0.5844528267278544,1.0285217452646107,-0.14496187607459923,0.39455089965104767,-0.6338861890960623,-0.2196320000125784,0.9221263115882619,0.3669408904879462,-0.6291725193865668,-0.7461290702611768,0.40080037883098624,0.1679459043750025,0.0413353970082216,-0.5522507577914489,0.043334356780447614,0.4893258982578538,-1.0962917580292835,0.606660530786863,-0.5293678060688076,-1.0739059092749264,-0.6279071925722092,0.28446535772279924,1.3506229977223305,-0.37144109100058553,0.5804917397108859,0.8956819565112659,-0.18785155100334017,-0.012022510656949419,0.34516229119045794,0.618401320217549,0.6249740004410754,0.8375319785583127,-0.3177145329775107,-1.3349270791390977,0.27330031442207137,0.45048346174845094,-0.12788242864820767,-0.11956161539734239,-0.45902729457338604,0.3377546026495925,-0.13977817421855207,0.4201542377049414,-0.1503107488480811,-0.0892508919469597,-0.671336039626671,-1.0423969243064852,-0.5411785136677729,-0.21515761258903737,0.12124821591591756,-0.02741393720470873,0.07458795558315469,-0.40305145450073887,-0.038729850998263954,0.7138913188538663,1.193447625990081,0.8488681461187751,-0.7099741987262849,-0.3612131147453826,0.27895484931939196,-0.4514112382094506,-0.2135688728261339,-0.8008142058384143,-0.070526294414848,-0.29671236997759215,-0.034904582008085036,0.46142776065949853,0.4843668497987551,-0.1538760425688596,0.4000561391680514,-0.12725181844294176,1.7109443837454024,0.28097764259215346,0.6415682509273778,0.9642707296644908,-1.4007706479277546,0.09762912575795708,0.04505433194601245,0.4331962434045177,-0.052319916691855615,-0.8862577814737336,0.1940414780614908,0.2946049806506066,1.3078206122914715,-0.8131420491108904,-0.9611163004849221,1.2221553512043515,-0.16692156099073274,0.09289952455000225,0.9388985824746328,1.339791788423661,-0.5776414091445585,0.15199570743864385,0.228118450516905,0.04414378461872938,0.9382436229219191,0.5948909612794637,-0.6139297436326248,0.7680123783908286,-0.166617598704649,0.4914118922730286,-1.0997976017298774,0.4998151939914193,-0.19649999196651066,-0.7878781550000483,0.3089009721023272,-0.009407556326789272,0.582302901442501,-0.4226007950009658,0.5480086563287503,0.2852489252327713,-0.46074149567630174,-0.6533382873885485,-0.7192648288143751,-0.5373473192976096,0.7687546355964875,-0.4309696766377404,-0.0323646339006164,0.12198165963669833,-0.9846987552945392,0.7239230424249621,-0.3589282067359476,0.44378290069687737,-0.14141341633596688,-0.282901539063002,0.18006509513044586,-0.3322442434841994,0.7997646066254114,0.8428393847090978,1.4638119668828158,0.9079724843742571,-0.018780053375832714,-1.1067294025651238,-0.3553797879159113,-0.3791242000296347,0.5226391838588823,-0.4345834868524294,-0.4067725879736553,-0.43696258397162613,-0.5990450900890073,0.8658684495957936,0.5781852529383957,0.4300374423412505,0.21989425214039685,0.2348540575594137,-0.6980371778398861,-0.8133761330243546,0.5787518343665627,0.8953488318950936,-1.0471402099959244,0.18876601252627928,0.20325978889211835,-0.48590997641704015,0.11719176817453784,0.8193037931931266,0.05009615921173964,-0.2671778749551432,0.07037434242467978,1.0863320581018967,-0.192328034975866,-0.833061821464648,-0.05059583758993352,-0.7371399944003245,0.2419542629547567,-0.09891973108967737,1.0798086209931161,0.49820584908056187,-0.7190141053951198,0.18150185476192404,0.2965221460855917,0.3259587910231003,0.04463555611179438,-0.8962319376030158,-0.3129273773473133,-0.29779267385396074,-0.06196489979807349,0.8833502573400721,-0.17687638602868824,-0.3447299334786372,0.45590399639261,0.14782746727490584,0.5007289120068509,0.661879321214663,-0.8116749309515109,0.5863981812866305,-0.7241638935927635,-0.11659548034607203,-0.4381203343489602,-0.7147591093576441,-0.11755311556525953,-0.29149709762701564,-0.6616927806904297,0.7536647817895809,-0.5275722778803651],"fitness":0.5000928333333333}