{"v":1,"inputs":13,"outputs":17,"arch":{"hiddens":[24,32],"bias":true,"activation":"TANH"},"weights":[-0.4071516262163379,-0.5323081845770041,-0.06545022800454287,-0.030220159120324865,0.022251230947911513,-0.20869551382217652,-0.39500974280718754,0.14778109528838618,-0.325412440998303,0.39287875364624514,0.7971803831273907,0.6864500304536238,0.2958480020981201,0.741459483211546,0.4171268799242438,0.019553288597506713,0.202305771734466,-0.5092966091734776,-0.2735441240482816,-0.3736875671077392,0.3019579972068804,-0.45705527328642515,1.8225493747976524,0.6683888809023948,-1.3868598204692073,-1.204197625945798,0.226341227020621,0.11056350752384245,-0.38631889165457856,0.6532155328378834,-0.353095619995757,0.12449003253026483,0.6903474305102747,-0.734880436814163,1.7598063779528021,-0.3736851935339679,0.10072773329491388,-0.8548222614121914,-0.057910423869116504,0.06240499810112027,0.6869231778992597,0.6422105209741277,-0.13245169037916238,0.23370559411667752,-0.26894659267760196,0.5741194012470496,-0.8415014012072423,-0.01198848850156338,-0.4005994225952192,-0.33297148926054543,0.42424344906058975,-0.3782763624622222,0.07507469334511584,0.21955838679668646,1.0918957534992038,-0.16318844489190884,-0.9289855605793901,-0.610699730063487,-0.6430222965038233,-1.1550544705461245,0.009470193237762992,-0.23177656297580787,-0.1500749258100766,0.03554555526641898,-0.11081820891584035,0.20427882941822634,0.6300549253152069,0.00044655290951870283,0.21303695506878115,-0.44025055659358736,0.3442580836320827,1.8010856028589068,-0.3587393407310133,-0.5135194477626186,0.2598476199889102,0.9090738938856626,0.6709954390647549,-0.8356243251147605,-0.5318657134677751,0.23429274502543623,0.9140238915165034,0.02027758733763637,-0.25033680544672343,-0.3037392088644474,0.06536144633347711,-0.3730820615546561,-1.1469501118997378,0.33721937618381437,-0.011049691488507901,-0.605479710695509,-0.15529330264341873,0.053944349384932665,0.40497798284877895,0.2154639712426034,0.5271650403958476,-0.40726469040019003,1.644576429543692,0.10634709910331087,-0.6447375629067346,-0.11112834473043087,1.0858006250366032,-0.7835247309723762,-0.4615713236905713,-0.6054200802981949,-0.14936616360266816,0.19792654360550707,0.2975882517262278,-0.6097955260050927,-0.6273224820868287,-0.5350599932274934,0.1613074801886068,-1.1650797713092422,-0.6049753023260681,-0.6580343395170809,-0.15554994559183905,0.09399686070226419,-1.3678365022115453,-0.3905305880902565,-0.07688416637616896,0.6434091768048015,-0.101088073633348,-0.6512665460119875,0.5974041883067391,-0.44693192609133175,-0.5200488664265919,0.1588331972926637,0.614260932246803,0.11514219217515398,-0.38573412122418055,-0.8710621155394859,-0.9857856103357922,-0.8730501559343393,1.4744760410934028,-0.9213729414816033,-0.24644679445400497,0.08117796675300183,0.07720627919147721,0.9520054849897621,-0.6855041444137168,0.8035020257058061,-0.11600427025849008,0.3725224989522635,-0.8847929666082333,1.6265522480515087,-0.14695787005536998,0.05565753408945007,-0.5281098779509174,-0.3022139122327951,0.011720666658514511,-0.1514563368794191,-0.6732470262616872,-0.1548121132104225,-0.29770171699096726,-0.4373403440190596,0.5016620085332613,0.04704227474033307,1.1836488240850127,-0.28489049693332363,0.9107307690804758,1.4438738587759605,0.3642030154928396,-0.35560912974464826,1.0496928439204718,-0.8699578965223626,-0.28719054024884405,-0.012402222034061605,-0.29029886854922937,0.6868130549500002,1.0930921672969678,0.09075694470305214,0.33262469742559575,1.2737245351586541,0.18401713854522983,0.47305648354045643,0.8605609018944084,2.00161783048666,-0.31847445630019944,-0.5877902829680525,0.023112779147464735,-0.01975953094406561,1.1136456931674021,-0.5388500607577889,-0.6161071293788389,-0.9310874373161648,0.22177642161984826,0.42065522081604667,-0.5168136314693975,0.19466385722173807,0.7122058213203015,-0.550021777351568,-0.06418455501146109,-0.293768811736967,0.3226014312541494,0.10367374311431007,0.37196934335625603,-1.2898681104114647,0.41115517791972794,-0.48787880844521647,0.16074923861252938,0.24838361029308434,-0.05938109443984903,-0.5159453449263816,0.2907337695159426,0.04157424760014611,-0.8545941469643212,0.29359036511864456,0.15659000064273698,0.34500229689681117,-0.2954151223597943,-0.3284843912958336,-0.027799456704729705,0.6143525381685148,-0.07992158746709428,-0.4315402801833867,-0.8299953373845989,0.36183893414510804,-0.333330040433352,-0.9400415133021579,-0.38352707319985335,-0.3843867790930856,-0.4922732029142032,-0.9776983204962151,0.26914366030460857,0.01970629235424451,-0.34064648534282316,-0.38346018746660315,0.019552372622753972,-0.6463925384802803,-0.579898717689931,0.6187890336662096,-0.17554969972118717,0.23328153475773525,0.39988906638167715,-0.12617123889454473,0.3774208324487037,0.7828697307253043,0.9601904934831688,-0.584857993839573,1.1461983247338365,-1.0518998551166585,1.1370433296876339,0.8668234809181211,0.020458126511627622,0.7862523622432123,-0.5148276601783822,0.015810666862232647,-0.9453784891520731,0.37760536191384403,0.35916670970178016,-0.3815283602087614,0.1286670342745677,-0.5666382144831503,0.008731858483821202,-0.6308733662868655,-0.0635792539338178,-0.8018237072402833,-0.7070427164043637,-1.111081719271466,0.9000037959251803,1.022054271602404,0.35757742140437976,-0.34551655302334805,-0.12028747083940783,-0.172233777426103,0.6511382091651935,-0.2230259963899756,0.4828565106634492,-0.5969000975760291,-0.2769405851361226,-0.23571903939265315,0.1529826512591705,-0.7754499253335266,0.5826490361152044,0.4591356539952623,-0.5882856446947748,0.3678242655823922,1.5227260178985085,0.12539440560135973,1.6413534918476476,-0.7159711627754403,0.8725948723459509,-1.3495196335172623,-0.4211881462780868,-0.10732364619142144,-0.3028541525577633,-1.0365500323209047,1.1734248665425664,0.5920560298805229,-0.027015427929629965,-0.6344960723761726,0.5079340559341261,-0.384664355048922,0.9538313415243495,0.412704589472791,0.017277415030224008,-0.3089325724251039,0.5334287460055588,0.21476447635421642,-0.3666055759619307,1.0370504284803739,-0.06924446721674253,0.49750091823184095,-0.32679963767497316,-0.8025968635480553,-0.6624033584109686,0.296438919798316,0.8068852841592107,0.2366043460658832,0.19418997122319842,-0.043182749213442395,-0.38508080192097605,1.298128340235997,0.18125414858140332,0.430311592949594,0.4291419754888418,-0.1800507687685186,-1.3259873691613446,-0.05056843716503475,-0.1875653328204255,0.42762541766971013,1.76036318738123,0.08406528671763978,0.13250043860363817,0.2561135525717181,-0.38429398661876696,0.4481586653161727,-0.13703554112472582,-0.5048513795050058,-0.22634103562994579,-0.4587615603227772,0.7757769287196391,0.20614162653821866,0.5112563669162336,0.17097668160583038,-0.0624231069850401,-0.9261826024864299,-0.04254335813129367,-0.03399699152728802,-0.4318061973614922,-0.126455272365388,-0.4894313992083501,0.1402158853773584,0.4499207583833757,-0.727746486988735,-0.9012567965357761,-0.030848367874207853,-0.45767287695825576,-0.9515162706276473,0.11839191611810368,-0.5702864083277625,-0.3742826063100196,-0.6200484528509247,-0.35467536543099454,1.059852310272177,-0.5459391982390683,0.0592581717010679,0.30833518878910277,-0.9446107750662907,0.5992597244878087,0.8777835080252321,0.06464921300804732,-0.03226227335582621,-0.08743921448468657,-0.248730685077848,-0.8283010495917941,0.40549637843725433,0.6344335868768841,0.4822012517777145,0.38803393151314286,0.6564617390287103,0.8164889621688082,-0.32120903329089884,0.7113729901835785,0.08587166519942646,-0.26650062982602424,-0.5286740409129138,1.15186490979671,-0.8171222063560801,0.32661566697665534,-0.5379475048901546,-0.5712521424204987,-0.15741863216954774,-0.3806939393012639,-0.04743188834755584,0.30080379722682776,0.19562583799923797,-0.7169865774194074,-0.6321641721076917,0.6521873457700887,0.6459090976535994,-0.7938029895685601,0.756665669030058,0.7028380682047435,-0.6358246746546532,-0.6733365489097446,0.028954939472513506,0.10635030366360233,1.4343182590056465,0.3162884460740626,0.014909674506604631,-1.1499872794233796,-0.37471513374352294,-0.014692773184193722,0.4725769068255226,-0.21631645413904335,-0.9157835774527113,-0.659773325416611,0.3913398228252026,-0.06695603900170054,-0.06952927081558001,-0.0358847917855382,0.5093009353842752,0.017337172147118083,-0.24060062990455938,-0.18854956220360475,-0.3803694943535696,-0.7782849639663486,0.16553331397178433,0.8124050153697938,0.28873813481020494,-0.2819248387239495,0.7092505588598943,0.4014026485847841,-0.17670069444847053,-0.5030081262347627,-0.26531291799685086,-0.5809177941695665,-1.26146761383286,0.9346434007546994,0.49669699943727685,0.5070371858383464,-0.4052981378886707,-0.1946890133532197,0.6588668684256662,-0.2810979407406229,-0.3691379426978937,-0.40159329392030696,-0.8052226260172684,-0.687321561302267,-0.8230075886646772,-0.37183934451795486,-0.5105247408921744,0.8899831310004187,-1.4778514755550314,0.012761924039525604,1.0705890628674013,-0.197294281957315,0.11834898452453921,-0.28524692052480954,-0.3938949194039342,-0.2669092144379268,-0.24051400776880924,0.43868065594236383,0.8162756211283003,-0.083820460140222,-0.5055908090683331,-1.4639015798131587,-0.13320270198777057,-0.3294561063080156,-0.6179566652125773,-0.09852670798061536,-0.6823475852986652,0.27718463283852207,0.43337304329780996,-0.8458110397193896,-0.8862833677649294,0.18028461368253426,-0.27435247672032287,-0.024658353536426925,-1.262488289910347,-0.7085894126775015,-0.4532263993760619,-0.5054066406592491,0.7210573161116782,0.04068593512528088,-0.6579065254104174,0.07606397104980854,1.223374056782789,-0.08058605952261094,0.006379366986176215,0.8152227282294058,0.21603126139714568,0.12433232722654343,-0.008115597108911965,0.44901965539445277,0.8393543216440306,0.5957549521667523,1.4059879471141903,-0.5668600605229906,0.6316197345689049,0.12203109866945253,-1.234541760184041,-0.717606660847314,0.5210724897822339,-0.9119939035238005,-0.1716343862513902,-0.1571815005198857,0.4551857772984431,0.2768108106608176,-0.1877278288020347,-0.4303963099755683,0.14056657777452133,0.2799100698823258,-0.4576509982354999,-0.08801798562594018,0.1266408565974223,0.46261422011137654,-0.6206770918474589,-0.2262387504814242,0.14586823337944443,-0.3206010125325697,-0.0747197711457235,-0.2554315146131083,0.7844226154196977,-0.32904857332135523,-0.24435794644115405,-1.2604918213798464,0.7694518966113917,-0.050266777934173494,-0.20037317871619434,0.19688490849311385,-0.6887008190128271,0.3662781483301545,0.008515973239176383,0.6354801492386287,1.7563616090153276,2.067563406097689,0.12596309857285987,0.4303253812002404,-0.023406166611579838,-0.0018074226331926003,0.509099279881615,-0.3079063089058402,0.12195808124528157,0.4883066448924773,0.059971331336500955,0.5264234924921529,0.7338534144789516,-0.5165961574016626,0.8022476693747783,0.0777209097634394,-0.08837591370726187,-0.5962457858823313,0.9631607828221895,1.1910878238016716,-0.7911578928298764,-0.132781914471105,-0.48007331930689334,-0.829928876531672,-0.40355878819332597,0.0016468558710905842,0.795611428128103,-0.9952141274229764,0.022265796029545346,0.1430238224944769,0.10181599486314391,0.47815709183345234,0.0903767135082623,-0.1502520724289989,-0.42206614979463414,0.5414469149275959,-0.24178737363703118,-0.7758932989638274,0.1076730876621575,1.048031961035801,-0.4379758743529015,-0.22290954609237426,-1.059233290229989,0.10563998496538156,0.07430747345027802,-0.09165353458328201,0.36899578557698043,-0.32185969707695306,0.05261225766406619,-0.468128114594063,-0.3983192502309086,-0.4473555130869564,1.2973795669837465,-1.853037239383773,-0.729731860710243,-1.8113920887057826,-0.8458567102351248,-0.33113337015234456,1.1359072204175957,-0.0767941467724624,-1.4702923392032745,-0.3733866543416675,-0.8731061134144354,0.04781488318913072,-0.22783348951266894,-1.0936035558218518,-0.20209326315804452,-0.9433612644821138,-0.3938039991601738,-0.7271908068137672,-0.5147821602641565,1.9091002937968995,0.10217564989640651,0.9232374284632521,0.10357122591278795,-0.31381478124867,0.38581077513986084,-0.5067859756371069,-0.7732285701163302,-0.4596866290517436,-0.5269138951461909,-0.194586378958814,-0.02719217911111734,0.9448007947038942,-0.6065500887056806,0.005933397693058326,-0.38083632383918103,-0.5693872681069567,0.32388443343944656,0.17764533018866627,0.47929292331572143,0.1418353727263189,1.1828400526125287,-0.6269304033634647,-1.190309414870936,-0.35009657157950824,0.7225565590054198,1.144888043928762,-1.198058664866341,-0.14107754954703092,0.06063528158846682,0.4356281993583307,0.18569104975208006,-0.05043991993649449,0.4328390195556025,0.827049418582128,0.5270552145582553,0.529731562973046,-0.3781884846890881,-0.4099358257064946,0.1119081112906844,0.5790573140666031,0.1760578338794991,-0.909828691542935,0.975535097863409,0.1429631839352056,0.5357714840397819,0.36146854245220955,-0.17032813929961782,0.1317517605690591,-0.9811317453419339,0.3994319303381481,-0.5450340526124804,0.057481050369253106,0.1734567054096417,-0.7897585007733425,0.34581115052311967,-0.19003902876472564,0.8557312738929475,1.5222213440207168,0.11466609766435124,0.38452731305900056,0.32988224911430497,-1.5312125676116173,-0.03229274785121655,0.49072033319903774,-0.2867363689864363,-0.6540058537886411,-0.15652918545561453,-0.31667516169264714,-0.5595449422919565,1.0122057506638154,-0.5907996577119041,-1.013816763602205,0.15240182489329632,-0.9179904031797866,1.308453573922651,-0.46259768279984076,0.3290346478505318,-0.5089095267849241,-0.7130911556962806,0.0959446746500046,0.1824516104517095,0.47841021991507526,-0.5656234552850938,0.542985585162948,-1.2576584933946475,0.167668881183373,-0.2664939395873928,0.36112081520732636,-0.5545933291841937,-0.06054651261042207,0.13286920302844946,0.3809575781777244,0.2610380814588312,-0.2487455837959036,-0.7478146100982397,-0.2850815507877591,-0.3736796688266789,-0.25441916648138796,-0.6340225500658562,-0.7789418475428527,-0.37787122234871784,0.0924778537944152,-0.2670472304550099,0.030715722659503203,-0.2986247942079983,-1.152458082718642,-0.45574569368277124,1.3164438135860768,-0.07743681713694944,-0.014940944453427783,0.8943885896936459,0.5046786359220464,0.3354999300005683,0.7822444886302817,-0.4100310794610018,-0.08672419123692193,0.6116814688530562,0.35070347304656097,1.08039842822928,0.5270333628094358,-0.19025206995700605,-1.328059594333702,-0.22726134195612124,-0.2591653893654558,0.8223133232917433,-0.3293184263987776,-0.4996695388003802,0.3340300330357288,1.5983407607304834,0.6474460058955871,0.2793382588364766,-0.12739943200806467,-0.7165277543434292,0.19608176884770473,0.0837132618719688,0.7268428435182847,0.6540146229935342,-0.2790152544653095,-0.4025170721434692,-1.3458493209675377,0.1599590015045472,0.2258629894305292,0.4373061224456781,0.6060610002310957,-0.4752249047330589,-0.9768775623186198,-0.42636110043646297,0.3267386578361666,0.882495947763917,0.47699721108782106,-0.1426885644876538,0.41555543462049016,0.16499993668041982,-0.5120869982692203,0.6051704573991151,-0.5302549439096377,0.6406349870831106,0.3300960690212976,0.4900840589215464,-0.535017167165594,0.02791162586513828,-0.4379220830225326,-0.12851125580987563,0.09233021297153217,0.6854724336994042,-0.47669011972822023,-0.05592478879121843,1.5692399344786576,-0.21993625250109308,-1.1144451715764323,-0.11199784834986926,0.9680395289061173,1.4448992308421167,1.1440636319607238,-0.29072459054676447,0.5587555925159947,-0.9864212314621545,0.4324154732260689,0.0850245930480299,-1.219269716742175,0.22909016523574166,-0.6350934724378134,-0.43388765660665396,0.08752946997296991,1.2007064711510997,0.20345253361506102,0.21254586099594958,0.9587257914366376,-0.20766332221004213,-0.7547201971426895,-0.20585085542452286,-0.12576913921957245,0.08116276558680077,1.1881301517876164,-1.749774321731165,0.1366285978404208,0.09020735237517659,0.2798706410867326,0.2782990292815353,0.35862892989275114,0.15778076136293656,0.018858566271552912,-0.5924473738353015,-0.4516107461480996,-0.7762582703259988,0.3818955180349724,0.5187342819499713,-0.4053478906801876,-0.4743883492093595,0.43528570871009653,-0.052202614656714275,0.4718159433302051,1.015462799249984,-0.3666520673638555,-0.18160152000809665,-0.5369659193345204,-0.558640132841154,0.2612850241407569,1.0475563719056187,0.40289330625757164,-0.7710039948707785,-0.7638394663967022,-0.1413806118324696,1.387433709084724,-0.12896735877319432,0.14723240449282465,-0.2984947908090553,0.35794300198512274,0.608410847708339,0.45805307723944366,0.8669912514725906,0.7547051499342508,-0.5988522095826565,-0.16091071032328347,0.23223214187354005,-0.6871482252399104,0.04860648697995282,-0.11432523662993802,0.5732052596873182,-0.8477362847801191,-0.7812970897135216,0.5873981729406792,0.8149476049554558,-0.34938835848070043,1.0264517330921545,-0.2340474002687358,1.2815496947560758,1.010930329223265,0.5096072253406858,-0.4635753944303085,0.576747400340425,-0.19618204761479338,0.6210251169623274,0.4471354949286204,0.301459756962856,-0.24104092374850236,-0.30563229502247025,0.03734669517656738,0.27286067379458606,-1.0797989133664325,-0.1250539087132425,-0.20842927997801675,-0.3819410372455273,-0.6625855954119092,-0.6204369852638228,0.5305261824402498,0.019196559925930057,-0.29434262116460913,0.406114923911676,-0.4571650645877424,0.2509503957990039,-0.17862325294554443,0.4282241099740632,0.604727029242549,0.12335187054912736,-0.40977693370252133,-0.2474837364759141,0.3170706242541416,-0.21951438073044482,0.8498271982189034,-0.11305737979121717,0.43370018434028623,-0.022269736770219307,-0.5463977168824408,-0.4068638080725277,0.3150286894403921,-0.33091177976460767,-1.3447548131337368,-0.9801743227863603,0.6374741469097565,-0.6575175908141329,-0.013334448474174442,0.6043639026438198,-0.7987049136138797,0.6960190484646517,-0.02926644549708574,-0.12951565551450955,0.09821274860594652,0.530164585886061,0.11230897060440831,0.8731078129846087,-0.2229904574001098,-0.3614073531830856,0.3504235293837109,0.46552347050078413,0.4250036858843543,0.3327445218413427,0.4422805749081861,0.7809836241550646,0.3961536124398693,0.07890818319193328,1.0358771436898988,0.7973924115959341,-0.05981500185130914,0.020293058075828596,-0.03079635442965082,0.747508376918212,-0.450768100086863,0.669177278553469,0.16197020418668437,0.8613492267784366,-0.43077746843639303,-0.005450705848583575,-0.36149218966988966,-0.4882391948246223,0.5937357963616708,0.18011750324210302,-0.2756723882611493,0.40610118356326436,-0.8072006810755085,0.31217934403030156,0.11568540521893336,-0.6643679372404567,0.7411578520130521,-0.7262979337689146,0.008662405537145576,-0.09896752021380507,-0.004473764787430001,0.7218667898273968,1.3416088285374217,-0.14703203044873397,0.35392522263689513,0.5882888383673736,-0.08762511002842291,-0.243532743271376,-0.827911776842778,-0.8531572000462773,0.26002429473492455,-0.4331302999032954,0.08663764821517628,0.9443345784257815,-0.47742222714785904,-0.35811799995109367,-0.8783145634550522,0.5394519079875865,-0.32096142191278254,-0.21471638897620723,-0.3060634497505322,0.3765882824241647,-0.18136479162537086,-0.8608216251933015,0.16968636926888003,-0.30962853345974956,1.3286039969845402,0.6989342513498593,-0.1947374873427421,-1.1631501072449522,0.23053654461505158,-0.3148527637032868,-0.2765078439710993,0.4225614330083118,-0.017597467246624476,-0.6334535095956948,-0.5310809367690278,-0.6518209791162665,-0.15210076373665998,0.18796922703220673,0.48726796740000883,0.5148934645648305,-0.49096915719984024,-0.21012329388149878,0.6230215876488424,-0.2966238013016043,0.29181495019470965,-0.3677399620714353,1.204133078533035,0.6605917009202656,0.6012847125098243,-0.3671539526650748,0.2597470683477018,-1.0360698040191054,-1.2253348157836899,0.4318913008747523,-0.7145371311172581,0.3935930786089324,0.11900259271449161,-0.0030941401200179582,-0.6751154187710906,0.3042580725741263,-0.2216922209014403,0.2628243411313719,-0.7099178725962866,-0.4186514136635541,-0.07746196050979275,-0.7078742818102768,-0.5963691927527822,0.8490084815802407,-0.20370178131330077,0.00018242663510922857,0.09887090682615945,-0.23624620205338534,-0.8666103116609689,-0.5602755389549617,-0.2173005101732137,0.33708486438020546,-0.4358456426629554,-0.06329604156634239,0.01094428382064291,-0.27557001518614693,-0.6364104317880402,0.5883313719066728,-0.2041869592409575,0.07693295371005876,-0.5800452616913305,-1.5234569557556037,0.2947996045261459,1.4023599958077078,-0.18407574628733678,1.0856432409386032,0.38922984823856865,0.9281925018829413,0.44300366117670303,0.42197479259598014,0.5551796492529325,-1.1364220388832988,-0.34858798139078,0.36214542227320984,-0.25717792255767985,0.2022731939696293,-0.22213394023561361,-0.5963179293112467,-0.18679089095079238,-2.0418420913135416,-1.1315875177806771,0.049563810421842325,-0.17956324089416176,0.021149373893171584,0.8506595938018539,0.42695011082123896,1.2601978195877968,0.31935316679777986,-0.04221101128953499,-0.2969850068898738,0.5428408713133599,0.23639218098506562,-0.1486351695374892,-0.2734906670046617,0.9971587471809503,-0.5212630032548184,-2.345023434609507,-1.305670131449735,0.9638608537110323,-0.5525413168298428,0.049991256357770165,0.4723664074964007,0.29565810463477005,0.6104237100314657,0.37352619226282346,0.6099230614554481,-0.5008183300745235,-0.8333992292147521,0.20386320272052935,-0.6357054431158998,0.13059251998605315,0.36898936568510593,-0.40442568601292134,-0.8678923207624228,-0.1610040810045641,0.9823189493849127,0.8360598464125575,-0.6374558522228537,0.11381288743639961,-1.0782289180318447,0.26281093848092163,0.31343063433801194,0.08890378654717886,1.3403166246224334,-0.5825786769708531,-0.42018009481526875,0.7027819933308398,-0.9167043885769804,0.37123874169022003,0.35223447228255833,0.7287446771305827,0.8627718862184759,0.24577507015168643,1.043906650568298,-0.3586500214603084,0.7531963103197388,-0.40958510734135956,-1.9662177447961087,-0.32238293936104323,0.15135253423583964,1.5123512400788082,0.29554977686579453,0.7769053284355295,0.3964295569623976,0.15798500626196108,0.8724261531729623,0.6280063563902488,0.8386882152316399,0.4769501515148745,-1.5181057147599317,-0.04568447788195842,0.4126284432256371,-0.5128182785387048,-0.37092602238828465,-0.7279111708130748,-0.09224537625680074,-0.1538453130778385,0.5682917206004523,-0.06377863463138961,0.020720622627710267,-0.515385270627984,-0.47058667364623025,0.641705122372588,-0.6981186398316082,-0.8866612803299123,0.13855584996767795,-0.6988567749536895,0.46816101206170113,0.004825390492468051,-0.7872550700786537,-0.9822443859611832,0.6456412700485351,0.43691246744000317,-0.20129482600839707,-0.02187366397150444,0.7416865128194614,-1.1358639620307525,1.0672537030177507,0.37047024461054473,0.7294875757525665,-0.13378798777907647,-0.10632678943487078,0.4191917713344235,0.3459481693291213,0.6072638236789414,0.13769390720132546,1.4113245188290753,0.526262303843991,-0.252850142481955,0.7049497075510548,-0.9443938161500872,0.3572182664317568,-0.2199281889216575,0.5011947343793435,-0.42929998497339683,0.59351845077958,0.21011247734264965,-0.7111800711845196,0.40607071686161045,-0.8495383525746159,-0.26753525118668464,0.2631960594792621,-0.8036835550810665,0.3408901385406817,-0.7439018292752627,0.002101598707151411,0.5605027006136695,-0.2333823011923088,-0.7827298138733891,-0.29730928984436295,0.660513773093811,0.11092849143967456,1.0371129791102758,-0.6307614973455761,0.4672543504093746,0.8194671299039291,0.7000798080036458,-1.0623957733396914,0.46338374430645846,0.266607407048093,0.968219510736914,-0.5420304103928508,-0.20200913264165032,-0.12751413244219195,-0.5348137233487156,1.2953393988318547,0.8787677873202762,-0.6286810046773258,-0.8161945880202235,-0.44239702128666547,-0.9708520228186022,0.7149489047553725,-0.1346942523016142,0.1944027774475333,-0.4295878341844863,-0.844242714987885,-0.3734538052936138,-0.2515667463700214,-0.7880819195259066,0.223518125342912,0.08410689322148561,0.5586712176737488,0.7391161146577168,0.5749805173274836,-0.1833721977258948,-1.89735219883037,0.28375214969175844,-0.4204974670254361,-0.26299680067769415,-0.5084858750785748,-0.0835070203946407,0.02537454966072844,0.8924492355021533,0.206243258204574,-0.12928315074116464,0.3262807740154298,0.4268515823974573,-0.24256906079279644,-0.07044299826840895,-0.4157596794900503,1.0285217452646107,-0.14496187607459923,-0.046393193096674806,-0.6338861890960623,-0.4350900125302128,0.9221263115882619,0.5722754141460838,-1.030373664333818,-1.088865881255906,0.47255108886473596,0.1679459043750025,0.07739429652315966,-0.2994034661866172,0.22000683632142007,0.4893258982578538,-1.0962917580292835,0.606660530786863,-0.5293678060688076,-1.0422584359615474,-0.6279071925722092,0.4038014093173584,1.7039272533705503,-0.37144109100058553,0.4128282876037579,0.23198150779668716,-0.41334093871771166,-0.012022510656949419,0.22275561561850996,0.618401320217549,0.6249740004410754,0.8375319785583127,-0.5604379588313946,-1.3349270791390977,0.2760009175473467,0.4091560168891393,-0.5926253654040534,-0.11956161539734239,0.04273437602662647,0.3377546026495925,0.6331781164555015,0.4201542377049414,-0.049244261383153465,-0.0892508919469597,-0.6964379964526098,-1.5205780176082597,-0.5411785136677729,-0.44647940073934467,0.12124821591591756,-0.02741393720470873,0.07458795558315469,-0.16628874130269844,-0.038729850998263954,0.09504728618326722,1.193447625990081,0.8488681461187751,-0.3722045101822664,-0.3612131147453826,0.27895484931939196,-0.4514112382094506,0.1578261070353117,-0.8008142058384143,0.2103088010528816,-0.29671236997759215,-0.3261444643377176,0.46142776065949853,0.4843668497987551,-0.1538760425688596,0.22634865232572138,-0.12725181844294176,1.6059199957200625,0.05272719885496546,0.4219588038504261,0.5105734721096776,-1.5817295365169222,0.09762912575795708,0.07486069891281398,0.4331962434045177,-0.052319916691855615,-0.6005440197977079,0.08444178844331085,0.42234250082012514,1.5352563219581705,-0.8131420491108904,-1.8439407237203422,1.4908814593679498,-0.16692156099073274,0.09289952455000225,0.6855206255014622,0.5330072064263295,-0.9746570495944588,0.15199570743864385,0.228118450516905,-0.5773159471005659,0.39391201300177475,-0.17093701735743924,-0.5066239748029215,0.6755990036737565,0.00731072878077508,0.4914118922730286,-1.3167166145448146,0.4998151939914193,-0.5026050169901418,-0.8194332140578591,0.3089009721023272,-0.009407556326789272,-0.05323706872769357,-0.17411685332315566,0.8005502689763262,0.2852489252327713,-0.46074149567630174,-0.6533382873885485,-0.35207100574971384,-0.5259207850391512,0.7687546355964875,-0.584843322396985,0.00038223710224381254,0.10746580008012774,-0.7199039024318555,0.4849193383934508,0.49296363161926304,0.44378290069687737,-0.06810178875018101,-0.282901539063002,0.18006509513044586,-0.2775307336080256,0.7997646066254114,0.7880864909478468,1.331750913052113,0.5757992200482049,-0.018780053375832714,-1.481233488914429,-0.7984978696857595,-0.09945068716556565,0.09794834047857942,0.07375262663394912,-0.6094887651358626,-0.49396487991705845,-0.8651631014223734,0.7691547627104418,0.20972905531599598,0.4300374423412505,0.0979829928616083,0.2348540575594137,-0.7835755789811073,-0.8133761330243546,0.5806671489480321,1.2274132057088976,-0.6213160414135571,0.30973991570243864,0.301435481938897,-0.48590997641704015,-0.16587417176752445,0.8193037931931266,0.05009615921173964,-0.2671778749551432,0.07037434242467978,1.0902953979228516,-0.2108269037806287,-0.9798387667108513,0.24306998495162185,-0.7371399944003245,0.24643650314533286,0.1329112381064498,1.0798086209931161,0.7796546491359172,-0.34415605424721235,0.18150185476192404,0.2965221460855917,0.3259587910231003,0.04463555611179438,-1.133503944267528,-0.3129273773473133,-0.29779267385396074,-0.06196489979807349,0.8833502573400721,-0.17687638602868824,-0.2802434018097827,0.45590399639261,0.021452882471275164,0.478684418014211,0.661879321214663,-0.7882960475853414,0.38237033199727505,-0.6887188892544226,-0.11659548034607203,-0.47429297246285723,-0.7147591093576441,-0.11755311556525953,-0.29149709762701564,-0.6616927806904297,0.4351068134459088,-0.11046135343077501,0.6423938619551753,0.5383387703217218,0.44986116051393676,1.071132145949062,0.09958661487799733,0.44401625975168774,-0.507644480630671,0.622149065193708,0.8221153269228871,0.46973302325427635,-0.037663996693993965,-0.26012246856235516,-0.49199451290302054,0.0417913325420365,-0.310795707330477,-0.9933991229945038,0.1035984231345798,0.5138508670989292,0.3343170657127952,0.4533077489680928,0.7524136977453167,-0.3378946330652732,-0.8137245799451859,0.22752188000896062,-0.09817562361583587,-0.4978406995819126,0.0037012043118961994,-0.42165873676731386,0.9201603924136884,0.664852143311427,0.5081580546440417,0.5098297728133928,-0.6603368124873579,1.5926489626701001,0.8399629795465483,-0.05902666050347515,0.4182883506882776,-0.12480839209603242,-0.8159925146775747,0.8486949573394531,-0.10084456885230553,-0.4195558580302991,0.39753097674635385,-0.9931103969139758,-0.17284395614996848,0.6200833934101143,-0.921116835138049,0.3409463871681584,-0.04017131626028674,0.12933990369182258,0.6724431007502405,0.06095920324903883,0.14451446220539288,0.421622889228618,-0.8522235300309057,0.024447913354452358,0.5101902968081417,-1.37627451384891,-0.13655806230715278,-0.4804775499689453,-0.5095005748005561,-0.450005611886629,-0.38161565567552685,0.47655668536758444,0.3977744180186923,-0.11950114805376992,-0.43654942576606526,0.4973177916369248,0.053595486365936806,-1.5166982975024685,-0.7804714782792032,0.9884800206747005,-0.052574920420596416,0.39776425770596907,0.4459020909299311,-0.5403491899655926,-0.8057119006421705,-0.27544306928588563,0.47994081260605365,-0.7950160362969488,-0.22759464796573076,-0.9768547114573786,-0.13262737467213565,-0.23561709328485933,1.368501589445735,0.02027187576292201,-0.9168920768748637,-0.5431144988395251,-0.2337029138319409,0.5347556609766781,0.9441018944674823,-0.1520332661663573,0.1470667776088739,-0.43093878247802725,0.23202825175237518,0.31277990318997534,0.36977890854434586,-0.03631648951823252,0.7283977911354697,0.8309893830312572,-1.722835221071584,1.4630249964914794,-0.08515727902845828,-1.146115099526998,0.05702841093501493,0.8966440190392309,1.23302280785889,-1.796360897321784,0.009595599447568938,-0.8758378255265863,-0.2346846787261893,-0.6600849294148121,-0.4260735620703479,-0.5217925199185641,-0.6278287115667548,-0.23245007607437954,0.48884911530004566,-0.6077678061647119,-0.3803710207064386,-0.8950145097504134,0.5386419991431811,-0.5640629277380184,0.7984528549554024,-0.276385348484036,-0.43354757577630926,0.6419860413756588,0.5206139576529678,0.11820722315165039,-0.6055519113249711,-0.5190223450060238,-0.4690429567453379,-0.6472288662923877,0.3047434239473004,-0.9942045103565148,0.1985415891354553,1.2311333225427334,0.20572828865901713,-0.2930771774958893,-1.0951749227064307,0.03717906191717996,1.0535624871602438,-0.32093027284705733,-0.4689707267933826,0.08658205686002313,1.0877311761141413,-0.17697752090618749,-0.163308388580592,-0.7403261791307968,0.7106384521878255,-0.46069592885202093,-1.1202125645879073,-0.6709668769101744,0.06234773938009071,-1.198237553617772,0.06881786730211548,-0.30053853909612854,-0.25335700159723595,-0.1598483533233569,0.5422461605983645,-0.603593080433041,-0.818555048126076,0.2617182540901844,-1.3783653876983184,-0.647139749594243,0.6701081620134799,-0.8570234056043573,-1.5761930889271367,0.24526309121139914,-0.34735782210084837,0.6273345886435255,0.8194512144950115,0.21665424613662873,0.27936520003283866,-0.02932790193220699,0.39951617876980616,-0.09103344690255136,-0.10675481748604757,0.4829641582625078,-0.43811238807464614,0.7802805652418388,0.00018985570964717084,0.40276100760291583,-0.09697430042159833,0.6008725510950297,0.6297469151306343,-0.5894034496069123,-0.12137314701957105,0.7992003971156841,0.992664498135612,-0.5758535143698978,0.1553658493026784,0.2858138247536667,0.7576573254701988,0.28396743906482674,-0.43631933958681196,1.0330006446017195,0.29136163662143666,-0.41220560421462965,-0.5966692307407814,0.5642566229084123,-0.7204526736068436,-0.07385065266704417,-0.7255743015571081,-0.4349326483732397,0.21896991133241722,-0.9547910124450013,-0.13609290261817364,-0.4028921378096883,0.0218851407421286,-0.39673345813229355,0.07087967241648674,0.4518578939516927,-0.8931261362005002,-0.6768132230856805,-0.7525245904012298,1.4800659565342738,-0.7965089572793965,0.40340249869730804,0.9569296551077107,0.3197941867114709,-0.7946766699868586,-0.6095626589615688,0.0019862074676578745,0.516542054081394,-0.029617992533998563,-0.0736126972942925,0.30670892292945146,0.6020854604943423,0.263584197299626,-0.9802590529390443,-0.617706583858304,0.8219557562563748,0.8547742220808977,0.1344354721624546,-0.2877099151741034,0.7644902193129067,0.03626055044811133,0.5728781329170605,-0.3096574371117173,0.8288164140432395,1.1631234377695667,-0.0074190489845483605,0.27654228814125237,0.7603174130729324,1.1527057337014237,0.37589736383427996,-0.3542577966111997,0.2668704518419754,-0.6190455600372592,-0.36287321518414173,0.058241936874562486,-0.2166963619344119,-1.1895178852125656,0.20198951998322603,0.12649531368178518,-0.20018184533779923,-0.5035507139045293,-0.40085089057259765,-1.0013418866615529,0.161558913459935,-0.18870839099586334,0.3660965196740326,-0.2299757740968387,-0.14744402104820348,0.10677615581645422,-0.9199525797031642,-0.2535679967315687,1.2801562307135916,-0.9701945987071336,-0.31960094636205977,1.476923032250931,0.44118390543952646,0.17211559547758618,0.40988135173041335,-0.410885319847625,1.100630569981851,0.09925944447136799,0.8193634649712582,0.003432037303359741,-0.19516767009668806,-0.4778007613204718,0.31486481742061795,0.4283886651250609,-0.08437208057224765,-0.008950796303914418],"fitness":17.5051015}