{"v":1,"inputs":13,"outputs":17,"arch":{"hiddens":[24,8],"bias":true,"activation":"TANH"},"weights":[-0.8807593205084439,-0.017976480588797535,-0.04249567729938081,-0.11538662911302144,0.5946070710882257,1.299802571075489,-0.40780449802017027,0.02389570906754316,-0.6102426545372941,-0.47552644918142095,0.5815084102163062,0.13450101665868705,1.3481559847815001,0.3563573545287888,-0.09341908245577733,-1.3205806726546474,0.4757850702645394,-0.13403088086651938,-0.16139881450213153,0.8009741797576717,0.12618763033807753,-0.202719185227235,-0.30462475933909583,0.722489581929476,0.34249582089914693,-0.6565018695311281,-0.097671081377744,-1.1269873615210493,0.9490825258832463,0.16174125157099634,0.5744184799323906,0.3611871778967283,-0.26633155416398496,0.37752127983552836,-0.4601912828750389,-0.4484828574677228,0.3654046025452499,-0.3480062275689389,0.8843736992840101,0.08014741817460551,-0.13714460854781518,-1.099175629538846,-1.092455488437926,-0.1106452058998258,-0.2461714518590707,0.010378530376387682,-0.9569721455471926,0.046434189181574714,0.28784150994770125,0.5679463688343254,0.9169703366085943,0.8587898195169856,-0.557361626715814,-0.017058660110669116,-0.9598402486280346,1.134971069928235,0.05360934187865474,0.9374756537898526,0.3954997371067379,-0.15410624366241668,-0.11971296270640454,-0.16274569741633912,-2.008515533279997,0.5297139400695468,-1.0638760533697975,-0.5516588857447311,-0.4321815693730476,-0.4011476532399407,0.34803569518882055,-0.2149376807619668,-0.08938060349161911,-0.8345713060853213,0.8999012051746146,0.4253644164637842,-0.8048526007693245,-0.2946406746331285,0.04145329759007277,0.9191800046515378,-1.007189437023008,-0.3829152543260176,-0.349254856645412,0.8027702649285886,-0.08840415207151592,0.6350292311995511,0.2689164998980056,0.45783617077517963,0.7175658290719532,-0.32348659393974255,-0.9600987315923349,-0.8101351134633719,-0.297820202356709,-0.37086854068490666,0.29485668136718757,1.3485236512755034,0.8735189397087604,-0.04429384715515151,-0.5129402702259174,0.3934990304725241,0.41271132342994304,0.9164806299426251,0.494286730701798,-0.6299054467717496,1.4889683580347413,-0.07916077205188048,0.29547632036953664,-0.20812761732801222,0.16585995304268364,-0.32823773928321,0.599478158374283,-0.4615505288395621,0.3285755183107447,0.0005604759741684198,-0.385353472389015,1.770403601648984,0.08751845968407561,-0.3819376626473118,-0.37874723100758556,-0.317308948928366,0.16718382371199364,-0.17036843320743913,0.2387518444985829,0.024119659754166384,0.42832754184123867,0.5592805387417616,0.23276249463708262,-0.7009265491531028,0.7123602640782808,-0.18599164793779224,-0.24138028076216994,-0.14341115866003465,1.3329446368060016,-0.5674139875121771,-0.23039190486118266,0.9304415123094688,0.11354061678229607,0.08398917405136862,0.43007790530453066,-0.22051050058406568,-0.08631462023444038,0.23599581767824562,0.34525354336962283,0.42696968073643765,0.1830122567789212,-0.1715202009294901,0.4624845472651796,-0.2482784361605919,0.562184431143186,0.5606480592794747,0.22959222403091192,-0.8545503787058716,0.09723422806961497,-1.1513900789972795,-0.9242795443553293,-0.5132299804992716,0.010404322602272392,0.1816516498690043,-0.07750682772036648,-0.5538213385947597,-0.6387774843115139,0.6897707841044883,0.3038320463195527,-0.06840202085754277,0.06597695434380095,0.4666959636167315,0.5105067786285398,-1.0384269824957157,-0.9284186754152569,-0.6839981922052427,-0.4948855954256033,-0.032315940739123875,1.5967283939007912,0.30825959722229,0.6434780949196893,0.7252605467314547,0.5654996097755548,0.22880444649134593,1.3780007386763606,-0.34452610108536885,0.3423457937164653,0.21986136837842807,0.8107812954838574,0.7424688398475908,-0.08420678893362665,0.2826171253862378,0.4738578515866865,0.18957104428413,0.8769855713890922,0.5538774745760564,-0.17636507343198754,-0.3791092229826602,-1.4822101560684289,0.29010128934663926,0.6254172832588069,-0.595667871220747,-0.22897578136300867,0.006184637008835147,0.4375822942210382,-0.22774617242723494,-0.3381029976211543,-0.27682937158041104,-0.4511012880397486,-0.21592105587286523,-1.38427475067131,-0.6814588482098861,1.7060022547653717,0.02541614144434415,0.38797526400979787,-0.7915441918080574,-0.12212934938034851,-0.6182759177430459,-0.3734314744364702,0.7565861634049595,0.9917038645017681,1.1172025836351005,0.5733207908389928,-0.4995675600197314,1.0974550399805605,-0.0634814409684997,-1.331091993315496,-0.354686461959166,0.07827926406528918,0.8948702939400094,0.8761329563515414,0.41755214568039734,-0.30130878185698706,0.5849469320432402,-0.3263248576486855,-0.36848471220528584,0.2041761455122821,-0.7246364314567105,-0.6955777653304402,-0.6021376787437436,-1.31190691905293,0.2201934194861248,-0.37120732747806867,0.355879465769741,-0.813771364354705,0.2243570227393407,1.0518545150483989,-0.11524185307183334,0.3521126274258381,1.0782104203616567,-0.2687790388428138,-0.08068854899416794,0.3301229403588216,0.7091514484866467,0.3173600481786022,-0.29019053590940574,-0.3531651308682795,-0.3767630151684591,-0.19745005968703372,0.6434778456488829,0.24524974150538867,0.5403152409344828,-0.8527083832567559,0.1898980425764504,0.20673235009469637,0.5282704020347757,-0.48860127122692465,0.09771354184692088,-0.1785964641304356,-0.5800767142685757,-0.3069442848878916,0.21207854411983476,1.0262042983403024,1.5017195157817789,0.19155177451928224,0.24887247033255047,-0.020014276213158096,0.10906296256717013,0.03689891807891682,-0.12314189586311987,1.3175666590943291,-1.1397006936553806,-0.9580598773251147,-1.002010803083985,0.426468912682981,-0.7769005338663311,0.5041195505710555,-0.25338648637151284,-0.11462642108576998,0.08956353317980724,0.4827657901147484,-0.7923533802216652,-0.5509482798350186,0.04947802745893384,-0.3594890561166966,0.09200148835752264,0.2783351415012977,1.3971920959197894,0.6101397708161315,0.6528059235793506,-0.5399417638914262,0.6113037589066852,0.09927873124255565,-0.939438262057601,0.15776813274320806,0.4591674982281293,-0.9821894328392647,0.026099029976373124,-0.8254241479041734,1.3892918221176156,0.30953110510233633,0.03849865406458958,-0.008140215859294798,0.47865967238749135,-1.1573791382721528,-0.14016549426556976,-0.17548303814368835,-0.03492613533851017,-0.010418611464887201,0.785331581780387,-0.730861845044549,-0.20305985388414863,0.5314308254808083,-0.8130470958686216,0.2506952023721948,-0.33929630827035756,-0.0008830044988749017,0.5092205075431941,0.023835295830180844,-0.06550445930269792,-0.6396461828650257,-1.3385394967395203,0.27769996199427993,0.8641754187115772,0.2875262063363438,0.04787294745789155,-1.2737107625695734,-0.1816749270410511,0.003102006017513397,0.29352126814166507,-0.021378406051224024,0.8641048169290921,0.18088971225359649,-0.029537383742354702,0.5734386914049981,0.21936100450330556,0.04493696903092746,1.0026298675890564,0.3941996249499703,-0.5463424766747846,-1.398245076823234,0.3075507446361325,0.7683781383701642,-0.3018000066786905,0.7420778439520428,-0.257442307606856,0.01225143929715184,0.20113605133050408,-0.18042894605504645,-0.40689205893946695,-1.330798689821487,-0.22080931165933174,-0.48511466251109897,0.1717273420328065,-0.03428063821215116,1.6611238287363124,0.12698306064062231,0.3246185388416384,-1.3473437422027632,0.5180633845879538,0.14055902277104035,-1.0600019210987721,0.869868602567281,-1.2173746499708686,-0.5377327995509368,0.17873162753103866,0.04928863973957142,0.16117472264152208,-0.2811097438204123,-0.499336651821349,0.3034639342375566,0.06897831414382884,0.14988636237309613,0.36514664220832155,0.4672250567037421,-1.1850901765153663,0.45879443212759985,-0.7904903400089385,0.46156361381261646,-0.4137967723680088,0.5933474785203043,-0.9072437784738182,0.00611627474649018,1.180678908323714,0.9146306591600197,0.014334961220859749,0.5424911658941145,-0.1776858883639019,0.2747796041037849,0.05166158090132093,0.08009939730800118,0.43716403923101005,-0.21636540164747603,0.5962258836044186,0.20566458004192745,0.44152152324237187,0.3320437829646546,0.3238120064356577,-1.4708061636539889,0.9190459433396888,0.551042182525802,-0.8413147899489408,0.22349811051883517,-0.4245085092269158,-0.5419273878349162,0.4855171603663851,-0.22244844626755672,-0.895968764206298,0.033579844381077584,0.5731444170734367,-0.3038163621828161,-1.0519449630489168,0.2753184127434374,0.07984417869443607,0.039006706018199507,-1.2702965874324592,0.4971784170323539,-0.027110596160591232,-0.023000527708786644,0.3953217845786241,-0.40967997311224746,1.1139671808516538,-0.5151554001387005,0.14260728028683475,-0.1535000437993124,-1.5702400495865028,-0.14890154699924252,-1.014849780039223,0.8823151916709899,0.8165335594578941,0.04061676502372735,-0.17712977481879683,-1.9406213951288998,1.2784499467121186,1.1365930150546797,-0.6328949386174018,-0.03301214885184983,-0.47593275010168645,-0.11295145233955764,-0.5131532971261206,0.8198347867265293,-0.5763420748961674,0.1538854567254059,-0.47550468557562164,1.0997416272391694,-0.013770276331648512,0.3734699822580587,0.39220018427793496,0.38630846296784044,0.43790124126688884,-1.0897708379469289,-0.5755243691955241,-0.39002283409649324,-0.2283298554014087,-0.07938484520205803,0.35968339466891486,-0.4341659021325794,-0.11221702130511206,0.8628253551128717,0.3834773229325495,0.02847137081723683,0.30267481967623994,0.09945206682058268,0.6128909040455482,0.3134426388829662,-0.23981073300727176,0.03589036378255868,0.06215081387479456,-0.05918976343695645,-0.12459185801452714,0.20410716466159037,0.17942086459365503,0.33646578336673166,-1.2485368970103223,0.03884596117625085,0.27130903419808855,0.2086552420904348,-0.278919496196485,0.39540241697347595,-0.13230744359966806,1.025362319698076,-0.7954472634872799,-0.6017275809084435,-0.06812538913368797,-0.10621935216023437,0.7003752449012142,0.5677146432616573,0.27786758357946884,-0.4228538575751765,0.6294283028915044,0.13833965545383475,0.7473392739304714,0.15356335499102866,-0.14995192217785325,0.9616991596746978,-0.021737793759830183,-0.46814454247707976,-0.6908642356777015,-0.496142569920662,-0.33770862507017363,0.10124417269077525,-0.5697412733920255,0.2043011377912339,0.3462579708044665,-1.5349450364206179,-1.1702044854748483,-0.7221577919834489,0.07418249324389081,0.895569400456093,-0.15590033966113628,-1.1848962339326319,0.10883471507300041,-0.12452967000560114,0.09771695822311045,0.2101578695652995,0.4616947406267994,0.43064289059758226,1.091431805766676,1.0629639484271884,0.23284897039180574,-0.3952013448386898,-0.3351253004919469,-0.45004280382194345,-1.0338843870338978,-0.595857213991631,-0.77259499131497,-0.016106526107268787,0.5082794960831853,0.8216560517988828,-0.929446079033927,-0.021727745790962854,-0.1966974159145667,0.5799633711136554,0.8118746916659961,0.29105612181505963,-0.589729889146978,0.3599003078965795,0.11898337179375114,-0.5348786918396801,-0.0600052386854809,-0.8809211207215002,-0.3211865496512506,0.09943286724836843,-0.767747678299143,0.9730554932388924,-1.1408215927452925,-0.19813904472783078,0.7626892382662254,-0.4915691967363631,-1.1639500633141164,-1.4259556214654205,-0.24696427631283321,0.17914993692571549,-0.5504179009389818,-0.007782339246307877,-0.8000350823342064,1.426699243343455,0.7574455147987139,-0.04730638244269909,-0.3777954172976674,-0.1160465543017965,0.04973498190391799,-0.3967376795444894,0.08853123029272929,0.9854614851686841,0.21380360673905707,-0.08659396382375462,-0.09840032695104811,0.3674838979397695,-0.34281576445149814,0.3385715765516746,-0.5489794399906102,-0.45354564960370664,-0.4718690793765533,-0.7622663419959672,-0.7917032599259864,-0.16209785694449327,0.035944603993503785,-0.9652703636350946,0.4563067699440603,-0.5374197388887662,-0.6573771816059846,-0.5878240636339872,0.41364594156682033,1.0784383743309078,0.7073360196348842,0.07294469349222742,-0.7399473012329815,0.9909500457829721,0.756011124262467,-0.3617626593536822,-0.33774043234190754,1.1611243794394386,-0.8745472007157471,0.5582765413329476,-0.6263682720904534,-0.214413401955467,-0.5030025955406153,-0.45704082066325596,-0.34383946836976914,0.0266046572102078,-0.5797813009564015,-0.7823615412732855,-0.6095772000205818,-0.32790454680253334,0.7059393859285117,-0.41995608349944413,0.12582157578026162,-1.4084417488861865,0.0892075988959308,-0.17355079311328506,0.21282137914045438,-0.11268032210666575,0.36840940281402573,-0.10842837236662183,-0.3364731651803062,0.5535906426454192,0.13700783059774382,-0.9495068712381282,0.9025331105753214,-0.6788507682929777,-0.7424850794752499,0.23826551524904713,1.2594092052923698,0.653612234429828,0.20947668142008719,0.5111337514171376,-0.3543874676956283,0.0003722705853228536,1.3011385036218885,-0.8819964486213483,0.6919654407513285,-0.7047817036653933,0.47750870573344395,-0.3802030564598931,0.6805993147940974,0.16161441897822826,0.14817872960888098,-0.34853018588197654,0.7469420948656587,0.08443502029101821,-0.24108995997200244,-0.17679235236662713,1.6056164813052314,-0.5074440166260034,0.995067304956093,0.141251681281338,-0.24139845098605134,1.0345888718801153,0.03235473897039435,-1.036921217007314,0.03439308305179391,-0.23206152938978905,0.4772059913085691,0.4325959803065297,0.5221918199285428,0.476915888291585,-1.1289437767554975,0.03203780311681003,-0.9675633784014608,0.017414070801879955,0.6305798593515971,0.058518414514084904,0.24209626083426816,-0.2036286493112075,0.8787574095649534,0.3667231116635506,0.07968050888645682,-0.15886660552268078,0.04916942093856569,0.17760555032143252,0.725689020619415,-1.245074249868378,-0.33891916392792987,-1.0419870411814114,-0.19522609163226096,0.32344405804873083,-1.5390110940434956,0.10077256752261718,0.33029902952659274,1.032650142041586,-0.2543467159497264,-0.6833841020072984,0.5643983476814766,-0.7458194501828801,-0.1270285361235768,-0.08991374740668948],"fitness":1.1669884999999998}