{"v":1,"inputs":13,"outputs":17,"arch":{"hiddens":[32,24],"bias":true,"activation":"TANH"},"weights":[-0.5212165923213852,0.11914287860942444,0.8703506022232053,-1.008213257166715,-0.26561321055466264,0.026824522328486422,-0.6910991589884595,1.0829657331337685,0.34060630528572483,-0.7147099439615988,0.6088663628418107,-0.4678258996317285,-0.29697617201830073,0.1575046632782837,-0.5688039076603056,-0.6334402991088371,-0.42185617463211217,0.42470184084085144,0.11204034833300608,0.36900754964676324,0.4799835170103939,0.3266751770867196,-0.06325619725592828,-0.36719576794483055,-0.5837784493877981,0.7690020592502219,-0.30642423064876667,0.2624092325186195,0.009287656078624447,-0.3668818454346473,0.07495745169672352,-0.8218811395519144,-0.2666553520729755,1.8763232343953105,-0.06519661198210516,0.9687191910062389,1.5086822873619252,-0.1296508533358036,-0.6284233688012882,0.8394533837324654,0.45386476803441467,0.10637142698057589,-0.307685576536649,1.574160687403638,-0.3739845317075866,-0.3113475687502453,-0.25284987472027753,0.8671559801815394,0.3850663437588684,0.4167127580322707,0.02456445053999287,0.016059115417347128,0.16765076853552713,-0.24977603475977045,0.9311522037923514,0.7556359978487744,0.6964948679943785,1.4688015051893555,-0.16362005225589274,-0.08987238470396755,-1.0228934796691385,1.3630212808167412,-1.005650811198373,-0.3128577551554372,0.28323159653221675,-0.2252898688066971,-0.6699586190697846,-0.5654126150025086,-0.6589728196244612,0.26439699280090495,0.47132940231198567,0.7250820089441755,-0.5484669910374175,-0.26153871957781594,-0.4122003216446569,-0.008207091780713993,0.30528471819293,0.6912085566190205,0.11893756167271428,-0.9098285254153892,0.05192672805544179,0.4822554375372124,-0.8047289464346046,0.5902488994318578,-0.18996520523987775,-0.7519717203599234,-0.15864677767312538,-0.7172193927421759,-0.2377821866588347,-0.27428271373950236,0.34578946012456224,0.286694342151898,-0.6865639660160919,-0.8433801006542567,-0.45511382379022647,-0.0400850946863197,0.47873689097110567,-1.1330509112081881,-1.3927377775414227,0.277871779040116,0.15577898622808925,0.9554688283545453,0.4078646126830923,0.1981739145389172,0.5421401918193843,1.502768222614608,-0.6263835048826802,1.340366269568556,0.3421792043546465,-0.12106521021129171,0.1632126625975361,-0.8211943921497787,0.6565280414494261,-0.5497729079260191,0.6392119658970338,-0.2867288386276735,-0.0595883888445708,-0.46115029133329033,1.166690943822313,-0.4084541160419284,-0.6637774749040944,-0.1523425849351056,0.5865713433960159,-0.08680171463185725,-0.45948588513378175,0.2160226018794933,-0.36191685295073156,-0.45283935726663826,-0.6470133973677502,-0.5403684672190784,0.3521727181109407,1.223683664922741,-0.17116854067056414,-1.4931512686930009,0.12716484757822316,-0.5003474588957376,0.4434011811598216,0.1444158956305599,0.08575760469927354,-0.1236236155798501,0.519232961528122,0.17428929455014183,-0.9067444503115735,0.004378592177466524,-0.9733958893061723,-1.0431158790585893,0.1131318925152536,0.7912763984593739,0.04708633977496718,-0.11680687439723098,0.19901772329194095,-1.0389777090069376,0.503501741857704,1.1824797057059788,-0.46654512964955097,-0.42907236761722345,-0.4466919457125579,0.3755197854447929,-0.9452033694781365,-0.6098191948372322,0.9698883137253321,1.0738428682027898,0.6799858377546707,-0.7602576193061281,-1.6576017562276786,-0.2894449064723346,0.9992371501085722,0.02984098735751048,1.5392155485539127,0.1687091693323397,0.7044818530108673,-0.2539835505123063,1.0335468864285169,0.5257255637123682,0.5370129553033397,-0.1981406147718285,0.6527390733970848,0.12795243669909778,-0.7398903966097412,0.24767907890997842,0.21339163142219778,0.07548394601489497,-0.7784700682891971,0.3989820699574548,0.406811649761394,-0.2832100227329262,-1.3342207759839404,-1.3332693323748654,0.03358946605759605,-0.5889463226948636,0.8639851154137227,-0.01912410091052552,0.4465228507652698,-0.9649928347061858,0.30168643512188553,-0.6314216079407476,-0.010140748623249207,-0.5856701866241782,-0.22380195588394414,0.45926604071128474,0.21590876588081417,0.3069954278066519,-0.10283059583542187,-0.0842267510402759,1.644704553031299,0.34897996539971926,-0.8476003419309859,0.30969564035629493,0.2283691867350993,-0.6983164587076379,0.35709293705276424,1.3609200239176789,-0.3701126603716703,0.3253066690915857,0.5680671329848689,1.7936178483458673,0.015814750257733493,0.12756856227051586,-0.19183179208394596,-0.5981623345128089,-0.5420470052128806,0.44926568983835835,0.36820446100880594,0.6248421939474311,0.6939709459102988,1.389439462335827,-1.5515868323229551,0.2373142715603876,-0.5411178675564765,-0.2234908171317244,0.27844092526636877,0.18980551889554165,-0.5037200358595862,0.34651827311592703,0.40983469850585785,0.9355922621536022,0.2906973822485355,-0.07424076946257872,0.17167563173547806,-0.41601621232001934,0.890487542406511,-0.263550762755398,-0.1580177792253501,-0.5030302781569426,1.2644988114546583,0.14369944059626824,-0.8293989816392354,0.22299419223413022,-0.0567442722453054,0.2788093652975495,-0.35196873028924364,-0.10081248336651728,0.17082407751786036,0.020437637091413333,0.5453680387350763,-0.009504014459108147,-0.17418370349681184,0.488272184110309,0.023822313676112622,0.446114373694067,-0.015602257768081731,0.8066557286551479,-0.0820287473431047,-0.1389419822313053,-1.233216177683448,0.2634143601513423,-0.09181228765787526,-0.7152918741305239,0.06903348921469084,0.6918285582759787,0.7827500758495367,-1.2828883317469182,-0.21097729944800528,-1.1095683801186356,0.5540913524517737,-1.1330935571231795,0.7902537973836815,1.0161260324002361,-0.07091615020388316,-0.18275990781759507,0.850793092080054,-0.25973153530142773,-0.9905075569750349,-0.22663337414733836,0.20964567473096785,-0.33036208052098087,-0.6645356766753221,-0.40285873201097006,0.5754568941669053,-0.512330212003855,0.6759115202099873,-0.2615981196965165,0.7961546319955927,0.4741444144558162,0.6973288482879691,0.7680953309294835,-1.0089492107239282,-0.8013944919236389,0.7152799266201632,-0.5579856351055447,0.3029925642142525,0.584395914232294,0.42037969537970904,-1.4587773409812748,-0.8568821933425789,0.16404551706661713,0.5563430991567154,0.42805791222268913,-0.5261376551042072,1.4369233940524875,0.3047357668001264,0.611098893449411,0.0029233739947357815,-1.3033302371972177,0.5909932066144699,-0.5013924607451549,-0.47128784563633963,-0.9082336279653924,-0.22914642554401027,-0.22343118085021577,0.8470115108759639,-0.1570327546346246,1.047137718131149,-0.8446042896373575,-1.3221371769711394,1.3672196032104846,0.9650849574670038,0.06379041022744139,-0.09495878108765286,0.6902064244636801,-0.27613276930130265,0.09948236683404972,0.31076619608635797,-0.0007781494838369569,1.1425424438257081,-0.053009069479695616,-0.4986542813727074,0.8262315241441048,-0.5453477094354184,-0.2987229688913831,-0.2879856570601146,-0.14660955183897403,0.16304886654476727,-0.11688113201379555,0.47770670483513433,0.3885186522124785,-1.4195930368785805,0.5374808087860167,0.06497047213764104,0.6563904871629485,0.6031512951964898,-0.7602236833249876,-0.6523082148940648,-0.021149227237077822,0.650753320283645,0.273203202832729,-0.6087829456580717,-0.43705291096830967,0.5553943142266322,-0.07193944790508151,-0.8345968864644907,0.9185645434742347,-0.46880719034108975,-0.9475052744988597,0.15259938671348525,0.10089515944003875,-0.2908987157522057,0.8867875825058692,0.836888197525395,1.0293088465166642,0.4849321841831305,-0.4190598296858169,1.1574285601823326,0.20845995018542565,0.8906126253779505,-0.341692438605406,-0.13634908615674632,0.717270505485427,0.0519583640563017,-0.27023606101022657,0.08123201246294257,-0.02383221639685912,-0.7339901697352761,-1.254759427979801,0.10941513706119013,0.8843798397971683,0.11722132047870239,0.6982593409560757,-0.3558379035437824,-1.1030581754368067,-0.553435743001169,0.08403400303678857,-0.002263775073383173,-0.18831534257721444,0.5116777004242457,-0.6183123625030863,-0.3008745054431366,-0.5075070278904984,0.6329746194626764,0.014759521225524097,-0.778634089267835,-0.9217874469322498,-0.6927466915956442,-0.8156588614607185,0.14259676307452804,0.5705199398603724,0.18787867551170911,-0.28267678543346153,0.9674893195016157,0.08676016996340814,-0.46859107806980604,-0.16359316658437692,-0.6064530265602336,-0.1773835211251013,-0.13764942268252675,1.3074145017955017,0.38777577502488436,1.1468674284198819,-0.1490514110565733,0.7947853128831867,0.08180943714945305,1.6951606267741064,0.7848874512701712,-1.1018413853002373,0.9108200164943963,-0.5417302491838519,0.9826200009899198,-0.6285059140197401,0.2166641311207695,0.569100478990312,-0.004384078011399383,-0.802876978147616,-0.5070695627531187,0.27021428136668446,0.1041295677818981,1.4860610676753765,-0.6015545032428332,0.9163486332230395,0.23608431436945854,-0.3143295473218838,-0.9938063441279102,-0.21380796172054103,-0.5235014589320027,0.0743174406639273,-0.4647590920457782,0.02225996911073169,-0.530896254537766,0.2987883317040979,-0.2997219718261306,0.5929967253300272,0.14366809319337717,-1.4712691159520745,0.2097867136967665,0.053717586988356436,0.1637589035548694,0.9048247260381296,-0.201720126889653,0.6091657255201774,-1.4471615609023678,0.030791283116265222,0.2892757306107598,-0.3047373799876216,0.03958629781940193,1.0013148788930553,0.08015867018520521,0.8380147879168957,0.32362460955319966,-0.04614734658296363,0.5559623870322465,0.178885251938153,-0.36586569405395225,0.0951202674645212,-0.018169157884777618,0.5006546947907485,0.1300145706420941,0.2280982527994873,0.2446905422034167,0.08439836708975976,-0.2786203868817727,-1.0471354660871084,-0.22613930583241681,-0.3901483900766195,1.0139286224121857,0.11631498510962412,-0.743018819640644,0.23846902653061738,0.2777387561017915,0.7786825574454088,-0.46859948056464296,-0.353990899574574,0.18035272561104887,1.0202829971669767,0.5998484261032321,-0.41918407350415526,1.1379183719461596,-0.7586715815104622,0.8265375571719721,-0.06656984751837325,0.09639039947097958,0.6608679652732975,-0.1406644071743403,0.18777464244991487,-0.5690540491108294,-0.8974823741498984,-1.3060426512441152,0.9577494125171008,0.5575149320945634,0.9175769943920044,-0.12908124781093555,-0.8295585313258866,-0.884158872916773,-2.024648289772892,0.2320898319482809,0.7494424853092514,0.6052941192685218,0.20136127420012018,0.16731044815946133,0.8112275489866372,0.24365956769752764,0.33497715590344584,-0.12145731637591392,-0.029759641717078483,1.0584857921038018,-0.33232447457035313,0.08641200229538512,1.2250139778928562,-0.0697073224755069,0.22849294501850675,0.2371940750556717,-0.4062706653889126,-1.0824489085433273,0.07270331058889667,0.02286941595486994,0.9475299329083013,-0.6677552137339466,-0.4530290729094185,0.36407640757275356,-0.1906950300982108,0.9143199911229767,0.36701761695614077,0.2403502030828833,-0.02309133473219005,0.6352998695098887,0.6085760664078408,-0.521135768537144,0.32145987720208563,0.0689294382737042,0.24114026450333248,0.9635410510836958,-0.30862574945951626,-0.4772911094788716,0.3848098733957496,-1.5139768902214625,0.04980921660470411,-0.6741579183761455,-0.46021538555897074,-0.7726036950748639,0.7440444606919767,-0.1774965210027047,0.29150267112159606,-0.6936227015083949,-0.2884380936447127,0.4237971777217113,0.1033941499120537,-0.4260235448054186,-1.160789603039675,-0.026947665064928475,-0.8875201739341897,-0.37075667800848844,1.6253916682101675,0.2164980285811152,-0.9394735669032659,-0.336259143525061,0.040985717349596655,-0.20026606332352231,1.196550707743241,0.08417642315297463,-0.2743051814893746,0.8993440637769141,0.9316358811303918,-0.518720401045357,-0.7761193218403027,-0.17253395801762625,0.21942262239341528,-0.2640732262375761,1.3501768594636296,0.7721495650801004,0.3824354323038764,1.0677276475868427,-0.41740469323222507,-0.31315153293235926,0.7333806514428781,-0.5241345744875371,0.3573889762398713,0.7996737090994867,0.5775116769827123,1.747775809751797,-1.691019365506889,1.3204107006241297,0.2544511251517143,-0.36070451509111756,0.46747053183628134,0.6063877684304653,0.43913279958705626,-0.8690506382156188,-0.3542175778748819,0.6740142131579315,-0.07651528772484387,0.12282238983007317,-0.5290794577334411,-0.04091065176424598,0.7758021206017462,-0.5928464387335588,0.5187764217128155,-0.19857707865411653,0.3058352580233024,-0.5789780094331247,0.19451014058461608,0.03168649752419933,-1.0533326425982383,0.8841714436663113,-0.8326814961166106,0.5002315655291374,-0.7170719066687052,1.143013693552778,-0.4579726624257179,0.3100102094459635,-1.2263716570808734,1.0036201111347267,0.5662588360934142,-0.02505453353377815,0.38514030187082227,-0.5812745325848471,-0.712922121527487,-0.5826991207360623,-0.35681981372889826,0.3224000359578615,0.14305017677913232,-0.8595775040235188,0.38295451930326313,0.4388691936156975,0.6701774085811779,0.10041433409791622,0.011493172065822909,0.24375887983361824,-0.7694176009628932,0.4575602153777156,0.4140533057332228,0.22546829918653455,-1.3580360073983289,-0.793343192092709,0.7248952630605818,-0.7131748384337335,-0.03801103289571562,-0.4815696050966747,1.49025400809609,-0.8887002990796738,0.681836878118284,-0.7006942411365485,0.34918947447765225,0.9155153030020993,-0.5176217550633482,-0.435903981089233,-0.2948869877908596,0.28970763894516327,0.4142113889220849,0.7664800098515566,-0.26218707537233754,0.964979382875942,-0.037772617026960144,-0.050651291833405096,1.0226528907416013,-0.2383481447031947,-1.0975459587047083,0.29430101661946817,0.238557000471001,-0.2944349498913622,0.09609884464680912,0.4023632707264,-0.1901398509503897,0.9391829368611898,0.5185682127750966,-0.489371548698352,0.3412886036299101,0.10942030814937687,0.47886165920518664,0.18899100951860862,0.11083423775467674,0.4330182417294432,0.6073805801411244,0.5051476325291833,1.2605102645625976,0.7456026972205517,-0.7020822531836068,-0.9843829965658941,0.4405343145666475,0.5194741865713395,0.9764681252798603,-0.918032657144762,-0.49458349820292524,0.7652071012051016,-0.3462163206374169,-0.8200815389813407,-0.2938489233679844,1.5153767532578988,0.639609897545528,0.27050373865845506,-0.8377843923063816,-2.2253828334057233,0.006102643980169913,-0.6025964635234635,-0.35514915097181426,0.7068563486679125,-0.1851623917567743,0.5260644542456254,0.6477461122301262,-0.3671113655107497,-0.2288773024707559,-0.9133485094786723,0.5313780409957048,1.05986138202658,0.14970519965834153,-0.24047310133939798,0.347840515029624,1.0308770209746836,-0.11232340883959954,0.40056064972378946,0.10452346557271533,0.4361321676297259,-0.4542734699666395,-0.3358529244002037,1.1683092491210882,-1.3912243386668264,-0.2636310047261271,-1.1056772645384263,-0.0995822641900403,0.8701256054209583,0.06285888595398047,-0.3044034749812639,-0.7640740803882999,-0.22640873491962493,-0.42390990601055084,0.5134608679299749,0.08302865002124063,-0.6152974796857149,0.0555001532924784,-0.4399648098110687,-0.592026028935899,0.7839282421355859,-0.08935618288686435,0.603952372843549,0.33062949806686015,-0.2006624949207078,0.4541712123708736,-0.6536585773478795,-0.32702047329499623,-0.6057288566368636,0.382883106218927,0.7972634204626086,-0.7949372978477448,0.8282795003825446,0.36520393236011667,-0.4414626268197339,0.17056037876959237,-0.32571576388442436,0.5347506005550586,-0.5458272929591798,-0.06229654464843265,0.12211837595101693,-0.10018058084961608,0.15792273758097952,0.5750129140684811,0.3559175727699656,-0.20215801563138153,-0.04070161329092673,0.49357502148506954,-0.26538152714025864,-0.006454274368823254,-0.6062754823742783,1.940480456126458,1.0861152247543404,-0.31555666026559653,0.47502461266502194,-0.6638348270330531,-0.172644924734657,0.016037237385149145,-0.46172395439473446,0.39690163500433223,1.2873940488101652,-0.8041586059848767,-0.8921370330731362,0.07451361330034967,0.045150083620301595,0.6158768413522875,-1.010917130460322,-0.12382420886692203,0.40726599257025964,-0.9316074856428104,-1.0327528356554478,0.7275263433755005,-0.2295866984096189,-1.5084607288476142,-0.016957665273385467,0.38383476729592275,0.3777321087046494,-0.2758499428486323,0.6841067099528096,0.7207346183346698,-0.7235129748694723,-0.04082501412680774,-0.050571494828074465,0.18009058332176328,-0.8533805343478074,-0.08418353344919849,0.7692702241072277,-0.21424028437286666,0.8909770450796479,-0.2697345427710156,0.24924085347422578,-0.20470969144152204,1.322078341560899,-0.996605777516658,0.08979004463638174,0.10556599676471091,-0.44438292439492605,-0.4202203259746487,0.5638530553295109,0.35684669414716624,0.15748587956454438,-0.07271020397163193,0.3986891436951673,-1.1679464231630632,-1.0248898382074176,0.12687670122219494,0.8021569906976938,-0.6621458208404826,0.3745176579902115,0.0571486261652441,0.9558393227995818,0.1745058546537241,0.3944209686860946,0.3102023877546892,-0.9847342646185306,1.2059209111100146,-1.635651605130195,-0.3549646484396193,0.10179246535243103,-0.529314966632364,0.8495897552712922,-0.04044517462468389,-1.34904393832695,-0.42453179796891394,0.14055866907616293,0.13931244229722448,0.43912825788157045,-0.610120042824684,-0.48314046427586754,-0.5952779053855044,-0.7189085600050695,0.39543617450082286,0.12408060861135471,0.10645569482025413,-0.5324132092101486,0.5824592219293836,0.9551554331124139,0.3725798836645649,0.0840809691452269,0.18635378840283662,1.2190891921136144,-0.44661527514748417,0.026658229248116755,0.5043396284818253,1.3887285310599284,-1.4272437475307047,0.6866149886201077,0.12578446358083492,-0.9001133772482923,-0.0815201786370429,1.515010409133826,0.26818028038781266,-0.15027379287266088,0.4256218044104094,0.2443609930119864,1.6905523371061593,-0.48829380450098325,-0.11495689870328722,0.6030706784153371,-0.27865555335630665,-0.21448826342543448,0.06667321311274568,0.13365070383183802,-0.7085289732720826,-0.5584409702245632,0.5928360565057942,0.46816103058460656,0.09230829545824996,-0.9500499247800861,0.28841555894408716,1.2358164526197781,-0.9098702965305304,1.2389255950004474,0.19092225225534779,0.1910705277514705,-0.11267276777627992,0.308982899447975,0.4494788589508979,0.6337143520623949,1.4841716817344472,-0.5929656205954509,0.6413956935951733,1.0303597805889626,0.06655651855075836,-0.5934705935697013,0.13724543038054615,0.24143709880334513,0.6683469136855767,0.7652790335623771,-0.09574485121266499,0.5224664626591063,0.27309393521938113,0.573815200296681,1.0744455854776582,0.7325559589370443,1.0807457304512278,-0.46621960440245624,0.23774450969841043,-0.12091744175838479,-0.2674763559213131,0.21775765579989645,-0.5468535142482943,-0.6837267853720497,-0.05779921857839243,-0.2991529377557931,-0.06273286408495798,0.5825048119179332,-0.19518773114517607,0.6959055429875421,-0.8317711551655129,-0.22750702907187098,-0.004635803800753626,0.5584342011889454,0.23432127182718374,0.6659559601058104,-1.0035243162178697,-0.12805109191313385,0.2856004395824384,-0.4291444580923505,-0.5729891932034312,0.30947806461803135,-0.9539167536619562,0.23001278490941837,-0.6255919265003691,0.4897118871351556,-0.41140843109500286,0.6607776634258682,-1.0187465925192034,0.4026258465303321,0.22904877734452114,-0.2125575799835809,-0.9460827240947527,0.4006670667623515,-0.4723814701296012,-0.5294520150282793,0.619827092515638,0.17203540274859724,0.6038024685535704,-0.3676383426815507,-0.14866096589948555,-0.28670384845841435,-0.8434632103617717,0.24491538034297922,0.5071423914690923,-0.08681409407854342,0.9672072267338042,0.012433824633092982,-2.298923910677517,1.2662056969033564,-0.4013464978120871,-0.39237531830202277,-0.9631211414297592,-0.6032513660639357,-0.3274506793506628,0.6752335066076309,0.34727888326176537,0.45544552245485453,-0.4878101697379132,-0.35618399553706914,0.06118920207503944,-0.24030204684467502,1.2285756784063662,1.2684733784612712,-0.09482022999540277,0.561745510360218,0.43273040677907504,0.6053852212195093,-0.5163725444661607,-0.19169214059513234,-0.03549198515713353,-0.31135446935592376,0.6502513673928056,-0.12563735780961482,-1.3615397626526904,0.5038900977266285,0.055395284505886926,1.0882792217190354,-0.4324655395543229,0.16739943379740393,-0.20265929477253825,0.290317322171149,0.7039087911951345,-1.956668469051872,1.1170261384393894,-0.4163596861320192,-0.7606816848840727,-0.11507370878367691,-0.5275221535416983,-0.7795942750426731,1.5763347448073173,-0.6096825566180082,0.7648617713961242,-0.1668827239107599,0.9208385992351699,-0.5270457540826496,0.27530635398678205,0.9652992252906016,-0.09388848841386858,0.47825869295981,0.4501514828772271,-0.8961409651419397,-0.7463478400423585,0.18192020406174747,-0.11576408897333355,0.17786859188189572,-0.7056301256700072,0.12429642630498067,0.3104040390843583,-0.5884779859462269,0.7674643005107482,-0.29410524787908143,-0.07911039566369107,-0.43745778642093447,0.4603367408788621,-0.5879228029683821,-1.0884388784955026,-0.8087939211150915,0.05209511342403431,-0.2764072903377263,-0.6699553438746719,0.34427623329350454,-0.9960268267206915,-1.1215076647383961,0.2123035722162569,-1.1796223506237433,0.6517462595876911,-0.878713416058059,0.15986357134174567,-0.5023842917647445,-0.12443570492359118,-0.2247792041394247,0.06427793782058691,1.1369888612241597,-0.6623094120769195,0.9767099760340173,1.0596651554649943,-0.32364268666707635,-0.13912834920396866,0.44490322454315423,-0.061792020143475124,0.687763209789139,0.2569246998967231,0.18092996590904198,-0.1397816940496402,0.46983310200868766,0.5826031680164852,-0.7797566894304134,-0.5773853847503712,0.4052353801604792,0.5181053872548324,1.224735721308024,0.6845901943336584,0.06249880815572979,-0.19851436500288586,1.6270089941086647,0.13813305480377278,-0.48404114233943796,-0.03945266434630917,-0.5523509823379217,-0.3775757525552061,-0.8666850974185963,0.3376272253771681,-0.37984582046667903,0.551559027964553,-0.3285367765712886,-0.31077867446768137,0.9937886054101018,1.1985722430036825,0.20272176625617058,-0.4073632707826714,-0.27243681476965687,-0.5564783713879828,0.21795107616747433,-1.0670367763231106,0.26064870330514306,-0.320742672026131,0.2631860893643912,0.1799203891101842,-1.198148516625853,-0.5186942987644818,0.15879762942130576,-0.5943759018981092,0.21047971575982613,0.0023632565027178892,0.03215832645968,-0.13406746701511307,1.1375360220090496,-0.25693157930467325,-0.7960494311672278,0.3432743327434423,1.0801533633873603,-0.2474997580812667,-0.027019603736342063,0.21065540745031386,-0.6814434130515726,0.45807581770562866,-0.46015949816657886,0.20649811118955036,0.3247149190950013,1.243998210409723,-0.20212902840028837,0.2775484642537385,-0.8206563501145727,0.3091703799372687,0.5541130396079537,0.3456823912428439,0.257572824568751,-0.8934665567203834,0.28208692195130186,-0.8470636514988286,-1.6512635255579053,0.0036409923756742643,-0.6523062881526648,-0.7410843221472915,0.0043463994550304325,0.19420782225003444,-0.42567557039244364,0.14588159587685628,-0.5654576063588206,-0.0458065563603391,-0.043393142037757765,-0.4427364506952064,0.0818134226544305,-0.7875800402505315,1.1878396092198875,-0.42220515392895885,0.08784497217310715,-1.0438452229124904,1.040848325898629,-0.09466400609307278,1.0989455998483888,0.19897910291585097,-0.06842356497002251,-0.13691727951248023,0.3454714632353894,-2.0917747405527742,0.07799012673508125,-1.133463398652038,-0.13250271059315485,-0.7741408076734364,0.43620957660015075,1.4619996137910662,0.6122824573379871,0.5388270437115444,0.7425415569562265,0.7570563655970091,-0.008834180280979303,0.6400091315927648,0.9156444464702604,-0.5000136123167513,1.2173859113299452,0.7186107562075323,0.025255968763203518,0.24438664249977954,-0.08868657752680693,0.7947948967349998,0.08354411568701883,-0.876382657156553,-0.22214590556683983,-0.899779156716763,1.338893449486361,-0.09582039417698812,-0.4375332388845165,-0.0038772622502915776,-0.02730626372070758,0.7105369973293059,-0.11074104807368108,-0.07536436351596949,0.09427149487193523,-0.3069273056649014,-0.2056638316705858,-1.135195185983391,-0.6146417114175223,-0.4534026385030193,-0.874991133970359,0.1831850078733219,-0.19635528332336713,0.3127906015077758,-0.6681637926847719,-0.2670594036756859,0.8836113049677728,0.10079443070033878,0.9155505821422288,0.08989251134542992,0.5723615143242531,-0.5760471525276216,-0.5559871748246773,-0.29635299551875194,0.43114595049083626,1.2880762099196528,-0.14480131194652118,-0.2006844569968625,0.3689037035546956,-1.0837546492026768,1.2635647996191528,0.35872697050219504,0.05274619577041208,-0.2808331115420651,-0.5828291983799259,-0.32221461750318753,0.32414917899896134,-1.2776540580078237,-0.3949168836721488,0.47751491420305303,-0.5373178353991531,1.4508012556669332,-0.9510709344170214,0.7391246222110892,-0.4989790900370144,0.7197673633577247,-0.83886070781973,-0.9478009309553217,-0.47374476715260283,-0.0774173555308572,-0.01649243887287352,-0.07660303693003029,0.7912014146323784,0.08255079457666874,0.36441074982492816,0.7375847715206484,-1.2621298039620288,0.3053783969775566,0.22957209689766256,-0.24197490069256455,-1.3302089980143383,-0.16987436375074103,-0.309746349473431,0.30442406930771504,0.8575974949124916,-0.401151346247826,0.757640212620344,-0.33147964119663265,0.4248121253261814,-0.43992793006798364,0.3764143438052338,-0.47313002174468244,-0.4836721696538841,-0.35636570091305286,-0.1046737251050257,-0.6894844794766467,-1.1649257532999275,-0.5605185542798042,-0.21010367402264934,0.7992298664824222,0.8734682993323638,-0.5198273674238078,0.7069329050354485,-0.6185750969094274,0.4770786361758332,0.7291756228809108,-0.4804295828501385,-0.017130669164333076,0.3526651115792505,0.657778839450174,-0.1568651324412041,0.01132033494443982,-0.7260815474418066,1.3830983202638274,-0.3344886463109012,-0.7268029370662695,-0.30692982105749095,0.3361813599865106,-0.3418843656247447,0.47266788450568575,-0.9415756650372172,0.7610807387610238,-0.8189401250683724,-0.175731832898965,-1.1543575450454229,0.44851621589082447,-0.37667486276713835,-0.06405191034344443,0.12172203626199843,0.017248213021960678,-0.2495286568842278,-0.25216601350769735,-0.5642367088228325,0.4958327803646536,1.6670962086163184,-0.06436818866960298,-0.32949172390736664,0.23094193795157436,-0.8261318803626653,-0.014041661780502479,0.892504152297315,0.6486944444854265,-0.7302801442125333,-0.7086100668200325,0.06334617857255988,-0.3177240240792029,-0.11204283335751286,-0.8869442175453904,0.9938512587078975,0.4480698436265932,1.0699444636586093,-0.2115799878503898,0.7981925990281474,-0.2176522245982199,0.27037780051822696,-0.20227152941548332,0.5907239360584045,0.6640389184083103,-0.2529628042723145,-0.4147640662189509,0.09557174849839101,0.904654255448784,0.11084269832348442,0.3825138841673142,0.6362850623404049,0.24681828027162495,-1.4293216578002435,-0.9314405573914291,0.9536510788036503,0.6038261992797779,0.37241187233109563,0.7341766557001731,-0.2869211444894149,0.2281821827397078,0.8234385583733462,-0.10819713954058437,-1.187984190477584,-0.4236106143872592,0.23131024897180386,-0.015963884373383024,0.09843695359490046,1.2928941634469564,-0.25907808746730404,0.24982872863198136,-0.3159291119270589,-0.6776478978035303,-0.5256488878975918,0.6293199253972713,-0.7635772213205069,-0.26501558401908965,-0.0875918770017002,0.2504597916842594,0.0361046148131928,-0.27833596268837235,-0.4103715975937948,0.7315612696809894,0.5390641147841003,-0.4571556783236814,-1.5365917332192642,1.0989611511461437,1.2588561204480293,0.9122786905466972,1.6931531330200396,0.3811529936070516,-0.7206016614574527,-0.03485874937848136,-0.39089735723773505,0.47335322757226495,-0.28807892063928103,-0.6892462598724775,-1.7821126603218018,0.34902408821556224,1.145744220537545,-0.40306911036405246,0.6013236449018208,0.7750557162314964,-0.023642922645640732,0.9491874136502226,0.6030401336758667,-0.7030898075939157,-0.26536154717025334,-0.756092840339269,1.6568996561643277,-0.7906726438345423,0.7862599486856336,0.045376554409990465,-0.6850274746155943,0.28623739142051047,-0.46901105540661037,-1.3322168134099153,-0.6011893426170499,0.010006126000504423,0.9307527917196599,-1.2755119318275063,0.028592655097210956,0.21036383436051453,-0.4110868984060626,0.15355919193904916,0.011936116423416077,0.8088909768930346,0.39683486283323816,-0.23714031301420974,-0.46391829670422574,0.2849590112882651,-0.05668435403347772,-0.1971456019685684,0.5240495162554806,-0.26824635199899804,1.086190804049395,1.400561321807241,0.5226730175052742,0.2774312672689754,-0.7448151972910605,-0.7775652739365428,-0.0683564888091712,-1.1730785940112385,-0.9361871901682177,-0.4652305405556402,0.5530424181866008,-0.9530735460838282,-0.4615808694781651,-0.9929649699238083,-0.39619830485191376,-0.7490786334534317,-1.284659343559315,-1.1317705070468234,1.290584478204589,-1.0641035115590176,0.4279476459478447,-1.1097332433698197,0.07717269487377176,0.5178939219589538,-0.39684498950595853,-0.2434855856201029,-0.3562802142824583,-0.45550471744794196,-0.7481614273297097,0.9981079953470626,0.43485774530443266,0.517047638766616,0.312101305931366,-0.5458857267914428,-0.09877784562695846,-0.0110423569044951,0.47429542939497543,0.2381530791686314,1.0060780038108164,0.5992811429071485,0.2687079731741472,0.35491750060352595,0.14547989689231852,0.47888650402752103,1.0824214872140647,-1.2651515187468558,-0.15707845521035574,-0.28449603402846757,-0.08966423761453599,-0.7228470024936826,0.1517034183861392,-0.10918656426611961,0.5499769490986912,-1.0185361773424888,-0.10337329249725502,-0.3225982724919959,0.8152532798420755,0.5530066246367602,0.32986327259321085,-0.28335297028884326,-0.3506855595153065,-0.26739545979181545,0.30639500652002044,0.6576983434312001,0.31974719179888234,-0.04575652079586651,0.051601879709759844,0.24968935828666364,-0.1764602706492294,-0.5775771003765625,-1.2383918787333377,-0.1510499130102364,0.5182913103927281,-0.20081603282191152,0.49831102446724707,0.028168865293725254,-0.4073064573314142,1.3624250274881478,0.3338899033196486,-0.19682985468130146,0.5481142223540516,0.28584886656454755,0.5385799422715081,0.061832242690898355,0.8445097737931384,0.6303378654655785,-0.6479350971070988,-0.1284705851131582,0.36176019798894243,0.22961265933445393,0.3489484095129539,-0.7780054187911114,-0.3903424036611026,-0.46838895611021375,-0.32211100661960274,-0.4410599173696452,-0.024251276086624217,-0.0926049630976371,-0.4639863413004458,0.6486263279779406,-1.281522610955521,-0.7261150249668711,-0.30636771485402087,0.02239847119326884,0.4502484089341207,0.05347988564224704,-0.8543557090560062,-0.07801956785271275,0.1443914409809156,0.5092043874603444,-0.7292882431282163,-1.0436718600879344,0.6857348924802015,-0.8531386305794736,-0.3669169125528452,0.631063312521442,-1.2496378224256381,0.7156830622572221,-0.1825911733665472,1.1796134512595893,0.9468949345948138,0.06889623007890676,0.3058036900091919,-0.4801208464221624,-0.19868056555284175,0.2647648634391063,0.29273478247615814,-0.9555341180422058,0.003740897397980126,-0.44164574548651414,0.19175774375002314,-0.08376100751334671,-0.2551889416966755,-0.589306990453505,-1.4571818011790574,-0.24395727614825632,-0.11118008174861718,-0.4685820484789009,0.3362653556394316,0.6225168278911919,0.1448404865478838,0.23768292081243256,0.24652539601262405,1.0557838996688633,0.3159655824939149,-0.8253730509792113,0.7573866332286149,0.7525556884247002,-0.4128384138646739,-0.20584815956770913,0.19573654844587077,0.45743182932426985,0.725163473552086,-0.43418689191641074,0.5475306550296812,-0.4599278693135343,0.45600509438903736,-1.0087166339884825,0.22249401034853383,0.15547564716280543,-0.4956125181155887,-0.510722366784161,-0.22369588850049846,0.4143681729433498,-0.7324562852333238,-0.6403495571304894,-0.6698271665950258,0.1538511544547284,-0.31556632078210745,-0.43393042443786534,-0.7226470257831186,0.00677581972531571,-0.2973790553207172,0.7409315236297226,0.6583704014602692,0.04094793068114987,-0.5803276280505704,1.2855889018668023,0.9261656855314588,-0.9042402891945711,0.09527992587031534,0.413045456771257,0.9519487957255007,0.5892430346061007,0.2787543931832332,-0.48573277758003364,-0.3712037222960884,-0.3030792277159218,0.2502070690118339,-0.16279132713221828,-0.6863806258919776,-0.6974548951105679,0.008441080749701926,-0.7549257783828565,0.5498680017433111,-0.09776987998895768,-0.7026586180925903,-0.9614245563531818,0.6386070885044932,0.5484487949535938,-0.08951768766448612,-0.2787826355832348,0.9283715008408361,0.8556902160465931,0.24604956647378654,-0.28245270861667954,-0.2382848171482623,-0.05326628528326665,-0.36561491507818344,0.907460043668681,0.2662189573204667,1.1777822356392043,-0.1595655191644197,-0.9131951428069304,0.7898988025076485,-0.6720593775565475,-0.3298837033671822,1.477161363063173,0.6524143187053354,0.14650453996020246,0.14025573674797803,0.049745635905446554,-0.9946619697648547,0.9833354674359136,0.6672352546558157,-0.2775455308972513,0.3037120744517925,-0.5996639488658766,0.4116393337135604,-1.0016685717378482,-0.06161986365708891,0.13087357305533698,-0.8124362646245203,-0.3830825004724469,0.5274190997095985,-0.9886927614040388,-0.9951449449064946,-0.030368351160230508,0.1430489582312797,-0.02573167994591568,-0.8121788064715539,-0.48400779620694123,0.9421397709692669,-0.06452289557184607,-0.7515477484434033],"fitness":14.33759}