{"v":1,"inputs":13,"outputs":17,"arch":{"hiddens":[32,8],"bias":true,"activation":"TANH"},"weights":[0.3528248758554238,-0.05102928833635239,-0.013248076119449373,-0.7490737864941469,0.06789870380555767,0.7338023860701424,-0.15847762787114586,-0.5787911545303824,-0.7348953551791889,-0.21266104695843208,0.47306613243886964,0.022857899073507115,0.3939611441243779,0.7606688151552085,-0.85483499611137,0.8776061355662593,-0.6787270734795108,0.3082386424549232,-1.3263057454227214,-0.14805470224338124,-0.011631732324871922,-0.7295140911791863,-0.4685386322559768,-0.22660735657968756,0.41843494058735925,0.23670307713340155,-0.008304518908827122,-0.10775622410822519,-0.04921536663098088,0.7605433088190428,0.3402682946754734,0.7446121854595322,0.18953855297318134,-0.5964769305690536,0.542019157511348,-0.5536441960802956,-1.0168482709914453,0.6970995425540599,-0.07303729060931086,-0.022368960968973034,0.16760169705834926,1.1169073265539384,0.8478535459137105,-0.13894774020432676,-0.381168589369584,0.5643195223356118,-0.11093839759703826,0.17344379329382187,0.07521110435689445,0.6456095799789118,-0.4906309956934727,0.5484408011001198,-0.13886416811754296,0.2158939010207528,-0.4759144070900172,-0.36164359325741424,0.24717409430735404,0.020086307256959552,-0.775264114232285,0.3644890619622551,0.19922565617179863,1.0128942548663258,-0.014223246056459133,-1.204257623570344,-1.0206807601072172,-0.4886528792602878,0.11957143189230662,-0.6413010398935273,0.3278143978642352,1.1886481218638032,0.3349711248851543,-0.2335154395072911,-0.02062760627206793,-0.5601182017114863,0.5559674414394593,-0.6328367255606864,0.955394144128811,1.0259626345813238,1.3062708223635802,-0.044553232991082437,-0.173413107067893,-1.1748367491156708,0.6469457026853535,0.5344287245865175,1.213106676501159,-0.6269887127411691,-0.2103971521257184,0.2546614910546206,-0.1424698630663747,0.2570022163793424,-0.190722166963731,-0.02311153708949163,1.4055847152187444,0.2224314644489934,-0.004530937901916943,-0.6074173619395647,0.46560708061452066,0.7351458213914663,0.2700606891432109,0.0777543259604547,0.43221098178990774,0.1905095363852267,-0.39051709197935947,-0.557651385391488,-0.555078742355633,-0.14469885903864987,0.5394235253910434,0.5993817209146163,0.35415373137456607,-0.19690286861415834,-0.20726857023810988,-0.2737881582788473,-0.8037824051948299,-0.1160389006535703,0.25526723201424184,-0.5076341691973169,0.14491548114360864,0.3517657769818495,1.3009479697325983,-0.882629424130305,-0.1389988137246138,-0.6590258689635632,-0.6482050275662167,0.3963126059274067,-0.45254860658951324,-0.3655661588030523,0.02790111066722215,0.677999913240172,0.3400171833346819,0.587688741255777,-0.48486676838710613,0.8921324654253281,-0.35765142476016853,-1.0194086564294476,-0.827091880556408,-0.8979680399839085,0.020802030166868695,-0.46236119272410303,-0.48066858615596575,0.1913317907887028,0.8178219500943072,0.39701983887195147,0.052512234468623076,-1.1138851088609645,0.49758838671171424,0.015126724884668987,0.6944348817313152,0.19479533062257803,-0.4660240188403868,0.10192175596206239,-1.139392823892638,0.12032848033142435,-0.3258056170768882,-0.32796087373809935,0.30309968467902165,-0.0690648928014255,0.8266029096887477,0.14767277745734858,0.39174873189129716,-0.41191067632925554,0.20889371626780256,-1.5215597774699927,-0.45830086548715243,-0.12887672379721202,-0.4332179448428289,0.5419214188373472,-0.46555585003511857,-0.7170069739733609,-0.8784271868830746,-0.37153384335488193,-1.3047039346831228,0.28088616751779666,0.3254546873605187,-0.06573595382942682,0.13927616236009366,0.9075115469765804,0.05443610623517815,0.18944946399712004,-0.28145542672248863,0.9280210544124841,-0.47498558521285994,0.2342562634039494,-1.0045273310020773,0.25498577553418517,0.17224855418314103,0.5194073957267712,1.584700635778506,-0.5042342099789865,-0.7737694936484819,-0.23189902296458945,-0.6093225843580949,-0.6054227479927077,0.35632341910722554,-0.12315908661474406,1.0990366399446658,0.32584577034775675,0.17128182570087302,-0.43840203539128514,0.6047002769455555,0.5353044432905543,0.17125438608465998,-0.5026458192955513,0.7357209429198177,-0.8053084140563455,0.631001125274562,0.034155422638675575,-0.2724933328670007,-0.5528024962049412,0.08537049837619774,-1.2117875004239516,-0.459270213815507,-0.6410003342101471,0.1959702710315439,-0.07937517748415875,1.674862726079583,0.15739313499232338,0.1602181932010211,0.8882223370341713,0.6519665392712132,-0.8950118117274314,-0.33399591278119745,-0.6819093928283189,0.29983892298060305,-0.6851139611674287,-0.776956486915193,-0.06996016045811049,-0.5633327973274609,-0.05856409792149394,-0.41885257304794743,0.5936306771667003,-0.9755097495401124,1.733246275112005,0.26524162584531363,0.8352124790263398,-0.8084498996371878,-0.4038886582973403,0.591373474839163,-0.9149087458682289,-0.5825051950356981,-1.6323656754743516,-0.17244990170413518,0.18935686025893694,0.4785777495394962,-0.40920650967940186,-0.7021004202756166,-0.4976164080439629,-0.29190801933928723,-0.2845138421403458,0.7716049774624439,0.38539765710042195,0.40340969043127506,0.13399324931773773,-0.13305411391818875,0.6574696465675113,0.22318393045165158,-0.40065880526470204,0.08921951405528042,-0.6116171845448235,-0.1340964839840672,-0.3560162902305271,0.2605701782898048,-0.08910697446061216,0.5142613903681659,0.482709522246635,-0.8533777603925303,-0.4619530389994271,-0.8276325501288581,0.4330682813359814,0.46736824053162673,1.0458252515983146,1.157677494997579,0.023804445663917193,-0.33725073160139496,0.13104340319887703,-0.3004931460128045,-0.3886299287345269,-0.23089980162964474,0.5270663903233733,-0.05784725289439563,-0.5899635799563419,-0.38060940041883184,0.9902744530154551,-1.0971448850977523,0.09296433271655911,-0.058797291783961245,-0.15365216469016071,0.26278615894472657,-0.9536727032985813,-0.943236841768454,1.027433802863708,-0.4493256710728996,-0.3084650408643919,-0.19370749837023293,-0.8954019555324949,0.6392755776922953,-0.8621194114899406,0.20876792899207267,0.02046294050405295,-0.3692027013317955,-1.293203663467502,0.3149391019618588,0.15509211108952284,0.5329994564414728,-0.6249341178299207,0.32590911902315634,-0.5591582821422513,-0.26834793340743435,0.9674965837081542,-0.5734927185052804,0.6966043406331739,-0.009829575950711433,0.14877009278168313,-0.44009967453449605,1.6294772751637092,0.6406418080576515,-1.5230293097180292,0.5452519376919982,0.06080167143386308,0.32601914667250226,-0.09430663539241108,-0.139040840987146,0.0010127464996981153,1.0368362734307102,-0.9313182580720283,0.4875301638685454,-0.3480524808488703,-0.13838960337512837,-0.5232486004669165,-0.185108314843437,0.6562801969658218,-1.1979537920830055,-0.0535231145576117,-0.26464246775225736,0.8756485716181098,-0.1599586191597237,-0.19177013235919174,-0.3301772651161346,-1.028571713547512,0.23448327005139816,-1.5055283946928835,-1.3038087617658645,-0.02487980595495876,0.010519770263164058,-0.6675573131861863,0.9285360471978643,0.4150240812098133,-0.368425222131495,0.5510259687098864,-0.3087578323616253,-0.359157260739485,-0.1761136260013902,-0.18103517002200092,0.9382315951280128,0.6441381590615789,0.34861356134450466,-0.31523982828586833,-0.42674519614378204,-0.5042696839777545,0.5542338307197363,-0.5855158339079116,0.5704227798938556,0.21115883615204262,0.1427134091878974,-0.6955635561918789,0.6188919765630069,0.30929006352106325,-0.13512361854339378,-0.8969695255648888,-0.7270609537965227,-0.06561515234223986,-0.13017877034063097,-0.7157142167498839,-1.2981860139599892,-0.056278148378180015,0.3244111941135774,0.6220744152410009,-0.39155652138661273,0.8908960588470797,0.05523838516197248,0.11242983536427915,-0.6140946809920735,-0.9255244087282575,0.2939641000052048,0.6119017921231733,0.37066210169703506,-1.0369729199473243,-0.23880925747950016,-1.5345078783277155,0.731907793837875,0.6563803676202054,-1.3817137452079584,0.7388749177620285,0.7264156086920701,-0.45192038865609985,0.4936180634874868,-0.9944303867027665,0.07027303125007453,-0.3493421231602586,-0.9050861954167875,-0.3072058802361062,-0.2809481395181462,0.2484853320669217,0.5234588427180258,0.24559724905112884,0.620344398312777,-0.31671923769281,0.1934682786059953,0.09499721701916256,-0.8107721271737001,1.1824269365542572,-0.15688289820099222,1.4156221241761653,0.3637555004312845,-0.13031592728303798,-0.2818220521543998,0.8598431533865564,-0.8451369790717183,-0.17544600410260025,0.22814998217247984,0.6738369449576094,1.292294529025029,-0.2646073474439635,0.603034438966052,-0.6116986832378866,0.70427840205443,-0.018670285149185704,-0.5336543440206949,0.23438890337293394,0.1542271104742296,0.37944267877370663,0.841464544904559,-0.3300455253013193,0.16996159572024722,0.03853195317629928,-0.8326524176647017,-0.26016281213755804,0.19020523895357583,0.5711396858680918,0.9035815851435267,0.07856955217820827,0.5223663508375112,0.541699340128895,-0.5466121595408905,0.827773053535642,-0.8756843721073654,-0.3394800441499683,-0.8394581765427687,0.4077448724413405,-0.725680001776381,0.09629400356580382,-0.5104392140055848,0.06398574230720043,0.329386173727614,0.029926668645038484,-0.47977813657646506,0.5589450650860738,-0.6211750985246399,0.16640311769255112,1.182500818342167,-0.20350551476528422,0.8642563478249674,-0.9611515518189158,-0.018458962464481705,0.3134852212423413,-0.0824843960015371,0.5852024150898717,0.29620668520371496,-0.32078958833475013,-0.2940996569252983,-0.49533755361155574,0.9912182028002892,-0.8830592290886962,-0.1305021536693476,0.3351921954477785,0.03493203413950155,1.1893982858842829,-0.5416987494111009,-1.076946088861827,0.8080522255324688,-0.3073895647976865,-0.0870474413480295,0.6076053592625452,0.5416074993406053,0.5056588398331706,-0.22564045446285427,1.0009049772444996,-0.9063449600870992,-1.2740885187219466,1.0885157291159993,0.7424029739208672,1.125451887306804,-0.04271003106459816,-0.3688931869250784,-1.335338281978638,-0.2521970836440155,-0.987517599721047,-1.279474760663527,-0.5819203266025914,0.4796012830189419,-0.015926529091792856,1.1574163214104514,1.2100626687830556,-0.7017453438895311,-0.009988506922984447,0.2462823253480077,0.19119390956526244,-0.3612171410195902,0.6878100038126329,0.99304488963795,-0.01819422315307849,-0.0045053410268854465,-0.23226811790382432,0.35757966038407085,0.6132014618825324,-0.4032371316305777,-0.7610785129872033,0.16462199781693648,-0.05540011012941225,0.06500788398922397,0.45810087627044044,-0.20935715694332582,0.08323510830061764,0.4988877098617118,0.5427612752348052,-0.04921120139739887,-0.3647964038712214,-0.5118517350923628,1.335033854251816,-0.0322489574240693,-0.1231120565561267,-0.1974397673356224,0.6066286705612887,-0.5501875200702999,-0.7407300784089192,0.08051777162746206,-0.17503897202819046,1.183392649449613,-0.4877579219001898,0.3499908607762905,-0.510196790964856,-1.5162113116506324,-0.07423219031054218,-0.9379001725756478,0.3574941927526856,0.08192270438006431,-0.2718633198516305,-0.36651661121985796,-0.021266916585688578,0.21431312615543618,1.0936405696374858,-0.19995129413668677,0.258012637069025,1.2409296243094012,-0.2887665897715572,-0.6406146966986257,-0.6064500361698575,-0.2562820337110168,0.17507474374500692,-0.9131638120885294,-0.47752106298970853,-0.17160260342057013,0.32921545643856276,0.047280456834617825,0.1266758794815053,0.31550216201576486,0.5135564906907585,0.4820280977282929,-0.011270240982711843,-0.40060657595679605,0.6296376719825616,-0.06309961169172335,0.05534825179075267,-0.9811862091615374,-0.531204560589525,-0.5172481068891525,0.6648337574792795,0.2202787276524863,-1.7178990181084772,-0.1305241036508181,-0.031701277789417344,-1.005976923368119,-0.12970226375324934,0.03647238290624588,0.23694816074899647,0.08330110375390741,-0.01605462757899731,0.6293579196527566,-0.15064856478241073,-0.5217299326556368,0.012199033641710256,0.47458569367320436,-0.5562792621884778,0.17198738129067337,-0.2512014670635263,-0.10437123881870168,0.363731747471231,-0.15851252726467496,1.4547927811081387,-0.4799348672944318,-0.09308830803139966,0.1101125978807989,-0.529176973889095,0.7708847028594316,0.10179379024582466,-0.7352812893229764,-0.3113161202076836,0.34231616849961405,0.16500307074609627,0.17936637372453668,-0.032605533325605715,-0.6560684541163452,0.9113198287392458,-0.18404766001345252,0.6688349755737425,0.6113650590050059,0.22449258723249396,1.1938845075983076,0.803530055516242,-0.529234490457188,0.4586667089407318,0.4541709767309434,-0.2010251349926604,0.12495073928696394,0.2696234111149358,-0.9555828442883996,0.6849468938388286,0.48589805889691795,-0.008209780694209745,0.2138216523892075,0.38366385591571905,-0.13780413501025301,0.1728501060036955,-0.0667189957491838,0.42217411204255806,-1.047129421929228,-0.5143396247511185,-0.6416522352667401,-0.6141715047887435,-0.9607754346536599,0.4448113108749053,0.6914124244702329,0.2301806589432896,-0.5695448107163358,-0.8318456190774102,0.23593021635691983,0.5689648471337896,1.0671687163973878,0.4876310186017388,0.7481873835013904,0.30803708774600264,-0.6889797472490152,0.7642576738268989,-0.626199072476889,0.8089373518081069,-0.3421997608305291,0.38829447713721316,-0.5928793716843661,-0.2977058958025468,0.29014756380217366,-0.062210729156823685,-0.3175252886632681,0.4020548525777353,-0.6776545643179269,-0.35077995402115714,-0.5067016962514187,0.9677574338081665,-1.367373809130593,-1.3116057922787503,1.4845753292056787,0.6380851807831419,1.0754723813273122,-0.5279662488652862,-1.082549605738428,0.5406825610624454,-0.8536817721060567,0.5591234312419893,-0.6330452755676081,0.20951027355602062,0.2483422253747803,-0.45094864187901673,0.2200864515130601,-0.7679532650947551,-0.9564172795297265,-1.0171218391992203,-0.014199480506027966,0.307351719404508,-0.054316237333707905,0.3578875024764912,0.13459708764400236,0.40939274394908265,-0.7308509779584621,-0.5345710696370233,-0.17551828734171365,-0.17766413943609743,1.2778497061737444,-0.00918579455522767,0.27679928230498174,-0.13407226992708432,0.7870015709337242,-0.24421467711687952,-0.25220963730926593,-0.8211329943143097,0.20908874808073868,1.1139526851317345,0.018635913029056983,-0.003793847450099787,-0.981583576978737,0.495546274275488,0.2789163371413069,-0.2509387492600666,-0.5913032804558731,-0.897182813289378,0.28354440614854876,-0.23834047312335702,0.776981980264468,0.6956357537303729,-0.04969962566245484,0.012417317743927833,0.21788705826044452,0.2878720799978323,-0.02985106027066059,-0.3507997403325842,0.19665684963028018,0.4480102678828268,-0.5435914929304406,-0.25886286625410676,-0.1727823126862926,0.5847328109454669,-0.2191860606921425,-0.04801046975661352,0.30550641838427495,0.7362012322688348,0.04714259581952966,0.6176849089248576,0.006577192878002541,-1.1916645083440174,-1.1316535955054021,-0.6440445971933259,-0.8336646183567449,-0.6723941128289227,-0.6380684290819301,-1.0776907580134654,0.5140694121400922,-0.20377110056291833,0.7147117310437038,-0.7108981742291002,-0.5648047412944852,0.07115945262502482,-0.11743259085163281,-0.47897110295952905,0.9119356377044604,-1.0225556957629123,-0.31297207762530327,-0.38209726269095096,1.4736767373670117,0.22659473775890415,0.7461565013870937,-1.0371235674529315,-0.9912415232806527,0.653698111523457,0.005601519391204716,0.36391407931722247,0.15339544860361026,-0.946216842033898,-0.8430199343515367,1.4930558181866953,0.48606679458534363,0.37443628148198865,-0.06520247173510246,1.418617366974852,0.8817013555525943,0.2869655546964649,0.6344296567887634,0.34620819771872385,0.5991337490692296,-0.36466901698719206,-0.8572949134267998,0.11222179487973812,0.05209039891040318,-0.037211779792517385,0.4758267087339936,0.0704199891141645,-0.48962308559333434,0.4301474467850349,0.562607514490812,-0.40955186226975937,0.23881053086523543,0.117231273035656,-0.27836160951004574,-0.6419472957616884,-0.051462538593928825,0.2812430495143339,0.43920933309386534,0.405269360263249,0.35085673729345984,-1.06520328335116,-0.040861640182892775,0.1656003846848391,-0.2380420719726674,-0.09408500265945924,1.0033742104915264,-0.11664725703714818,-0.14660365179714102,0.15977986741748193,-1.0969778356694388,-0.2863173784477654,-0.0016142781110581317,-0.014755432464348184,-1.0322113393329577,0.8518124264623375,-0.7485994067982071,0.7933984328757735,-0.005734362857961417,0.056157871977548394,0.1376261807757117,0.23654733744099987,-0.34219486640220526,-0.3248519540529671,-1.4372105329654157,-0.1474044745961415,-0.6015936471066198,-0.6448796499381307,0.5601379248760201,0.023143811280930314,0.45319383724868467,0.3423049059622281,-0.07319934974068752,0.4448093701108491,-0.6257387629232178,-0.3241034772936734,0.020676300794003642,-0.6352125876899589,-0.9712199847027401,0.30243650343900835,-0.359653308488889,-0.29066541704581306,0.42187401414778525,-0.0675552512173071,-0.33229413727448726,-0.07247964530953266,0.5868867006379579,-0.013541772356139308,0.576583749443232,0.19723807713737063,-0.4696583414759499,0.42378212862029074,0.08817770687186706,-0.16645698820067314,-0.8621994821329751,-0.4430375924134348,-0.4175311008416184,-0.0905963913806048,0.2318442518899579,-0.7437789142092842,-0.5159265195308946,-0.6068819042888498,0.20901599324201062,-0.3997660608479422,-0.18675547311362473,-0.08418788396374165,-0.3676437377607427,-0.3857539208224233,2.1658616932487496,-0.7528123084322604,0.504287855244706],"fitness":0.8336319999999998}