{"v":1,"inputs":13,"outputs":17,"arch":{"hiddens":[32,16],"bias":true,"activation":"TANH"},"weights":[-0.8630202094770895,0.5005227261904247,-0.6506276184540221,-0.6202451402456343,-0.16861264036004203,0.7371544038378625,-0.16111063597634664,-1.0810760506122543,-0.9575757297040544,-1.9674462800012498,0.16829856812057487,0.6323790814681359,0.9025807063158836,0.2898069820384793,0.21046877687308535,0.015254595281599559,0.44998330550793186,-0.8618769186964385,1.4584428951877497,-0.533192592755276,-0.6131494463447441,-0.3507339839788661,0.2956049883849194,0.1982333098282204,-0.25397152824700486,-0.7333427307376028,0.43795454743751805,0.19764069625820663,0.6550264860420496,0.6746400395192926,1.2731172783501723,-0.8514993240095298,0.48012271102248627,-0.25758425288624404,0.056583414963242464,0.05360774043994809,-0.04559917101922634,1.9229442404174286,0.5560353546146602,-0.8320942911914805,-1.0140058291571616,-0.11635652271850139,-1.0963106262257896,-0.2609444178793833,-0.27556053729335167,-0.7676816415435894,0.7544536929179109,-0.19758370305197212,0.34410409416711246,-1.1602037015145346,0.2572412408265151,0.06133999950947753,-0.15454902879316615,-0.8872532627984973,-0.6438751642009477,0.23678389177103565,0.4077594078715709,0.7324943113539382,0.6471582551692461,-0.2219145113597364,-0.14450732321918489,0.649124325081719,0.4295509119826081,-0.8949663635053944,0.6831064271367558,0.12781622917541935,0.014690048046996723,0.8706602413308296,1.0418475004753844,0.6322108436775157,0.5445144049901726,-0.3539574065437365,-0.8214279991222773,-0.3093811172375122,-0.45528346883676785,-0.17628387461068287,-1.0865622811142026,-0.7165780577865309,-0.4653884354219978,-1.3745164282705797,0.09779213340140445,-0.41479231687078644,0.24400320092742644,0.9879487512422942,0.16518267024805963,-0.299184588215182,0.4218269717829732,-0.35977836511992134,1.0070930828073361,0.41235690681636883,-0.2695064768496107,-0.863429521065874,0.10134080125625174,-1.1432675552839486,-0.10595060601400923,0.18248205774340923,0.4332330981757073,0.7180365550259433,-0.26903360161918555,0.24081689142147875,-0.2591040733825104,0.2157559637792336,-0.8719775910321367,0.6633221669169164,-0.6031169393996221,-0.15148302185813478,0.5011122417007815,-0.775271730622117,1.4421462460310215,0.14857392535324426,0.1308836806542086,-0.19568520959814917,-0.17050113449633142,1.058080438336742,-0.8787016712450898,-0.1336823901195401,0.0884817229849754,-0.848839268105785,-0.9832966567232797,-0.4963304272308382,-0.3863811254975108,0.26302263408784365,-0.09682823751628858,-0.6451040388227987,-0.6773338465745238,1.2007959761157152,1.0987128839663616,1.2256088255110544,-0.7790027972339912,0.1638508293688658,-1.0821486747557418,-0.17772573965526778,0.5319271999355786,-0.32912090155323254,0.37642366823496276,0.8041501138202867,0.9371371255985775,0.9967962888272713,-0.11426399211073023,-0.26245951017275865,0.6381896802736967,-1.523031048025228,0.1086748894745114,-0.623034049566715,1.0034790034998462,-0.019165548661438502,0.4384876919789248,-0.22996402319771442,0.028183995162890857,-0.9151486136191871,-0.17945158407396283,-0.48969145863406693,0.6458980382341258,0.011082110217396976,-0.6231441290909701,0.4608901661111988,1.1397176335524688,0.3062788854473175,-0.42591783491290336,0.34908189854099375,0.39690518255041946,0.3006557540199065,1.2698008828217051,-0.1118828766193408,0.07653644694131376,-0.9312700530845504,0.6285361507173616,-0.2610289305001977,1.5950474394994718,0.4343500148250145,-0.46774252871742567,-0.35301722056981566,-0.6655423780274645,0.7441172255366962,0.9064129790032363,-0.16852360208143513,-0.145128757171162,1.3048145708294436,-0.3325338954303195,0.6005016141322144,0.48818103691619774,0.11992202226546733,-1.7172455880820305,-1.1979006227739903,-0.1343613495450274,-0.4823931656800048,-0.6020413280447301,0.20183187788714282,0.24296826610244884,1.160009048591406,-0.5558317426235453,0.12746807781033598,-0.07278008302933499,-0.12910007529188314,0.5464825848720649,-0.22955458074144677,0.23702066774587838,-0.1132458192218953,1.0370899589927702,-0.2883732345766306,0.08270174976718984,1.0384521501220165,1.051817544350535,-0.6253900506169154,0.13465204378032194,0.8897116337354966,-0.43689487089471507,0.18022904307357376,-0.2394980124337571,0.43786489832206227,-0.47917099333479274,0.9107533389084057,-0.21264346293767353,-0.1959898674494604,-0.5342257758559033,-0.6909206328843948,0.2638378711533484,0.4923794721474535,1.1971685448839642,-1.0405451916626092,0.17584011847016123,-1.1665840218977297,0.8590627935256141,-0.30563930492158753,-1.065964538489022,-0.41692114202131936,-0.009909103140776492,0.6902653504213448,-0.24879246686761575,-0.0075905942332183405,0.7939244779839206,0.284540353939732,0.02265824612476083,-0.24533166236907,-1.240911582484815,-0.6609554333380633,-0.6347352352227229,-0.48918504072338775,-0.9340133779594,-1.049031191616036,-0.7515975193796031,0.22141850946523767,-0.7066178376223317,0.645361134632692,-1.3591974027822087,-0.9756787228643374,-0.44388875483767554,-0.26996680331234657,0.5759480433059992,-0.35950013532031366,1.5957632526668557,-1.406754268329245,-0.8021857378527153,-0.5012593138621695,-0.17421371008941838,-0.188361376308119,-0.024443311742540996,0.2940461912324402,1.320717681036512,0.06965845354552075,0.5036540841524321,0.0761192812979624,1.4066153784263526,0.6679308766086002,0.09893328642058798,-0.8148580152749091,0.4576443845379712,0.16768640724243816,0.14907918704667866,0.5640516909091894,0.3444723815350472,0.463794665531827,0.5416687259769483,-0.8300310120030642,-0.26911474438308586,0.5102993309292753,-0.5743524699742795,-0.5946147912204974,-0.01779986036788952,0.5608896435113125,0.4913128155541774,-0.5352363917316204,-0.280551675573367,0.3008027020693372,0.09331857955720443,-0.1368314404893983,-0.6121919874838668,0.4579417347830314,0.43210329754032517,1.172911670199746,0.0037985440031235163,-1.5382643095692108,-0.04413874914696856,0.5727447812004284,0.7099613268047333,0.3757585926912501,-0.40944014627549363,-1.03116313770616,0.32025282850277415,-0.5392490349628949,-0.5337916915157354,0.3415924722245054,-0.31819484376661583,-0.028022552877063678,0.22465592438680224,-0.6401251222242527,-0.44406886608526913,0.0962000216545741,-0.2018030195970839,-0.13275206965339506,-0.0958984019956686,-0.6485251115331445,-0.11214474935128493,0.13120090976032825,-0.4418556278693356,-0.34434836377585193,0.02685135571659447,-0.0693981329061962,-0.8920063721616036,-0.24650599804798357,-0.14181649112555547,-0.46644755802711485,-0.4798570175150253,-1.045063654797176,0.36749654433853707,0.20544268196518828,0.3769076193609188,-0.4997431515451883,-0.12113031270326313,-0.3355976384655561,1.1739083713055778,-0.4812651287046925,-0.3851284524036581,1.5691503653264431,-0.10840358375365707,-1.456702519736189,0.26285478889965697,0.10810804147372952,-0.696323775408321,-0.5866999543184087,-0.5786597698170816,0.33027505382527333,-0.9549854637158341,0.4002812097877531,0.09086757983101623,-1.193105973870626,0.00766488261211591,-0.17427457418666045,0.4389736317954304,-0.24438879885365744,0.9929691721674662,0.2752253095704747,-0.6647344311034664,0.6015082855005573,-0.5886128285518318,0.7202866855930001,0.5672923269782011,0.9082334787086893,-0.23894316471048643,-0.6238519297284358,-0.6237304640082139,-0.1934062207774887,0.23104388837488812,-0.8588184123227002,-0.7101840158715755,-0.4162584335852098,0.6257618560164859,-0.9395759030159201,0.8516352790192868,0.8720319110680699,-0.20609199856780677,-0.3343720773433491,0.8355708495746097,-0.44492335482056056,-0.003433187985964513,-0.813136154742553,0.9847144742332747,-0.6187495148987696,1.1756653655352172,0.021972097757946216,0.5785066513092466,0.41784228539649365,0.6019660764605543,1.2112913363039244,-0.6576145207892079,-1.3171935424798134,-1.6291085797032174,-0.5880180014189934,1.6723724961895843,0.13549829299599442,0.12447849534573041,0.13771394813258014,0.47456519290545907,0.007535593834557545,-0.4994161687546003,-0.2014859115621545,1.1681192700809333,0.9922604039485176,0.6816005086840566,1.557832413611855,-0.35912021028066315,-0.8699989320016931,-0.24809612871918374,1.0960931580462188,-1.1569824982974422,0.8540692041441303,0.7813135395748124,-0.07182210659892839,0.4980964585370692,0.37701647076844086,-0.12227729495502229,0.1779606208711201,0.5075670846458292,-0.035474571358634896,-0.8983745996573818,-0.33746993363950506,-0.4623128481386273,1.0407143352398158,-0.37173277630855306,0.2834088463708368,-0.9253225428972895,1.2209256422980945,-0.5086273432247626,-0.4651023460680621,-0.5799307152849377,-0.48246624816700046,-0.31479097277469426,-0.9672587148358593,-0.8459675527680913,0.8261930830943656,0.1269726545666314,-0.8781299885306659,-0.4486626789239207,1.0759542085874383,-0.33217240607849496,0.19799873964882259,-1.2962780966891219,-0.0422158122196791,0.21344328139600932,-0.14388589786289713,0.4430701351316009,1.0782493587416941,-0.7479716778162329,0.6195565303332017,-0.10526528948226614,1.1934984983672294,0.15753246351824446,0.9199238796894076,0.3414213780117222,-0.44985604478126207,-0.642641533220977,-0.47389552448432515,0.4832743932155991,-0.020236775463289045,-0.8342055420242551,-0.25848184773910166,-0.0904406575113278,-0.8587289024080335,-0.403332839896229,0.5585768713483381,0.14813431655963902,0.6439196826614186,0.26247196777225307,-0.6107315372369527,0.7286861435798196,0.9250702198790909,0.5963350740979781,-0.0016064093257393552,-0.3514465713907612,-0.8265149869844123,-0.14961246067110825,0.47127254797495577,-0.18932688164010278,-0.2565373658275343,0.9244865032247761,0.0073087720708951715,-0.21789072693215897,-0.7059739867132975,0.310066975849012,0.0824804594824825,-0.4295141550304528,0.3803271435717933,0.7765499487904789,0.32488850493081106,-0.06048711077277061,-0.09445915002573851,0.49701746765711163,-0.7499919757201462,-0.2713490329319894,-0.8570859012073528,-0.6744556959932438,0.15205059628428738,-0.6260742418688499,0.9283816120942685,-0.06901905378520243,0.9468769255662789,-0.021779534497162575,0.24417336937336206,0.8203581924036824,-0.1910168060067875,-0.12809615384539125,-0.769940894040908,-0.6231906017697793,-0.28121626762944296,-0.7498209134892491,0.002189175621933201,0.19394846106710822,0.4160036939324932,0.40927848995888105,0.2527039080904061,0.025341429163425352,0.9432666683360672,0.640190419197839,-0.18986705464314657,-0.905254531977201,-0.6371474695814568,0.35216797420839613,1.4422489293198686,0.31099951496056394,0.2365126218657625,0.07690882784835346,-0.9593530124026048,-0.2714121190864872,-0.02839833209170102,0.6592283540295727,0.4485722197459469,0.275070573920481,-0.009258232607678718,1.009200952573193,-0.5035559382898944,0.9420394399671541,-0.025447584865361153,0.0058727967254554175,0.14206864875755526,-1.1059632064128497,0.28497758242619176,0.08751814395946945,0.10669125995572643,0.820855378746367,0.31016921323836166,-1.1752362510790464,-1.0232353135682744,-0.611485878737848,-0.4339380020010084,0.0019398536882860584,0.1812348474833677,0.20211965117371938,0.20118213223562645,-0.713809874191282,-0.010437173833407051,-0.23640912097894473,-0.9864573704646795,0.5258013214328923,0.12098769809769817,-0.017444083101980465,0.09408645370930044,0.11525552288206278,0.09424342827503056,0.28162684633531854,0.35856967098793674,0.03610145164933161,0.5277335723916907,0.5300763581097916,0.4466026005914194,1.3635598550488535,-0.14621841913015116,-0.8311855997968404,0.09595089812761352,1.3290108344091653,0.04827625677532234,0.1725660699264104,-1.163738871254915,-0.8893158656447145,-0.08209618397871618,-0.09301119585548434,0.7165442527761465,0.5678475257521837,-0.9188871006471451,0.412259891426752,-1.1449347234852587,-0.060505719655051554,0.22260177537279213,-0.677810405813943,-0.8722870598726727,0.7688171346167608,-0.03140786406437839,1.4111142305920854,0.3685586736618113,0.14320504097354614,-0.20959013542252844,-0.40526464342942503,0.6027309815629595,0.6202229019285549,-0.47988714214440986,-0.32641770322944214,-0.8516711493221227,-0.9921760119150387,-0.7135886765726622,0.4924955856154434,-0.3704256843935952,-0.6708227037765251,0.04061307359946014,0.40620900546792776,0.5419780141339653,-0.5256952957509281,-1.2206697323415472,0.4796193841984637,-0.26103639525916345,-0.392354291876313,-0.3914153676382221,0.32195044131342826,-0.570464038348392,-0.5667909495396111,0.2113273622376278,0.13717133611872026,0.21771212304319845,0.6723198366896593,-0.05738953881508608,-0.6905001684421143,-1.624921609871273,-0.23024820167922655,0.794089361863135,-0.0317020056413444,-1.7506912153657357,-0.020291059808883065,1.1962578205248426,0.18490331741736513,0.337009046059624,0.5648946522098736,0.34097619552068226,-0.29298687519387573,0.20359442657150154,0.2769872471508523,0.048970471724341436,-1.279854936190903,0.17006913742415483,-0.4157547115974932,-0.1547162810843535,-0.10593449771773526,1.0853766227991957,0.23649880561705158,1.3560483910018608,-0.31823264754827313,-0.6830750452129436,-0.6083153394427796,-0.1637193729246447,-0.5230377389605458,1.327834919056194,0.544633431099233,0.8973348125576392,0.5694156319850042,-0.0993917091983464,0.2062725018108902,0.023512879749959595,0.6343323049702986,0.8687630194140534,1.3727294654687925,1.2556867944728782,0.62348883619427,-0.3860256454225393,0.5745513836494155,-0.19459371429997677,0.9558674478828899,0.40193781404003526,-0.13438352235702392,-0.06319155168701354,-0.45148967811363133,0.2844476324605226,-0.39440310619380875,-0.32720244300915935,-0.6531491894113189,-0.9131036479228982,0.52327554420078,0.7268901483056923,0.9681538060552477,-0.3990705789157093,0.4745144959335904,0.08377960681334831,-0.21962384973286947,0.4487351718387045,0.7430178890961107,-0.7042607264651976,0.5132956118800405,0.23776259110454578,0.9498637439196569,0.549003102029091,0.6120872878846195,0.29435687627471896,-0.44960895734456713,0.70665140398924,0.3237122373941005,0.056924997832286196,-0.21782495795247508,-1.4935176035319584,-0.19196506774259237,0.8272094029838533,-0.04899935099797772,0.3570124713460407,1.0151046250176143,-0.7603315554781244,0.14950993494473913,0.12129804609858347,-0.4336074950094991,-0.43005948590186543,0.6187911781737591,0.03312063733144167,-0.002599221300691887,-0.6057235881389991,0.6710950380447329,0.18768219617790155,-1.4516831344459753,-0.3004637137633955,1.1180202695135097,0.37311043064450233,0.5596558277755337,-0.7369292458350922,-0.11368089737046114,0.10060833716775927,0.5083022440844801,0.3565154279795812,0.994643094070006,-0.4759197758738509,0.12260509110894935,-0.2820801169537328,0.3450488317981185,-0.28717170938727976,0.30764874156037836,0.7971887738699464,0.9904790109365997,-0.16109263309826452,-0.007193361912751026,-0.5904433275875036,0.6265949600877047,0.01668632059982178,-0.49363182021488883,0.5123593938622795,-0.3193523148078195,0.01552512842963398,-0.7135533433979718,-0.9737440481823654,0.9278585272219929,-0.18264135583961227,-0.8850166569004448,0.0772051627314914,-0.23916702225873512,1.2490660990770406,-0.32936226175905364,1.6239480963195112,-0.21670386165374617,1.275612911799578,0.3480328224537184,-0.4198385220807548,0.46544875284888576,-0.4990714958607626,1.1403516130198945,-0.38888495429475,0.41133392515588657,0.4160163424846447,0.7047985999179625,-0.3007538177970984,0.38533632145047664,-0.4679874049578254,-0.17181788065866957,0.6697325191226274,0.15908318847224748,-0.3534386991461868,-0.2998317181344851,-0.6363080081470717,-0.5552791265848828,0.8925597532245959,-1.2773200269917273,-0.6925426435468934,-0.3509091905363258,0.47294748664568603,1.129389103786528,0.33096292454000714,-0.005080158969521978,-0.9391393810140031,0.6010829034578327,-0.06842692066178341,-0.7394018107395437,0.6539445457218193,0.5467278846696836,1.0727751763175521,0.35770024234764874,0.9618936862832036,-0.3208334853552904,0.5960442657456946,0.6857963893312098,0.4272919355368493,0.20437446799983497,-0.10601511280320276,0.016071416245951986,-0.3192666108499117,0.0752539345258962,0.22151763200279584,0.2763248996573067,-0.06901934914778002,0.17657124563547427,0.6663855171960168,0.6134852457234161,-0.704565490572393,-0.032873924015330486,-0.27759359814034035,0.5243842606009058,-1.4219695345953547,1.0836937450003872,0.2772572560765471,0.28925034250877935,-0.4298937858574158,0.2788334174677619,0.12572654775680298,0.41267882070597767,0.20961386619678485,0.3152010845530598,-1.2936878363423923,-0.5155718010031816,0.5756129954472246,-0.5327942472485563,-0.47504173320582,-0.08046688572738149,-0.39447774275687225,-0.16184010950521563,0.8616118238326239,0.26282407151092124,0.7659648394934102,-1.105158064782395,-0.122432498677439,-0.7815031930309988,-0.04391940282358085,-0.11147561030308112,0.25491577961587414,-0.2242445645691313,-0.3935875147594646,-0.6127170189832397,-0.4845709511868994,-0.0026214825893835603,-0.13850142076155958,-0.009424398131976448,-1.3441320293118846,-0.26930897158496203,0.23337375052443043,0.2946821615982077,-0.5722700905393261,0.6360207651530312,-1.0621202674048953,0.2929207478340037,-0.14732905994423445,-0.8057508612143885,-1.666231707304415,0.8261098952495171,-0.005500365859048659,0.8184657820925754,-0.04265944978066901,0.4920669608520005,0.07198648335487136,0.6807152376633656,1.4870008560996413,-0.0032852423699066746,1.4702873821546982,0.2005171551444967,0.7335884987234665,0.5559981919472081,-0.7151276659997564,0.23214573099510885,-1.3062599808980122,0.10647224216803122,-0.38837712936656227,0.6540464432996884,0.20724337772595983,-0.11577296489488348,0.09471223821019151,-0.6123693968010063,0.47995146464790006,-0.9549715847367894,0.11033249448117656,0.2517270882919364,-0.4122162992158919,-0.5032745381184082,0.051697497710396834,1.1650737982965127,0.20010418025429352,-0.9636708549217036,-0.8888286361379689,-0.5392692147350722,-0.6442645440206637,-0.5570775102929287,1.2077904740549779,-1.0151810378693402,1.3503229631232645,0.0482755684414453,0.5965685834454221,0.7847076561207171,-0.023265998344508522,-0.2748516014693431,-0.08070454420634399,-0.5677514040474947,0.22694188203997673,0.8187701649006442,-0.31830697944086755,-0.5379110611370324,-0.09774410525433747,-0.5224823361636372,1.4613521024086744,0.5164168332204906,0.3155168354944213,-0.14254747784142316,-0.13227445285646452,0.25574426992085086,-0.35451439013305175,0.6574414840601807,-0.9492192126874467,-0.20710680255130362,0.07986105161656225,-0.28078323388069265,-0.04602338158442128,0.3376916516636106,1.3773909279319985,0.864648601493003,-0.21462089735107698,0.03240314039380032,0.7897375808456972,-0.21869512803924496,-0.6756647919313385,0.432536340569983,-1.571442653755734,-1.2609065535078654,0.6385823951339643,-0.21048563677159857,1.1081000360174145,0.2511210093857594,-0.1334801807160641,0.4223710295735581,0.3522163597294382,-0.16962118411794447,-0.7621537039667688,-1.6557399147462089,0.046575413754009004,-0.008916298763252836,-0.011749192266435865,0.35753666958617,-0.8748576589872047,-1.208726402532222,-0.8326137472868294,-1.204390283369042,0.16497161215530307,-0.44577156484735175,0.2661273919679735,-0.31676813065694015,-0.9576300037052753,-0.09590299936798166,0.574920986979635,-0.11349706316361582,-0.2739786303327457,1.6257800919828584,0.9036255540553294,-0.4853203719779725,-0.21214019140957863,0.3675883614473071,-1.6305380763903448,0.34554265391527184,0.7233398899154034,-0.5678274362461974,1.0791666405189382,-0.3810521817251027,0.6599245590374532,0.21994129312847238,-0.8191515849185435,1.2327521288160852,0.7217935876503869,-0.2526932849511492,0.6729254477567639,-0.18856793559060933,-0.4212433643412922,-0.4459609052003201,-0.8257787318005725,0.8993167908039501,0.5158573460175878,0.2925192640752024,0.2814603274343326,0.10265053720915951,0.008552227843873744,-0.2185382125407095,-0.03568208692669973,0.3562033435387456,0.5764467426320201,-0.2797614800953577,-0.10580005787478453,-0.5437360037919864,-0.10512269808432088,-0.6085633199980031,0.730372539799081,-0.1566206174208968,0.5712699121976055,-0.3494994457036186,-0.036721142067270056,0.3183180404791311,-0.7200514884310882,-0.2971196565517604,0.5708318624005609,0.5503786360201046,-0.32485413005469155,0.11829207785109588,-0.28744172552203723,0.7246652226115626,-0.16737253413470762,0.9911806804863839,0.05225834982565116,0.9490938003653144,0.5534265429061616,0.42659261259647174,-0.8596363362081928,0.7146431700255377,1.2064118064442593,0.7193579453547926,0.2594113622620965,-0.2434416117375912,0.44690173003718536,-1.4851155819321915,-0.022879330033468537,0.7050153664001375,0.03701501640921649,-1.6984850046067228,1.1902647385003993,-0.2490615055878932,-0.5930326044141007,0.3962780207537889,-0.7035474712848592,1.5027587825779145,-0.2621759136920555,-0.32778890454220977,-0.1902412859472508,0.423544896741649,0.37968126354953086,-0.7102872097683791,-0.7958832489437472,-0.8695687468485589,-0.38611808990858354,-0.7263659744675068,-0.07231920903298758,0.07685150763202868,0.3061307410353228,0.178737153894332,0.1405916976854028,0.3021677049253163,-0.661533157682984,0.6932035650011126,0.863274151975208,0.15096568922225026,0.2655195938867406,-0.7062253477909879,0.20588981529565023,-0.20131071281326895,0.12703760961243454,0.30632257761014786,-1.3802335069920078,0.35316125579500507,0.6527194701675245,-0.10950060912446456,-0.3921885444078064,0.44949839242245665,-0.21329274184860747,-0.2589045726566059,-0.8784950999853518,0.4444023627039861,-0.05012372818024474,-0.29531145778097206,-0.2660948707846756,0.5568226020624725,0.65643835151226,1.1089027620517173,-0.4177658250731578,-0.4181147879104217,-1.0149981786105224,-1.0311008760681049,0.33409993183509484,0.11451408079380261,0.2095009942812803,0.22654198012269272,0.19533858763099818,-0.21414839191105844,0.09563932035691121,0.43381547703366596,-0.5015238964894939,-0.48728173204106245,0.5566227793051228,-0.2699194272497906,-0.2936740513992482,-0.8155073791289487,0.22516399454476488,0.34384259008599105,-0.5422691531371991,-0.9233819085023258,-1.0418913741949407,1.07490467791649,0.141435925055162,1.2593537568978255,-0.5259464365090913,1.1131832006345044,0.7900431169369607,-0.8909369398933562,-0.7425626324583499,-0.058102687277791665,-0.2455636070465026,-0.09593658143172741,-0.0422077956507119,-0.5424741449958143,0.04331741012906951,-1.1871031416155282,0.15390649681147625,0.03647799720845052,-0.05861419362543613,0.41944315591113107,0.35446033543791516,0.6801798230074565,-0.7616596365267367,0.2679873849349642,0.0018860041351898553,0.4316018471999802,0.25225385158008984,0.4735875397986853,0.8804545108718422,-0.5404445805142176,-1.3960502473736036,1.3426260501273324,0.3540617030878417,0.7796096666736508,-0.5915287488007845,1.0276189799602133,1.2408217722308785,-0.48151240544533336,-0.3661618697498036,-0.688830986422929,-1.0929747694202538,0.6018766940250648,-0.2827819139059924,-0.8423598858709849,-0.09274721199111188,-0.18877321271680247,0.9195727834639673,0.5546782761779262,-1.0831687391906009,-0.1298367524869827,-0.953199525718559,-0.31760963673088566,0.6049116992167094,0.26513867300936167,0.25333555447039097,-0.05225554108304353,-0.23822493862664837,0.31754557205556233,-0.2952037431918904,0.58103272370827,0.5947260330612668,0.08131263928602737,0.5810157650642372,-0.20345673400975606,-0.6504010820461165,0.049544016212045315,0.40808646815671434,-0.106507192332235,0.10948333052254489,0.3197598419256959,0.0024976903984389454,-0.19235544592909937,-1.5765200627413702,0.6454374062298506,-0.2920021340317678,-0.8043525458530293,-0.5851244257567829,-0.8737769930159621,-1.1382499451702146,0.8617716778727239,0.6826035671177207,-0.11306364712645137,0.31207015285870027,-0.9450397451385816,0.19037927433181417,-0.14375095567080592,0.11155831257837177,0.1102607290498069,-0.35454939196725155,-0.800651753812368,-0.4186773397237988,-0.7499872221544924,0.9906511762724819,0.3150503573035726,0.033499918783754266,-0.5557122552883607,-0.6711032846978792,1.2608760464490834,0.3715077605741497,0.6339363222401554,0.6227154586276514,0.3129687366834767,-0.613745373633927,-0.8622849468786865,0.18404460563089675,-0.052310215742202314,0.9309403959342877,-0.0645663825122863,-0.6039203012147764,0.49772260848577193,-0.043910916439481966,1.017256733271402,0.03845239527139583,0.9094385200045483,-0.8845247742162412,-0.4565260600944806,0.22673650171785076,1.030686806955331,0.3879228203709078,-0.2355610484906968,-0.018251153747843946,0.8103910650700187,-0.004425493454723656,0.2289969369780274,0.017584435997887726,-0.7455315414886687,-0.43872332735915676,0.4035244649797328,-0.3815658160559473,0.8523803794017734,-0.039996768184829966,0.002507111130569738,0.5982345732405133,-0.3517864262367568,-0.7382110635740375,-0.09174248522644878,-0.5253164806425137,-0.6392022096866944,-0.24109097658002138,0.3416364511740869,-1.7059604465496596,0.7802841824152895,0.1733475254417145,-1.3306301705628554,-0.019306005112189883,0.4039762605711494,-0.60207445542535,0.14255295410138413,0.08442325078904987,1.1407630243072486,0.24352013572586062,-0.05813943351646156,-2.3225414790755616,0.02783384697082374,0.24407027438892492,-0.781365506323086,0.8201865014174482,0.5263257946885589,0.3047946510901455,0.2738185133805771,0.38111451109420463,-1.4439224005909628,0.4841080188801712,-0.46840361908506173,0.43313977044879437,0.6709346495688704,0.1022812103205984,0.2224265459625004,0.2349703141443435,0.59136007824294,-0.15025119196697445,-0.3835513085208114],"fitness":1.1669470000000002}