{"v":1,"inputs":13,"outputs":17,"arch":{"hiddens":[32,16],"bias":true,"activation":"TANH"},"weights":[-0.1988362422966506,0.7660068958274627,-0.18923711408333024,-0.3553478478639294,0.43528570871009653,0.537173640246759,0.4718159433302051,0.8483748467744187,-0.3666520673638555,-0.2064195911174514,-0.5876990129271744,-0.22886227905022044,-0.020117622083187226,1.0475563719056187,0.40289330625757164,-0.7710039948707785,-0.7638394663967022,-0.09258413586544226,1.4428643922915612,-0.4729942657130272,0.14723240449282465,-0.5362322866556194,0.35794300198512274,0.26400056229303503,0.45805307723944366,0.9940830523729054,0.7547051499342508,-0.5162966081869881,0.2976861747476938,0.23223214187354005,-0.6390658897238372,0.06034762371565216,-0.1138844869864293,0.3740005646665899,-0.757888287676378,-0.4198434039258506,0.960173277867741,0.8149476049554558,-0.6564995916698145,1.4392264357645765,-0.9036879948210927,0.801777703814703,0.8057483519623005,0.43190668929455905,-0.7630195615501024,0.7688038517985641,0.23829828438805548,0.6202553540645562,0.4471354949286204,0.7352078733042748,-0.2087864290539937,-0.30563229502247025,-0.0626525716095033,-0.07331303810223361,-1.0797989133664325,-0.5649764567421491,-0.20842927997801675,-0.6397639187369901,-0.858730427038828,-0.6204369852638228,0.6424363301638681,-0.4049521892168703,-0.5148753589399698,0.406114923911676,-0.4571650645877424,0.2509503957990039,-0.29217958624738904,0.5219609642878553,0.604727029242549,-0.14500548615612488,-1.0322161118698956,0.10087948170549664,0.561348161913311,0.054147484143507736,0.42502507610949797,-0.11305737979121717,0.43370018434028623,0.08899761186893115,-0.9501638771792644,-0.3690880546440357,0.42212724935548995,-0.33091177976460767,-1.3447548131337368,-0.5432882421460564,0.49609861978890124,-0.17355368030457613,-0.013334448474174442,0.5475854877170727,-0.7060200977183374,0.530188382736951,0.11977195744488367,-0.12951565551450955,0.09821274860594652,0.530164585886061,-1.7599073598162374e-05,1.04397388124149,0.2882031493624424,-0.3614073531830856,0.30712547221263853,0.46552347050078413,0.4250036858843543,0.4424594139370248,0.4422805749081861,0.5964896641327119,-0.2591416851662723,0.07890818319193328,1.0358771436898988,0.6785501017517619,-0.152718684989909,-0.4789780875636265,-0.03568907008288476,0.4055560353720091,-0.450768100086863,0.664054587404686,0.003894009382090156,0.23407289986281185,-0.19043394298559624,-0.18109902946741185,-0.26654971333597044,-0.324058210801509,0.5827156290916553,0.18011750324210302,-0.6921249128994946,0.29793746531435006,-0.8072006810755085,0.31217934403030156,0.05273441743383107,-1.0089859144217033,0.9246147036167431,-0.3263521509016318,0.008662405537145576,-0.09896752021380507,0.6439556343213498,0.7218667898273968,1.9076621109378062,-0.6439809415550396,0.14448808684318634,0.3121901958780119,-0.004222171735923846,0.11832940913696224,-0.827911776842778,-0.2849168260701754,0.26002429473492455,-0.4331302999032954,0.08663764821517628,0.06851675978227795,-0.44100624225593926,-0.18216567863360691,-0.6568748460714062,0.49990081606561376,-0.32096142191278254,-0.05063360917145308,-0.3060634497505322,0.3765882824241647,-0.14627326712834363,-0.8608216251933015,-0.1893682006240967,-0.6171259083490339,1.755121039712442,0.8256349103732783,-0.26321029523858624,-0.7555455889388383,-0.14001640274074817,-0.7011406699136926,-0.2215887287599961,0.12477080321988361,-0.35976000702660954,-0.9440605208519006,-0.3784003631154974,-0.6518209791162665,0.07474182632770814,0.18796922703220673,0.48726796740000883,0.5148934645648305,0.6823094107117291,-0.21012329388149878,0.49625705951823035,0.1012271592062215,0.29181495019470965,-0.3145391603475255,0.891658639981599,0.14697005947454744,0.7422523223502981,-0.3671539526650748,0.14712425343385452,-1.525535268111648,-1.2253348157836899,0.4318913008747523,0.14706776025578489,0.5358871745272994,0.40605424094299053,0.21920113286807677,-0.7532023997661244,0.05388546184051485,0.4406043929715587,0.1638687521010158,-1.0982505196490193,-0.8483299853522941,0.3339425087832998,-0.7078742818102768,-0.5963691927527822,0.3485483119794372,-0.20370178131330077,0.00018242663510922857,-0.32432232900487196,-0.23624620205338534,-0.5592891494996957,-0.5602755389549617,-0.2173005101732137,1.516167839369716,-0.39251036139846057,-0.32847365491589176,0.01094428382064291,-0.27557001518614693,-1.2610030883105958,0.5883313719066728,-0.2041869592409575,0.07693295371005876,-0.16553905629142082,-1.5234569557556037,-0.17894095296355214,1.017219020144819,-0.18407574628733678,1.0856432409386032,0.09319052594139178,0.05183663556983428,0.44300366117670303,0.550809132782998,0.3897447558647017,-1.0984905591043097,-0.673819429984024,0.4470821322684913,0.21677583919991772,0.7705265251484493,-0.24035872923100657,-0.5963179293112467,-0.18679089095079238,-1.18337275462922,-1.1315875177806771,-0.3396132844363682,-0.5673748532718713,0.021149373893171584,0.8506595938018539,0.42695011082123896,0.8147602400737431,0.31935316679777986,0.00028760872516870266,-0.2969850068898738,0.5428408713133599,0.23639218098506562,0.43934897473132944,-0.31163550246140637,0.9971587471809503,-0.5212630032548184,-1.8660210346388306,-1.2323510781938778,0.6706587524097462,-0.3993206777120458,0.10142517349281205,0.4723664074964007,0.29565810463477005,0.6565782051397183,0.9077514957559358,0.2600840068557867,-0.4353357252173675,-0.4321487071503794,0.20386320272052935,-0.9021256685791788,-0.25636569079233235,0.5666347349969791,-0.41974851560091175,-0.4970299276045013,-0.1563920376245297,1.072907091247183,0.8969343038855111,-0.355195777538406,0.7265330362103928,-1.1036043634166883,0.26281093848092163,0.31343063433801194,0.08890378654717886,1.7799603203292114,-0.5825786769708531,-0.07687295880626277,0.7027819933308398,-0.9167043885769804,0.37123874169022003,0.42033435924617035,0.7625339952296346,0.7569071242041172,0.5140711903204683,0.8914862261228509,-0.3586500214603084,-0.31872073806691864,-0.10914420081366541,-1.7827773664566167,-0.32238293936104323,0.11819480869313978,1.3479300471817186,-0.22369341396819195,0.43299677227788336,0.4793410610916498,0.43228785514845625,0.7911022536671873,0.1298291738565741,0.6819382938153528,0.4769501515148745,-1.632592413382303,-0.04568447788195842,-0.5723289941315471,-0.5128182785387048,-0.3372518247029514,-0.31232685562231033,0.13804290877902928,-0.1538453130778385,0.475750176013484,0.3536341886429327,-0.09076688370975551,-0.515385270627984,-0.7328595341254163,0.641705122372588,-0.5484628004189048,-0.8866612803299123,0.13855584996767795,-0.6988567749536895,0.46816101206170113,-0.15468990252192602,-0.7872550700786537,-0.9822443859611832,0.9362772419593038,0.43691246744000317,-0.35132992839753563,-0.5178843136239927,0.46962819090505636,-0.6513700319855743,1.0672537030177507,0.6259719497565119,0.23139422475967544,-0.482890957404585,0.4013082270274412,0.3768102924977282,0.3439338105549139,0.08230010804043779,0.13769390720132546,1.385442982649542,0.5820412292512125,0.326301219651838,0.799547779132765,-0.7823930765814076,0.6186398190696277,-0.2199281889216575,0.5011947343793435,-0.42929998497339683,0.59351845077958,0.3242917560155668,-0.7749149255860273,0.40607071686161045,-0.8459431462033075,-0.194233867668493,-0.07171636831960276,-0.8036835550810665,0.3408901385406817,-0.5608152100205687,0.002101598707151411,-0.2877452817390894,0.11464203639960435,-0.5404910619308216,-0.29730928984436295,0.32251576067351667,0.10573704673548755,1.0371129791102758,-0.6307614973455761,-0.03783551256700379,1.083973981463238,1.090556844787517,-1.0623957733396914,0.33322393050892285,0.5959175823975424,1.2993844154651049,-0.5420304103928508,0.1328402408171982,-0.47690761200906007,-0.2897175108193512,1.2953393988318547,0.726020461362926,-0.5180497969076383,-1.0011385036455889,0.16314301229457187,-1.3927823533676174,0.6618967175566002,-0.1346942523016142,0.25201433613627433,-0.4295878341844863,-0.844242714987885,-0.11340954038277007,0.17913125189049134,-0.47956946188601685,-0.36152297489085644,-0.4463878562847302,0.5586712176737488,-0.17048915633118444,0.5749805173274836,0.3290147044196873,-1.4957103994796872,0.2091000887513935,-0.17838753834271473,-0.41334542482074593,-0.5084858750785748,-0.3047126902965299,-0.34569318746149896,1.0734672075754603,0.11150642431377605,0.25281705356842354,0.10786834529677683,0.5231518587304409,-0.24256906079279644,-0.008573759758240736,0.3363015614379121,1.0797127127520323,-0.14496187607459923,0.39455089965104767,-0.6338861890960623,-0.009052162599226699,0.9221263115882619,0.3669408904879462,-0.6291725193865668,-0.9297165591509281,0.14081401960933632,0.1679459043750025,-0.35412815305495204,-0.4323885435152545,0.4062621449973902,0.557378495442689,-1.0962917580292835,0.606660530786863,-0.5293678060688076,-1.0422584359615474,-0.34997127977145587,-0.0973095824488448,1.7039272533705503,-0.5488516509863262,0.5469896150259698,0.5151545937671796,-0.6459271922468236,0.5373791288876597,0.5392344544299003,0.618401320217549,0.6249740004410754,0.9076994741988293,-0.3177145329775107,-0.9509957759253922,0.2760009175473467,0.5174158294298261,-0.12788242864820767,-0.11956161539734239,-0.6140687468576426,0.47835341741103976,-0.28813714579978106,0.5212091445855405,0.11766887714166269,-0.0892508919469597,-0.671336039626671,-0.9396351376529475,-0.29836413053249455,-0.09789945111481194,0.12124821591591756,-0.02741393720470873,0.07458795558315469,-0.13513153285083426,0.1603263339370888,0.2805598739272255,0.5033286140993098,0.4841168125440241,-0.3722045101822664,-0.3530364757423539,0.27895484931939196,-0.6040818683307941,-0.2135688728261339,-0.43265956791717186,-0.070526294414848,-0.29671236997759215,-0.0603639293265337,0.46142776065949853,-0.23161489302743188,-0.1538760425688596,0.5481973721442809,0.1326936121472932,1.7109443837454024,0.14274907903032377,-0.0703151405274774,0.5105734721096776,-0.7185690031641592,0.09762912575795708,0.04505433194601245,0.4331962434045177,-0.19477801995481303,-0.8862577814737336,-0.11934343858935027,0.2946049806506066,1.0533633463924614,-0.6064617467577765,-0.5785399191133089,1.1616746954946533,-0.376564862286058,0.09382979431055778,0.7238851298581146,0.78795924968345,-0.9746570495944588,0.15199570743864385,0.0730504114507805,-0.06106279353966214,0.39391201300177475,-0.17093701735743924,-0.8830645730862803,0.7680123783908286,-0.08642935274607222,0.4914118922730286,-1.0997976017298774,0.4998151939914193,-0.19649999196651066,-1.0497795111504826,0.1883687604586786,-0.009407556326789272,-0.4822700529878773,-0.1561221232431117,1.1874500512704702,0.2852489252327713,-0.6368784956447796,-0.6533382873885485,-0.17946055000136382,0.027367200008457136,0.8133462252519711,-0.4309696766377404,0.17495563246498005,0.12198165963669833,-0.7199039024318555,0.18473459582891777,0.49296363161926304,0.5205468137656599,-0.06810178875018101,-0.056719219755445194,0.5436643378945795,-0.45404370242598624,0.7997646066254114,0.8428393847090978,1.4638119668828158,1.0140864826273401,1.2837435408238966,-0.49197360151605346,-0.5398191035869859,0.047294887435856525,-0.3465609210934717,0.07375262663394912,-0.05402076822572788,-0.49396487991705845,-0.5990450900890073,0.7582915310050751,0.4776934781103269,0.4300374423412505,0.21989425214039685,0.4347755292420681,-0.6980371778398861,-1.1445428285204684,0.5787518343665627,0.8953488318950936,-0.6101764038694761,0.2900760151323191,0.20325978889211835,-0.48590997641704015,0.022535212257619407,0.8193037931931266,0.05009615921173964,-0.2671778749551432,-0.06788012190942662,1.0863320581018967,-0.9583448130858064,-0.833061821464648,0.24306998495162185,-0.7371399944003245,0.24643650314533286,-0.09891973108967737,1.0798086209931161,0.24495388324818346,-0.2953023861235648,-0.5729788535345729,-0.05324603382927503,0.3259587910231003,0.04463555611179438,-0.8962319376030158,-0.3129273773473133,-0.29779267385396074,-0.06196489979807349,0.8833502573400721,-0.17687638602868824,-0.3447299334786372,0.45590399639261,0.14782746727490584,0.5007289120068509,1.329918236389497,-0.7882960475853414,0.23184494918654,-0.5760051034704939,0.7781663421178737,-0.47429297246285723,-0.7253051483971206,-0.42192283076180476,-0.29149709762701564,-0.6616927806904297,1.0380552999308104,-0.5324120373410497,0.4817848759845711,0.5383387703217218,0.017102081453432144,0.9653779168259475,0.09958661487799733,0.44401625975168774,-1.199725503984859,0.6370853177866846,0.8221153269228871,0.46973302325427635,-0.6457154828329543,-0.26012246856235516,-0.49199451290302054,0.0417913325420365,0.11770761176413905,-0.9933991229945038,0.1035984231345798,-0.08134272322847598,0.3343170657127952,0.8954585047545239,0.32337875105964126,-0.39842922682402326,-0.8137245799451859,-0.1653161462149248,-0.6347028215694863,-1.1286062462485054,-0.031184688588839358,-0.42165873676731386,-0.0788225072165974,-0.11868503463403146,0.9272572530318727,0.35371961896686205,-0.8530977072506348,1.5926489626701001,0.8502707226405724,-0.05902666050347515,0.31222883904012905,-0.12480839209603242,-0.8159925146775747,0.923667469559367,-0.2911316909333236,-0.4195558580302991,0.39753097674635385,-0.6541226119538319,-0.17284395614996848,0.4180809243292251,-0.18245931173675728,0.3409463871681584,0.04569197347980721,-0.13007872515751295,0.5593395168016708,0.06095920324903883,0.33019304944774636,0.12365168343618466,-0.6729650864171087,0.16269289257906155,0.32330501301349085,-1.5441472016861044,-0.2342474364250453,0.01908232000544474,-0.43175990913007106,-0.6313543941914992,-0.7314954402814321,0.4842740249489671,0.4469285436787331,-0.28984706559148954,-0.7047828688950611,0.07517005970153473,0.08801091009231171,-0.9890964051470407,-1.6242613447667469,0.9515483376327104,-0.029571805510221094,0.4593083598475749,0.19492074784400548,-0.5403491899655926,-0.4787046253248831,-0.27544306928588563,0.2677607134676185,-0.6807277629661775,-0.06617645797315083,-0.9768547114573786,0.20851849840454756,-0.13042367451288778,1.0194529501692362,-0.16646278124756778,-0.6694875643921719,-0.5431144988395251,-0.031522751701939355,0.5347556609766781,0.9441018944674823,-0.1520332661663573,-0.22360794098558537,-0.5377359822643539,0.12947569865639771,0.28605541480733465,0.5350354615662625,0.2580399488090562,1.0098004373594138,0.8309893830312572,-1.638121287270278,1.4630249964914794,-0.11035139581704918,-0.4610115307952695,0.7848401122020862,0.8966440190392309,1.23302280785889,-1.5671962591798212,0.009595599447568938,-0.8758378255265863,-0.7553561942336449,-0.862103925530033,-0.4260735620703479,-0.5217925199185641,-1.0313183326851751,-0.23245007607437954,0.48884911530004566,-0.6195089429004113,-0.3803710207064386,-0.6880227403177581,0.6216872750379743,-0.7143495175467528,0.7984528549554024,-0.010026552615381101,-1.1854049104204034,0.46723757462954657,0.5206139576529678,0.09065626247988037,0.05019129159277913,-0.5190223450060238,-0.0933444312448172,-0.6472288662923877,0.2221894838801774,-0.9942045103565148,0.1985415891354553,1.1990341765767782,0.07753433869829562,-0.2930771774958893,-0.5990160783859675,0.3903291424902839,1.256636077604378,-1.0404129966379518,-0.7940378790067685,0.22226115360932375,1.28387600774106,0.39643879296376394,0.5803031098762923,-0.7403261791307968,1.034834958213289,-0.46069592885202093,-0.9734412250360073,-0.9161652801586406,0.06234773938009071,-0.9574264734070558,0.06881786730211548,-0.30053853909612854,-0.3008936947572493,-0.1598483533233569,-0.11736561201885981,-0.35010211399938546,-0.7817163357188915,0.2617182540901844,-1.3491500611639342,-0.647139749594243,0.6701081620134799,-0.6553969986923674,-0.8869646330984191,0.24526309121139914,-0.34735782210084837,-0.1435538129220304,0.716007934440128,0.5054599094039031,0.5561826543948423,-0.2516431603933627,0.47204325480388704,-0.18390098682060552,-0.10675481748604757,0.6718340658932619,-0.030193716516423275,0.7802805652418388,-0.2648008977357599,0.40276100760291583,-0.014883837819159064,0.6008725510950297,0.3420105660872696,-0.892679099475725,-0.3919303134360792,0.7201660862010287,1.3171530884468399,-0.5758535143698978,0.17944023335545886,0.41428631081722433,0.7576573254701988,0.32694660870503456,-0.43631933958681196,1.3330687167779738,0.29136163662143666,-0.41220560421462965,-0.9164515438711699,0.4236315246808636,-0.624651110112076,0.3219655579322279,-1.1948540118510773,-0.6265561570867094,0.3469825257351567,-0.7974410656650025,-0.13609290261817364,-0.07426427707892647,0.06832566743101426,0.16694451973637384,0.44013443313716216,0.4518578939516927,-0.8422664555926888,-0.6768132230856805,-0.87410892927887,1.7846770486394472,-0.7993779867535523,0.4109585474797212,0.30850025599893083,0.2278390776291469,-0.4636158810725581,-0.26133714801747343,0.2992898164177399,0.21861646350296873,-0.029617992533998563,-0.06313683068696224,0.30670892292945146,0.5940658235920339,0.16957275999346375,-1.2341595659243605,-0.617706583858304,1.906783305131044,0.8547742220808977,0.1344354721624546,-0.5973279175270965,0.8040413112348794,0.5806998255278288,0.4087953531123063,-0.3096574371117173,0.605656420284579,1.06787708778244,0.2466514631069195,0.15092598371083701,0.3175239640356714,1.0128185570455486,0.37589736383427996,-0.3542577966111997,0.31419431764113115,-0.6648527197915689,-0.3111283324972703,0.016227818519692457,0.36897188220462795,-1.1895178852125656,0.1340331852232533,0.17291190281552618,-0.20018184533779923,-0.26352038350306134,-0.3431048502672953,-1.0013418866615529,0.161558913459935,-0.5017823128082812,0.1781821952348804,-0.28407899183488905,0.2840129225048425,0.9284649175053026,-0.7332281457930205,0.05890644181986732,0.5145686509143605,-0.6231843065999856,-0.47743624511077826,1.806157497757533,0.37416877903275547,0.17211559547758618,0.40988135173041335,-0.5806622416555935,0.9107339357065583,0.1899574704377485,0.8193634649712582,-0.5474053697858051,-0.19516767009668806,-0.4778007613204718,0.4749144988333468,-0.3774268575888221,-0.26691047669659557,-0.008950796303914418,-0.7005074187307331,0.24294036869937274,0.5587398823195672,1.5708508273349902,0.25438044893819994,-1.155717786283703,-0.3900011630059102,-0.124543125517012,1.0462669990156521,-0.6045077791647929,0.21950086503103028,1.1567216227439183,0.20565643312428095,0.7022770903244829,0.5160306038892413,-1.8319922999350975,0.6029586439585537,0.5768209341610593,-0.14906943676421927,1.9294241688458964,-0.9476013300989172,0.2896473684704424,0.8434654468905906,-0.3812879181889696,0.9121678407282936,-0.24875607088010243,-0.5387538246817709,-0.2776125517649328,0.1460884886361429,0.5275099445846325,0.2715812774273948,-0.20611755510340452,-0.9315215745399246,0.6269321653105646,-0.8072534767217557,0.6371634769482873,-0.5066325001856614,-1.248423819967616,-0.4899786797515175,0.04156520699906317,0.09004029910250914,-0.8216626856700366,0.09647305782011231,0.17254250436511287,0.07278493944612312,0.6712884801452842,0.6648022259456609,0.03827915249097519,0.8044838828836448,0.13929803327029838,0.0867740373588481,-0.41863514006979236,0.6397835822275231,0.08429430440002514,0.2769639008974608,1.3502044098894757,0.32344127828007085,0.2399936809530639,0.3612143581751412,-0.1510130412370925,-0.6155429171069801,-0.20355892709845996,0.42613654900838127,0.5557898450879885,0.12596933858820072,-0.14110459971935518,-0.30056042725178955,-0.35639067125790924,-0.02939263083728458,-1.297339134638037,0.12869289649213542,-0.3244106800047343,0.11941973098411267,0.4728520200523643,-1.2367411840946774,-0.9938255668921889,-0.6493916162383271,-0.8229885612362405,-1.2671766932400417,0.4347890527047115,-0.5868122283818797,0.2662837161180993,0.4885247591136403,0.8451077042733824,-0.4398009231118979,-0.28860929786699246,1.4737128318021044,-0.876674462027925,0.734730611016409,-1.2426232408633573,-0.17471562107025068,-0.3660599899923497,-0.6626637480334798,-0.31935106186141604,-0.2024356567307612,-0.1536715640138129,0.3036382709037657,0.009810811920847626,-0.1169923533952449,0.10842389639237701,0.36952612337681334,-0.03534910605841833,0.5003765134577268,-0.37587456568124394,0.5585054771436775,1.1385953668119115,-0.521518253632387,0.2115188332061781,-0.24282324545901646,1.161175129729068,-0.4970288898777781,-0.2152343251117068,0.0908191558269246,-0.9602530378022502,-0.6610283313598686,-0.6335427163350938,-1.0852920718296641,0.1363095505471719,-0.1793493573141691,-0.6817601205758683,0.7162945710853813,-0.3950776803792067,1.046017286270524,0.6984458333618745,0.7949765998720395,1.0202906963471592,-0.872140726474533,-0.2264572980056318,-0.3375456143330254,-0.1736010598037037,-0.29146689608007076,0.11464067925749771,0.18827842632556988,-0.6657052456079454,0.9416597115565176,-1.131160690510248,-0.3129818203370874,-1.0920042616111219,0.614726596449016,-0.016750818168168514,0.2249671038869986,0.0022719679519624947,-0.11357688647380312,0.16801036787870285,-1.0839931449600149,-0.4344114336287866,-0.09361336493203805,0.7281752829639438,-0.0770788563366318,-0.5377302607315048,0.5211126002038498,-0.3964540049128603,-0.496563149777077,0.04008182605658667,0.38744480767939327,0.1509830145869309,-0.5464833972586773,1.0106173849293765,0.3723642709388103,0.44489702448209933,-0.041133127129508916,0.04445763578148951,-0.6772533350230466,-0.9043355258444408,-0.8477280658925348,0.8160844745258351,-0.05102928833635239,-0.25565153477440294,-0.5586235070722356,0.4347636097056594,0.2518518661001053,-0.15847762787114586,-1.025241234786965,-0.9469068733594939,0.2317237036811206,0.22814552021038909,0.022857899073507115,0.1499733531233747,1.1151053079483055,-0.85483499611137,0.8776061355662593,-0.6374428986781505,-0.17214595006323613,-1.4052799497639825,-0.11671288201110386,-0.011631732324871922,-0.1986897810909512,-0.46242855017166484,0.011971403742747175,0.7002291329694406,0.07493510412224261,0.08097514278925602,0.31510932691500415,-0.4584986767668871,1.7323457694851996,0.36645772964733425,0.4326145801093795,1.0070780119978047,-0.660039696764871,0.7626635165900636,-0.6167922578921089,0.2564025692420895,0.767238766680845,-0.07303729060931086,0.09572570181324395,0.4042021725895735,1.1169073265539384,1.2133851636689381,-0.044652587340840905,-0.381168589369584,0.8475463137148656,-0.11093839759703826,0.8584207758406611,-0.5276965691242967,0.6456095799789118,-0.27952841872899326,0.37580672603288423,-0.13886416811754296,-0.5046084030862475,-0.6220072505710312,0.03099212252420753,-0.009935655718701808,0.020086307256959552,-0.775264114232285,0.8165291947723137,0.19922565617179863,1.0128942548663258,0.27359157634253,-1.290545415949056,-0.8416899444044182,-0.6187705029689647,0.11957143189230662,0.002294387221016901,0.3278143978642352,1.5848470788700453,0.3349711248851543,-0.34556371381835166,0.48633288994719115,-0.5559131981938915,0.45494505829410725,-0.9714953445322749,0.5801309949958108,0.5006478412330254,1.2471592477310458,-0.044553232991082437,-0.173413107067893,-1.2077958445516888,0.6001638649449645,0.6775951290784374,1.1962038434784852,-0.6423454319313224,-0.2103971521257184,0.2546614910546206,-0.09814668086220255,0.08648212384680184,0.12476606585959002,0.16954070486176853,1.3207400111157372,0.995387755123047,-0.004530937901916943,0.4611808501593632,0.7377827766847114,0.7351458213914663,-0.1250719247144168,0.0777543259604547,0.62468277025308,0.1905095363852267,-0.8763143562187864,-0.4848131978039672,-0.555078742355633,-0.14469885903864987,-0.15261118625010303,0.6181859237420774,0.28163944743313574,-0.45760903030241223,-0.20726857023810988,-0.30100136403988137,-0.6602241596673435,-0.030601679224766146,0.20386846046973783,-0.22679907372958724,-0.026319798493756152,0.06052589465221697,1.0665628298742076,-0.11191769163074725,-0.7564536682035845,-0.3280822050539895,-0.6482050275662167,0.957167493169418,-0.45254860658951324,-0.5936137456347835,0.02790111066722215,0.11209850358456663,0.3363565366530397,0.6174951082225785,-0.7145925392168541,0.4061716791208696,-0.029468696827735175,-0.8730432665024896,-0.6993543603868895,-0.2736956479490678,0.020802030166868695,-0.5920177102536612,-0.48066858615596575,0.1913317907887028,0.9838732089853468,0.2518660376232017,0.8010780255466743,-0.7774407459041127,0.49758838671171424,0.015126724884668987,-0.530469338665544,0.19479533062257803,-0.6976338849712745,0.2092275247917656,-1.139392823892638,0.12032848033142435,-0.03712377865754202,-0.2707507498881665,0.657558353125931,-0.0690648928014255,0.618631042441518,0.3430778451354779,0.39174873189129716,-0.41191067632925554,0.7521659663830822,-0.7262141218656675,-0.45830086548715243,-0.07558157309927527,-0.4332179448428289,0.5419214188373472,-1.0019144351987064,-1.0391991191349474,-0.6508326433079251,-0.14949992052710354,-1.3623781328903557,0.4933602094613587,0.6408991076467688,-0.007378295308466502,-0.19319145838422686,0.9075115469765804,0.05443610623517815,0.18944946399712004,0.01589092618926921,0.8794208940335604,-0.37895448594018505,-0.3331526342152582,-1.0045273310020773,0.7110274292998339,-0.24353092945449867,0.45764186497948617,0.7767737776107478,-1.0530174285813907,-0.7737694936484819,-0.7278696181146875,-0.520781005735855,-1.0911938293336276,0.7435554237543158,-0.4677752988042171,1.2021671819459003,0.32584577034775675,0.17128182570087302,-0.43840203539128514,0.08732935461467393,0.5353044432905543,0.04384728047350761,-0.20196556582043196,1.1295504034758477,-0.6522373092878183,0.7337236177604538],"fitness":10.503219166666668}