{"v":1,"inputs":13,"outputs":17,"arch":{"hiddens":[32,8],"bias":true,"activation":"TANH"},"weights":[-0.0962590055201084,1.6009341586754975,-0.7706889921247723,-0.6040868191091502,-0.13656218252379843,-0.04211383609446991,0.4006100765684631,0.13102017763819573,0.020856007973313904,0.7794805018935675,0.08479883596181459,-0.21669977286760703,1.0486341578716267,-0.8376447200415573,-1.2093770843383116,-0.29810927326973097,0.5275491044741757,0.4032403791020962,-0.2879228405932947,0.8351146386705804,-0.030594464615708555,0.8743171291421391,0.7055344502850668,-0.8640036772855145,-0.44259339179028223,0.03019066568283788,-0.7887278068147443,0.19964395597235485,-0.20001492961263892,-0.4562431692303566,0.4156299869555059,-0.13541909481479206,-0.17310098679721056,0.554967366580557,0.4014988016532486,0.24286232911365463,-0.13005823848106188,0.8465898079240193,0.5262185969773551,0.5082570243473269,-0.7507104530009656,-0.590482141953816,-0.5969466386008361,1.4480884479288783,0.08685646365733682,-0.20419984785972872,0.21418440887606924,0.11341056362264372,1.070552433303667,0.4289431514794598,-0.5580763050487423,-1.2045221756288522,0.05041426138580796,0.14224261666504398,0.13313399679928548,-0.7677020367440179,0.011950848106964135,-0.2449342553735489,-0.064632024373469,-0.4423979842213187,0.9055324533744524,-0.20024044920628192,0.05752971554632719,-0.776131648564027,-0.17163473823019781,-0.27128245645035143,0.41428262286137624,-0.7920122262261887,0.13563438097611757,0.3784715550072579,-0.008552620445316017,0.41750331139352437,-0.051698520096070795,-0.03221062458888452,0.4627654561117157,-0.4440689799463257,-1.4353328030124355,0.33373657477639185,-0.7077317723488135,-0.8539773792106851,0.5443013150090966,0.7331081314022809,0.5646854162621603,1.0326403287378039,0.9315177112163593,0.17175789629672966,0.24754631773761906,0.42893345647248926,-1.1970115765073546,0.3171086776011446,-0.29210938841010003,-0.0515798431326171,0.08422512340781534,-0.9367304666855032,0.12197744448906081,-0.8000511456852943,0.03740723530814715,0.2575338587576099,-0.032768813171642555,-0.25852356320094316,0.2777002164382963,0.6519524837952707,-0.31846736155771876,0.5595262184649704,-0.9345006696664249,0.2713971823896019,-0.7961106596992228,0.27067447429716884,0.34525717686298496,-0.59872377903668,0.49723161667581867,-0.5561205340427933,-0.6873504690200325,-0.06236467598941558,0.08718306175042154,0.3532386086360104,-0.36347400727260404,-0.041836878553885876,0.6338950479848754,-0.43579510947525085,-0.7427379480946085,1.4366807800988064,-0.6206391045899319,0.10781537633264612,0.08050786911837107,0.7588167614152984,-0.3087804898283545,-0.3063116648280727,-0.05180302647454707,0.1672925977354988,-0.22202622070682582,0.15617151822881345,0.19856892481391678,-0.06315506550802183,-1.213432620882179,0.8932958912480748,0.44394794202103743,0.8308115831317198,0.11058537994085456,-0.3652805500867204,-0.14477348143563573,0.562773913281706,0.729369163079699,-0.5098223898489912,-0.1828029291419076,0.14143356330745296,-0.4886240917477239,-0.2740344194824783,1.1467600840797785,0.24404683766306068,-0.05399968353934376,0.5837100744014424,0.3848973341887205,0.14686628959046544,-0.45039190009691377,0.6213454767501153,0.6346437993124024,-0.19426379042209424,0.146664944670364,-0.05483141176052875,-0.6720877546723665,-0.3326830912675402,-0.5090346211145476,0.046209219803406774,2.0442258833917366,-0.36923188120725176,0.8384582519088547,0.8322880838993457,-0.598490917684712,-0.3619201896690918,-0.3906924895798032,0.3901691572029671,-0.7052937827439825,0.2874211206919476,0.7784551576705623,-0.6317239386390645,-0.46003711139782855,-0.9074891596037691,0.8945422012077129,-0.6925450709081321,1.067723933233067,0.033820879356892104,-0.7228175209486328,0.13776561396681464,-0.4245297398176402,1.4235461563006813,-0.6118259535928957,0.5757071356823339,0.29972495796375515,-0.1959867046572327,0.16839656468689612,-0.5833827537161561,-0.5840594466878815,0.014318868399456897,0.24252429232701989,-0.4420561419189774,0.17862517180360693,0.03774158710108215,-0.3339635278349915,-0.7062964067248674,0.6861025576236053,-0.00020535733524089383,-0.913609551970369,0.6837017566805509,-0.04298702868242001,0.2315769009719092,-0.9051229512901522,-1.0604534539700297,-0.13189501338655102,0.2512173127447103,0.27870900305535395,0.4989945538826782,0.0880252548255057,-0.8509413519823582,0.5454421478621063,0.45209808649843675,-0.4420960065120008,-0.3557747658202575,-0.4651371019258507,0.025687500884707642,0.3980580230850478,-1.304317347057465,0.4260722220271296,-0.42686558215679815,-0.5633067514972953,0.3878837283286507,0.6941398667133035,0.41428611176824837,-0.11493513177708775,-0.3162685991275641,0.3727088056115165,-0.4251269334419089,0.16493840036386156,0.9985136854058234,-0.5334873248235962,-0.6043932047035901,-0.26965069268294745,-0.9276181076647303,0.8290822275185404,0.3167784879181003,0.29402272376497374,1.2211307760558405,0.5086080586918597,-0.3744126205987847,-1.8177604035779404,-0.9425841369715795,-0.38046210311678585,-0.4365961105175462,-0.64648330835848,0.007249029968448381,-0.08070980078192688,0.20087294518413745,0.8380502200618666,0.40897235891094846,-1.0386898664073807,-0.16116443614528048,-1.2394609520368618,-0.24484974472246335,0.22457231772360786,-0.49101365493559224,-0.009625766660870783,-0.4842346395807001,-0.3108957825851707,0.6649328479015997,0.853792974689173,0.6526603563862109,1.0140460155160305,-0.5714873758802472,0.41276672242042434,0.027629896041172556,-1.0425334296769657,-0.1227994756228074,-0.12896692818281172,0.5708018430006309,-0.8373336353795487,0.07584311954240823,-0.02580937414246265,0.46079028401692784,-0.2890599900269207,-0.39070512042038447,-0.8530397952957833,0.2310565130824827,0.4140217829400273,-0.217090194381413,-0.22944630583890888,0.15293854878656787,0.03758178685543902,-0.729054540217837,0.04769929822975982,-0.027379240360389356,-0.21335405181278308,-0.7005379119323645,0.333398089933062,0.40819817658631924,-0.10519673971371839,0.0468462092611613,-1.0042579789928185,0.34502690379804485,0.6215561956742225,0.8921714109614155,-0.40596444287321604,0.4234169689402899,-0.6681464609936243,-0.5437089971615273,1.496143395273443,0.09594599529607031,0.22834052220186818,0.19036813369390693,0.5861599283048503,-0.786297810183229,-0.5404832195076041,-1.1889889759252665,0.3923167894108329,0.26824977500630265,-0.2975551422456276,-0.730079943835407,-0.3669110170422225,-1.053475342875308,-0.7683441788280029,-0.9649352798009192,0.2250966466851042,0.35429594309798423,0.6570095086894581,-0.02442316749808954,-0.21494792830089107,-0.5594835780749573,-0.340233985856507,-0.8752291068224909,0.47250746555731343,-0.5614456319234351,-0.40302318482573457,-0.3496895621055971,-0.32716248164078887,-0.45511498774450115,-0.4798911991844476,-0.740463482756048,-0.9584636481433372,0.4935598619848894,-0.8306355398962514,0.8552801905586878,-0.05580651835340315,0.35778711656330386,0.8843294808913377,-0.24084662468024365,0.07622170232481605,0.2128899137917823,-0.1570124961511178,-1.3075015702398045,0.7000496149241345,0.07234920221558401,0.11688838689407743,-0.9738100581557082,0.5571013768668741,-0.31554233592989933,0.17073946644905005,-0.8839932471563128,-0.3162443256756662,-0.10401930612347948,0.703596862146348,0.9093471771936347,0.4731731525410502,0.7934370917884491,-0.169344156117838,-0.5328228105669068,0.30114044863858724,-0.4277824644705357,0.7669633380678533,0.37700440041965944,-0.1247475806676294,-0.9288303372862725,-0.8531069051373993,0.48666959215512445,0.9192139560921588,-0.6130174311946048,0.21355914561114892,-0.523646443094143,-0.32007145244165164,0.3946680392360652,-0.95686397172039,-0.5628340455533023,-0.5220736143077724,0.45719600876599065,-0.254462373887957,0.45652494422805223,-0.36205268908302524,-0.5729993208302816,-0.19424732555795454,-0.29555153175326,0.3544325511683532,0.7735642826271495,0.14901759007226775,-0.5703536044272961,0.23252309059411524,-0.8000219992868176,-0.293541328853002,0.37256388943813157,-0.8918430109621029,-0.4370757805444569,-0.07443469209364811,0.7295126605099769,-0.47646507654435283,0.5393030958522881,-0.17367245000977685,0.4894691090166338,0.3429936011650603,0.9097786421510325,-0.8539566625520628,1.2210772180638358,-0.9020213561006167,0.5300649946769481,0.922283196691771,-0.34550438726061117,-0.4749613192700331,0.10330473861323017,-0.21220564390020155,0.12337775759530405,-0.32714045487421256,0.6932147370911032,0.9402558565360744,0.4824714033829168,0.4534760780443617,-0.15546200348602485,-0.7123497014259774,0.08776798961673214,-0.304852666048267,-0.736776686630724,-0.2510472198648142,0.21324812480769378,-1.7171347058784143,-0.2206445807500416,0.08674811544444316,-0.38259622373472135,0.07564733552032374,0.24220715245393118,0.37648126453758846,-0.44595214082553536,0.35258254236963804,-0.6973090383911027,0.4610190676131128,-0.17666153354725336,-0.7239943327174855,1.0052798109399896,-1.110928433853235,0.519239151476734,-0.2783473352483871,0.21370973320124523,-0.6850955538014313,0.7355582948076654,0.2430551993366661,1.0151842779456182,0.13338568763786804,-0.6667098666147819,0.8537646122292234,-0.07334956165100431,-0.47443955980687946,0.9884849881435761,-0.009770662345282887,0.020745180449498718,-0.20971308420442386,-0.09686231575289984,-0.1723368460503436,-0.4176207472518415,-0.27871608974714124,-0.5159906520731319,0.47810300012706153,-0.3046207373197766,0.5611549469119268,-0.6390992066106059,-0.5057086890651218,-1.2154194321806733,-1.047738104019724,-0.9116122554345726,0.29490161807759785,0.6480619148049678,-0.24680828639496533,0.6227669640493072,-1.1789144484111596,-0.03798569510409851,-0.03081131519059252,0.37654365952651536,-0.08435944478470342,0.29843744380993203,0.34151752402446106,-0.4626362002120956,-0.12624435846156595,0.02102051527242151,-0.4786391615022316,-1.7228302107821198,0.0931656466488284,0.3057732474176886,1.3775187382370226,-0.4149365566795042,0.09122994876406894,0.06124001320672571,0.8750627803913246,0.3939742527777371,-0.4705894986761707,-0.3121256825668612,-0.16789625020650978,-0.499425538056554,0.6270950860481403,-1.1274991702336243,0.6557156095219144,-0.9999593408185194,0.7034523591416595,0.9495671532350587,0.8954144421669321,0.33401000713765655,-0.3275336709610978,-0.08523157640088964,1.4573379215141757,0.3812272067195004,0.03884353360812071,0.20017353966999504,0.5916049928224133,0.004116826211247029,-0.35568783652247804,0.15926007400525918,1.0607256898078874,0.7784315391869185,0.18015550388408194,0.7759590654347354,1.3034892327905037,-0.30112626861457836,-1.063016313518206,1.1550711007503254,0.49471221503952434,0.874029204986971,0.05300243736947796,-0.14532998807516462,0.04409344517979512,0.21230140889053706,0.4438746489927661,0.10182722375416262,-0.45995239885996303,-0.7364888360087841,-0.1187525296754726,-0.19204658593629031,0.15394911022826765,0.2385201205892728,-0.43989321436158735,0.0035599572135809,-0.7126148392967342,0.3871758269607934,-0.1329493509461178,0.31693954713850536,-0.1258239294635016,-0.14248535726461609,0.3404435012723296,0.06879344529839145,0.9527937836436362,-1.5686495036981365,-1.3977964477595282,0.4141573920819959,0.20601789466410897,-0.09921683966981996,-0.2319083585257362,-0.4192291189646661,-0.31380241285043087,-0.47807539826789724,0.027609717079909817,0.7033959835691248,-0.2245208511611783,-0.5356193106479563,-0.18888447872737052,1.2268995960576616,0.2457813809171237,-0.07850819717555668,1.15395108896614,0.8965226452915791,-0.4451309827440464,0.5750633283927273,-0.024640726192761583,-0.7736195895916145,0.28465460662795705,-1.4668131962617463,-0.30852832227474214,-0.2704910345880052,1.0633395228177016,0.810979362068978,0.42464188800515623,1.4532729587274091,0.12492070391315584,0.3858575066524665,-0.15945534924588195,-0.3037766223811694,-0.2211427988981024,-0.33105359217572244,0.945199302364738,-1.1483383434774046,0.8146595785613538,1.0641541564004222,0.5174674411063455,-0.06713721204769643,0.07287854780504785,0.6200272899065831,-0.022036238526756124,0.22852395463693312,0.06166841677619308,-0.05584251786066726,-0.5865882446296428,-0.7447930835885431,0.25890254528106715,-0.24340375578406287,1.117818927555136,0.2747713066612235,0.048331451599932226,0.09870276056496474,0.2124112023614125,0.5336164957586527,0.45776139134997207,-0.24785731035632302,-0.3762114284106044,0.2690812332377064,-0.8243902692326853,0.12602625352439845,-0.40685228341823093,-0.059856683160056795,-0.1583655486182089,-0.1743126135139951,-0.5123806685253687,-0.17209256068874992,-0.3629471305382759,0.3832728727329564,-0.9956009439244926,0.8677231113382049,-0.3457369201705433,-0.6064188828621161,-0.23248325523704694,-1.3224826062999346,0.14342780300310498,-0.6102128018407624,-0.38299156410057383,0.02425617168730889,0.8366853090957934,0.3062796475273038,0.08108038996767024,0.2167677286063481,0.3131902003011637,0.4149970648222337,-0.09968173380291866,-1.3835764284665262,-0.017390161590621827,0.35831536173322787,0.3997709445373446,0.25145172598773696,-0.6243601319677116,0.1986937571344031,-0.43984488176066433,0.43980106834755595,0.0636249517494244,0.1235282535787077,0.5817254049004422,-0.07433643679111163,0.06678300898232498,-0.5070919853059427,0.06873486825542587,0.5297198053212213,-0.7734306725037389,-0.07356699123242419,-0.17520721683947485,-0.10458794977956928,0.1153442610407888,0.38070204964099497,-0.8261617091400877,-0.017952937760905088,-0.8144032578857848,-0.208062768370206,0.022263174230026144,-0.030074838522979295,-1.2626081288665987,0.19676944654673212,-0.13891693696629095,1.3566772434500884,-0.5722148668630139,0.4678878164262429,-0.08418162465348503,0.8047482974327786,0.21977320176386944,-0.6391528380354744,0.7804631717528102,-0.4076247576684371,0.6579312033145447,-0.6668014429594101,-0.28024704665375644,-0.162957805061084,0.4294077214916891,-0.9333776991665348,0.40919057169113776,-0.43037945373379966,-0.6650445094121895,-0.19450714861523888,-0.2618049350123343,-0.4182538402157801,-0.541297680597818,0.08975151756013627,0.33571066032310204,-0.3833094802633435,-0.5611269907370043,0.6859552694242148,0.39062699765016085,-0.9219351914194098,-0.7737091633778018,-1.2278384112683405,0.25217898616683554,0.09326352184325362,0.41975093174389916,0.3156804060555367,-0.25291030470715425,-0.2561018744578793,0.21388636905777086,-0.8550049216849412,-0.8573590456638698,0.4757610968335998,0.5694953185895313,-0.6084646188380423,1.9397179055387865,-0.07852894658827285,0.26289506443721483,0.5555587183066736,-0.8584970642596581,-0.4088040168509612,1.2015901324126324,0.2794267623488453,-0.7364555387266419,-0.31956480816189503,0.18631213192397347,0.005753329850150479,0.16797595214469896,-0.5117812536798467,-0.026834270890033762,-0.3371468960819386,0.641822261669952,-0.5490425856960317,0.6323738125289877,-0.23795621338804324,0.04409708729248801,-0.23100243801461567,0.7898324245845303,0.10120439435182264,-0.7969503325673585,-0.40590229777392,-1.2324672397003604,0.3876925884321288,1.3205639512372773,-0.5058494165814811,-0.3386927016305452,-0.9710955223824406,-0.41080436685401983,-0.1380284984371321,-0.027202511804038234,-0.24595192663560544,0.3771225891230545,0.3844072496701589,0.20048633508186892,-0.4864296420560342,-0.06764534102431165,-0.35803701061060345,0.8431125095784601,-0.0762330210219844,0.3454236341201971,-0.7617357042346098,-0.452740698429379,-0.10561600074901911,0.9399946412774209,-0.7897743348065746,0.8840175910501806,-1.027746593880744,0.07850589139399612,-0.7085078180307957,0.06684874058760593,-0.24951122874783538,0.3329048618518039,-0.16579140452082736,0.04105488978968205,-0.07787557141978377,-0.6385297643320615,0.5522985373271132,0.6194485741533774,1.3275533121332797,-0.31909580910871715,-0.3999252191565868,-0.37068157867376106,-0.5509240376082485,0.09446399404793673,-0.8642827933721658,0.47737113925730545,0.7167908138163526,0.27558622079986156,1.0909540449286,-0.9392293113706672,0.025704886394692632,0.3777750101565027,-0.6493163205900747,0.13049658149766863,-0.5160055099994099,0.2667923519028606,0.5297916268143648,-0.5491239426449797,1.315993712928407,-0.7587013157841453,1.4426658434970083,-0.40221467869254585,1.2025825338303013,0.5234289728210944,-0.2969301158395818,0.5280498120731105,0.02572159808458029,0.4405056167373539,1.3387542280266966,0.08223451497077566,-0.6600203997630952,-0.8494211441231861,1.3597805179279685,0.6383713174311344,-0.8848505733408476,-0.9194811500812776,0.007839491459159494,0.4287426349857531,0.6564736357838531,-0.35605962399281776,-0.3283069353314992,-0.21804509523179083,0.0555090478068343,0.2963244516693683,-0.24772975407594885,0.20990267595092943,0.44875730477963155,0.6305003666697131,-0.27087175600608726,0.005682842976327901,0.6567020488401035,-0.8459133902555583,0.9371032324559185,0.17323416357850652,-1.2060507983448485,-0.11922058360755874,-0.5638794102516866,-0.22909149725001793,-0.3116757341340496,0.2595268382696452,-0.5852764446062825,1.2998004801830292,0.3236529227323566,-1.089416289065009,0.2237197915882848,-0.740649209548354,-0.5321815160519288,0.39780185652536054,-0.5433364152833537,0.7099142836713007,-0.31789204656815795,1.0632225867312914,0.07282557639535589,-0.16296708403137347,-1.42452685126697,-0.38292533885736124,0.15758077232547138,1.117391749539949,0.9143756444513391,-0.16629165820363137,0.44701214305400494,0.34337936073320136,0.8847229631249273,0.7957852250491001],"fitness":11.1700955}