{"v":1,"inputs":13,"outputs":17,"arch":{"hiddens":[32,4],"bias":true,"activation":"TANH"},"weights":[0.35601673711542237,-0.579568662933415,0.08341338743683159,-0.03574731100799886,0.03786702309159001,-0.5709414411294058,-0.03487158321143748,-0.3191480697169668,0.7394832648152377,-1.2644904716492797,0.10311959366474063,1.3252493589828889,-0.12434745922177436,0.2718310747578302,-0.1605135678366651,-1.8680610322435263,-0.1675621348658953,-0.16394567171134533,0.6391509094605128,-0.5700066466883861,-0.7326780956213855,-0.241542505921448,-0.6881781927037608,0.3946767411074159,-0.6175994887247175,-1.0098559973517196,0.7079300486430479,0.21657388424451368,-0.5004008909744531,-0.2004894112906359,0.1649288382524591,-0.39818167448506797,-0.07152436389242821,0.11705526768304902,0.29140989378634063,0.6591622229728449,0.4221805698915321,-1.1163170618191567,-1.1186648413820022,0.17870726878584117,0.7395226293890604,1.0872775627747258,-0.6735641155884204,0.30268738424611885,0.4575797577283635,0.25856167045886963,-0.06516554526050272,-0.6257486663952528,0.4216861061014937,0.17166696501832382,-0.028899285191484794,1.0482471864247458,0.49082394522421485,0.685959258798432,-0.40921466203768186,-0.9976647304161903,0.1556765754104401,-0.0672545285544354,0.09271037201002699,0.1545826655328086,0.03245656988198092,-0.36873723540628767,-0.08935724032537633,0.14525460675085225,-0.6829256645775956,-0.07535289903926046,0.08938280891314268,-0.04526657627851327,0.7496809148923698,0.48055969205790955,0.9319063865427719,-0.11825220590901035,-0.8807593205084439,-0.017976480588797535,-0.26281909562963945,-0.4015885652279345,0.5946070710882257,1.299802571075489,-0.27513118318061264,0.02389570906754316,-0.3683347106388317,-0.47552644918142095,0.9427524762616144,0.13450101665868705,1.3481559847815001,0.3563573545287888,-0.09341908245577733,-1.1428702294108057,0.10706934483697494,-0.14786766827181394,-0.2875288194692851,0.8009741797576717,0.12618763033807753,-0.202719185227235,-0.30462475933909583,0.722489581929476,0.34249582089914693,-0.4804734067051667,-0.8208053079073031,-0.9594797858929469,0.3996690390815278,0.18026870560874067,0.4031832002950258,-0.1646745325303721,-0.26633155416398496,0.6341587913631153,-0.9355512012973172,-0.4484828574677228,0.3654046025452499,-0.3480062275689389,0.28358167487364705,0.08014741817460551,-0.657752767651011,-1.099175629538846,-1.092455488437926,-0.1106452058998258,-0.0947453088582369,-0.057206195581711014,-0.6005154936127556,0.046434189181574714,0.3114809261352261,0.5679463688343254,1.341727449857229,0.6970127908972145,0.23569432875805116,-0.017058660110669116,-0.20989056491078573,0.5677251452209369,0.05360934187865474,0.04615829629581625,-0.020051137713460888,0.2018211633645077,-0.11971296270640454,-0.16274569741633912,-1.1070868143865165,0.5297139400695468,-0.6463098358324363,-0.5516588857447311,-0.7459282228331316,-0.4931293452108653,0.34803569518882055,-0.17779264168698752,-0.08938060349161911,-0.6963373517149496,0.8999012051746146,0.45989365489395523,-0.6202479127305188,-0.27656222007616715,-0.17693463670542187,0.7250842405019099,-1.007189437023008,-0.3829152543260176,-0.3420722328335546,0.7524511399909489,-0.4099418595013318,0.5408228968531578,0.4402433870542275,0.3775673006542177,0.38005656503905777,-0.18916555910890054,-0.9600987315923349,-0.8101351134633719,-0.297820202356709,-0.37086854068490666,0.6870804498810275,1.1240417981947837,0.2786203682448145,-0.04429384715515151,-0.3923548436885251,0.5264862656601786,0.41271132342994304,0.9164806299426251,0.494286730701798,-0.8943514498777276,1.4889683580347413,-0.41373772952198673,0.29547632036953664,-0.5396062390093889,0.16585995304268364,-0.32823773928321,0.599478158374283,-0.4615505288395621,0.3285755183107447,-0.3643779612536693,-0.385353472389015,1.770403601648984,0.08751845968407561,-0.3819376626473118,0.06868113641470436,0.3797264870669883,-0.09421954675730342,-0.17036843320743913,0.6509683225998144,0.2542526504253653,0.8017012986990448,-0.10448271356730435,0.35056021365971113,-0.9969225390495333,0.630387998247437,-0.18599164793779224,-0.24138028076216994,-0.04071084435413408,1.3329446368060016,-0.7266972106615734,-0.14807833404966053,0.9304415123094688,0.28465971623742314,0.7636741454750045,0.43007790530453066,-0.22051050058406568,-0.19102197446546235,0.23599581767824562,-0.32703377373368653,0.42696968073643765,0.36836281378574226,-0.1715202009294901,0.4624845472651796,-0.2482784361605919,0.486971893046187,0.25290863326760415,-0.0001601770854778306,-0.8545503787058716,0.09723422806961497,-1.1513900789972795,-0.9242795443553293,-1.1859884811831698,-0.14480233901259387,0.1816516498690043,0.08932150978467386,-0.14072576222246233,-0.6387774843115139,0.9747778398573332,0.3038320463195527,-0.5597759445402157,0.06597695434380095,0.4666959636167315,0.5105067786285398,-1.0384269824957157,-0.9284186754152569,-0.7088131024806018,-0.18028026255875026,-0.13240037351621575,1.1667500416350383,0.13644704073462327,0.6304405783819192,0.7252605467314547,0.5654996097755548,0.22880444649134593,0.5521568896631162,-0.34452610108536885,0.07352505889491939,0.2916352294746145,0.9298974388784755,0.7424688398475908,-0.08420678893362665,0.5624561082320246,-0.07244251790978795,0.36390292141883845,1.3210122069171728,0.5538774745760564,-0.17636507343198754,-0.3316365043393466,-1.4822101560684289,0.32281906141767397,0.009127918445530958,-0.595667871220747,-0.24211637391894705,0.006184637008835147,0.4375822942210382,-0.22774617242723494,-0.3381029976211543,-0.27682937158041104,-0.2937863729710709,-0.17569139567319775,-1.1121086117634522,-0.6814588482098861,1.7060022547653717,0.02541614144434415,0.38797526400979787,-1.2379052720059323,-0.12212934938034851,-0.6182759177430459,0.7842623880938581,0.18456358212995225,0.9917038645017681,1.169363441700548,0.6961915023848353,-0.4995675600197314,1.0974550399805605,-0.0634814409684997,-0.9850493583075075,-0.08129725553747133,0.3388057475389496,0.8948702939400094,0.6445521251567845,0.41755214568039734,0.04372442522883141,0.42597769495446697,-0.3263248576486855,0.013077914140124713,-0.33538335709554623,-1.1154660653197717,-0.2637600080740509,-0.42209710083942165,-0.7112400640475743,0.3363217655775615,-0.37120732747806867,0.46862725364383306,-0.813771364354705,0.2243570227393407,1.0518545150483989,-0.11524185307183334,0.6902115980851058,1.0782104203616567,-0.2687790388428138,0.44203399889789163,1.311765004234984,0.5648665177183477,0.3173600481786022,-0.0926942835640304,-0.3531651308682795,-0.40158125664815086,0.11639043663512871,0.6434778456488829,0.24524974150538867,0.6188101257045392,-0.6320225992406575,0.1898980425764504,-0.021379994459181158,0.3860421568493491,-0.48860127122692465,-0.17880047626658427,-0.1785964641304356,-0.5800767142685757,-0.3069442848878916,0.21207854411983476,1.0262042983403024,1.148507764229647,0.19155177451928224,0.2306220330981843,-0.020014276213158096,0.10906296256717013,0.289485373438358,-0.12314189586311987,1.3175666590943291,-0.992244765008512,-0.11866540545280778,-1.002010803083985,0.5225405842013501,-0.7390605808296286,0.5041195505710555,-0.3111222967176665,0.20746584341038754,-0.10582566435389747,0.2715256747930155,-0.7923533802216652,-1.0628846695333096,-0.45538366548841736,-0.272030798015188,-0.3570330398176589,0.2783351415012977,1.3971920959197894,0.6101397708161315,0.6528059235793506,-0.33943610290002996,0.4590874689765747,-0.24796007729550426,-0.939438262057601,0.27167870296931246,0.4591674982281293,-0.9821894328392647,0.026099029976373124,-1.0123437684996013,0.7864733910119263,0.30953110510233633,0.05783745965005743,-0.008140215859294798,0.6203018931775435,-1.048116582235858,-0.14016549426556976,-0.17548303814368835,0.3168467923881935,-0.010418611464887201,0.785331581780387,-0.730861845044549,-0.29672951539460063,0.5314308254808083,-0.45226290224701715,0.02815951742009518,-0.528996421520632,-0.0008830044988749017,0.7883364804522821,0.023835295830180844,-0.06550445930269792,-0.25589078903616796,-1.3385394967395203,0.27769996199427993,0.7845974314502522,0.28960315245604146,0.04787294745789155,-0.9367167831149603,-0.2121773534189007,0.11374389243948035,0.29352126814166507,-0.021378406051224024,0.43381752548187075,-0.11693786091660793,0.013343372487479774,0.9415006918929112,0.21936100450330556,0.04493696903092746,1.1110525775986553,0.0777491679449137,-0.5463424766747846,-0.9860354903594399,0.3075507446361325,0.6014677413018387,-0.5593041497991211,0.82220854184715,-0.30665788941722205,0.19534328860694258,0.3895296300922628,0.43529520683047623,-0.15829419341339118,-1.330798689821487,-0.20339020834112,-0.4780450864872335,0.1277935960628093,0.024367836164778806,1.6611238287363124,0.12698306064062231,0.8609584007498142,-1.0215731815848152,0.37105134389063327,0.12176261347893355,-1.0559090061238925,0.4197505083844444,-0.9798223418643859,-0.5377327995509368,0.17873162753103866,0.4147482869866182,0.2528740811509901,-0.2811097438204123,-0.499336651821349,0.15986599916505193,0.06897831414382884,0.3953606369975523,0.36514664220832155,0.4672250567037421,-1.1850901765153663,0.1850250089263536,-0.7904903400089385,0.6228802926394698,-0.4137967723680088,0.5933474785203043,-0.9072437784738182,0.06946637840347805,1.180678908323714,0.9146306591600197,-0.2001550066600439,0.5424911658941145,-0.2320333365921476,0.2747796041037849,0.05166158090132093,0.08009939730800118,0.43716403923101005,-0.21636540164747603,1.0386073295213023,0.827845834652138,0.11891323064242441,0.3320437829646546,0.3238120064356577,-1.2580073719139186,0.9190459433396888,0.551042182525802,-0.8413147899489408,0.22349811051883517,-0.1586799893216715,-0.18135955254969788,0.9013761540850462,-0.15264243855873372,-0.895968764206298,-0.034496392353122116,0.5731444170734367,-0.10664786302287284,-1.0519449630489168,-0.06304610573998135,0.5599831716774912,0.2655892870546991,-1.4601826788469874,0.5421457644466665,-0.027110596160591232,-0.023000527708786644,0.3953217845786241,-0.40967997311224746,1.0759792667574455,-0.23712431326521088,0.327148034992605,-0.1535000437993124,-0.7246956169638074,-0.14890154699924252,-0.5936637068361237,0.23168267397049322,0.8165335594578941,-0.12301233569375525,0.12308825618279201,-0.9304835014256325,1.1038408895544642,0.5284598533564177,-0.6328949386174018,0.25185154864909226,-1.0398944072192673,0.16656373034528318,-0.9313147929280543,0.5394986179226297,-0.01674864335196624,-0.5271101222191187,-0.47550468557562164,0.7368402270106097,-0.14104095794948177,-0.16878382558118812,0.4470445625384236,0.3105846949035666,0.43790124126688884,-1.0897708379469289,-0.5874945775517152,0.20666817652289943,-0.0970020898846471,-0.07938484520205803,0.4319962006654152,-0.4341659021325794,-0.11221702130511206,0.41023649020173514,0.5686171540930017,0.3963391450987304,0.6240519200490475,0.09945206682058268,0.6895426928085533,0.6175046163199663,-0.20484829896919377,0.03589036378255868,0.06215081387479456,-0.05918976343695645,-0.12459185801452714,0.20410716466159037,0.8483179298635145,0.33646578336673166,-1.2485368970103223,0.03884596117625085,-0.16558654598444877,0.5318542881396707,-0.26381782641212864,0.39540241697347595,-0.13230744359966806,0.6685987559949793,-0.7445056944725481,-0.6017275809084435,-0.06812538913368797,-0.35011367173460567,0.7003752449012142,0.5677146432616573,0.005475887461632467,-0.4228538575751765,0.7692291845331546,0.5396483430035761,0.24827966471452423,-0.17114871646980126,0.08341056788893243,0.9616991596746978,-0.19818824207861988,-0.3638123986378568,-0.6908642356777015,-0.496142569920662,-0.33770862507017363,0.10124417269077525,-0.5697412733920255,0.2043011377912339,-0.28598608363536115,-1.5349450364206179,-1.2765150510916954,-0.7221577919834489,-0.1063921447955819,1.2193662560051592,-0.20427509818967587,-0.9581240222906222,-0.2276207934946642,-0.12452967000560114,0.09771695822311045,0.1083127804118874,0.4616947406267994,0.43064289059758226,0.9246893027875929,1.1332722266054336,0.23284897039180574,-0.3952013448386898,-0.026652683345376432,-0.45004280382194345,-1.0338843870338978,-0.6248015880307742,-0.77259499131497,-0.10040330690446003,0.5082794960831853,0.965821993673841,-0.929446079033927,-0.021727745790962854,-0.19746847571939283,1.1455554693011107,0.9312610496049761,0.28578228613278917,-0.589729889146978,0.5852898736271901,0.18764206194507238,0.16856549925123235,-0.18922645938035365,-1.027676498855577,-0.3211865496512506,0.8502460221402615,-1.143762617003154,0.4144458622570861,-1.6511248715095979,0.10661348252256145,0.08630609402974257,-0.4915691967363631,-1.1799815099641864,-1.3192517015972425,-0.24696427631283321,0.2370584722941478,0.07224074041618175,-0.007782339246307877,-0.49404525122961984,1.5453338610458158,0.7574455147987139,-0.04730638244269909,-0.28549804616511615,-0.1160465543017965,0.04973498190391799,-0.24000895543957868,0.08853123029272929,0.9854614851686841,0.21380360673905707,-0.08659396382375462,-0.16265564368361143,0.4840506337137017,-0.038682256919419344,0.5814780344045635,-0.5489794399906102,-0.45354564960370664,-0.4718690793765533,-0.620816237507125,0.3245851922135875,-0.3370693287429163,-0.2541224743609082,-0.26736657823258314,0.4563067699440603,-0.5374197388887662,-0.6573771816059846,-0.9605991685610491,0.2542027896008366,0.9853188947794845,0.7073360196348842,0.07294469349222742,-0.26017531029160873,0.40307312504314124,0.5427232731983969,-0.3617626593536822],"fitness":1.0000875}