{"v":1,"inputs":13,"outputs":17,"arch":{"hiddens":[4,4],"bias":true,"activation":"TANH"},"weights":[0.32488850493081106,0.23100630470282232,0.01626375447706709,0.6577055143929953,-0.8995266602783412,-0.2713490329319894,-0.8295894427314678,-0.35224812164035874,0.15205059628428738,-0.6260742418688499,1.2801903527271805,-0.06901905378520243,0.9468769255662789,0.010288206391615994,0.24417336937336206,0.8203581924036824,-0.05765629351152346,0.2584057869579843,-0.8443777000015577,-0.4270208833813325,-0.8631773373662187,-0.7298646187814934,0.11222052416662506,0.4409810672099199,0.38506647250707676,0.877735382288983,0.21489722146992787,0.025341429163425352,0.9432666683360672,0.640190419197839,0.07034117956012165,-0.7448460125157882,-0.6371474695814568,0.35216797420839613,1.1282089087622102,0.08799018728955718,0.4337613864188535,0.07690882784835346,-0.382632779209057,-0.2714121190864872,0.28439356652462444,0.46057130592103385,0.4485722197459469,-0.0741393518178705,-0.39051282899505485,0.811373034495074,-0.6595314387269047,1.2457041135038889,-0.025447584865361153,0.16426900477177536,0.34593390676218905,-0.9262343082493163,0.5718656429181411,0.34806891589702005,0.3870007209707311,0.2825004429988387,0.5006842942283098,-0.17816948195219195,-0.8326253962374885,0.4703192327165895,-0.4716024347973985,0.24595352493103043,0.8367893355624411,0.4352040300915789,-0.40533067857443406,-0.42376818275483036,-0.010437173833407051,-0.5101104420381221,-1.2373011574637134,-0.0825187363851573,0.20851077091502576,-0.09852670501899505,-0.02345670579725307,0.11525552288206278,-0.7156686336216865,0.6486384123718041,0.7400376478085979,-0.043033205787015694,0.35301340764895167,0.5637395642763504,0.39697830386357774,1.9230220066704855,-0.4461301017384795,-1.1772380379751848,0.09595089812761352,1.1729819682658391,0.36884705578557875,0.019372464145872154,-0.08171663735654966,-1.3698605686870917,-0.08209618397871618,-0.5108793391195651,0.5415445208510127,0.6188646256559583,-0.2822019573323464,0.412259891426752,-1.5910203991681977,-0.060505719655051554,0.19723377174841705,-0.5965748082120559,-0.8722870598726727,0.6876241271993468,-0.03140786406437839,1.0612617161121416,-0.22511850062661143,0.44083363189599006,-0.20959013542252844,-0.529174249662237,1.2667542700042769,-0.45019662615174344,-0.3707627998611936,-0.22416793159630427,-0.49658891679545514,-0.9921760119150387,-1.3913532097033414,0.4924955856154434,-0.8651883906269849,-0.6708227037765251,0.25824031186261565,0.40620900546792776,0.4457498806886516,-0.5256952957509281,-0.3270188561574367,0.8681360523713798,-0.3553732345297229,-1.2523598131296423,-0.9036621726393619,0.17326835614481834,-0.44859935353347696,-0.38762567615070803,-0.026780667053338952,0.13717133611872026,0.21771212304319845,0.6442199303363627,-0.1309897272891083,-0.6905001684421143,-0.7449399833450573,-0.2826950895245333,0.794089361863135,0.01273421003207182,-1.2172306748641684,0.024713028552299794,1.1962578205248426,-0.15021939992778502,0.5159586023182128,0.5648946522098736,-0.11512560426549656,-0.29298687519387573,0.20359442657150154,0.6795306015071164,0.38561207072609577,-1.279854936190903,0.07263143868040454,-0.5228791592661839,-0.1547162810843535,-0.10593449771773526,1.1301804016156496,-0.09011270272273261,1.3560483910018608,-0.3659172258674984,-0.6830750452129436],"fitness":1.3335421666666667}