{"v":1,"inputs":13,"outputs":17,"arch":{"hiddens":[8,32],"bias":true,"activation":"TANH"},"weights":[-0.6679424330201463,-0.4745618806721549,0.20505264635792272,1.7104380259421252,0.858801416134489,0.22928896549953687,-0.42186381166423376,0.21759203315371656,-0.8418863100178549,0.744158566835087,-0.7666621750904596,-0.02693248543017522,-0.2578212708465883,-0.5212437464119926,1.0099369681476478,-1.3732179988990894,-0.08371044665388874,-0.9755426620465442,-0.08073565052461285,-1.1304222051972586,0.18105085647640634,0.4220063531237464,1.011571919854888,-0.8484154843689514,0.5644271272435104,0.10614618137204113,-1.0297501118513352,0.8140265129798426,-0.12953329332787963,-0.8024524633251103,0.6730113856269885,-1.190878768370621,-0.4712363494999623,-1.0062583210089204,0.22580067288889466,0.004642355834093004,0.5149960307119105,0.8389605050653123,-0.10174198837726356,0.04847359350673597,-0.5261402408018672,-0.5224881371219067,1.7067074524128045,-0.8073006477275785,0.6811780124850436,-0.10622817706152039,0.7916618291147637,-0.757512305899605,0.9132119737391903,-1.192065660745701,-0.15391139660456463,0.042284523374389156,-0.10183454125280374,-0.5873155249289032,-0.8093066098659523,-0.06569908674843108,0.8873467007227763,0.2989924967919765,0.5152654256735194,0.9482931676840276,0.021997547698590157,0.7684566303700338,1.1739343754668594,0.4895426216649489,-0.2526772691114802,-0.3727516494232792,-0.23853370615044633,0.8391426331575271,-0.7865771816917172,-0.6317228969870043,-0.28254348087252196,0.6523513027347508,-1.1335742673169453,0.8162879252606712,0.7977961949884802,-0.7370334587701562,-0.3281088114704343,-0.00709351771764774,0.21070594042404728,0.0760510359020815,1.5645607688234122,0.13956309842462214,0.17404222796991367,-0.22839143470610093,1.505600180144022,-0.7761452054171655,0.4508796454055056,0.42551052682496293,-0.3365771338915223,-0.1835309573846324,0.4734879315117852,0.3095951801328549,-0.7678654997130724,0.7431895291991971,0.5911673592242118,0.35494521597913126,0.5673367340680191,-0.12940701866973936,-0.8169808642749314,-0.6664599940558654,-0.48888292398867184,1.0081909467486418,-0.355626956825059,-0.1463687012571669,-0.45852382279466364,1.1390714346231416,-0.42519868861730536,-0.4003369940046998,0.08731596534358796,0.3718875605852392,-0.13337593958281085,0.5381653016467192,0.8472573959439611,0.47045749107728463,-0.8279005615697528,-0.6447488029611437,1.497741747513275,0.05447292260188759,-0.8707323016713348,0.5232328091903672,0.23052990682096017,0.17849804889650298,-0.014060277283019895,0.05356570142454378,-0.34536915370015936,0.6285680223286373,0.1344067229266077,-0.725870410403477,0.6154767768919436,-1.0678377003303732,0.06978946253362708,1.6184444218397587,0.537386146287527,0.25246119441603854,0.06363902307171598,0.3113627907081182,-0.11158114733280777,0.8619535702101884,1.2203033056337782,-0.7795272013502693,-1.497058630100169,0.3015147729694389,0.7847936596336658,0.25594777084024867,-0.9463407635832787,0.03126864445722912,-0.28426393748031936,-0.9791943164576589,-0.1030499865194057,0.33737113556520243,-0.10586673897218912,0.38660583767068096,0.937700276355738,-0.2080864598678918,-0.13219153750586,1.4337742718445208,-0.43575593371105453,-0.20995420705551465,0.0912061396651864,-0.30796028687717447,0.5936074367608163,-0.3412273654797081,-0.07863153791411312,-0.10011148215269977,0.2664386030117945,0.15574209058342015,0.5420703525051533,-0.36133893081529334,0.060905133503198663,-1.364565285435448,0.14068518251397724,0.7324071721586226,-0.09166215468795204,-0.05679456965472886,0.6167534866782916,0.4178507613921606,0.2633289716588428,0.7804312810255418,0.9069841591680752,0.39645739370956123,-1.3475170786380564,-0.5154415073368237,-0.6171326035642307,0.6910190850911422,-0.5215933100395421,-0.8871784246596238,-0.07424109757343325,0.8873304000174708,0.33058983971588835,-0.6885094408959063,1.167453753628622,-0.011720774404921534,-0.1899638820571768,0.5360301035753845,0.7039776778348875,-0.17098549436128102,0.11893225767239587,-0.5192147512326797,-0.6926600809723521,0.8639339840375015,-0.016999776676090213,-1.1766569590957414,0.025335333408063196,-1.3911209698992282,0.2493366643117193,0.1621682595745002,-0.7577988498563034,-1.204695218826751,-0.018071684234127427,-0.5587731006950053,-0.3521911458846084,-1.2065981740325473,0.6993500378004313,-1.0561847544148193,0.5718068761614238,-1.1999208918878097,-1.294015846736274,1.0184428848693294,0.23663686017762892,-0.2622622052462967,-0.060437182102947115,-0.856921477839272,0.03482101018963599,1.1564648974341358,0.06284865587287891,0.35228984952989956,-0.4840886091794345,-1.376183288174294,0.8101113670063673,0.02649736724894136,-1.2978157826688679,0.5990809453658823,-0.16412331488935106,-0.11664083541558296,-0.8330754062093568,-0.535701555829389,0.05349341401468091,-0.3109442849661609,1.1474468948031826,-0.288632273287371,0.31949543398711633,-0.11170575325671081,-0.6696339196847847,0.24074318030579112,0.33604691758923877,-0.7277181349569085,-0.8925103756750155,-0.232433783257232,0.3606761042250042,0.2522686037333368,0.3213026474727161,0.48923859830802685,0.3393388673486058,0.6262837814807223,-0.01373594200395223,0.2889131500574821,-0.09561170131506568,1.4053770640858925,-0.07092695491136002,-0.6791945021545156,-0.33453132722622264,-0.262072807925797,-0.12180925284582247,-0.14915061253625894,0.20459164546307793,-0.14481369431490193,-0.12363930343168295,1.0248945341077307,0.2613492715644417,-0.6935368499774477,0.14967350822291947,-0.16649339564692497,0.8255258648093036,0.46368584034449284,-0.07620182845074766,0.12653099618662428,-0.9226060085692258,0.2671303409878076,0.051864522340052954,0.002081505968911254,0.8488392007746208,0.8422630007030248,-0.3885507614953703,0.38061975491197775,-0.4852596688987816,0.13108195858725288,-0.427976146213564,-0.520042556410296,-0.07961793327662166,0.4169929261406012,0.10465064209099745,-0.7146062218832128,0.3558369401489915,0.08258824235415803,0.5130665927018185,1.0221269931188728,-0.848220734621939,0.22480311703496295,-0.35286807910758305,0.22873006070055973,-0.3502237933935275,0.7176404275009384,0.5862870665028773,-0.58667408892849,0.2563343553882818,-0.46365425934303117,-0.7654535396055886,0.34167991256257607,1.0944040220673936,0.5582584242614947,-0.5338435285046934,-0.42672737388580856,0.516819536722791,-0.1252366732596443,0.44202218596520937,0.8442919355203864,0.09634585253164016,0.7019150708983457,1.087116951544393,0.4732264224518891,0.436644099644053,0.4913616986140278,-0.61126381264743,-0.20430715713819247,-0.387326852862123,-1.099402701452233,-0.6138333152512585,-0.6327972318863208,0.20840048694813448,-0.20308350156651692,-0.42621985246473554,0.9457968705814368,0.14569915631398075,-0.07200772350237156,0.05959187419747214,-0.02925082526210408,-0.46229637146467517,0.7881943361779292,0.018424390775841085,-0.11050578997821764,0.9101206438246883,0.6488854840049999,0.16526121582645673,-0.3935968658385363,-0.6952500061681106,-0.6163004806141548,0.9158132745050158,-0.5635213495961933,-0.5058719675113396,0.49422841765238423,0.5132884074719143,0.60807974621546,-0.9642128620221972,0.5443358203363341,1.1293559274528955,-0.20675879554482698,-0.0725404847022936,0.276716957034038,-0.9029440919395638,1.1311393327321027,-0.47913988564741755,0.1911370895871065,-0.6496384459693061,-0.2817303418259524,-0.18519552379099383,0.09966803951160155,-0.4647651830978248,-0.3709956154774114,0.09305665845166837,-0.13766227259010108,0.7192852883262969,-0.1606960990835699,1.1895986405028158,-0.2997964755455957,-1.219790601622236,-0.5212885757873535,0.48305528477156,0.597537972573621,-0.20361491048265148,0.2072077962402663,0.11345113162939657,0.10567882271013046,-0.27513480988471495,0.2084319082711856,0.21707707500475443,0.2892378466059615,0.5682140582456169,-0.447391828473806,-0.736242153720986,0.26515100360887517,0.2733809241159702,-0.19315925731774522,0.68028235103441,0.09664465802231367,1.0702850459339914,-1.0125682805183036,-0.12665135032317482,-0.9783134962756137,-0.5630261941231165,-0.3203134897339604,-0.2751418138996684,-0.3056915525827656,0.3061030977539881,-0.1149328925961137,0.7231040377697175,-0.15506827623776379,-0.19254389606974556,0.3195848246149895,1.324135173095306,-0.2850806186695543,-0.01507219143836786,1.1948825179131748,0.46394533087831846,-0.19583000256357344,0.3434642320119238,1.205964476920166,0.6188441009639994,0.31853029245394976,0.9354793514419429,0.7127073378457519,0.03283659328228536,0.40885998980971433,0.9082885557474452,0.26396902671374317,1.1426901930458506,-0.2019742327451758,-0.1334846152305799,1.267518805709675,0.36420450784946035,0.8338712244534144,0.42021930785357803,-0.45083146792446116,-0.21757100094989418,0.4529668904431883,-0.6424045893520663,0.08464621152825964,-0.8982932266885748,0.17653954967887578,-0.00922099624776696,0.15108687209310925,1.3236564606274726,-1.055477028486576,0.39723595577989407,0.474373339154235,0.39058095438740836,0.5572577447215196,0.6500566624082798,0.41208394990706854,0.23973873918114721,-0.18624445811317125,0.31223054692209634,0.3993650053960148,-0.42375329195916006,-0.5237700035215878,0.6985026073352484,-1.2776271781540744,-0.24146172002017202,0.19994865982221835,-0.425841562357452,-0.5401847343008783,-0.02653561702812879,-0.786192786618461,0.17735978714394834,0.2873796668101765,0.02571371600259905,0.1902626342815626,0.5576663573539711,-0.13449162703773132,0.1915092066008772,1.0517221225888724,-1.1185419560801462,1.4188556623697344,-0.3767613103531487,0.509059423024094,0.896536908854606,0.556309670275856,-0.1908615644905357,-0.29112352831427774,-0.19621121691157584,-0.09050608317369059,0.02802569612147182,0.11682019621683598,0.24810048388978734,0.9633253717428482,0.4705658003212893,-0.819415353676537,-1.1368755798791623,0.22909129319754234,0.08595792937386504,-0.6484363633055075,0.5609095652465315,0.2639950776397165,0.22249182509622278,-0.34981757389241086,-0.8786971472576951,-0.890053005615194,-0.5369611323763179,0.6046022067059935,0.5633919113723659,-0.0300082158065239,0.6174072882702527,-0.2932269174675612,-0.3262792955836664,-0.04900407744142201,0.09225022922824373,0.33229655619194765,-0.37365253902763645,0.9226799412572299,-1.303111689152037,-0.382663597608035,-1.0154437011400992,0.14416792697716133,0.4704045784315517,0.25485246847931725,-0.6026428802596007,-0.3479726179101771,0.21856405212736751,1.072145910576666,-0.8558256922978336,-0.8724947084345759,0.5387398406402616,-0.041977597662985665,0.8443149197351976,-1.337158348193925,-0.10254142428168521,-0.41560034060807377,-0.9494115191243238,-0.16112334868880043,0.5876105393640273,0.11531865468995167,-0.1988812677642792,0.2691610667958183,-1.6152145187526217,-0.4546026961734225,-0.1709398713600464,-0.16847799439612215,0.5035465858857562,-0.16916638888910016,-0.4279246158746866,-0.044647200439435264,1.3749120426721706,-0.3422501038527037,-0.09619854088348281,0.38403730131813607,-0.006972280777588707,0.033502313076133605,-0.18302105289956438,1.3726843503408634,1.0183653213194939,0.5640335046882049,-0.8127251950485145,0.7890860515429405,0.6102504606273641,0.38310582200822574,1.3239050952023161,-0.0920669393453437,0.4471453488193289,-0.3385446394521804,0.722103414678584,0.47046411968414675,0.07503101633579137,0.4039300196286882,0.49522679432215655,0.14878471878703942,-0.36254227701626796,-0.7146259451072795,0.6741412678088742,-0.1235304558246798,-0.7287390991841576,0.8308436711006875,-0.8081208059375953,-0.6577824248488288,1.492096437609005,0.7729878245146715,0.22056113254738832,0.9232314193084504,0.007860216896497702,1.545587693475147,-0.7069192319252787,0.001030485778372684,-0.2138306608794621,0.3014456407395417,0.16223327653626252,0.2738121554165783,0.20786064524136022,0.1494131943876062,-0.8711187366433945,-0.8515135195417203,1.1406202991203473,-0.44012092672819164,-0.20847210380639442,-0.41548522958428563,-0.1206058526165869,-0.6465779636095572,0.13646054042130634,-0.10286587195662611,-0.29681185202658894,0.6392028511481951,0.46264990687365803,-0.7346697892262984,-0.01596595242448549,-1.2657117638539894,0.1864892427993955,-0.5578219761682643,-0.24644777611503255,-0.45892521668781017,0.8242944564139949,-0.46779599263654886,0.2747769473506915,-0.41957401565407704,0.21327471012125032,-0.7890771781964195,0.8711912758197522,1.13651716786751,0.8892324478980188,-0.37323842027512616,0.28008995760262695,0.37718254267066864,0.17478200689587642,1.7528673059539623,0.13718450930925669,-0.04035534701082037,0.09219238252728233,0.6134860216435017,0.5086230444369931,-0.6596258854680992,0.5017698783090732,0.858601694583284,0.7263344183369321,-0.11378988990506676,0.22128986864108632,1.2280672065409954,-0.010519572693522883,0.013471207891998632,-0.314693467241283,-0.42606308122115866,0.16427322500776836,0.28979830632294007,0.21586509345532576,0.35331551854735715,-0.31431407464900263,0.22391920319757802,0.691202166421467,-1.2109672491557635,-0.26722480275097044,0.13961445136864234,-0.05427693499789324,0.10223812027256356,1.1472351966339953,0.6780832921236183,-0.051385647463622834,-0.642117909137417,0.2454472515228928,-1.4251604603170231,-1.0433145041363403,-0.5370996948477574,-0.3665631113677371,-0.313013230786991,0.23086900153533002,1.8236378350635682,1.5937400917570868,0.34779389829066154,0.8236378527199536,-0.9326778258510091,-0.5674136116599953,-0.14433535437204123,0.353946293108591,0.6453078158028964,1.3473196492241433,1.130934888443903,0.28482004076556666,-0.22805497768552058,-0.32611275896294917,-0.31839089061920545,-1.0815064085672181,0.436689303287182,-0.16741496519657714,-0.01756063037710318,0.1776227786708009,-1.560347740856001,-0.8756023266847057,-0.03573187956529016,-0.6969945985377843,-0.30087272144396154,-0.47342497719035515,0.2855238433814666,0.438148621343813,-1.5650568152067201,1.1694505963554982,-0.6905978328733843,-0.8874874607038675,-0.07995584034580494,0.7861179816799225,0.21380844939729035,0.25147197427386925,0.29832036320100297,-0.07043871990037479,-0.5876265534328841,0.3865487332435533,-0.9055129024302845,0.12337079714763374,0.4133498972635605,0.496433641769688,0.05415975806076832,-0.47577715730565295,1.2215049578739454,-0.9918515714314877,-0.3875433512986793,0.023078187791033742,-0.1955319418245273,-0.40326429708890205,-0.21992486318483986,0.009401478876355666,0.26569527637378876,0.25666351062028603,-0.3416089010510914,-0.4519107813268845,-0.6205900599181794,0.41562383600284947,-0.6816769857928631,-1.1362945644274884,-0.3937741198904597,-0.9808638869502729,-0.028485288674105914,-0.06466443229388495,-0.04473607562613506,-0.032153605321918854,-0.8338689545082393,-0.3832019282050344,-0.7123492639066025,-0.21480357924457993,0.03556974335551062,0.2379764338281094,0.7204600065868427,-0.37997075219812715,0.1098829210709065,-0.20666271662015853,0.616463629393844,0.19598488671247838,1.1150098134415891,0.048234907875457755,-0.31111567972093,0.5308928091358349,-0.6796179621833647,-0.33854493384166884,0.1712926181187931,0.23931708889643016,-0.0880243624774385,-0.7972201081223343,0.1337453142420759,0.13487564879795516,-0.011194399889819939,0.37679481243597196,0.7821241286541544,-0.44670135869418126,0.3185368849731379,-0.8899951145639383,0.20816266803849084,-0.07278793108318779,0.3176998583057808,0.15146954937117257,-1.915122535231447,0.12416193817906307,-0.1782948281100939,0.37328266865772686,0.7764442902408802,0.04083905170512442,0.30392850552777556,-0.5405845933976839,0.14680209165413088,0.8085442326599311,0.12870453633167736,-1.1118136669681558,-0.11069758553247888,-0.9378553899697069,0.5611947565450288,0.6799345925412947,-0.4609872180115409,-0.11845775217960648,0.3279571809785491,0.942027741382947,-0.5048016865490392,0.36720958741158083,0.6137656245830201,0.13031565546214033,0.7480741074184731,1.2527137173329885,0.6036333829607764,-0.48440992867411464,-0.7928174213852005,0.6348957266487674,-0.762188359563923,-0.6864026941387011,-1.4802921398272235,0.5835712365886718,0.5449391921606433,0.26990737328530573,-0.773045232239139,0.5173280713889402,0.06847659014632128,0.352171064337054,-0.2532699607254013,0.0006986932742551505,0.2422542733060274,-0.9044045846143729,0.39697839429010523,-0.032502953486857285,0.11480922994391507,0.26795550759051084,1.0541769360292372,0.8570671641883846,0.4497881425881174,0.5230377955081824,0.0317625206500875,0.9401463425750359,-0.23666779642145747,-0.21347021718300266,0.4897563005314163,-0.6477792441316315,0.7399981546040784,-0.19193198626920205,-0.4295663875966145,0.1238073449355738,-0.14910773922715256,-0.3469255922581648,-0.17488924763390448,-0.894235314968669,-1.0224000446454196,-0.7060817068208785,-1.1003709879893027,0.2551603526437191,-1.3117871634668137,-0.21531189794927597,0.5058275456967637,-0.4158768612800091,1.0757151151182254,0.564117442637412,0.9522128094624353,-0.45219458520020456,0.5603320676905776,-0.4634759422163236,0.23216932704926885,1.1803790690576093,-0.18251722637548454,-0.1258936307568175,-1.2045238682518284,0.33351339372371064,-0.7709877205536324,-0.5189635274654288,-0.9996195383242528,-0.14885421842353191,0.061123946840052776,-0.908690033134131,-0.5975074236687099,-0.955940562689317,-0.8461846715098749,0.6690655119592858,-1.5659875656017122,0.06898037887048758,0.6355608672000603,-0.1441523330240844,-0.6679811478433296,0.10112181579704559,-0.5131940884005682,-0.11071556744549398,0.11876495308072965,0.028301321246334412,-0.2220917439361874,0.3752817904142903,0.42995430756933556,-0.44366560853159187,-0.4264031064505368,-0.31177529436457,1.1637072640792707,0.18699532164306187,-0.36058241965260107,0.07661854538255279,-0.11112726139847803,-0.6051251717458366,-1.1681203356909409,0.7074603196433578,-1.233897052051926,0.3315225715387793,-0.4648257950147544,0.06550536789494325,-0.4167773156828858,1.009909054058167,-0.6473727640444218,-0.8000825138599709,0.6093985227006121,-1.0501196463604159,-0.3168176928947091,1.0042476367837323,0.41899233514749795,0.46508078142106873,-1.3681069663253982,-0.25103078692426456,-0.6978893693015111,-0.05365226013015175,0.9112360310931071,0.4201920403687764,0.6142625726308063,0.37153146096772366,0.31669270961482465,0.08885833591023803,-0.17878631331611558,0.2912621011863473,0.2746641898709976,0.5535374174967229,0.13457274627352295,0.9442740887802091,-0.19937931257906888,-0.12040623565086685,-0.14131680299638053,-0.21393104188249149,-0.09152442595017977,1.1656831713424314,1.1199590172771923,0.2816251643238402,-0.9111377444263526,0.30013664890147224,0.3253508825828414,0.8277230973166247,0.269872511420587,0.37037788227911056,-0.3832220975291197,-0.9909453217614433,-0.1540960975965432,0.14205470066400697,-0.10842541515714715,-0.17664569479497677,0.46001185331479677,1.2842871654397696,0.6563826800568582,-0.45267699238052456,-0.31847785440123455,-0.6705453557144228,-0.16082175429599627,-0.013373007315328728,0.6158227291603514,0.060182837279905366,0.605749813453869,1.1495430015795884,-0.625838237983786,1.03700361885628,-0.6188242995117199,0.8528956493730339,0.7595971856651299,-0.3233281739828442,0.5736420788110744,-0.7335437051137292,0.4061323446588595,-0.8548105752487247,-0.4369085180102053,-0.3076525588713242,-0.8375867041193917,0.166848858105755,-0.6257504103454752,0.49120942950476887,0.017268293471134337,-0.1843009001562644],"fitness":0.8335491666666665}