{"v":1,"inputs":13,"outputs":17,"arch":{"hiddens":[8,4],"bias":true,"activation":"TANH"},"weights":[0.5311334968158621,-0.2702286778171529,0.3176781811206581,-0.5948566668841075,-0.3814115557849354,0.03689923751209831,-0.3020803746048583,0.7831863317341231,-1.4665308416200733,0.01724966327721267,0.3481315972043005,-0.5070135469111928,-1.1257767035555577,0.173231450088959,-0.13289372164636293,1.0702680454855507,0.2109320978465526,-0.45161644336328466,0.25028166584597833,0.3916575264488133,-0.35289206303039217,-0.5054636228522472,1.3533939961228072,0.8379744026275974,-0.6775190476730969,0.11398120257407238,0.26795535450403307,0.25572415198536647,0.6734183559285646,-0.906900972928194,0.005672997335398043,0.012525085374562086,0.2590209064623541,-0.8727226265340424,-0.47945950084908334,0.682913138223255,0.018388195334748836,-0.5953800498717332,0.9230592974153122,-1.2042107757793072,0.4435208357350037,-0.5872508173742372,0.17527442578949526,-0.24678615584271,-0.18789789914683191,-0.13567541645995765,-0.6222151055125279,0.4766431128948733,0.6730832798380172,0.08031077336574502,0.21027905784863768,1.1098918247467424,-0.3555233581796005,0.43243507431579853,1.0876954591557269,-0.4623110767459363,-0.6238925012122729,-0.6386204950553689,-0.21152604346641699,-1.1383846558160913,0.344978104752357,-0.157948805616724,1.0766064516794958,0.8596400313564323,-0.07128695054071457,-0.7616346805370048,-0.080828960524312,-0.2751321231832873,-0.72686005871547,0.12623037521957683,-0.7171518699630204,-0.04453229933716951,-0.814354786564711,0.4070197625030469,-0.3095156985278981,0.345782749369091,0.7279899636621378,-1.2097320803431524,-0.5646501168103708,-0.15915165424458916,0.5736437107062927,-0.3857003256406811,0.26106878418853596,-0.4849637940756753,-0.9833479150881049,0.5076580535223891,-0.3515773588372484,0.5977155268848668,-0.9189867448423481,-1.088913572511947,0.36668507792262933,0.8937034154090806,0.4608306045522377,-0.32486507475422105,-1.1743838574723546,-0.43640239735383846,0.48100364853301686,-0.17957302133245626,-0.4084843951792392,0.2856293744386295,-0.27412546051111314,-0.33754133463868274,0.15784079680019722,-0.962209584418693,-0.18578032670406472,0.015454472803375956,-0.4975362616970113,-1.436490991042909,-0.12701492101945466,1.2374994374321135,-0.2786973710127588,-0.24716755128639845,0.7660837128302821,-0.27083384967914537,0.4601100279767554,-0.09965186369079548,-0.3316103635443703,0.41884999094541736,-0.3527112485730678,-0.2632335439498758,-0.14608441303833142,0.5463048447341239,-0.13375070357132463,0.401807464385327,-0.08499540918281218,-1.1795456744350892,0.4480689674343905,0.16277776613205144,-0.027191722710056085,-0.5736285730903486,1.319834706285442,1.2079612570448055,0.18011910184453653,0.5883398916268551,0.41769785401908605,0.778749270095779,0.6326728475754908,0.3517294256808656,0.8170881311913288,-0.5891347939412861,0.09454070130349781,-0.47775247787298325,0.9516223415235416,-0.055942104350816715,0.4316811194394334,-0.6325555981050793,-0.8207499160020305,-0.49661458393683666,0.3550982957464987,-0.8410138561187326,0.5653734463674638,-0.19891525270618673,-0.521382773812352,0.7188973264351167,-0.6148989552195788,1.1859093512242336,-1.1443944116155587,0.05936696851385562,0.5642741252261768,0.10822053566981363,0.3745923554617251,-0.7051465684368914,0.31742621776467234,-0.4950879792534581,0.20099172535365356,-0.4651398628905962,-0.639511162711349,0.24055491966085496,0.5798298847546495,0.0038425751215407336,0.40545007598052346,0.37686085965716193,-0.025942706387681036,-0.5454308261965791,0.7013124081481888,-0.06442431475624857,-0.5286780993675928,0.2234345696906476,-0.06843623835804896,-0.6571875553781633,-0.09233584544385207,-0.65173737912993,-1.0235887504165948,0.5288123170199102,0.23191330246770192,1.0858921839286722,-0.5697154053189021,0.2045207344859327,-0.42529060105170335,0.8633078290683246,-1.3122900115591383,1.202696294802642,-0.6277241872266893,1.063397035248427,-0.12081051414348411,-0.3966894522268463,0.5335841703677937,-0.6028368343135735,1.0431591034434833,0.042135231415476794,-0.23034444113801505,-0.003066351869706801,-0.3105189325606438,0.8398035626146787,-0.3118333662343134,-0.3367679109055639,0.03855965497458778,0.083695686818696,0.9119776381973979,-0.9999452177794149,-1.0762286109749373,-0.05546300774782102,-0.48664502352756434,0.08875242827782423,-0.661285208622851,-0.070590266974296,-0.005201207366332241,0.2375567557276586,0.6964856784823542,0.15532478015370488,0.3412173351540041,-0.5097526118059094,0.15084923205741402,0.161957163238208,-0.6177681511497984,-0.5760862577253363,1.174508961830898,0.03406106541118234,0.07996438090205452,0.5929871127914144,-0.41334106941189624,-1.0916535947970694,-0.7045728783150671],"fitness":0.5000779999999999}