{"v":1,"inputs":13,"outputs":17,"arch":{"hiddens":[8,8],"bias":true,"activation":"TANH"},"weights":[0.6342017640652281,-0.3669847434688677,0.4764163399911173,-0.5275135180394845,-0.21152604346641699,-1.1383846558160913,0.344978104752357,-0.157948805616724,0.8550335273625034,0.8596400313564323,-0.07128695054071457,-0.4155822423586604,-0.080828960524312,-0.119103257039961,-0.4844346570282157,0.12623037521957683,-0.7171518699630204,-0.04453229933716951,-0.814354786564711,0.5073806462480895,-0.3095156985278981,0.42470943108074266,0.7279899636621378,-1.2097320803431524,-0.5646501168103708,-0.15915165424458916,0.21568238501780562,-0.05527783791050889,0.26106878418853596,-0.620361178689602,-0.9833479150881049,0.5076580535223891,0.019859863041873548,0.8374818915538591,-0.9189867448423481,-1.4966806462851987,0.36513800786262035,1.150270205933039,0.4608306045522377,-0.9926315068303861,-0.8895190362272893,-0.22520285740610535,0.48100364853301686,-0.17957302133245626,-0.4084843951792392,0.2856293744386295,-0.27412546051111314,-0.4888900822726695,-0.29768613025299595,-0.962209584418693,-0.18578032670406472,0.015454472803375956,-0.4975362616970113,-1.436490991042909,-0.22886581167610504,1.2374994374321135,-0.2786973710127588,-0.24716755128639845,0.5404007894282055,-0.27083384967914537,0.4601100279767554,-0.4341906547061868,-0.3316103635443703,0.41884999094541736,-0.3527112485730678,-0.2632335439498758,-0.14608441303833142,0.5463048447341239,0.07634531661306357,0.401807464385327,-0.08499540918281218,-1.2781323864097924,0.6064153222418028,0.16277776613205144,-0.027191722710056085,-0.5736285730903486,1.319834706285442,1.2079612570448055,0.3174511967800353,0.5883398916268551,0.41769785401908605,0.778749270095779,0.6326728475754908,0.21610770535449375,0.8170881311913288,-0.679391867658221,0.09454070130349781,-0.4084475211955371,0.9516223415235416,-0.2576198020284919,0.47827638241012926,-0.6325555981050793,-0.8207499160020305,-0.6279286083580455,0.784378128603313,-0.8410138561187326,0.8429632709939301,-0.19891525270618673,-0.18157379272066962,0.7188973264351167,-0.6148989552195788,1.1859093512242336,-1.1443944116155587,0.5039027619377264,0.5642741252261768,0.10822053566981363,0.18298130669716525,-0.6820220681099396,0.31742621776467234,-0.5675045663849323,0.20099172535365356,-0.7047974948849092,-0.639511162711349,0.12454131634136839,0.4734079824909599,-0.08707153143173965,0.40545007598052346,0.37686085965716193,0.844384647795215,-0.5454308261965791,1.0826279454866816,-0.06442431475624857,-0.5286780993675928,0.2234345696906476,-0.06843623835804896,-0.5641516732255536,-0.09233584544385207,-0.8532575145962336,-1.0235887504165948,0.5288123170199102,0.8763121568215146,1.0858921839286722,-0.5697154053189021,0.14452155862526503,-0.1722809826982173,1.1612419250341404,-1.0419977148602964,0.9786226689102339,-0.9160281779940301,0.9414138991717295,-0.010151970334608238,-0.3966894522268463,0.5335841703677937,-0.6028368343135735,1.0431591034434833,0.042135231415476794,-0.23034444113801505,-0.003066351869706801,-0.9705526556318326,0.8398035626146787,-0.3118333662343134,-0.7782858387548465,0.03855965497458778,-0.052639315168580544,0.8393427353472989,-0.811840318698134,-1.0762286109749373,-0.5331114363189984,-0.48664502352756434,0.08875242827782423,-0.7264430363539212,-0.0012126312801867406,-0.005201207366332241,0.2375567557276586,0.8871020246850307,0.15532478015370488,0.3412173351540041,-0.5097526118059094,-0.38826522695850835,-0.06087525131990415,-0.3238533181714823,-0.5760862577253363,1.7572459700242236,0.2843039595959702,-0.10998902462551699,0.5929871127914144,-0.5196794446289548,-1.0916535947970694,-1.393621462372411,0.5842111522727604,-0.36502176475483417,-0.7402066736590923,-0.4606299059938332,-0.6904087664248626,-0.4997273412103542,-0.4065213287158201,0.9252473089014768,-0.09939687088275573,0.5121158261323472,-0.2470145221947849,0.3644993755170845,0.5199934123756046,-0.27614248304336564,1.2406186496442744,1.2677896807280198,0.32292111481489866,-0.5997865133445879,-1.4576963238202543,0.7170840859827098,-1.4006290921461582,-0.5880254041748766,0.1452026678159577,-0.6308100183211381,-1.2724810088252634,0.36782021513429974,-0.13223231424119528,-0.8828463416851042,0.07181643115007448,0.380003032129316,-0.02468037753608247,1.3796732637954636,-0.08624385890981258,0.12899493973286602,1.7939186341514342,-0.4390123425943218,0.669828217881431,0.1808621858232287,0.06578123848726675,-0.05052470405469034,0.10706008999379275,0.6064051779225126,-0.49370036342172546,-0.27234404490272174,-0.6754124882145673,-0.29926857656821804,-1.3895964121571232,-0.48889124908523895,-0.9212226449651885,-0.28218102948656926,0.312347008392369,-0.22395293624661639,-0.7310478676841441,-0.03462160158838015,1.3998619731969204,-0.2816322219281291,-0.004716942407627856,0.8717007154315468,0.0670553822803518,0.439773057643498,-0.17261704367970168,0.28479898547721905,-0.2699632876569113,-0.16047341635909715,-0.5638627638013463,-0.1842903480672022,0.872213996303147,-0.28034126130013304,-0.40918854794734505,0.8870900254379306,-1.2140644904142357,0.06843660167819117,-0.26917969201461006,-0.7941504798553332,-0.25976522614020864,0.059583276358603485,-0.14490349656244988,0.07141364033636587,0.13539487542260004,0.7221606798012807,0.4199744296053364,-0.22620944847813007,-0.26248989801076794,-0.15061252477284887,1.2825541213028067,-1.0003491720138444,0.7502361754456923,-0.26324418588951415,-0.5866203565335688,0.156918277584332,0.4620117560902312,0.05078402987691511,-1.1355675400786436,-0.010273962204075712,0.5857143627937492,-0.13492282157094176,0.5021325505563495,-0.05298575601672021,-0.9805016071945188,0.9662974255177676,0.3095635961460133,-0.7408295398361501,0.30973357852113087,0.3255557716215902,-0.517099252721959,-0.28267798746843353,-0.2371123283268775,0.7750942061014904,-0.7993848695775522,-0.6102996724062624,1.4970061648169368,0.45793543166123024,0.368370642807198,0.11736083075287984,1.0336375412505245,-0.6480184143369763,0.2849723229024835,-0.33870336083974667,0.5454670436366045,-0.7246636707392774,-0.5810616483942861,0.5438812987336683,0.014666110412057688,0.8033164239277442,0.37190527817873537,-0.633502232831106,-0.30934194143631466,0.4591296875266162,-0.354310550319468,-0.4637642320352353,-1.0362045713058305,0.35601673711542237,-0.696382720482615,0.08341338743683159,-0.0838610750865186,0.03786702309159001,-0.1971992322284577,0.098432120312609,-0.5485340493301623,0.7394832648152377,-1.2644904716492797,-0.17867459871734068,1.3252493589828889,-0.12434745922177436,-0.5669833648468456,0.24876974229924115,-1.6714028392529081,-0.1675621348658953,-0.16394567171134533,0.6391509094605128,-0.5700066466883861,-1.1036369792070775,0.1765584159024828,-0.6881781927037608,0.821930846213216,-0.5882409086932332,-1.0098559973517196,0.7079300486430479],"fitness":10.337446833333335}