{"v":1,"inputs":13,"outputs":17,"arch":{"hiddens":[8,8],"bias":true,"activation":"TANH"},"weights":[1.0876954591557269,-0.4623110767459363,0.15863590639108713,-0.359279792551356,-0.21152604346641699,-1.1383846558160913,0.344978104752357,-0.157948805616724,1.0766064516794958,0.8596400313564323,-0.07128695054071457,-0.4155822423586604,-0.14260179894063116,-0.119103257039961,-0.72686005871547,0.12623037521957683,-0.45229197484956296,-0.04453229933716951,-0.814354786564711,0.4070197625030469,-0.3095156985278981,0.2795710360545991,0.7279899636621378,-1.2097320803431524,-0.5646501168103708,-0.15915165424458916,0.5736437107062927,-0.3857003256406811,0.26106878418853596,-0.4448471679761451,-0.9833479150881049,0.5076580535223891,0.1820078643008132,0.8374818915538591,-0.9189867448423481,-1.088913572511947,0.2977269850118617,0.88100757993418,0.4608306045522377,-0.41848319570768744,-1.1743838574723546,-0.43640239735383846,0.48100364853301686,-0.17957302133245626,-0.4084843951792392,0.2856293744386295,-0.27412546051111314,-0.33754133463868274,0.15784079680019722,-0.9285456426141862,-0.3529969557640117,0.6746877956222057,-0.4975362616970113,-1.218011451300723,-0.2931422491702127,1.779234216016445,-0.2786973710127588,-0.2971948361517732,0.7660837128302821,-0.27083384967914537,-0.1233592398227421,0.05069823494617009,0.07300989201840258,0.41884999094541736,-0.3527112485730678,-0.2632335439498758,-0.14608441303833142,0.47505001155897764,-0.13375070357132463,0.44848894763070835,-0.08499540918281218,-1.1795456744350892,0.15688515699011835,0.4083885413061271,-0.027191722710056085,-0.5736285730903486,1.7399294181426073,0.8917151788541577,0.18011910184453653,0.3148435218038211,0.41769785401908605,0.778749270095779,0.6326728475754908,0.052998667428159396,0.8170881311913288,-0.6213809051972887,0.23168078297484504,-0.47775247787298325,0.9516223415235416,-0.055942104350816715,0.4316811194394334,-0.6325555981050793,-0.8207499160020305,-0.5279857604138872,0.3550982957464987,-0.8410138561187326,0.68487179568134,-0.19891525270618673,-0.18157379272066962,0.4446662313275337,-0.6148989552195788,1.1859093512242336,-1.1443944116155587,0.05936696851385562,0.5642741252261768,0.10822053566981363,0.3745923554617251,-0.6820220681099396,0.31742621776467234,-0.8673921873493536,0.20099172535365356,-0.5886096259266578,-0.639511162711349,0.24055491966085496,0.5206612355903544,0.0038425751215407336,0.40545007598052346,0.37686085965716193,0.4190548508942881,-0.5454308261965791,0.7013124081481888,-0.06442431475624857,-0.9522712800357866,0.2234345696906476,-0.06843623835804896,-0.6571875553781633,-0.09233584544385207,-0.6925724712963106,-1.0235887504165948,0.6459276820022253,0.23191330246770192,1.0858921839286722,-0.5697154053189021,0.7685649858236673,-0.47290222643378316,0.8633078290683246,-0.9466121533040569,1.202696294802642,-0.6277241872266893,1.063397035248427,-0.010151970334608238,-0.8554294089643866,0.5335841703677937,-0.6028368343135735,1.0431591034434833,0.042135231415476794,-0.23034444113801505,-0.03687865629313382,-0.3105189325606438,0.8398035626146787,-0.3118333662343134,-0.7782858387548465,0.03855965497458778,0.33595235950984875,0.9119776381973979,-0.8579075945153714,-1.0762286109749373,-0.05546300774782102,-0.48664502352756434,0.08875242827782423,-0.7264430363539212,-0.070590266974296,-0.005201207366332241,0.2375567557276586,0.627591110650091,0.2555889828378084,0.41150595482368024,-0.5097526118059094,0.15084923205741402,0.161957163238208,0.37904973986500834,-0.5760862577253363,1.174508961830898,0.3318916829521217,-0.10998902462551699,0.5929871127914144,-0.41334106941189624,-1.5615927585019496,-0.7045728783150671,0.5842111522727604,-0.33190135069890647,-0.7484402392528205,-0.6904423870638051,-0.6904087664248626,-0.5260932801289383,-0.49611557039748805,0.8023597738256335,0.05379796208247742,0.5121158261323472,-0.2470145221947849,0.3644993755170845,0.6720499567377198,-0.6150137161093814,0.7507487400453225,1.2677896807280198,0.32292111481489866,-0.5997865133445879,-1.2055661891879037,0.7170840859827098,-0.49356344133023144,-0.5880254041748766,0.5662498826961756,-0.6308100183211381,-1.2724810088252634,-0.4473670494623053,-0.13223231424119528,-0.8828463416851042,0.07181643115007448,0.380003032129316,-0.02468037753608247,1.3796732637954636,-0.02397658471304872,-0.10948013602457124,0.780158426698056,-0.5390241672064715,0.23640992384946324,0.1808621858232287,0.09945027804670178,-0.3566973378133101,0.10706008999379275,0.6064051779225126,-0.1690697434958398,-0.27234404490272174,-0.5011236158115381,-0.15036086689395065,-1.3895964121571232,-0.48889124908523895,-0.8236012602567901,-0.28218102948656926,0.312347008392369,-0.22395293624661639,-0.7310478676841441,-0.03462160158838015,1.3998619731969204,-0.1907320078763338,-0.004716942407627856,0.6503539107758214,0.0670553822803518,0.439773057643498,-0.17261704367970168,-0.01973210107714851,-0.2699632876569113,-0.16047341635909715,-0.5638627638013463,-0.3745419483406924,0.5588470557720869,-0.28034126130013304,-0.22529540747348015,0.803600059899637,-1.2140644904142357,0.06843660167819117,-0.3474604275393328,-0.5422116575270939,-0.7213953474388168,0.059583276358603485,-0.14490349656244988,0.07141364033636587,0.13539487542260004,1.0478456957940678,0.22316089647388843,-0.7882920450613434,-0.4655424114044082,0.3555467155483109,0.7909194018499703,-0.8511759016488989,0.5899740306572601,-0.024170061072588345,-0.8299395924552231,0.156918277584332,0.4620117560902312,-0.04155351087474308,-0.6706702968504955,0.33726240224304677,0.8289248290102198,0.33727408650410184,0.5021325505563495,-0.05298575601672021,-0.9805016071945188,1.1616116348160483,0.3095635961460133,-0.7408295398361501,0.3604482443073553,0.5277259135017898,0.03732097736657388,-0.28267798746843353,-0.09355529808917756,0.7750942061014904,-0.5633539611804558,-0.512009198270993,1.5763265228943915,0.5890622126205272,0.11728432310769188,0.11736083075287984,1.2003697397067647,0.02563524255301941,-0.06268555308315014,-0.06094018091923864,0.5454670436366045,-0.7246636707392774,-0.49442207348168654,0.6993800576392719,0.22174443538408536,0.8033164239277442,0.2492811877293113,-0.35468797508488936,0.47243337066193214,0.4591296875266162,-0.38964239224804437,0.2343908105639726,-0.3153244930960501,0.8900725758293532,-0.5949706636023943,0.08341338743683159,-0.03574731100799886,0.03786702309159001,-0.3433922999566497,-0.03487158321143748,-0.3191480697169668,0.7394832648152377,-1.2644904716492797,-0.17867459871734068,1.3252493589828889,-0.12434745922177436,0.05999851646642902,0.001141611777022048,-1.7810720978315147,-0.1675621348658953,-0.16394567171134533,0.6391509094605128,-0.5700066466883861,-1.1036369792070775,-0.22952339159350646,-0.6881781927037608,0.821930846213216,-0.5882409086932332,-1.0098559973517196,0.7079300486430479],"fitness":1.1669543333333334}